{"layer": "conv2", "index": 14, "weights": [[[0.10919814556837082, -0.09282675385475159, -0.060021039098501205], [0.03548363968729973, -0.10607059299945831, -0.03386240452528], [-0.02565002255141735, -0.05630747228860855, -0.06944703310728073]], [[0.003308634739369154, -0.023725910112261772, -0.13182134926319122], [-0.018382200971245766, -0.042846277356147766, -0.08191056549549103], [-0.03249528259038925, -0.03830380737781525, -0.035721536725759506]], [[-0.11026836186647415, 0.06798934191465378, 0.01984565705060959], [-0.18747355043888092, -0.06339945644140244, 0.06297099590301514], [-0.05274847522377968, 0.02949061430990696, 0.01694626733660698]], [[0.027964379638433456, -0.09570013731718063, 0.12306604534387589], [0.037238601595163345, -0.04486282542347908, 0.08193240314722061], [0.0008571568760089576, -0.030010394752025604, 0.09658020734786987]], [[0.015320179983973503, -0.07708621770143509, -0.14862607419490814], [0.1429339349269867, -0.03088078647851944, -0.061542779207229614], [0.2058754414319992, -0.08708491176366806, -0.16892947256565094]], [[-0.006890834309160709, -0.08059923350811005, 0.07094956189393997], [0.16360308229923248, -0.09894365072250366, 0.0010170256718993187], [0.0981481522321701, -0.05621720105409622, -0.05856975167989731]], [[-0.11327266693115234, -0.0064070322550833225, -0.012786188162863255], [-0.07901135087013245, 0.028884997591376305, 0.024863719940185547], [-0.1165941134095192, 0.008854517713189125, -0.02629164606332779]], [[-0.07134079188108444, 0.03424949198961258, 0.007711236365139484], [-0.025410637259483337, -0.029749762266874313, -0.03544504567980766], [-0.05785834416747093, -0.010691848583519459, -0.01653728447854519]], [[-0.07193262875080109, -0.0844440832734108, 0.008467355743050575], [0.07169000804424286, -0.07684725522994995, -0.01815585419535637], [-0.09397857636213303, -0.03211447596549988, -0.029640251770615578]], [[-0.03578759729862213, -0.08095718175172806, 0.05360579118132591], [0.08028508722782135, -0.008049684576690197, 0.09492193162441254], [-0.0687500461935997, -0.018147915601730347, 0.02319599874317646]], [[-0.12938161194324493, -0.050302889198064804, -0.014198176562786102], [-0.20281922817230225, -0.07273431867361069, -0.04490741342306137], [-0.027983319014310837, -0.07242646813392639, -0.035288576036691666]], [[-0.05404144152998924, 0.010323128663003445, 0.012364590540528297], [-0.047119926661252975, -0.045637018978595734, 0.07370899617671967], [-0.11073032021522522, -0.044044312089681625, 0.017012665048241615]], [[-0.008524035103619099, -0.08170991390943527, -0.07448283582925797], [0.05163106322288513, -0.07575652748346329, -0.04748358950018883], [0.07465332001447678, -0.07232818007469177, -0.03940652310848236]], [[-0.049351613968610764, 0.047514934092760086, 0.1333613395690918], [0.029973283410072327, 0.06700281798839569, 0.08157840371131897], [-0.16911187767982483, -0.011802108027040958, 0.08539299666881561]], [[-0.07656441628932953, 0.006657949648797512, 0.02613665722310543], [-0.10051675140857697, -0.031145771965384483, 0.11380136013031006], [-0.08829926699399948, 0.03389650210738182, 0.00843959953635931]], [[0.13816234469413757, -0.16701140999794006, -0.07155890017747879], [0.0392150841653347, -0.028875915333628654, 0.008897124789655209], [0.0037278844974935055, -0.06391894072294235, -0.05529189482331276]], [[-0.12217359244823456, 0.07976815104484558, 0.032426755875349045], [-0.11016510426998138, 0.0748424306511879, 0.06615881621837616], [-0.007403681520372629, 0.04480994492769241, 0.09120876342058182]], [[-0.17262031137943268, -0.07354006916284561, -0.034636128693819046], [-0.08411385118961334, -0.16191798448562622, -0.12686355412006378], [-0.046540092676877975, -0.09348813444375992, -0.16886882483959198]], [[-0.06149163097143173, -0.1913401335477829, -0.2077198177576065], [-0.1013566255569458, -0.27096500992774963, -0.18128818273544312], [0.02171933650970459, -0.13188815116882324, -0.27483952045440674]], [[0.09846525639295578, 0.04134688526391983, -0.0253650713711977], [0.1647934466600418, -0.0033883608411997557, 0.025183070451021194], [0.13423217833042145, -0.027032872661948204, 0.00527971563860774]], [[-0.01012327428907156, -0.08135426789522171, -0.055473364889621735], [0.11045964062213898, 0.014123539440333843, 0.01730777695775032], [0.02746794931590557, -0.11987550556659698, 0.010987328365445137]], [[0.03624403104186058, -0.1587333083152771, -0.10000045597553253], [-0.02309948019683361, -0.05450248345732689, -0.16146406531333923], [-0.029887229204177856, -0.11884880065917969, -0.03761851787567139]], [[0.061006657779216766, -0.07029896974563599, 0.041476935148239136], [0.05256279557943344, -0.10393979400396347, 0.034009966999292374], [-0.008351513184607029, -0.025093313306570053, -0.040978144854307175]], [[-0.08174275606870651, -0.0173335000872612, 0.025205500423908234], [-0.010010375641286373, 0.11646585166454315, 0.005377479828894138], [-0.11291678994894028, -0.07435715198516846, 0.02839788794517517]], [[-0.0163650531321764, -0.06558600813150406, 0.019542183727025986], [-0.13560844957828522, -0.014659712091088295, -0.0641729012131691], [-0.1608467400074005, -0.029315678402781487, 0.08757144957780838]], [[-0.03716404363512993, 0.035517726093530655, -0.05540790781378746], [-0.08579354733228683, 0.003008411265909672, -0.07460540533065796], [-0.05327579006552696, -0.03950592875480652, -0.013220774941146374]], [[0.00815154705196619, 0.18373796343803406, 0.14877177774906158], [-0.06215095520019531, 0.1346362829208374, 0.01939716562628746], [-0.05056434124708176, 0.10049237310886383, 0.03428640961647034]], [[-0.03737100213766098, -0.048647720366716385, 0.02256964147090912], [0.011352715082466602, -0.09045488387346268, -0.04589302837848663], [-0.07796671986579895, -0.05213847756385803, -0.023052498698234558]], [[0.08820930123329163, -0.025832874700427055, -0.10124827176332474], [-0.007437390275299549, 0.040202897042036057, -0.03316305950284004], [-0.11828748881816864, -0.042846277356147766, -0.14587539434432983]], [[0.046606700867414474, -0.020864948630332947, -0.07953747361898422], [-0.11164561659097672, -0.014594399370253086, -0.028668267652392387], [-0.07474293559789658, -0.06845077127218246, -0.025650305673480034]], [[-0.07385215908288956, 0.011909754946827888, 0.12587326765060425], [-0.018188724294304848, -0.014698738232254982, 0.07134618610143661], [-0.08081066608428955, 0.026668086647987366, 0.06941971927881241]], [[-0.08450616896152496, -0.0019389861263334751, -0.1098744347691536], [-0.13843010365962982, -0.1280888319015503, -0.15430514514446259], [0.052621688693761826, -0.05836109071969986, -0.0839751660823822]]], "bias": -0.01360510103404522}