{"layer": "conv2", "index": 2, "weights": [[[-0.08839280158281326, 0.021555563434958458, 0.07140980660915375], [-0.07135432213544846, 0.06173262000083923, 0.10664980113506317], [0.010713744908571243, 0.025427885353565216, -0.08791296184062958]], [[-0.05450443923473358, -0.0556926429271698, -0.11324504762887955], [0.0893133282661438, 0.08887678384780884, -0.030980322510004044], [0.0862962156534195, -0.02376657724380493, 0.05077502503991127]], [[-0.05949246883392334, -0.031412556767463684, 0.055431898683309555], [-0.10854098200798035, -0.14029012620449066, -0.08747376501560211], [0.014676721766591072, 0.13772456347942352, -0.00987094733864069]], [[-0.1844317466020584, -0.024696385487914085, 0.06734602898359299], [-0.10648459941148758, -0.0746348649263382, -0.05942980572581291], [0.013880404643714428, 0.06145614758133888, -0.03928208351135254]], [[-0.12561479210853577, -0.030441435053944588, 0.125319704413414], [-0.13814744353294373, -0.3723868131637573, -0.3114393949508667], [0.055465467274188995, -0.05141974985599518, -0.11279100179672241]], [[-0.163021057844162, -0.07614128291606903, 0.007675122935324907], [-0.0516388975083828, -0.057746145874261856, -0.13330695033073425], [-0.0077639734372496605, -0.009558774530887604, 0.054429132491350174]], [[-0.08663158863782883, -0.10578280687332153, -0.03197440877556801], [0.06698663532733917, -0.024304358288645744, 0.017662568017840385], [0.050988130271434784, 0.08673333376646042, 0.07382416725158691]], [[-0.011071315035223961, -0.02858000621199608, -0.09617608040571213], [-0.02029264159500599, -0.014985600486397743, -0.10543926060199738], [0.10081016272306442, -0.09592406451702118, -0.0461997352540493]], [[-0.15345998108386993, -0.03208049759268761, -0.08047444373369217], [0.046036496758461, -0.03514141961932182, -0.06200013309717178], [0.00013116575428284705, -5.2286661230027676e-05, 0.0655461773276329]], [[-0.08362395316362381, -0.17549850046634674, -0.039755016565322876], [0.020518135279417038, 0.04768483340740204, -0.07622436434030533], [-0.0688253715634346, 0.04441990703344345, 0.06265415251255035]], [[-0.025335976853966713, 0.0967821553349495, 0.13267356157302856], [-0.1331704705953598, 0.04516647383570671, 0.13583756983280182], [-0.04633170738816261, 0.021501224488019943, -0.051460012793540955]], [[-0.09394698590040207, 0.02804323472082615, -0.01661205291748047], [-0.0374884270131588, -0.019463183358311653, 0.03359001874923706], [-0.000870570249389857, 0.08260994404554367, 0.024408522993326187]], [[-0.11714767664670944, 0.02658800780773163, -0.0061179338954389095], [-0.06098577752709389, -0.02648243121802807, -0.1347915232181549], [0.059703562408685684, 0.02491213008761406, 0.03791513666510582]], [[-0.012126580812036991, 0.028788743540644646, -0.027046557515859604], [-0.005903268698602915, -0.07335061579942703, -0.029941676184535027], [0.07402552664279938, 0.07719764113426208, -0.002045263070613146]], [[-0.1700546145439148, -0.046064287424087524, 0.06349674612283707], [-0.05685906857252121, 0.020689871162176132, -0.08430544286966324], [0.02013537287712097, 0.018731942400336266, 0.1036180853843689]], [[-0.07554787397384644, -0.0978739783167839, -0.21445782482624054], [0.05064234510064125, 0.09877827018499374, 0.017547529190778732], [-0.089124895632267, 0.07813753932714462, 0.15914735198020935]], [[-0.019976088777184486, 0.03854137659072876, 0.020532716065645218], [0.012344758957624435, -0.07196975499391556, -0.11882214993238449], [0.07467006146907806, 0.09003569185733795, -0.0929124504327774]], [[0.06912040710449219, 0.17617011070251465, 0.13503894209861755], [-0.15487830340862274, -0.18264497816562653, -0.1648266762495041], [-0.08776906132698059, 0.06071274355053902, 0.01590156741440296]], [[-0.02531351149082184, 0.01780584454536438, 0.15385791659355164], [-0.09117556363344193, -0.028406528756022453, 0.05408678576350212], [-0.0023941844701766968, 0.041936881840229034, -0.06606706231832504]], [[-0.23583604395389557, -0.10987779498100281, -0.06428512185811996], [-0.1669386327266693, 0.02342793717980385, -0.0324866808950901], [-0.13149340450763702, 0.053965404629707336, -0.0321526862680912]], [[-0.11598972976207733, -0.11928556114435196, 0.04315836355090141], [-0.1810881793498993, -0.056120146065950394, -0.04493548348546028], [0.042503517121076584, 0.05785747244954109, -0.0647972896695137]], [[-0.049473319202661514, -0.17030946910381317, -0.28536921739578247], [0.010638068430125713, 0.15515458583831787, 0.06070205196738243], [-0.03238200768828392, -0.00018173862190451473, 0.09313201159238815]], [[-0.12850427627563477, -0.0522293820977211, 0.036772649735212326], [0.005820190068334341, -0.023616863414645195, -0.03314009681344032], [-0.05590568482875824, 0.12452704459428787, 0.0460224412381649]], [[-0.007497423328459263, -0.09428973495960236, -0.016422616317868233], [0.04979541525244713, -0.04512680321931839, -0.04212408512830734], [0.11465314775705338, 0.12365058064460754, -0.0121852932497859]], [[-0.025220409035682678, -0.1119547188282013, 0.010556986555457115], [0.12526191771030426, 0.05742819979786873, -0.056215010583400726], [0.1488475203514099, 0.05298755317926407, 0.08740122616291046]], [[-0.043507643043994904, -0.0768003910779953, -0.06789398938417435], [-0.0747288316488266, 0.004658278077840805, 0.016135714948177338], [-0.0718679279088974, -0.0902649462223053, -0.07870639860630035]], [[0.09140850603580475, 0.19673480093479156, 0.07364438474178314], [-0.2140946090221405, -0.2204209417104721, -0.017937470227479935], [-0.022831380367279053, 0.0648401603102684, -0.025624435395002365]], [[-0.052256952971220016, -0.05679760500788689, -0.08743546903133392], [0.008815810084342957, 0.11305133253335953, -0.07368810474872589], [-0.06367196142673492, 0.08499644696712494, 0.09182693064212799]], [[-0.01563417539000511, 0.09096940606832504, -0.10554689168930054], [-0.08157047629356384, 0.08767793327569962, 0.16221684217453003], [-0.14674533903598785, 0.0016090546268969774, 0.15920951962471008]], [[0.011103015393018723, 0.013039945624768734, -0.07322390377521515], [-0.03462717682123184, 0.03639375418424606, -0.005522927735000849], [-0.04839865863323212, -0.07221878319978714, -0.022978346794843674]], [[-0.06583674252033234, 0.006647044792771339, 0.013177281245589256], [-0.048252176493406296, -0.1413889229297638, -0.12745793163776398], [-0.005603399593383074, 0.024911655113101006, 0.051647964864969254]], [[0.012633007019758224, 0.1724270135164261, 0.14597629010677338], [-0.13004739582538605, -0.09467159956693649, -0.03585376963019371], [-0.09874741733074188, 0.011233550496399403, -0.031255923211574554]]], "bias": -0.017908405512571335}