{"layer": "conv2", "index": 60, "weights": [[[-0.022521644830703735, 0.015688510611653328, 0.04948640614748001], [-0.06866715103387833, -0.10963363945484161, 0.06378773599863052], [0.01823417656123638, 0.06202251464128494, 0.005889852065593004]], [[-0.021507542580366135, -0.031904734671115875, -0.02113749086856842], [-0.018582254648208618, -0.16470769047737122, -0.05914011225104332], [-0.11236090958118439, -0.07420997321605682, 0.01943954825401306]], [[-0.049946777522563934, -0.01580698788166046, 0.02123159170150757], [-0.054636150598526, 0.03286973014473915, -0.06535068899393082], [-0.012108380906283855, 0.09355943650007248, -0.04321931675076485]], [[-0.006685747765004635, -0.08159475028514862, 0.093159019947052], [0.006797592155635357, 0.08881356567144394, 0.09132537990808487], [0.06039351597428322, 0.06915511190891266, 0.023674840107560158]], [[-0.26191699504852295, -0.11201901733875275, 0.12228421121835709], [-0.10240350663661957, 0.04723704606294632, 0.13328328728675842], [0.02696717344224453, 0.051613949239254, 0.025453435257077217]], [[-0.07334502786397934, -0.11084933578968048, 0.07569025456905365], [-0.005055093206465244, 0.09677492827177048, 0.12349263578653336], [0.060608696192502975, 0.02883812040090561, 0.08368296921253204]], [[0.09356594830751419, 0.0843641459941864, 0.08799785375595093], [0.09006047993898392, -0.07018491625785828, -0.10286638140678406], [-0.0837007388472557, 0.03553374484181404, -0.035634513944387436]], [[-0.04685899615287781, -0.011878253892064095, -0.005482393316924572], [-0.09365129470825195, -0.050263356417417526, -0.14730897545814514], [-0.10762333124876022, -0.16738075017929077, -0.14116129279136658]], [[-0.07187482714653015, 0.0507618747651577, 0.06760487705469131], [0.1417352259159088, 0.05071236193180084, -0.019379960373044014], [0.030765624716877937, -0.0516490712761879, 0.02610119804739952]], [[-0.021888967603445053, -0.02190569043159485, -0.023480724543333054], [0.07043419778347015, -0.03085285611450672, -0.02672628127038479], [0.005878663156181574, -0.026337243616580963, 0.07066328078508377]], [[-0.007755164988338947, -0.23205795884132385, 0.03519695624709129], [-0.19989855587482452, -0.10410891473293304, -0.16118605434894562], [-0.04611022770404816, -0.04431435838341713, 0.00730386795476079]], [[-0.006907628383487463, -0.017806947231292725, -0.0201682448387146], [0.06066396087408066, 0.06014189496636391, -0.024552062153816223], [-0.057223666459321976, 0.006004686933010817, 0.009559905156493187]], [[-0.09421658515930176, 0.0814199447631836, 0.10710138827562332], [0.07990571856498718, 0.030945321545004845, -0.03886133432388306], [0.08724265545606613, 0.025156820192933083, -0.010906103998422623]], [[0.10471231490373611, 0.08556849509477615, 0.11990698426961899], [0.010478667914867401, 0.02960900589823723, -0.05296633392572403], [-0.08061230182647705, 0.035682350397109985, -0.06355650722980499]], [[-0.029203906655311584, 0.05187420919537544, 0.01609974168241024], [-0.017062170431017876, 0.01584607921540737, 0.0059150950983166695], [-0.01231504138559103, 0.06398485600948334, 0.06349798291921616]], [[0.006501057650893927, -0.08193586021661758, -0.17445069551467896], [-0.0061139739118516445, -0.07838379591703415, 0.02124618925154209], [0.023370331153273582, -0.009315087459981441, 0.0834779143333435]], [[-0.05662781000137329, 0.057673919945955276, -0.05209067463874817], [-0.06528640538454056, -0.024514997377991676, 0.02732769586145878], [-0.14386698603630066, -0.01378326304256916, -0.07462984323501587]], [[-0.10577912628650665, -0.15876591205596924, 0.21425339579582214], [-0.01192768570035696, -0.10723894834518433, -0.13077710568904877], [-0.03658628836274147, 0.03486819565296173, 0.12654027342796326]], [[-0.0682344064116478, -0.1328609585762024, 0.12172643840312958], [-0.042013853788375854, -0.039567578583955765, -0.015563280321657658], [0.002286067698150873, -0.0910012498497963, -0.050975292921066284]], [[-0.12945720553398132, -0.08996238559484482, 0.018830755725502968], [-0.1282576471567154, 0.0213813204318285, 0.19113926589488983], [0.01106160506606102, -0.038033127784729004, 0.19069001078605652]], [[-0.07253500074148178, -0.06338802725076675, 0.056646525859832764], [0.03065270371735096, 0.026637626811861992, 0.0864105150103569], [0.05687561631202698, 8.82234307937324e-05, 0.07314781844615936]], [[0.028957488015294075, 0.03891706094145775, -0.1405261904001236], [-0.0173614751547575, -0.18362727761268616, -0.033774446696043015], [-0.13599719107151031, -0.06720719486474991, 0.16372761130332947]], [[-0.010493929497897625, -0.08328935503959656, 0.05290910601615906], [0.01764689013361931, -0.03305540233850479, -0.03606036677956581], [-0.029476916417479515, -0.01983318291604519, 0.047973740845918655]], [[0.04617926478385925, 0.03067917935550213, 0.031118255108594894], [-0.033810701221227646, 0.00432210136204958, -0.0010703681036829948], [-0.08756557106971741, -0.007760962471365929, -0.010043498128652573]], [[0.030514268204569817, -0.13305039703845978, -0.18197089433670044], [-0.14966268837451935, -0.11993901431560516, 0.011624098755419254], [-0.14083050191402435, 0.07679131627082825, 0.06026388332247734]], [[-0.0007930610445328057, -0.07042405754327774, -0.1707625836133957], [-0.04800914227962494, 0.022742189466953278, -0.0840444341301918], [0.0028738623950630426, -0.10726901888847351, -0.1240900382399559]], [[0.0010869342368096113, 0.03470233455300331, 0.016078785061836243], [-0.02035285159945488, -0.02599497325718403, -0.06830088794231415], [0.005880114156752825, 0.1018257886171341, 0.10337531566619873]], [[-0.015010501258075237, -0.1077713668346405, -0.09614633768796921], [-0.023985929787158966, -0.0875711441040039, -0.041289910674095154], [-0.07352083921432495, -0.007426939904689789, 0.15086112916469574]], [[0.050983019173145294, -0.16783380508422852, -0.18830767273902893], [-0.07730813324451447, -0.13037525117397308, -0.010092159733176231], [-0.08438891917467117, -0.006575182545930147, 0.2248314768075943]], [[0.030573586001992226, -0.030598681420087814, -0.1728339046239853], [-0.04125266149640083, -0.12816806137561798, -0.11653491854667664], [-0.07966027408838272, -0.076107457280159, -0.08303234726190567]], [[-0.08005208522081375, -0.039491504430770874, 0.0005632248357869685], [-0.08777878433465958, -0.030346624553203583, -0.05013684183359146], [0.025729194283485413, 0.009418719448149204, 0.006352259311825037]], [[-0.15227895975112915, -0.30506575107574463, 0.019706888124346733], [-0.0779227539896965, -0.14062514901161194, -0.11617739498615265], [0.035740580409765244, 0.03933814540505409, -0.02021012455224991]]], "bias": -0.01746135763823986}