{"layer": "conv2", "index": 30, "weights": [[[-0.08943818509578705, -0.07608431577682495, -0.05551240220665932], [-0.017303084954619408, -0.013656768947839737, -0.032963827252388], [-0.04247017949819565, -0.12925127148628235, -0.007318830583244562]], [[-0.053006310015916824, -0.027498142793774605, 0.05312931165099144], [0.00809092540293932, 0.07911188155412674, 0.07114989310503006], [0.07597677409648895, 0.05161869153380394, -0.01826745644211769]], [[-0.06858175992965698, -0.02380538173019886, -0.057240575551986694], [-0.015187361277639866, -0.07798852026462555, 0.0017339311307296157], [-0.001920928480103612, -0.08437546342611313, -0.012211126275360584]], [[-0.0882522389292717, -0.007606547325849533, -0.09120374917984009], [-0.07590905576944351, -0.06125607714056969, 0.05230221152305603], [0.06102561578154564, 0.0149659663438797, -0.006609954405575991]], [[-0.12522806227207184, -0.10707666724920273, -0.06707751750946045], [-0.19893164932727814, -0.17153681814670563, 0.002545775845646858], [-0.03210366889834404, -0.06711697578430176, -0.030658090487122536]], [[-0.13567021489143372, -0.05478248372673988, -0.10911216586828232], [0.0012001104187220335, -0.12707588076591492, 0.031070511788129807], [0.024943264201283455, 0.04811853542923927, 0.047561559826135635]], [[-0.10449151694774628, 0.012011146172881126, 0.1061130166053772], [0.024935267865657806, 0.05161140859127045, 0.10670462250709534], [0.03967030718922615, 0.07228055596351624, -0.032087694853544235]], [[-0.031607575714588165, -0.042964182794094086, 0.002496863016858697], [-0.04977874085307121, -0.043677691370248795, -0.07314629852771759], [-0.06561075150966644, -0.09107277542352676, -0.06587707251310349]], [[-0.1920158863067627, -0.10815238952636719, -0.016316650435328484], [-0.07770836353302002, 0.11208580434322357, 0.059549447149038315], [0.08158013224601746, 0.04650067165493965, 0.030745236203074455]], [[-0.08042757213115692, -0.08054091781377792, -0.007809051778167486], [0.03685060143470764, 0.04560446739196777, 0.0024168153759092093], [0.09347286820411682, 0.050175514072179794, 0.02246345765888691]], [[-0.15685231983661652, -0.11134323477745056, -0.17332319915294647], [-0.08840208500623703, -0.30725836753845215, -0.031112192198634148], [-0.03733942657709122, -0.2178407609462738, -0.14835873246192932]], [[-0.08259465545415878, 0.03600534796714783, -0.05244677886366844], [0.05690649524331093, 0.07254905998706818, -0.002587915165349841], [0.053728729486465454, 0.04723963513970375, 0.006313933990895748]], [[-0.10865502059459686, -0.018764475360512733, -0.0075101908296346664], [-0.03280194103717804, 0.09358841925859451, 0.02074664831161499], [0.0319492407143116, -0.010213695466518402, 0.06697717308998108]], [[-0.13226254284381866, -0.01168313343077898, 0.006689212750643492], [-0.040609098970890045, 0.04689477011561394, 0.11357609927654266], [0.05570416897535324, 0.08217673003673553, -0.008045883849263191]], [[-0.18024738132953644, -0.0494762659072876, -0.024743471294641495], [-0.02378176711499691, 0.04856500029563904, -0.007181157357990742], [0.0786210149526596, -0.005113000050187111, -0.0022107057739049196]], [[-0.04771275073289871, -0.02601131796836853, 0.04183054342865944], [0.06397277116775513, -0.023081405088305473, 0.004725242964923382], [0.05206438899040222, -0.07233536243438721, 0.039726004004478455]], [[0.05053127557039261, -0.045745182782411575, -0.04569781571626663], [0.04786573350429535, 0.02375853806734085, -0.11995343118906021], [-0.018844394013285637, -0.0869378075003624, -0.18152998387813568]], [[-0.12125787138938904, -0.10331526398658752, -0.10906419903039932], [-0.08610647171735764, -0.03584803268313408, 0.09812665730714798], [-0.13284312188625336, -0.15386411547660828, -0.061921365559101105]], [[-0.06162063032388687, -0.03730684891343117, -0.06682544201612473], [-0.15504857897758484, -0.07421934604644775, 0.10768017917871475], [-0.1216340884566307, -0.05391176417469978, 0.08997394144535065]], [[-0.10457619279623032, 0.023269876837730408, -0.12169643491506577], [0.06742870062589645, -0.09515346586704254, -0.036650970578193665], [-0.03147357702255249, -0.178489089012146, -0.07046803086996078]], [[-0.12359943240880966, -0.11750808358192444, 0.008502036333084106], [-0.13827326893806458, -0.0900033637881279, 0.06746033579111099], [-0.042277418076992035, 0.061297640204429626, 0.010672718286514282]], [[-0.10949324816465378, 0.03308965265750885, 0.06854797154664993], [0.01824250817298889, 0.10807394236326218, -0.019710686057806015], [0.059309449046850204, 0.008569414727389812, -0.006594697944819927]], [[-0.05621929466724396, -0.011086336337029934, -0.11779607832431793], [0.020262379199266434, 0.03212646394968033, -0.029946912080049515], [0.02144106850028038, 0.01615331321954727, 0.023935062810778618]], [[-0.17512108385562897, 0.0482121966779232, 0.08778546750545502], [-0.005440293811261654, 0.03611154109239578, 0.10250981897115707], [-0.013912089169025421, -0.01362560410052538, 0.02576870657503605]], [[-0.07128962874412537, 0.02939465269446373, -0.006483609788119793], [0.05624289810657501, 0.018381338566541672, -0.06652848422527313], [-0.02390909753739834, -0.15449382364749908, -0.14890740811824799]], [[-0.02321520261466503, 0.04276684299111366, -0.008253302425146103], [-0.015229961834847927, 0.024808241054415703, -0.0724017545580864], [-0.09313730895519257, -0.10299547016620636, -0.09418105334043503]], [[-0.03480431064963341, -0.012162335216999054, -0.07693806290626526], [-0.013309834524989128, -0.10428541898727417, -0.16314783692359924], [-0.040192071348428726, -0.11918967962265015, -0.10735921561717987]], [[-0.03211751952767372, 0.034514717757701874, -0.07267709076404572], [-0.01544073037803173, 0.04525107145309448, -0.06605877727270126], [0.004413332790136337, -0.010644967667758465, -0.086436428129673]], [[-0.05902530625462532, 0.019489852711558342, 0.02630171924829483], [0.11592377722263336, -0.012192804366350174, 0.014193844050168991], [0.04854384809732437, -0.07773031294345856, -0.08944020420312881]], [[0.05315328761935234, -0.005665410775691271, 0.01962551847100258], [-0.027588266879320145, -0.0100118862465024, -0.10362976044416428], [-0.010329719632863998, -0.1471470594406128, -0.17060087621212006]], [[-0.12815716862678528, -0.07450763136148453, -0.005292010027915239], [-0.02157452329993248, -0.06386642903089523, -0.0692097470164299], [-0.0028721983544528484, -0.008354675956070423, -0.00418687192723155]], [[-0.033272694796323776, -0.03573870658874512, -0.201499342918396], [-0.08160407841205597, -0.2227960228919983, 0.06326838582754135], [-0.13739894330501556, -0.15487152338027954, -0.07721031457185745]]], "bias": 0.03693454712629318}