{"layer": "conv2", "index": 18, "weights": [[[0.05136777460575104, -0.015162074007093906, 0.0010247071040794253], [0.10945945978164673, 0.050689782947301865, -0.06079474464058876], [-0.08619731664657593, -0.08329210430383682, -0.026948092505335808]], [[-0.06432057917118073, -0.020288042724132538, -0.12444660067558289], [-0.07326065748929977, -0.0170021653175354, -0.017892614006996155], [0.024995975196361542, 0.068829745054245, -0.162379652261734]], [[0.02708149515092373, 0.017124976962804794, 0.0039423564448952675], [0.05950546637177467, 0.058576397597789764, -0.044459566473960876], [-0.05073407292366028, -0.018312253057956696, -0.06178157031536102]], [[0.025593943893909454, 0.05914986506104469, 0.07657145708799362], [-0.09315641224384308, -0.02039228565990925, 0.05772378295660019], [-0.12685418128967285, 0.029277918860316277, -0.006861170753836632]], [[0.10514140129089355, 0.041942134499549866, -0.06763637810945511], [0.061058372259140015, -0.08625442534685135, -0.03331564739346504], [-0.11698169261217117, -0.12753452360630035, 0.09254113584756851]], [[-0.04693936929106712, -0.04287554323673248, 0.026719309389591217], [-0.1465667337179184, -0.07080624252557755, 0.09637229144573212], [-0.11122892796993256, 0.03995590656995773, -0.001990950433537364]], [[-0.07339110225439072, 0.0024551083333790302, -0.036013487726449966], [-0.06780868768692017, 0.09349991381168365, 0.02654186263680458], [0.13447502255439758, 0.025415755808353424, -0.04918593168258667]], [[-0.10590236634016037, -0.05230359360575676, -0.13646486401557922], [0.003071710467338562, 0.016234390437602997, -0.13726940751075745], [-0.02143697254359722, -0.12184328585863113, -0.04133370518684387]], [[-0.029910242184996605, 0.060239050537347794, 0.02200952358543873], [-0.2136916220188141, -0.059581104665994644, 0.018765678629279137], [-0.02696235105395317, 0.06390426307916641, 0.005030723754316568]], [[0.06578541547060013, 0.0036738531198352575, -0.04090624302625656], [-0.1818523108959198, -0.06556540727615356, -0.01546609029173851], [-0.020034031942486763, -0.012258335016667843, 0.047098077833652496]], [[0.12568750977516174, 0.13478633761405945, 0.00987696647644043], [0.10183193534612656, -0.022548072040081024, -0.09215463697910309], [-0.1531725972890854, -0.17361953854560852, -0.06925372034311295]], [[-0.02296312525868416, 0.04266257956624031, 0.022457176819443703], [-0.0908941924571991, 0.04590919241309166, -0.04685128480195999], [0.06396608799695969, 0.07560066878795624, 0.01612858660519123]], [[0.05777072161436081, -0.005898290313780308, -0.0428677462041378], [-0.1633327156305313, 0.01435227319598198, -0.04496121406555176], [-0.01971166767179966, 0.0003971986297983676, 0.006151625420898199]], [[-0.0386192724108696, 0.01206523273140192, -0.020530153065919876], [-0.10051838308572769, 0.10840017348527908, -0.0037683716509491205], [0.11878051608800888, 0.0535733625292778, -0.048746928572654724]], [[0.013683865778148174, 0.07693957537412643, 0.09741561114788055], [-0.1001984104514122, 0.03381372615695, 0.04980382323265076], [-0.025606032460927963, 0.023623157292604446, -0.005307408981025219]], [[-0.07946453988552094, -0.08824070543050766, 0.06138085201382637], [-0.027970710769295692, -0.13674521446228027, -0.03253806009888649], [0.03087080456316471, -0.03625374287366867, 0.09406442940235138]], [[0.0034456232096999884, 0.05625113472342491, -0.0825524628162384], [0.06983404606580734, 0.06062624976038933, -0.011904780752956867], [-0.01093898992985487, -0.028034145012497902, -0.07272239029407501]], [[0.07030357420444489, 0.008884700015187263, -0.14556193351745605], [0.01823178492486477, -0.028686456382274628, -0.10038754343986511], [-0.07753421366214752, -0.11936181783676147, -0.018096592277288437]], [[0.112747423350811, -0.05230361223220825, -0.04154810681939125], [0.11954795569181442, -0.055286284536123276, -0.08720393478870392], [-0.22537755966186523, -0.13497941195964813, 0.02050560712814331]], [[0.05306887626647949, -0.12046510726213455, 0.07177967578172684], [-0.12473657727241516, -0.16638784110546112, 0.08324844390153885], [-0.15290890634059906, -0.18375764787197113, 0.1304396539926529]], [[0.06037227809429169, 0.03686295449733734, 0.038682226091623306], [-0.04911649599671364, -0.040508463978767395, 0.05255057290196419], [-0.11435560137033463, 0.00250368844717741, 0.000596752215642482]], [[-0.0891486182808876, -0.0625094473361969, -0.08161817491054535], [-0.0553431436419487, -0.0991460382938385, -0.08969375491142273], [0.0003037904971279204, -0.06013955920934677, -0.0929771289229393]], [[-0.017046824097633362, -0.03607332706451416, 0.0800037682056427], [-0.034747861325740814, -0.01262684166431427, -0.014325618743896484], [-0.0318298377096653, -0.004644712433218956, 0.05818157270550728]], [[-0.0865834653377533, 0.013163429684937, -0.00020756598678417504], [-0.07845193147659302, 0.07854606956243515, 0.07304102927446365], [0.11332505196332932, 0.11032406240701675, 0.01524597778916359]], [[-0.2312542200088501, -0.04630245268344879, -0.013065149076282978], [0.04854428395628929, 0.023369835689663887, -0.027937360107898712], [0.050762757658958435, -0.10941255837678909, -0.07762642204761505]], [[-0.0829308032989502, -0.11411292850971222, -0.1503850817680359], [0.004801967181265354, -0.12614810466766357, -0.17024287581443787], [-0.037861794233322144, -0.06605835258960724, -0.06779000908136368]], [[0.011186080053448677, 0.08046605437994003, 0.0023531224578619003], [-0.016878530383110046, 0.12075778096914291, 0.021840084344148636], [0.042704612016677856, 0.011714021675288677, -0.0902053490281105]], [[-0.10829319804906845, -0.005856995936483145, -0.02482609637081623], [-0.01259461697191, -0.06876479834318161, 0.010238191112875938], [-0.003544463776051998, -0.08393034338951111, -0.008639097213745117]], [[-0.09661993384361267, -0.16820929944515228, 0.009029502980411053], [-0.013280452229082584, -0.11814070492982864, -0.013831711374223232], [-0.05317860469222069, -0.07586345821619034, -0.059577908366918564]], [[-0.02212744764983654, -0.1412329524755478, -0.12072520703077316], [-0.06349574774503708, -0.09834770113229752, -0.16408589482307434], [-0.004084015265107155, -0.061052799224853516, -0.11844784766435623]], [[0.01097074430435896, 0.014778422191739082, 0.044273801147937775], [0.01562048401683569, 0.03319203481078148, -0.016161225736141205], [-0.033326342701911926, -0.02741096168756485, -0.10401424765586853]], [[0.043278686702251434, -0.005070599261671305, -0.14472515881061554], [-0.016936689615249634, -0.07733917981386185, -0.13473163545131683], [-0.15424607694149017, -0.05984767898917198, -0.01880873739719391]]], "bias": -0.0018585562938824296}