{"layer": "fc1", "index": 126, "weights": [0.015988674014806747, -0.05796683952212334, -0.04084821790456772, 0.08211259543895721, 0.07351312041282654, 0.007936747744679451, 0.04273451492190361, -0.026014508679509163, -0.1486475169658661, -0.07250408083200455, -0.004351411946117878, 0.0211073849350214, 0.024688953533768654, 0.014786051586270332, 0.03757651150226593, -0.032240353524684906, -0.05732959136366844, 0.031827494502067566, -0.0022275608498603106, 0.034970883280038834, 0.004889513831585646, 0.03301718458533287, 0.06387876719236374, 0.06210464611649513, 0.0470694825053215, 0.055331189185380936, 0.025156037881970406, 0.03897852450609207, 0.029772406443953514, -0.021618353202939034, -0.035023290663957596, 0.05327350273728371, 0.06199706718325615, 0.0106206638738513, 0.062490563839673996, -0.018295738846063614, 0.020547576248645782, 0.01895892806351185, 0.016836432740092278, 0.02651786617934704, 0.007047020830214024, 0.019967271015048027, 0.020540770143270493, 0.0037006137426942587, 0.023477107286453247, 0.06342746317386627, 0.010494118556380272, -0.02548583224415779, 0.015183842740952969, 0.0019986142870038748, -0.0010565712582319975, -0.02341320738196373, -0.001964287832379341, -0.007278617937117815, -0.021487727761268616, 0.004795376677066088, -0.010618438944220543, -0.01654304377734661, -0.020664243027567863, 0.031032539904117584, 0.008239117451012135, -0.02906283177435398, -0.02230009436607361, 0.007175583858042955, 0.012124286964535713, 0.026913601905107498, 0.09534574300050735, 0.07137592136859894, -0.007194255944341421, -0.03431037813425064, 0.014979396015405655, 0.026110457256436348, 0.02593531832098961, 0.03195936232805252, 0.03149710223078728, 0.08276815712451935, -0.001788663794286549, -0.00793290976434946, -0.006684802006930113, 0.010103183798491955, -0.009008173830807209, 0.02568851225078106, 0.02699470706284046, 0.014119938015937805, -0.014847136102616787, 0.025456566363573074, 0.0174969844520092, 0.04795333743095398, -0.011656778864562511, -0.021932072937488556, -0.012147612869739532, 0.021713482216000557, 0.046658340841531754, 0.0030102648306638002, 0.0194393303245306, -0.00280035100877285, -0.006443885155022144, 0.016322804614901543, 0.03652776777744293, -0.0511164516210556, -0.029266593977808952, 0.005754969082772732, 0.027340320870280266, 0.04494263976812363, -0.011561513878405094, 0.039482735097408295, -0.004057389684021473, 0.004907569382339716, 0.0042832838371396065, 0.021261073648929596, -0.05020294338464737, -0.025903455913066864, 0.10030524432659149, 0.008941343054175377, 0.0750497579574585, 0.08795568346977234, -0.00932975485920906, 0.004609239753335714, -0.034867383539676666, 0.05196712538599968, -0.013757798820734024, -0.09846483170986176, -0.06530588865280151, 0.02574479766190052, -0.043806932866573334, -0.04354994744062424, -0.025165313854813576, -0.06740780174732208, -0.062330249696969986, -0.05134163796901703, 0.0010767248459160328, -0.0474669449031353, -0.00990567822009325, 0.028629325330257416, -0.024026373401284218, -0.14326448738574982, -0.005348674021661282, -0.05344431847333908, -0.01617966592311859, 0.008657398633658886, -0.011178812943398952, -0.026433847844600677, -0.0036340351216495037, 0.07617083936929703, -0.10965311527252197, -0.007862681522965431, 0.015488261356949806, -0.004125969018787146, -0.16174596548080444, -0.021994585171341896, -0.02111024595797062, 0.07033344358205795, -0.03448355197906494, -0.017048504203557968, -0.06530032306909561, -0.013022655621170998, -0.15103267133235931, 0.01757247932255268, 0.05085765942931175, -0.05974406376481056, -0.0368119515478611, -0.0764874666929245, -0.10722145438194275, 0.08522751927375793, 0.022540714591741562, -0.08963441848754883, -0.019362635910511017, -0.0330907441675663, 0.06787236034870148, 0.0109400087967515, 0.11615732312202454, 0.03917887806892395, 0.023349465802311897, -0.0518794022500515, -0.04435837268829346, 0.037219416350126266, 0.09184889495372772, 0.08902238309383392, 0.06241019070148468, 0.028045382350683212, 0.04535851627588272, -0.030832549557089806, -0.03800100088119507, -0.044734444469213486, -0.09908141195774078, -0.050001826137304306, 0.00416060583665967, -0.027472861111164093, -0.004076945595443249, -0.045437976717948914, 0.03319031745195389, -0.032841186970472336, 0.017687376588582993, -0.048126984387636185, -0.035940174013376236, 0.005308290012180805, 0.002482536481693387, 0.01954410783946514, 0.03224869817495346, 0.0206448957324028, 0.013842660933732986, 0.00023427663836628199, 0.0028547116089612246, 0.013402722775936127, -0.03862438350915909, -0.026040775701403618, 0.03201284632086754, 0.018436867743730545, -0.048238061368465424, -0.005124893970787525, -0.00236864248290658, 0.045776933431625366, 0.05415572226047516, 0.039852309972047806, 0.03813834488391876, -0.012750556692481041, -0.01618635468184948, 0.01994287222623825, 0.02864488773047924, 0.002950382651761174, -0.0012602843344211578, 0.00808766670525074, 0.0033673301804810762, -0.002666438464075327, -0.0022780667059123516, -0.04626357555389404, 0.01564953662455082, 0.010792693123221397, 0.025195026770234108, 0.02584698610007763, -0.007455515209585428, -0.008590656332671642, 0.025735611096024513, 0.0041958545334637165, 0.04180673882365227, 0.010074770078063011, -0.016005899757146835, -0.035476814955472946, 0.02716916613280773, 0.06400991231203079, -0.028626970946788788, 0.005812813527882099, -0.036221377551555634, -0.0386110357940197, -0.010245989076793194, 0.044512875378131866, -0.013243322260677814, 0.005445203278213739, -0.01638142578303814, -0.0011298550525680184, 0.016176076605916023, -0.044651102274656296, 0.12090814858675003, 0.11690890043973923, 0.02158448100090027, -0.0036069126799702644, 0.014118014834821224, 0.031631626188755035, -0.04032829403877258, 0.043545208871364594, -0.057410985231399536, -0.0835287794470787, -0.07729536294937134, -0.027359507977962494, -0.039704497903585434, -0.04214642569422722, 0.022225407883524895, -0.023069964721798897, -0.12117935717105865, -0.06424038857221603, -0.02677180804312229, -0.027305206283926964, -0.07976412028074265, 0.04664180427789688, -0.03262487053871155, 0.006519707851111889, -0.057166699320077896, 0.03906538709998131, 0.056648802012205124, -0.06826192885637283, -0.02329190820455551, -0.11529993265867233, -0.014187205582857132, -0.03650529310107231, -0.024550743401050568, -0.14608295261859894, -0.03257407248020172, 0.007529741618782282, 0.028706368058919907, 0.05220601335167885, 0.03422786667943001, 0.04605671018362045, -0.014080061577260494, -0.009621436707675457, 0.0002761569048743695, 0.07156248390674591, -0.03570526838302612, -0.04965000972151756, -0.015807179734110832, 0.07752887159585953, -0.01801202818751335, 0.010008112527430058, 0.10714330524206161, -0.05690711364150047, 0.08892982453107834, -0.045028187334537506, 0.009517882019281387, 0.030067063868045807, 0.0018962845206260681, -0.009861658327281475, -0.09904211014509201, 0.04112420976161957, -0.0029158610850572586, 0.09977925568819046, 0.020751526579260826, -0.00302861537784338, 0.006872369442135096, 0.044832441955804825, 0.10733325779438019, -0.01905987784266472, 0.04663209989666939, 0.038743700832128525, -0.015113611705601215, 0.01883506216108799, 0.07580701261758804, 0.07746957987546921, -0.04110640287399292, -0.0006438482087105513, 0.026441123336553574, 0.001112910220399499, -0.009529432281851768, 0.013947777450084686, -0.04531743749976158, 0.019448338076472282, 0.0415705181658268, -0.013066391460597515, -0.03488931059837341, 0.011212892830371857, 0.03756134212017059, 0.019914887845516205, 0.004890801850706339, 0.09078587591648102, 0.017349015921354294, 0.0177309513092041, -0.00908034760504961, 0.02303747646510601, -0.010076760314404964, 0.04277448728680611, 0.057834699749946594, 0.0004012653953395784, 0.025027845054864883, 0.012966920621693134, -0.07055861502885818, -0.03241612762212753, 0.039843250066041946, -0.029769478365778923, -0.016045358031988144, -0.002126703504472971, -0.024068087339401245, 0.05195103585720062, 0.06818296760320663, -0.0021746300626546144, -0.02394324541091919, 0.0075863441452383995, -0.02626926451921463, 0.007628388702869415, 0.063285231590271, 0.02071240171790123, 0.01368976291269064, -0.009999781847000122, 0.019481724128127098, -0.02704368531703949, 0.040001288056373596, -0.027271894738078117, -0.07398911565542221, -0.04136724770069122, -0.0001087683267542161, 0.019725672900676727, -0.02121269516646862, -0.025279873982071877, -0.05710918828845024, 0.006397823803126812, -0.028018347918987274, -0.020900029689073563, -0.006565653719007969, -0.009714563377201557, -0.04943190887570381, -0.011957304552197456, -0.048112232238054276, -0.006706506945192814, -0.05200229212641716, -0.03726624324917793, -0.01859586127102375, -0.014891448430716991, 0.011105136945843697, 0.005116135813295841, -0.010784235782921314, -0.0020229362417012453, -0.008704341016709805, -0.0058794887736439705, -0.030506109818816185, -0.02185508795082569, -0.014403748326003551, 0.05262116342782974, -0.008179562166333199, -0.05114912614226341, 0.013134878128767014, 0.027504755184054375, 0.07221630215644836, -0.004709387663751841, -0.015105077996850014, -0.005569523200392723, -0.006738984026014805, 0.0025732924696058035, 0.016368484124541283, -0.03804939240217209, -0.12022282183170319, -0.046546876430511475, -0.03347516804933548, -0.013477944768965244, 0.013747244141995907, -0.00915524736046791, -0.06523986160755157, -0.1004229336977005, -0.060562483966350555, -0.022206684574484825, 0.03404398262500763, 0.008391566574573517, -0.012003988958895206, 0.027207914739847183, -0.07909206300973892, -0.020769182592630386, -0.02383006177842617, -0.007318325340747833, -0.005735523533076048, -0.011664711870253086, -0.006131424568593502, 0.01866459660232067, 0.03807004913687706, 0.0161544531583786, -0.007610070984810591, -0.006081798113882542, 0.008921317756175995, 0.0010852728737518191, 0.01183690968900919, 0.0327298566699028, -0.007200051564723253, 0.004507171455770731, -0.00047551593161188066, 0.011141348630189896, -0.030518723651766777, -0.004957103170454502, -0.010683814994990826, 0.02098589390516281, -0.019863475114107132, 0.003244707826524973, -0.0432111956179142, 0.05457083508372307, 0.0914764329791069, 0.01545829139649868, 0.07030404359102249, 0.039280593395233154, 0.02864578366279602, -0.009901024401187897, 0.12886284291744232, 0.11554816365242004, 0.01149376854300499, 0.020604314282536507, 0.013268806040287018, -0.012389915063977242, 0.05384700745344162, -0.019321491941809654, -0.013374822214245796, 0.03821883350610733, 0.02260921709239483, 0.013574858196079731, -0.020532507449388504, -0.035503216087818146, -0.03701265901327133, 0.012416108511388302, -0.022138657048344612, 0.022479159757494926, -0.017477666959166527, -0.044348809868097305, 0.011359689757227898, 0.03822631388902664, -0.014390166848897934, -0.002132982714101672, -0.0003951620601583272, 0.014352557249367237, 0.006128470879048109, -0.024784207344055176, -0.010724644176661968, 0.0036350307054817677, -0.009793550707399845, -0.029348982498049736, -0.022481990978121758, 0.03496254235506058, 0.02985675260424614, 0.004180916119366884, 0.01717391237616539, 0.0010713139781728387, -0.002986269537359476, -0.03135213255882263, 0.04724656790494919, -0.013225773349404335, -0.049967020750045776, -0.09840545058250427, 0.008801277726888657, 0.06431688368320465, -0.03741125762462616, -0.0011607721680775285, -0.029555950313806534, -0.051252417266368866, -0.07643427699804306, -0.05929447337985039, -0.030429158359766006, -0.0804060772061348, 0.031821198761463165, -0.0431608110666275, -0.02686913311481476, -0.06259361654520035, -0.06787408888339996, -0.05202368274331093, -0.010703780688345432, 0.037987835705280304, 0.03783126547932625, -0.028583358973264694, -0.04291228950023651, -0.062187038362026215, 0.03793451935052872, 0.008399655111134052, 0.006851600017398596, 0.05919554829597473, 0.012485579587519169, 0.021279502660036087, 0.07488623261451721, 0.09613524377346039, -0.01390952616930008, 0.08550013601779938, -0.0624876543879509, 0.008508561179041862, 0.018450474366545677, 0.013809298165142536, 0.025978002697229385, -0.017056548967957497, 0.010940726846456528, -0.06348539143800735, 0.0075349691323935986, -0.009773556143045425, 0.016742167994379997, 0.0031041752081364393, -0.0012113390257582068, 0.03839921951293945, 0.021537654101848602, 0.011066270992159843, -0.06611385196447372, -0.030562514439225197, 0.011010545305907726, -0.005338973831385374, -0.05945570021867752, 0.008587208576500416, -0.11912300437688828, -0.012359642423689365, 0.0715290904045105, 0.013405383564531803, 0.04597054421901703, 0.02121041715145111, -0.07253067195415497, -0.02583593688905239, 0.09520310908555984, 0.02285529300570488, 0.014167710207402706, 0.06998565793037415, -0.07441414147615433, -0.13513188064098358, -0.0029515877831727266, -0.08021482080221176, -0.04333025962114334, -0.023936957120895386, -0.017198678106069565, 0.09028013795614243, -0.04834452643990517, 0.1180422306060791, -0.016162319108843803, -0.011785722337663174, 0.012217288836836815, -0.017267458140850067, -0.00027067234623245895, -0.04158160835504532, -0.04481084272265434, -0.006742590107023716, 0.025573501363396645, 0.002683792496100068, -0.035679299384355545, -0.01707402989268303, -0.07011348754167557, -0.15155164897441864, -0.05148288235068321, -0.021662019193172455, 0.03273976221680641, 0.014212097972631454, -0.03307091072201729, -0.039187848567962646, -0.13885469734668732, -0.02283584140241146, 0.0025793469976633787, -0.0074451942928135395, -0.03399994969367981, -0.06621316075325012, -0.026119815185666084, 0.09992176294326782, 0.2212652862071991, 0.01937832497060299, 0.025568701326847076, 0.012053239159286022, 0.015847716480493546, 0.003508972004055977, 0.32006892561912537, 0.13532395660877228, 0.029290813952684402, 0.019727490842342377, -0.0013255992671474814, -0.018299303948879242, -0.006023189518600702, 0.21414607763290405, 0.03647339716553688, -0.013009090907871723, -0.020971545949578285, -0.06544547528028488, -0.029291782528162003, 0.03390469774603844, 0.1947377622127533, 0.01716465689241886, -0.02810121513903141, 0.02742503024637699, 0.004604610614478588, 0.013786902651190758, -0.007687164470553398, -0.0013615400530397892, 0.007981870323419571, -0.028134917840361595, -0.003832163056358695, 0.012569412589073181, -0.004194918088614941, -0.06769473850727081, -0.0025764182209968567, -0.025161374360322952, 0.00579844368621707, -0.025416230782866478, -0.02325882576406002, 0.011156615801155567, 0.00022795431141275913, 0.043802376836538315, 0.033653005957603455, 0.01216502021998167, 0.022402970120310783, 0.0002643356565386057, -0.010037252679467201, 0.016390906646847725, 0.020487181842327118, -0.04185968637466431, -0.021674204617738724, 0.01817547343671322, 0.009106649085879326, -0.01575101725757122, -0.05639776587486267, -0.024426592513918877, -0.0020209732465445995, 0.004943379666656256, -0.013536902144551277, -0.016794031485915184, -0.021496275439858437, -0.008537942543625832, -0.006468122359365225, 0.0023066254798322916, -0.012468576431274414, -0.04684305191040039, -0.02744435891509056, 0.03285568580031395, 0.03622923046350479, 0.005316324532032013, -0.002690922701731324, 0.0050310478545725346, 0.008133294992148876, 0.0024431038182228804, 0.002529229037463665, -0.000996674643829465, -7.185713911894709e-05, -0.03923162817955017, 0.02419223263859749, 0.08683515340089798, -0.012795044109225273, -0.02866736799478531, -0.009732095524668694, -0.02424457296729088, -0.07264724373817444, 0.07562073320150375, 0.025566404685378075, 0.0506431981921196, 0.0042503597214818, -0.022283589467406273, 0.009422045201063156, -0.03477274626493454, 0.056349337100982666, 0.023847591131925583, 0.08378719538450241, 0.024437425658106804, 0.011110256426036358, 0.0748390257358551, 0.15059109032154083, 0.020801939070224762, 0.015034250915050507, 0.06670921295881271, 0.0032322334591299295, 0.04612082615494728, 0.06844780594110489, 0.12378743290901184, -0.00882317777723074, 0.036788325756788254, -0.02976308763027191, 0.022161094471812248, 0.042252905666828156, -0.015794623643159866, 0.026471680030226707, 0.0025809393264353275, 0.004143509082496166, -0.05660203471779823, -0.020462069660425186, 0.013788234442472458, 0.008012286387383938, -0.007394879125058651, 0.026255806908011436, -0.0001853334397310391, 0.04314485564827919, 8.703973435331136e-05, -0.0019786180928349495, -0.011532888747751713, -0.022236431017518044, 0.0631004199385643, 0.050316013395786285, -0.042886849492788315, -0.0015823611756786704, -0.07721882313489914, 0.0574859082698822, -0.04973786696791649, 0.046108443289995193, 0.03624676167964935, -0.051599618047475815, 0.033807139843702316, 0.0092126140370965, 0.05778694525361061, 0.030954165384173393, -0.00499792629852891, -0.048801761120557785, 0.012464925646781921, 0.033249638974666595, 0.006396051496267319, 0.027212757617235184, -0.04369911178946495, -0.0014867784921079874, 0.0010162761900573969, 0.03990168124437332, -0.004468205384910107, -0.0005926254671066999, -0.06139432266354561, -0.05975859612226486, 0.013744184747338295, -0.06065605580806732, -0.047396060079336166, -0.03363899514079094, 0.025280039757490158, 0.019253533333539963, -0.07333867251873016, -0.05555718019604683, 0.013089600950479507, 0.0030960647854954004, -0.028932785615324974, 0.06276281177997589, 0.0519193559885025, 0.02186751738190651, 0.01310992706567049, 0.004529491998255253, 0.0006583370850421488, -0.008588407188653946, -0.009964706376194954, 0.007799720391631126, -0.02244207076728344, 0.020552465692162514, 0.009830971248447895, -0.0012237076880410314, 0.024667348712682724, 0.017626523971557617, -0.03055690787732601, -0.005284034181386232, 0.03379106521606445, -0.00550859235227108, -0.016497569158673286, 0.01174719724804163, 0.04890170320868492, 0.07253680378198624, 0.10483068972826004, 0.05760805681347847, -0.018967941403388977, -0.09078014642000198, 0.08002801239490509, 0.018992718309164047, -0.053600676357746124, -0.12491371482610703, -0.04308854416012764, -0.04977964609861374, -0.02553866058588028, -0.009329254738986492, 0.0006104197236709297, -0.06746472418308258, -0.1503574550151825, -0.09369813650846481, -0.1048959270119667, -0.041222572326660156, -0.03044516034424305, 0.023359742015600204, -0.04498966038227081, -0.008693494834005833, 0.003312952583655715, -0.039315130561590195, -0.06797096878290176, 0.05412210524082184, 0.008209140039980412, -0.06461042165756226, -0.10352617502212524, -0.09698844701051712, -0.02052793838083744, 0.030903788283467293, 0.017368188127875328, 0.024724062532186508, -0.015216544270515442, -0.0036248532123863697, 0.009701269678771496, 0.02640068717300892, -0.06005359813570976, 0.056473538279533386, 0.00048375115147791803, 0.0038804372306913137, -0.003447824390605092, 0.015864700078964233, 0.015631092712283134, -0.042425524443387985, 0.09613073617219925, 0.13085930049419403, 0.07990255206823349, -0.04710245504975319, 0.038793496787548065, 0.03907286003232002, 0.03878789395093918, 0.05625160411000252, 0.03449852764606476, -0.029909875243902206, -0.10781049728393555, -0.014217350631952286, -0.0637480616569519, -0.05282684043049812, -0.05905354768037796, -0.048238322138786316, -0.033685240894556046, -0.036894526332616806, -0.0047708535566926, -0.057971030473709106, -0.08258550614118576, 0.0027062231674790382, 0.051995690912008286, 0.018665041774511337, 0.002028979128226638, -0.06861107051372528, -0.0842665433883667, -0.11103947460651398, 0.03623011335730553, 0.03163652494549751, 0.08596701920032501, -0.0354325994849205, -0.053880542516708374, 0.03685830906033516, 0.01052875630557537, 0.014212085865437984, 0.01527558546513319, 0.012172757647931576, 0.02317941002547741, -0.017862197011709213, 0.006947597023099661, 0.00010652044147718698, -0.04660988599061966, -0.032939136028289795, -0.04678839072585106, 0.039429567754268646, 0.03767971694469452, 0.0035771396942436695, -0.03312232717871666, -0.01273040845990181, -0.012541164644062519, 0.02845076099038124, 0.04674850031733513, 0.08395711332559586, 0.00259308866225183, -0.0208926722407341, -0.028683798387646675, 0.01219707541167736, 0.06935480237007141, 0.03358464688062668, -0.016733765602111816, 0.08755532652139664, -0.015699952840805054, 0.01840568147599697, 0.02844400890171528, 0.014821247197687626, -0.01186493132263422, 0.03635455667972565, -0.00891181081533432, 0.0023513496853411198, -0.002895795740187168, 0.022925296798348427, 0.02282516285777092, -0.05405595153570175, -0.0152136767283082, -0.0052554793655872345, 0.008522952906787395, 0.0274336077272892, 0.018448319286108017, 0.031176576390862465, -0.009871568530797958, 0.04026338830590248, -0.003780627390369773, -0.011984223499894142, -0.009858110919594765, -0.04908715561032295, -0.07256841659545898, 0.024981146678328514, 0.024383408948779106, -0.035367272794246674, 0.002615199889987707, 0.012107753194868565, 0.0336279533803463, -0.00762684503570199, -0.010936225764453411, 0.021711446344852448, -0.00470615504309535, -0.03261213004589081, 0.12414533644914627, 0.02581595815718174, -0.016957618296146393, 0.070195771753788, 0.00699039688333869, -0.025160441175103188, -0.0036444400902837515, 0.13652150332927704, -0.02815287560224533, 0.011362569406628609, -0.09659566730260849, -0.08174167573451996, 0.014060522429645061, -0.0071943821385502815, -0.08826987445354462, -0.11693055182695389, -0.07462647557258606, -0.0031023179180920124, -0.00555157195776701, -0.047363270074129105, 0.011555097997188568, 0.10466477274894714, -0.006276054307818413, -0.056794293224811554, -0.031333718448877335, -0.03813568130135536, -0.07629293203353882, -0.005003232508897781, -0.12148644030094147, 0.048824843019247055, -0.024547787383198738, 0.07165352255105972, -0.1018565222620964, 0.020632518455386162, 0.007441097870469093, 0.020065253600478172, 0.0001243571750819683, 0.015149681828916073, 0.004525108728557825, 0.014940382912755013, 0.011530508287250996, 0.00320684676989913, -0.0059945047833025455, 0.017481885850429535, -0.08093149214982986, 0.0425683856010437, 0.042786478996276855, -0.013575471937656403, 0.006177682429552078, -0.009720693342387676, 0.00593235669657588, 0.0440218448638916, 0.02877739816904068, -0.11677031219005585, -0.10546106845140457, -0.04261568933725357, 0.0755390152335167, 0.03023490123450756, 0.010819154791533947, -0.06688549369573593, -0.004628622438758612, -0.04533453658223152, -0.0029571682680398226, 0.03147023916244507, 0.06118718534708023, -0.014647814445197582, -0.07338458299636841, -0.005905673839151859, -0.02723097614943981, -0.022555716335773468, -0.02804196998476982, -0.10464674234390259, -0.14580267667770386, -0.06112309917807579, 0.02037627249956131, -0.02085409313440323, 0.006763014476746321, 0.005001590587198734, 0.022222867235541344, 0.003993293270468712, 0.03982970863580704, -0.032449591904878616, -0.019024373963475227, 0.002368735149502754, 0.014448905363678932, -0.09296353161334991, 0.02232455648481846, 0.06392386555671692, 0.04260195791721344, -0.038471147418022156, 0.026360323652625084, -0.009842531755566597, -0.05559644475579262, -0.05483851581811905, -0.00581364007666707, -0.052846528589725494, 0.09952437877655029, -0.061429839581251144, 0.0322786346077919, -0.02861562930047512, -0.011825251393020153, -0.009311902336776257, 0.0395655557513237, -0.010130124166607857, -0.10257130861282349, -0.016083715483546257, -0.0040452489629387856, 0.09334545582532883, 0.15732082724571228, 0.07371892780065536, 0.045425400137901306, 0.04316788166761398, -0.03990137577056885, 0.0013476136373355985, 0.055047180503606796, -0.0010752193629741669, 0.02393142133951187, 0.056849345564842224, 0.028338825330138206, -0.01912793144583702, 0.08265532553195953, 0.021136516705155373, -0.03685125708580017, -0.03215661272406578, 0.06482038646936417, 0.0019152844324707985, -0.005216225981712341, 0.0014132470823824406, 0.0909728854894638, 0.018506981432437897, 0.03977204114198685, 0.04265747219324112, -0.018309958279132843, 0.014441590756177902, 0.007912429980933666, -0.021827485412359238, -0.06123907491564751, -0.01245021726936102, -0.013044605031609535, -0.04713856428861618, 0.05423174053430557, 0.03273947909474373, -0.00381604116410017, 0.0031003225594758987, -0.0035470454022288322, -0.01040085032582283, -0.029587337747216225, 0.09090699255466461, 0.11316895484924316, 0.06683512032032013, 0.04125741124153137, 0.03542060777544975, -0.010273725725710392, -0.0167415589094162, 0.0744873657822609, 0.1013621836900711, 0.012243902310729027, -0.04134033992886543, -0.07048434019088745, -0.06502751260995865, -0.09986235946416855, -0.03037288226187229, -0.0406230129301548, -0.12876127660274506, -0.1259530782699585, -0.08336839824914932, -0.13019788265228271, -0.07633358240127563, 0.012041941285133362, -0.00545125687494874, 0.03314319625496864, 0.011205440387129784, 0.011635608039796352, -0.00954059511423111, -0.06341982632875443, -0.026347415521740913, -0.05845280736684799, -0.05800700932741165, -0.022522298619151115, -0.10256217420101166, 0.03575676307082176, 0.027992501854896545, 0.006077751517295837, -0.0022145367693156004, 0.01075315847992897, -0.022155271843075752, 0.011432268656790257, -0.0005358195048756897, 0.01988942176103592, 0.060971423983573914, 0.06655199080705643, 0.0048819114454090595, 0.0056137023493647575, 0.03485729172825813, -0.019974132999777794, -0.012384538538753986, 0.04519811272621155, -0.001425424125045538, -0.09027469158172607, 0.015033701434731483, 0.039993464946746826, 0.0441335067152977, -0.017837459221482277, 0.012606619857251644, -0.005387973040342331, -0.14106687903404236, -0.054406460374593735, -0.05782915651798248, 0.0027691374998539686, -0.01675177365541458, -0.016362059861421585, -0.01240760087966919, -0.02012677863240242, -0.06524757295846939, -0.018900854513049126, 0.003450213000178337, 0.017161069437861443, 0.0020482251420617104, 0.023156415671110153, 0.0010793755063787103, -0.005836392752826214, 0.021760638803243637, -0.010374183766543865, -0.01993778720498085, 0.019641481339931488, 0.004481257870793343, 0.004935745615512133, 0.012495307251811028, 0.05648818984627724, -0.008911674842238426, 0.0009529250673949718, 0.004311415832489729, 0.009411265142261982, 0.011340958066284657, 0.017370538786053658, 0.016310688108205795, 0.018617508932948112, 0.02528189681470394, -0.00011951416672673076, -0.03836600109934807, 0.003809888381510973, 0.02511521801352501, -0.02698284201323986, -0.02573336288332939, -0.12212217599153519, 0.007651295512914658, 0.002866011345759034, 0.04407039284706116, 0.02487604133784771, -0.08519497513771057, -0.035793647170066833, -0.050725553184747696, 0.031686775386333466, 0.0068499306216835976, -0.0020457811187952757, -0.020763151347637177, -0.05149498209357262, -0.019384128972887993, -0.05356454476714134, -0.014159861952066422, 0.009496498852968216, -0.0009365500882267952, -0.0901581197977066, -0.03864634782075882, -0.048238858580589294, -0.09985525906085968, -0.023350855335593224, 0.0008970752824097872, -0.047506339848041534, -0.022240255028009415, 0.0017917492659762502, 0.0005002281977795064, -0.03825017437338829, 0.030842790380120277, 0.0438757985830307, 0.01479269564151764, -0.014525298960506916, -0.033459365367889404, -0.0353352390229702, 0.0035392639692872763, 0.011350061744451523, 0.006648532580584288, 0.004631757270544767, 0.023786528035998344, -0.0041380831971764565, 0.004269296769052744, -0.003115766914561391, 0.0647360160946846, 0.03925689682364464, 0.0794782042503357, -0.005174592137336731, 0.03157030791044235, 0.016342971473932266, -0.00019870953110512346, 0.09676743298768997, 0.039833445101976395, -0.09352629631757736, -0.08448350429534912, 0.0279229786247015, 0.056974656879901886, -0.0069444249384105206, 0.0031805618200451136, 0.040293410420417786, -0.0678476020693779, -0.061555858701467514, -0.008267530240118504, 0.009034080430865288, 0.021522175520658493, -0.05707326531410217, -0.06530725210905075, -0.020824378356337547, -0.018591605126857758, -0.034452907741069794, -0.009275594726204872, -0.002800481393933296, 0.018810510635375977, 0.029736002907156944, -0.05633826553821564, 0.008618395775556564, -0.01814447157084942, -0.016231566667556763, 0.025554237887263298, 0.021031968295574188, -0.026911668479442596, -0.0722385123372078, 0.019203733652830124, 0.06345533579587936, 0.10595296323299408, -0.02129201963543892, -0.012467737309634686, 0.0045093451626598835, 0.006454518996179104, 0.016773993149399757, 0.007919763214886189, -0.01933256722986698, -0.016317473724484444, -0.013302353210747242, -0.03953911364078522, -0.03197331726551056, -0.012638569809496403, -0.017519719898700714, 0.004298153333365917, -0.016404202207922935, 0.037321921437978745, 0.02814827673137188, 0.0548659972846508, 0.007076151669025421, -0.0076316543854773045, 0.002909161150455475, -0.009931732900440693, 0.021356169134378433, 0.03667544573545456, -0.03372909873723984, -0.04998072236776352, -0.02859807386994362, -0.03882483020424843, -0.010019481182098389, 0.00473449332639575, -0.006885608658194542, -0.05301891267299652, -0.06046447157859802, -0.04643401503562927, -0.041909873485565186, 0.0005656927824020386, 0.0014749930705875158, 0.03869270533323288, 0.008481967262923717, 0.0019745766185224056, 0.03137008100748062, -0.03877277672290802, -0.014462494291365147, 0.03190513327717781, 0.0025395695120096207, -0.03730805963277817, -0.020594550296664238, -0.015043473802506924, 0.018351254984736443, 0.022259464487433434, -0.00038920235238038003, -0.05305512249469757, -0.03191421553492546, 0.031241076067090034, -0.028328286483883858, 0.0822271928191185, -0.057075999677181244, -0.021647734567523003, 0.0008602584712207317, -0.04598109796643257, 0.06808692216873169, 0.019745027646422386, 0.029879439622163773, -0.00422914931550622, -0.045112669467926025, -0.006057317368686199, -0.08577769249677658, -0.035074058920145035, 0.028718622401356697, 0.04256099462509155, 0.02946513518691063, 0.030409151688218117, 0.007952515035867691, 0.04762547090649605, 0.07493906468153, 0.004610743373632431, 0.05589975789189339, 0.05551906302571297, 0.016576332971453667, 0.014269210398197174, 0.043939877301454544, -0.007030793000012636, -0.022160422056913376, 0.00951538048684597, 0.019805189222097397, -0.01749444380402565, 0.008240394294261932, 0.008817099034786224, 0.026175454258918762, -0.010470538400113583, 0.06789429485797882, -0.016895314678549767, 0.015578052960336208, 0.02171686291694641, 0.06039329990744591, 0.048544686287641525, 0.009328068234026432, 0.06499473005533218, 0.006052102893590927, -0.004751110449433327, 0.03397449851036072, -0.08364198356866837, 0.012802314013242722, 0.03413810208439827, 0.030859392136335373, -0.02076154202222824, -0.023654190823435783, -0.009776968508958817, -0.008012895472347736, 0.017269708216190338, 0.010677170008420944, 0.05113290622830391, -0.03896326199173927, 0.04488854855298996, 0.04864725470542908, -0.02355659008026123, 0.022647125646471977, -0.08691313117742538, -0.08414605259895325, -0.05602389946579933, 0.04140382632613182, 0.038298726081848145, -0.036234498023986816, -0.11159763485193253, -0.12726697325706482, -0.12246759235858917, -0.05859408155083656, -0.06907063722610474, -0.008270150050520897, -0.04642489552497864, -0.06359284371137619, -0.08963809907436371, -0.05661917105317116, -0.08232038468122482, 0.05435492470860481, 0.020592324435710907, -0.05898619443178177, -0.13183186948299408, -0.06555014103651047, -0.14958910644054413, -0.015092500485479832, -0.09330113232135773, 0.007104477379471064, 0.00874607264995575, 0.016530126333236694, 0.005113539285957813, -0.02231823466718197, 0.015244421549141407, 0.01547467801719904, -0.07158185541629791, -0.017821243032813072, 0.03569210693240166, 0.061044905334711075, 0.021634642034769058, -0.024913912639021873, 0.006416245363652706, -0.07454870641231537, -0.05249933525919914, -0.05016684904694557, -0.014112426899373531, 0.024264898151159286, 0.008574717678129673, 0.018978869542479515, -0.0173440333455801, -0.05563541129231453, 0.0109480619430542, 0.01603800803422928, 0.018133528530597687, 0.0125043960288167, 0.04591450095176697, 0.014393859542906284, 0.09093013405799866, 0.14485569298267365, 0.03902969881892204, 0.01110783964395523, 0.03149006515741348, -0.028153667226433754, -0.019015084952116013, 0.06948927044868469, 0.1429114043712616, 0.008585499599575996, 0.00018501364684198052, -0.011941921897232533, 0.06200676038861275, 0.017275605350732803, 0.009180956520140171, -0.0015417361864820123, -0.037151191383600235, -0.009384852834045887, -0.07727855443954468, 0.011570504866540432, 0.056053318083286285, 0.03938131034374237, 0.0712168738245964, -0.03295523300766945, 0.020577019080519676, 0.01467902958393097, 0.017902245745062828, -0.009177506901323795, -0.030089395120739937, 0.06671591848134995, 0.06421451270580292, 0.01081908494234085, -0.019135883077979088, 0.0023560170084238052, -0.05621698126196861, 3.087232471443713e-05, 0.040257662534713745, 0.03890327364206314, -0.00023426578263752162, 0.009529229253530502, 0.016122929751873016, 0.037896204739809036, -0.02404908835887909, 0.06138186529278755, 0.06322678923606873, 0.0013212567428126931, 0.00701404782012105, 0.019458644092082977, -0.0660591647028923, 0.05836227536201477, 0.06598961353302002, -0.030268991366028786, 0.005024729762226343, -0.016132578253746033, -0.005233312025666237, 0.036671966314315796, -0.027760934084653854, -0.050167281180620193, 0.02769434079527855, -0.01669849082827568, -0.0028689082246273756, 0.006478460971266031, 0.0550360232591629, -0.02561880275607109, -0.044013362377882004, 0.017032455652952194, -0.05431938171386719, -0.018247397616505623, 0.0015164428623393178, 0.00686104129999876, 0.021876700222492218, 0.014897987246513367, 0.00772811658680439, 0.0009880036814138293, 0.0063020153902471066, -0.09098265320062637, -0.04175892844796181, -0.08721385896205902, -0.12120066583156586, 0.07553014904260635, -0.12911267578601837, 0.05790141224861145, 0.04301796853542328, -0.04064876213669777, 0.031879521906375885, -0.028854530304670334, -0.047862276434898376, 0.03155415505170822, 0.10230382531881332, 0.021698007360100746, 0.016433998942375183, -0.010214398615062237, 0.014359649270772934, 0.11707950383424759, -0.029272841289639473, 0.08537307381629944, 0.035856910049915314, 0.033471934497356415, 0.008968447335064411, 0.014602032490074635, 0.08860092610120773, 0.0827910453081131, -0.0019350231159478426, -0.003835182636976242, 0.035204894840717316, 0.04844090715050697, 0.0524139367043972, 0.04578135535120964, 0.0029647040646523237, -0.1040472462773323, 0.00746434461325407, -0.055682696402072906, 0.013666480779647827, 0.10005417466163635, 0.04443059861660004, -0.08887264877557755, -0.02785850316286087, 0.0038923239335417747, 0.016694409772753716, -0.009847416542470455, 0.02587016485631466, 0.09110626578330994, 0.021282410249114037, 0.07307729125022888, 0.0033400729298591614, 0.006728433072566986, -0.011493498459458351, 0.010846579447388649, -0.008415717631578445, 0.019509252160787582, 0.001795471180230379, -0.010232930071651936, 0.017487334087491035, -0.0015534162521362305, -0.009067065082490444, -0.005854480899870396, -0.014704762026667595, 0.00692698173224926, 0.012031815946102142, 0.0015771687030792236, 0.015584981068968773, -0.006951903458684683, 0.005223406478762627, -0.013391105458140373, 0.0013653989881277084, -0.013599772937595844, 0.010005740448832512, 0.006665419787168503, -0.012556108646094799, 0.002331603318452835, 0.013575410470366478, -0.001943616196513176, 0.003930898383259773, -0.01754697412252426, 0.011722544208168983, -0.0042015183717012405, 0.002852996811270714, -0.01743176206946373, 0.0021346639841794968, 0.002776648849248886, 0.016633106395602226, -0.00988579448312521, -0.005017399787902832, -0.010037481784820557, -0.000937189906835556, -0.015232481062412262, -0.015915390104055405, 0.004108607769012451, -0.010094238445162773, -0.013900736346840858, 0.017526982352137566, 0.008590010926127434, 0.0038094352930784225, 0.005616789683699608, -0.02331618219614029, -0.020578712224960327, -0.05634870380163193, -0.003027149010449648, 0.012412358075380325, -0.0158639345318079, 0.0008130489150062203, -0.005195607431232929, -0.0016683853464201093, 0.020335109904408455, 0.02316753938794136, 0.03794834017753601, -0.002505670068785548, 0.006548333913087845, -0.00544821796938777, -0.0063127512112259865, 0.019138431176543236, 0.06353709846735, 0.07635435461997986, 0.0042082867585122585, 0.025516942143440247, 0.03867266699671745, 0.007100281771272421, -0.05937809869647026, 0.04367665573954582, 0.09265592694282532, 0.02979612536728382, -0.00764428498223424, -0.0047861868515610695, -0.0008286004886031151, 0.047845009714365005, 0.044146470725536346, 0.01087380014359951, 0.05228468403220177, 0.027052849531173706, -0.00621268805116415, -0.019959576427936554, 0.010068069212138653, 0.0021368220914155245, -0.04516366496682167, 0.01306504663079977, 0.006627930793911219, 0.00393856642767787, -0.0491984486579895, 0.014134611003100872, 0.09615997970104218, 0.0392351858317852, -0.029484335333108902, -0.020554445683956146, 0.008421049453318119, -0.016636120155453682, 0.016783500090241432, 0.007925625890493393, 4.84806987515185e-05, -0.0027377763763070107, 0.011314787901937962, 0.034613486379384995, 0.050515029579401016, 0.03967944532632828, 0.011116490699350834, -0.021424731239676476, -0.038132574409246445, -0.030067097395658493, 0.01663143001496792, 0.008503146469593048, -0.18643778562545776, 0.003313209628686309, -0.028988130390644073, -0.03128538653254509, -0.021177100017666817, -0.037789683789014816, -0.07623325288295746, -0.023651376366615295, -0.04570702463388443, 0.007572860457003117, -0.03634372726082802, -0.022890491411089897, -0.022481802850961685, 0.008141831494867802, -0.03744744136929512, -0.006940613500773907, -0.009727366268634796, 0.01901942864060402, 0.019392427057027817, 0.043423984199762344, 0.012857695110142231, -0.029407000169157982, -0.07532092183828354, -0.0007441793568432331, -0.014325500465929508, 0.029905758798122406, 0.02803868241608143, 0.06195651367306709, 0.012694142758846283, 0.021201282739639282, 0.10161906480789185, -0.0026053348556160927, -0.007121908478438854, -0.006403614766895771, 0.0018267612904310226, 0.010960145853459835, -0.021278204396367073, 0.004975049756467342, 0.00700022978708148, 0.010713951662182808, -0.00013642199337482452, 0.01747833378612995, -0.0010707831243053079, -0.01218554750084877, 0.004445450846105814, 0.01566232368350029, -0.01160982996225357, 0.005172938108444214, 0.006617866922169924, -0.006588460877537727, -0.0038401747588068247, 0.006632596720010042, 0.0026524923741817474, 0.005463156849145889, -0.011724519543349743, -0.016378197818994522, -0.0017737434245646, 0.005298445001244545, -0.010959324426949024, 0.009033448062837124, 0.013761429116129875, -0.007175016216933727, -0.015184092335402966, 0.008255308493971825, 0.0021821807604283094, 0.008590705692768097, 0.008251579478383064, -0.011874857358634472, -0.0049592433497309685, 0.004475847352296114, -0.01113102212548256, -0.01957952417433262, 0.006632965058088303, 0.009524138644337654, 0.012487273663282394, 0.016259530559182167, -0.015803998336195946, 0.00262310728430748, -0.0058149658143520355, 0.0005332864820957184, -0.0037037543952465057, -0.007663475815206766, 0.014780623838305473, -0.013291924260556698, -0.012785305269062519, -0.001628616126254201, -0.03683284670114517, -0.0071167233400046825, 0.014763567596673965, -0.02797996811568737, 0.008873974904417992, 0.025188086554408073, 0.025482606142759323, -0.08878447115421295, -0.05731627345085144, 0.12043409794569016, 0.050223030149936676, 0.0009008483029901981, -0.035836413502693176, 0.01505343709141016, 0.008387117646634579, -0.022084111347794533, 0.05622127279639244, 0.0039422460831701756, -0.011294097639620304, -0.10293283313512802, -0.030779223889112473, -0.07143193483352661, -0.02131064608693123, -0.00825636275112629, -0.06558413058519363, -0.13731016218662262, -0.18669933080673218, -0.04687602445483208, -0.05425794795155525, 0.013547929935157299, -0.025864288210868835, 0.0008607583586126566, 0.0025445506907999516, 0.01963368058204651, 3.74279152310919e-05, 0.012282055802643299, -0.05453844740986824, 0.026510151103138924, 0.014732599258422852, -0.01756111904978752, 0.003647374687716365, -0.029325837269425392, 0.05287674441933632, 8.585415343986824e-05, -0.004795168526470661, -0.00212295725941658, -0.01962970569729805, 0.007181400433182716, 0.05896250531077385, 0.0043760561384260654, 0.019056756049394608, 0.03888913244009018, 0.030694108456373215, 0.022958550602197647, -0.003716143546625972, 0.006100866477936506, -0.028943147510290146, -0.01389075256884098, 0.030125528573989868, -0.0179899875074625, -0.028991837054491043, 0.045012108981609344, 0.07413189858198166, -0.021056151017546654, -0.07018684595823288, 0.0215340256690979, -0.01949148252606392, -0.09497566521167755, -0.09098570793867111, 0.02582380175590515, 0.0316988080739975, -0.07975038141012192, -0.011206707917153835, -0.02520236000418663, -0.015283061191439629, -0.03558860719203949, 0.012571253813803196, -0.03662892431020737, -0.06656236201524734, 0.0005203092587180436, -0.06367091834545135, -0.014365827664732933, 0.004579814150929451, -0.02538939192891121, -0.032454200088977814, -0.021875135600566864, -0.019027242437005043, 0.03459854796528816, 0.009933177381753922, 0.011276730336248875, -0.014275634661316872, -0.017501309514045715, -0.004015653859823942, 0.0764751136302948, 0.011323734186589718, -0.034138597548007965, -0.014886438846588135, 0.04213045910000801, 0.02985558845102787, -0.0011892772745341063, 0.07387654483318329, 0.02744453027844429, 0.06273119151592255, 0.005674854386597872, 0.0009444670868106186, 0.017637908458709717, -0.015178976580500603, 0.09516746550798416, 0.11580388247966766, 0.11023640632629395, -0.0052174050360918045, 0.022756066173315048, 0.05207758769392967, 0.015142666175961494, 0.007102001924067736, 0.04276607185602188, -0.045437563210725784, -0.10056448727846146, -0.08316972851753235, -0.03742709383368492, 0.02354232408106327, -0.014047893695533276, -0.05849369987845421, -0.0244357381016016, -0.12612782418727875, -0.06870102137327194, -0.07524266093969345, 0.022320127114653587, -0.014345085248351097, -0.0031642105896025896, 0.02157864160835743, -0.0013198346132412553, -0.053081583231687546, 0.018155096098780632, 0.0034967223182320595, 0.016890419647097588, 0.025468753650784492, 0.0728122889995575, 0.008762937970459461, -0.015131019987165928, 0.010045841336250305, -0.006316163577139378, 0.0012312015751376748, -0.020134784281253815, 0.008685865439474583, 0.02886396087706089, -0.009230325929820538, -0.012881763279438019, -0.014835672453045845, 0.0016761074075475335, 0.013124912045896053, -0.00022592594905290753, 0.07802382856607437, 0.015640003606677055, -0.033729780465364456, 0.0017458604415878654, 0.008467184379696846, 0.0057893916964530945, 0.006194875109940767, 0.0562165267765522, 0.051627203822135925, 0.04558173194527626, -0.014816245064139366, 0.025689776986837387, 0.0238505769520998, 0.0012097989674657583, 0.020729567855596542, -0.00024596924777142704, 0.03929024189710617, 0.020119650289416313, 0.007355591282248497, 0.0034733698703348637, 0.03395313397049904, 0.028223088011145592, 0.029273848980665207, -0.009177940897643566, 0.007475092075765133, 0.012156803160905838, 0.023700745776295662, 0.02022622898221016, 0.020089203491806984, 0.028024954721331596, -0.015026133507490158, -0.004355050623416901, -0.009131821803748608, 0.034972578287124634, 0.030377700924873352, 0.020036058500409126, -0.013156026601791382, -0.02671925537288189, -0.02026730589568615, 0.014090364798903465, 0.020136963576078415, 0.05080409720540047, -0.015351134352385998, 0.009454766288399696, 0.016402289271354675, 0.0172542966902256, -0.01141410507261753, 0.0864987000823021, 0.0488274060189724, 0.08133503049612045, -0.016186797991394997, -0.02081797458231449, -0.027223234996199608, 0.0350024476647377, 0.0014147231122478843, -0.006561879068613052, -0.03879142925143242, -0.0538378469645977, -0.06958536058664322, -0.057480260729789734, 0.04927903041243553, 0.013612093403935432, -0.056794315576553345, -0.0940723568201065, -0.06929419189691544, -0.03333194553852081, -0.06194022297859192, 0.011263055726885796, -0.020150836557149887, -0.08297619968652725, -0.1486348658800125, -0.07142791897058487, -0.05001618340611458, -0.0439784973859787, -0.048863139003515244, -0.04713841527700424, -0.07551990449428558, -0.021301623433828354, -0.014530462212860584, 0.009970759972929955, -0.01525481790304184, 0.0404433012008667, 0.016709281131625175, -0.0038266447372734547, 0.01141581404954195, -0.013814924284815788, -0.03678007051348686, -0.011021051555871964, -0.015287653543055058, -0.02385103702545166, 0.007850986905395985, -0.03472228720784187, -0.009015265852212906, -0.0031399072613567114, 0.0027581301983445883, 0.003723712405189872, -0.0004851164994761348, 0.024479888379573822, 0.019269924610853195, 0.009563423693180084, -0.021597320213913918, 0.03826340660452843, -2.100954225170426e-05, -0.01420124527066946, -0.009419433772563934, 0.018425237387418747, 0.01107829436659813, -0.01905333250761032, 0.014832925982773304, -0.009863755665719509, 0.03878749534487724, 0.04593950882554054, 0.1354190707206726, 0.11697916686534882, 0.03967457637190819, 0.002734231064096093, -0.04831627756357193, -0.0417386032640934, 0.038651783019304276, 0.11688429862260818, 0.03787294030189514, 0.015733355656266212, -0.0023178814444690943, -0.00101033307146281, 0.017920227721333504, 0.012672736309468746, 0.06313962489366531, -0.0030404124408960342, 0.005966504570096731, -0.040704187005758286, 0.0022753793746232986, 0.017164288088679314, 0.023253077641129494, -0.019590536132454872, 0.009048622101545334, -0.00818107184022665, 0.02487253025174141, -0.0060621085576713085, -0.015658680349588394, 0.006049507297575474, -0.004968585912138224, -0.007807997986674309, -0.014247183687984943, -0.024358229711651802, -0.01650634966790676, -0.04018213599920273, -0.027234883978962898, 0.03381292521953583, 0.044285282492637634, -0.027196180075407028, -0.022179141640663147, -0.02184392884373665, -0.050564173609018326, -0.008010847494006157, 0.01931670680642128, 0.05305910483002663, 0.021499622613191605, 0.013225400820374489, -0.032114800065755844, -0.025484725832939148, 0.04679255932569504, 0.06227664649486542, 0.038333483040332794, 0.05445312708616257, -0.02613713964819908, 0.0003338089445605874, -0.0018528414657339454, 0.05159648135304451, 0.037155382335186005, 0.03947145491838455, 0.02661888860166073, -0.008811203762888908, 0.012283970601856709, 0.04209040477871895, 0.03774864226579666, 0.0025564662646502256, 0.01055933814495802, -0.033278029412031174, 0.00456763431429863, 0.034409504383802414, 0.03395557031035423, 0.026115527376532555, 0.0035429317504167557, -0.0012903399765491486, -0.007095647975802422, 0.015181150287389755, 0.07120640575885773, -0.017614874988794327, -0.06244921311736107, -0.03799895569682121, -0.005044851917773485, -0.05511508136987686, -0.023444581776857376, 0.010297352448105812, 0.05722632631659508, 0.014893523417413235, -0.01421269215643406, -0.0007257292163558304, -0.05732005089521408, -0.01525338739156723, 0.12383405864238739, 0.13453520834445953, -0.0972619280219078, -0.10755506157875061, 0.031830206513404846, 0.08472444117069244, -0.04591291770339012, 0.117823027074337, 0.10696546733379364, -0.10183371603488922, -0.15547354519367218, -0.1063045933842659, -0.06185358017683029, 0.06659721583127975, -0.027783125638961792, -0.10704103857278824, -0.10809104144573212, -0.16898296773433685, -0.09175219386816025, -0.08834509551525116, -0.07559951394796371, 0.07074956595897675, -0.052909966558218, -0.018345043063163757, -0.10099484771490097, -0.09624869376420975, -0.07351671904325485, -0.09523779153823853, -0.10815729200839996, -0.0679938942193985, 0.041577428579330444, -0.03001359850168228, -0.03204863891005516, 0.024226224049925804, -0.003663522657006979, 0.00901180598884821, -0.006713941227644682, -0.014428073540329933, -0.02672094665467739, 0.005507481750100851, -0.024685537442564964, -0.0055324966087937355, 0.03607633337378502, 0.0616011843085289, 0.016911271959543228, 0.021383460611104965, 0.032612916082143784, -0.01988251321017742, -0.01908043585717678, 0.02126125618815422, 0.03589415177702904, -0.02685169130563736, -0.02727314457297325, 0.05543232709169388, 0.040737077593803406, -0.002266459632664919, 0.014262069948017597, -0.01878463104367256, -0.058742672204971313, -0.13043718039989471, -0.09975483268499374, -0.03681107237935066, -0.011949439533054829, 0.0004012970020994544, -0.03287589177489281, -0.0703204944729805, -0.07437159866094589, -0.04501057788729668, -0.05847368389368057, -0.0023715768475085497, -0.005742068402469158, -0.006096723023802042, 0.02974761463701725, 0.015960311517119408, 0.0005646221106871963, -0.0028539334889501333, -0.037559375166893005, 0.012605711817741394, 0.0008974101510830224, -0.04466615617275238, 0.003468227805569768, 0.02159471996128559, 0.09218095988035202, -0.006985552608966827, 0.015219809487462044, -0.010199709795415401, -0.0030908752232789993, -0.003239187179133296, 0.022103657945990562, 0.01671004854142666, -0.0004265298484824598, 0.020536432042717934, -0.024834729731082916, -0.00395599938929081, -0.04407896846532822, 0.04287511110305786, 0.004858382511883974, -0.01746029406785965, 0.04281392693519592, -0.06391134858131409, -0.008778328076004982, 0.02430790103971958, -0.03212377801537514, -0.032213225960731506, -0.014930382370948792, 0.03799160197377205, -0.045446816831827164, 0.0072977724485099316, 0.08709622174501419, -0.019909055903553963, 0.007838340476155281, -0.010703375563025475, 0.020253244787454605, -0.017845284193754196, -0.027921920642256737, 0.014325889758765697, 0.06676429510116577, 0.01913375034928322, -0.044856250286102295, -0.10840976238250732, -0.04923184961080551, -0.003250748384743929, 0.05273381620645523, 0.05869070068001747, -0.05251855030655861, -0.007907388731837273, 0.03172481060028076, 0.05123429745435715, 0.02492494136095047, 0.06512761861085892, 0.0716567113995552, -0.014926240779459476, 0.014387955889105797, 0.014867346733808517, 0.010656054131686687, -0.002797734457999468, 0.028679359704256058, 0.024153925478458405, 0.010648789815604687, -0.009081479161977768, -0.015741607174277306, -0.03731927648186684, -0.026383938267827034, 0.039320264011621475, 0.04089248552918434, -0.004678025376051664, -0.03574083745479584, 0.01839473471045494, -0.03845562785863876, 0.012294611893594265, 0.0690690204501152, -0.015044385567307472, 0.025024566799402237, 0.0019787228666245937, 0.021710187196731567, -0.029135242104530334, 0.11055915802717209, -0.028431938961148262, -0.026828544214367867, -0.018612001091241837, -0.03955497592687607, -0.004883251152932644, 0.04428483545780182, -0.028041692450642586, 0.01717514730989933, -0.04647618159651756, -0.03633343055844307, -0.04957526549696922, 0.007188905496150255, 0.0364973247051239, 0.051641907542943954, -0.02284814603626728, 0.009609057568013668, -0.03114945814013481, 0.01009499654173851, 0.005992770195007324, 0.031240925192832947, 0.014840559102594852, 0.0376775786280632, 0.014898314140737057, 0.02387193776667118, -0.0009467365453019738, 0.009937656112015247, 0.002606170019134879, -0.0015324369305744767, 0.02300826460123062, 0.010432533919811249, -0.020449908450245857, -0.02118512988090515, 0.0067176176235079765, 0.019053427502512932, -0.01261470839381218, -0.05833132192492485, 0.004202565643936396, -0.016291774809360504, -0.04214002192020416, 0.004756172653287649, -0.004049265757203102, -0.029468577355146408, -0.05938294157385826, -0.028081659227609634, -0.011709199286997318, -0.019199158996343613, 0.03280540183186531, 0.03022138960659504, -0.05153151601552963, 0.005454340483993292, 0.0026900474913418293, -0.031913187354803085, -0.013408097438514233, -0.009772496297955513, -0.019382106140255928, -0.010691186413168907, -0.04312216117978096, 0.0027935090474784374, 0.023232940584421158, 0.012886852025985718, -0.0068473732098937035, -0.018188195303082466, 0.023569898679852486, -0.005138273350894451, -0.04660250246524811, 0.0034731507766991854, -0.0406869575381279, 0.023957980796694756, 0.0015149422688409686, 0.04441366344690323, -0.015555978752672672, -0.007856091484427452, -0.025228247046470642, -0.03816639259457588, 0.005401664413511753, 0.006562392693012953, -0.005667410790920258, 0.003152877790853381, 0.02206134982407093, -0.0037298284005373716, 0.003717067651450634, 0.021823039278388023, 0.018882542848587036, 0.02484259195625782, 0.0030012328643351793, -0.005072406958788633, 0.016034873202443123, -0.023965416476130486, 0.03739744797348976, 0.04106683284044266, -0.01688344031572342, -0.004572439473122358, 0.057717908173799515, 0.06790030002593994, -0.0753171443939209, -0.0019703516736626625, -0.024316037073731422, -0.03828281909227371, -0.08239377290010452, -0.030342496931552887, 0.00014485808787867427, -0.013480101712048054, 0.006987299304455519, -0.008008954115211964, -0.006496449001133442, 0.002570497803390026, -0.0749310776591301, -0.07040374726057053, -0.03714039549231529, 0.01406419649720192, -0.027699733152985573, -0.019150355830788612, -0.028811033815145493, -0.027844281867146492, -0.07604163140058517, -0.01374331396073103, 0.020797692239284515, -0.017718059942126274, 0.009644901379942894, 0.053395867347717285, 0.011194859631359577, 0.04910465329885483, -0.03336890786886215, 0.023690419271588326, 0.018545089289546013, 0.005390346050262451, 0.0014433350879698992, 0.005892976652830839, -0.03217769041657448, 0.023230548948049545, 0.02668723650276661, 0.0104950200766325, -0.044875819236040115, 0.00400971993803978, 0.03512362018227577, -0.015772920101881027, -0.04927258566021919, 0.011063424870371819, -0.008126510307192802, 0.006506072357296944, 0.04011308774352074, 0.012137827463448048, 0.024904390797019005, -0.029659653082489967, 0.035104308277368546, 0.021236618980765343, 0.07162337005138397, 0.006905821617692709, -0.00735448207706213, 0.0076638818718492985, 0.005521436687558889, 0.03987367823719978, -0.03543704003095627, 0.039650484919548035, 0.006813389714807272, -0.013180719688534737, 0.03816373273730278, -0.02445741556584835, -0.02720506303012371, -0.028743019327521324, 0.0007166482973843813, -0.01859084889292717, 0.012128190137445927, 0.005534851457923651, -0.01455055270344019, 0.03479596599936485, 0.03863713517785072, 0.013862536288797855, -0.022687241435050964, 0.017410630360245705, -0.034036990255117416, -0.002284156158566475, -0.01939629204571247, -0.012889164499938488, 0.005072673782706261, -0.0013235638616606593, -0.01650327257812023, -0.04072079807519913, -0.01315357256680727, 0.021806377917528152, 0.04152718558907509, -0.0075774542056024075, 0.018597129732370377, 0.015888923779129982, -0.013946269638836384, -0.10945818573236465, -0.036973368376493454, -0.04311190918087959, -0.012544099241495132, 0.050212960690259933, -0.10750875622034073, -0.07473196089267731, -0.0754886120557785, 0.06625669449567795, 0.09005232155323029, 0.07030873000621796, -0.012100468389689922, -0.04760219156742096, -0.06355144828557968, -0.08863868564367294, -0.006850948557257652, 0.058312226086854935, 0.03232938423752785, -0.03363402932882309, -0.029335031285881996, -0.0003284206031821668, -0.08658417314291, -0.0735311508178711, -0.0021626560483127832, -0.03500555083155632, -0.020774347707629204, 0.011867016553878784, -0.01650884561240673, -0.07964690774679184, 0.012138457037508488, 0.0663711428642273, -0.004017473664134741, -0.019072478637099266, -0.048345357179641724, -0.0601825937628746, -0.06583500653505325, 0.011252540163695812, -0.0033666715025901794, 0.017750566825270653, -0.008097614161670208, -0.005783053580671549, -0.010009635239839554, 0.018995853140950203, 0.018480058759450912, -0.02501554600894451, -0.01900741271674633, 0.019027549773454666, 0.007693287450820208, -0.01912829652428627, -0.012235840782523155, 0.016361558809876442, -0.040839143097400665, -0.06779925525188446, 0.020851412788033485, 0.06958501040935516, -0.05107757821679115, 0.012579728849232197, -0.005685030948370695, 0.00027415945078246295, -0.003996378742158413, 0.0006904560141265392, 0.001031149411574006, 0.07749895751476288, 0.002228457946330309, 0.04524783417582512, -0.009123220108449459, 0.0013134193141013384, -0.0022097360342741013, 0.028215212747454643, 0.029682695865631104, 0.0020535460207611322, 0.0018836164381355047, -0.016318559646606445, -0.0038846235256642103, -0.04019325599074364, 0.004465187434107065, -0.018035858869552612, 0.013045337051153183, 0.018018778413534164, 0.08252349495887756, 0.028530074283480644, 0.0022671902552247047, 0.006995462346822023, -0.006171748507767916, 0.022477159276604652, -0.004904263187199831, -0.010365471243858337, -0.0048863645642995834, 0.01670418679714203, 0.062329597771167755, 0.05555969476699829, -0.03960872441530228, -0.030442500486969948, -0.03488974645733833, -0.06062866002321243, -0.09572461247444153, -0.008985105901956558, 0.00870603695511818, -0.03129378706216812, -0.02122388780117035, 0.01422343123704195, -0.025807665660977364, -0.004074103198945522, 0.01867598667740822, -0.03181108832359314, -0.028910184279084206, 0.07431311905384064, 0.026100626215338707, 0.10630219429731369, 0.047629617154598236, -0.016667278483510017, -0.04679392650723457, -0.0677061527967453, 0.0003128530806861818, 0.01107996515929699, 0.0073881596326828, -0.029840361326932907, -0.04054490104317665, -0.039094313979148865, -0.040552858263254166, -0.05459225922822952, 0.0509645938873291, -0.01865873672068119, -0.09570246934890747, -0.08143208175897598, -0.03904908522963524, -0.050490327179431915, -0.003280543489381671, 0.044252555817365646, 0.027513161301612854, 0.009898677468299866, 0.07671846449375153, 0.00914783775806427, -0.06533224880695343, -0.006264663767069578, -0.012937028892338276, -0.006237027235329151, -0.009933705441653728, -0.03164760395884514, -0.01649540662765503, 0.016179922968149185, 0.0030938396230340004, 0.02315114066004753, -0.017479486763477325, -0.02498268336057663, 0.021599845960736275, -0.013194921426475048, -0.00468811159953475, 0.007628775201737881, -0.01612667925655842, 0.005500595550984144, -0.010617224499583244, 0.00443362956866622, 0.02598593570291996, -0.014304417185485363, -0.03188285976648331, -0.040935538709163666, -0.015991413965821266, 0.03436434268951416, 0.03571845591068268, 0.0875968486070633, 0.013737364672124386, -0.01607724279165268, -0.021898966282606125, 0.01911953091621399, 0.04581291973590851, 0.019580289721488953, 0.001995523925870657, -0.024117711931467056, 0.02583445981144905, 0.020990878343582153, 0.02911631390452385, 0.05336572974920273, 0.059576768428087234, -0.04120540991425514, -0.005618783179670572, 0.029358908534049988, 0.021904030814766884, -0.003826488507911563, -0.0129054244607687, -0.0016771170776337385, -0.005888050422072411, -0.008924232795834541, -0.022950397804379463, -0.0011467768345028162, 0.0190343726426363, 0.00816100463271141, 0.06333950906991959, -0.025029651820659637, 0.0184231698513031, -0.013225262053310871, -0.05373840034008026, -0.0017868682043626904, 0.018795887008309364, 0.0029110803734511137, -0.009449477307498455, 0.016999825835227966, 0.002620561746880412, -0.05717213451862335, -0.010207755491137505, 0.07328329980373383, 0.02500738762319088, 0.0757567435503006, 0.03871367126703262, 0.024765705689787865, 0.017061294987797737, 0.06325341016054153, 0.052173372358083725, 0.0837864875793457, 0.05698290839791298, 0.025844495743513107, -0.0036097888369113207, 0.014549773186445236, 0.05376742035150528, 0.08588384091854095, 0.05269565433263779, 0.0012965286150574684, 0.034846555441617966, 0.0035786996595561504, 0.03495652228593826, 0.036049555987119675, 0.01201693993061781, 0.06779606640338898, -0.011613193899393082, 0.006238442379981279, 0.0424005351960659, 0.03529539704322815, -0.015002801083028316, 0.028592005372047424, 0.051870618015527725, -0.0008334879530593753, 0.022308412939310074, 0.023625006899237633, 0.07117104530334473, -0.02730770781636238, 0.006764472462236881, 0.004938533995300531, 0.10690723359584808, -0.007711194455623627, 0.029630837962031364, 0.1040196567773819, -0.025403978303074837, -0.005148738622665405, 0.005136370658874512, 0.03855137526988983, -0.0036847626324743032, 0.03171135485172272, 0.038797419518232346, 0.05718505382537842, -0.11090613156557083, -0.040779948234558105, 0.004360903520137072, 0.05924975126981735, 0.02181660383939743, 0.03781919553875923, 0.11468222737312317, -0.12744097411632538, -0.12497421354055405, -0.0856698602437973, -0.03356814756989479, -4.4887347030453384e-05, -0.04142649471759796, 0.031307153403759, -0.018240706995129585, -0.10295261442661285, -0.004277069121599197, -0.11152756959199905, 0.04321809858083725, -0.03583306819200516, 0.011104043573141098, 0.04081219434738159, -0.10529875010251999, 0.008441939018666744, -0.026035485789179802, -0.017389018088579178, -0.0402538999915123, 0.04619248956441879, -0.02255750633776188, -0.08804240822792053, 0.12105552852153778, 0.057355836033821106, 0.010731430724263191, -0.025921031832695007, -0.011475683189928532, 0.0375722274184227, 0.02392534725368023, -0.007524216081947088, -0.010030262172222137, 0.05641385167837143, 0.06449711322784424, 0.006946633104234934, -0.02384861744940281, -0.025668462738394737, -0.00188412272837013, -0.05873018875718117, 0.06762414425611496, 0.023419441655278206, -0.10912251472473145, -0.022305956110358238, 0.03772301971912384, -0.03455778956413269, -0.05664108693599701, 0.08020374178886414, 0.03370149806141853, -0.11961566656827927, -0.17129409313201904, -0.06707803905010223, 0.014167002402245998, -0.013194541446864605, -0.007416298147290945, -0.029093608260154724, -0.17001615464687347, -0.24554826319217682, -0.11785783618688583, -0.07166563719511032, -0.0266415998339653, -0.04573758691549301, -0.03328321501612663, -0.043627724051475525, -0.0682106539607048, -0.04771633446216583, -0.028072454035282135, -0.02952595055103302, 0.03753912076354027, 0.006094363518059254, 0.03093567304313183, -0.01790986768901348, -0.03733030706644058, 0.018408244475722313, -0.019542740657925606, 0.06317248940467834, 0.09154830873012543, 0.018101423978805542, 0.010331278666853905, 0.1236293837428093, 0.10200070589780807, 0.09211894124746323, 0.01163026038557291, -0.009865040890872478, 0.003877843264490366, 0.028387367725372314, -0.016365356743335724, -0.0795784741640091, -0.04236144199967384, 0.05931181088089943, 0.02919231913983822, -0.04031190276145935, -0.006168703082948923, -0.0014448630390688777, -0.007979867048561573, -0.08293088525533676, 0.026345888152718544, -0.014312699437141418, -0.09513799101114273, -0.1559392362833023, -0.016847187653183937, -0.04465368017554283, -0.040352143347263336, 0.002154227579012513, -0.04466930404305458, -0.13979433476924896, -0.2051750272512436, -0.09267596900463104, -0.07388463616371155, -0.04953739047050476, -0.007495821453630924, -0.06855740398168564, -0.037276722490787506, 0.03323754295706749, -0.0809253454208374, -0.04180388152599335, -0.012513385154306889, 0.08674632012844086, 0.08646451681852341, -0.044160570949316025, -0.06685804575681686, -0.054873574525117874, -0.02184680849313736, -0.07278736680746078, 0.03804999962449074, 0.029421420767903328, -0.025238236412405968, -0.0018097126157954335, -0.0209349375218153, -0.053642164915800095, -0.009345291182398796, 0.020398329943418503, 0.027880828827619553, 0.030623119324445724, 0.06249658018350601, -0.005470792762935162, -0.07374139875173569, -0.10964325070381165, 0.07741159200668335, 0.07386995106935501, -0.023458153009414673, -0.02321091666817665, -0.0016602319665253162, -0.006039476953446865, -0.043275825679302216, 0.008549774996936321, 0.001196803874336183, -0.011849424801766872, -0.050718214362859726, -0.02000121958553791, -0.026111604645848274, -0.09151791781187057, 0.0007854016148485243, -0.003033783519640565, -0.09628221392631531, -0.033931199461221695, -0.05474715307354927, -0.056817080825567245, -0.03710813447833061, 0.04157378897070885, 0.007120340131223202, 0.02429984137415886, -0.030982675030827522, -0.05058564245700836, -0.010477385483682156, -0.027272900566458702, -0.023514674976468086, 0.03293551877140999, 0.03420144319534302, -0.0067901331931352615, -0.02829328365623951, 0.052442003041505814, 0.030076341703534126, 0.005905449856072664, 0.0021910672076046467, 0.00933618564158678, 0.022900177165865898, 0.015645409002900124, -0.01065132673829794, -0.014690684154629707, 0.022788014262914658, 0.025252647697925568, 0.007705190684646368, -0.03299543634057045, 0.004219584632664919, -0.02315881848335266, 0.002460338408127427, 0.03258589282631874, 0.02133995108306408, 0.007383744698017836, -0.020938368514180183, 0.027113275602459908, 0.0012508518993854523, -0.011675412766635418, -0.017624374479055405, 0.020002052187919617, -0.0019384711049497128, -0.020595582202076912, -0.010197518393397331, -0.002591137308627367, -0.0011555368546396494, -0.019993610680103302, -0.002877776976674795, -0.06213555112481117, -0.056886687874794006, 0.007875774055719376, -0.00956976693123579, 0.012982463464140892, 0.007850580848753452, 0.0017163571901619434, -0.024214228615164757, 0.0028127767145633698, -0.023058956488966942, -0.047487709671258926, -0.018112780526280403, 0.03443639725446701, -0.024308420717716217, -0.047535475343465805, -0.008409139700233936, -0.03350261598825455, 0.019589738920331, -0.012908920645713806, 0.0030264584347605705, -0.001564317848533392, 0.018987445160746574, -0.007161397021263838, 0.010608787648379803, 0.013432218693196774, 0.006363274063915014, -0.009550362825393677, -0.052290670573711395, -0.03394206985831261, 0.028628110885620117, -0.0009097300353460014, 0.04297585040330887, -0.013561513274908066, -0.002595280995592475, -0.02545827440917492, -0.014911227859556675, -0.022798674181103706, 0.04042823985219002, 0.06024087220430374, 0.017729323357343674, 0.004283195827156305, 0.0284326933324337, 0.022496555000543594, 0.10491921752691269, 0.035911545157432556, 0.026212399825453758, -0.006704858969897032, 0.049902938306331635, -0.01484550442546606, 0.0388321653008461, 0.00039525775355286896, 0.03334842994809151, 0.04763711988925934, 0.012094358913600445, 0.008567660115659237, -0.00015894975513219833, -0.004995844326913357, 0.021287156268954277, 0.017777306959033012, 0.0180268045514822, -0.004055648576468229, -0.002328570932149887, 0.0752401202917099, 0.03879370540380478, 0.025005782023072243, -0.0092422254383564, 0.0030896917451173067, -0.0026032249443233013, 0.006816153880208731, 0.011885430663824081, 0.014630317687988281, -0.005627579987049103, 0.01746693253517151, 0.013048729859292507, 0.006079287268221378, 0.008048179559409618, -0.01880519464612007, -0.05364934727549553, -0.026755889877676964, -0.0071138376370072365, 0.03502621874213219, -0.011457252316176891, 0.0005045846337452531, -0.03134327381849289, -0.011184446513652802, 0.06341122090816498, 0.03573377802968025, 0.06930457800626755, 0.0024200633633881807, -0.005384719930589199, 0.034396685659885406, 0.09011789411306381, 0.08953928202390671, 0.058646801859140396, 0.02258354239165783, 0.011147186160087585, 0.001128677511587739, 0.03146728500723839, 0.029842006042599678, 0.008117632940411568, 0.05191135033965111, 0.040339644998311996, -0.02450576238334179, 0.024566510692238808, -0.03285536915063858, 0.03069976530969143, 0.011286905966699123, -0.01708460971713066, 0.004804522264748812, 0.004986375104635954, 0.0035658259876072407, 0.016214502975344658, 0.04877772182226181, -0.02315777726471424, 0.0579422265291214, 0.0004907802795059979, -0.005877666641026735, 0.010717207565903664, -0.02751096524298191, -0.04958784952759743, 0.06353569030761719, 0.014072687365114689, 0.003925926983356476, -0.0015875225653871894, -0.05110093578696251, -0.1088690310716629, -0.01878180354833603, 0.06514677405357361, 0.018642889335751534, -0.00978025235235691, -0.02583318017423153, -0.02544511668384075, -0.02491663582623005, -0.015583274886012077, 0.02124899812042713, 0.04120471328496933, 0.04924184828996658, -0.01045716367661953, 0.0032951384782791138, 0.005285100545734167, 0.09830515086650848, 0.14570170640945435, 0.04273178055882454, 0.002196189481765032, -0.03341909870505333, -0.0025258949026465416, 0.01885194517672062, 0.0034432162065058947, 0.04158449545502663, 0.09259761869907379, -0.013785026036202908, -0.00867778155952692, -0.013642502948641777, 0.01862594485282898, -0.03305681794881821, 0.05343722552061081, 0.04983821511268616, 0.010621719062328339, 0.009797917678952217, -0.06575717031955719, 0.06028660759329796, 0.011407685466110706, 0.0037272630725055933, 0.029684821143746376, 0.013353237882256508, -0.005747529678046703, -0.026393255218863487, 0.012121851556003094, 0.021314773708581924, -0.05039325729012489, 0.08171863853931427, 0.02309073694050312, 0.04123425483703613, 0.05978050082921982, 0.05019382759928703, 0.13137240707874298, 0.054252833127975464, -0.02532031573355198, 0.02302483096718788, 0.001503320992924273, 0.12010747194290161, -0.0004604719579219818, -0.15070299804210663, -0.03779074177145958, 0.07781322300434113, 0.11720152199268341, -0.03988214209675789, 0.09716872125864029, -0.03696834295988083, -0.13331827521324158, -0.10740587115287781, -0.0032427043188363314, 0.03158099204301834, -0.08413232117891312, -0.0189635269343853, -0.02608635649085045, -0.034000661224126816, -0.06570399552583694, -0.0014940723776817322, -0.022937700152397156, -0.02130388654768467, 0.07924604415893555, -0.055643461644649506, -0.02605326659977436, -0.012156246230006218, -0.08313936740159988, -0.09339259564876556, 0.019456181675195694, -0.06773215532302856, -0.028055110946297646, -0.022797057405114174, 0.0025483842473477125, 0.037702128291130066, 0.019834961742162704, -0.007268496789038181], "bias": 0.00583624467253685}