{"layer": "fc1", "index": 127, "weights": [0.010118886828422546, -0.013953935354948044, 0.008549584075808525, -0.007581072859466076, 0.0025562960654497147, -0.0019232050981372595, 0.009359827265143394, -0.001976681873202324, -0.009693721309304237, -0.022272514179348946, 0.003798181191086769, -0.0026880272198468447, 0.005331952124834061, 0.0007041394710540771, 0.00010523013770580292, -0.002368553075939417, 0.0032827507238835096, 0.007892324589192867, 0.008548286743462086, -0.0011432685423642397, -0.002662133425474167, -0.018096305429935455, -0.020737888291478157, -0.0038493110332638025, 0.0024981070309877396, -0.011281768791377544, 0.0106709199026227, -0.008398229256272316, -0.02159027010202408, 0.007919837720692158, -0.013144899159669876, 0.004372171126306057, -0.0016648269956931472, -0.0036316048353910446, -0.008782136254012585, -0.0017271633259952068, -0.009534263983368874, -0.017155321314930916, -0.023499680683016777, 0.0038811378180980682, -0.0041068727150559425, -0.008016559295356274, 0.008634326979517937, 0.009958712384104729, -0.001174379838630557, 0.005718115251511335, 0.003634525230154395, -0.016524069011211395, -0.00966307707130909, 0.014528652653098106, -0.009711689315736294, -0.0017482098191976547, -0.01660168170928955, 0.02215142361819744, -0.007311333902180195, 0.016541270539164543, -0.014237510971724987, -0.020768089219927788, -0.009639604017138481, -0.01859794184565544, 0.017843298614025116, -0.0069146836176514626, 0.008468914777040482, 0.007905567064881325, 0.003655087435618043, 0.002056614262983203, -0.006727038882672787, -0.007636300288140774, -0.002710545202717185, -0.0034025199711322784, -0.008045611903071404, 0.006698093842715025, -0.022833332419395447, -0.022784244269132614, 0.001404680428095162, -0.008777296170592308, -6.647221744060516e-05, -0.007529302965849638, 0.0025841735769063234, -0.005867217667400837, -0.008347580209374428, -0.001980579923838377, -0.015770334750413895, -0.012309177778661251, -0.010941965505480766, -0.023830965161323547, -0.014223180711269379, -0.010424342006444931, 0.006294140592217445, -0.00820590928196907, -0.007933796383440495, -0.015320684760808945, -0.006575972307473421, 0.002509341575205326, -0.007844478823244572, -0.01975140906870365, 0.011510301381349564, -0.005515118595212698, 0.004754393827170134, -0.015877746045589447, -0.005293500144034624, 0.0026400964707136154, -0.015417439863085747, -0.004434617701917887, -0.017517179250717163, 0.0031341230496764183, 5.2281622629379854e-05, -0.02080870419740677, -0.0007823058404028416, -0.017823491245508194, -0.022191694006323814, -0.007738425862044096, -0.012138528749346733, 0.0033086519688367844, -0.00479691568762064, -0.013238460756838322, 0.0031025016214698553, -0.0014026875142008066, -0.004733429290354252, -0.021946920081973076, -0.018393687903881073, -0.011457795277237892, -0.01252821832895279, 0.001112959231249988, 0.008049228228628635, -0.020929764956235886, -0.01346744317561388, -0.017956146970391273, -0.018794385716319084, -0.0116317979991436, -0.012268131598830223, -0.007310116197913885, -0.011050035245716572, -0.006760576274245977, -0.006530527025461197, -0.021003492176532745, 0.005624484270811081, -0.0046268426813185215, 0.0030708606354892254, -0.018235204741358757, -0.010006801225244999, -0.02124222181737423, 0.011409636586904526, 0.0035414041485637426, -0.015009614638984203, -0.01501050777733326, -0.023768434301018715, 0.0168559942394495, -0.006298680789768696, -0.006326728500425816, -0.010213714092969894, 0.01655387692153454, 0.00334177166223526, 0.017760248854756355, 0.010579234920442104, 0.009609997272491455, 0.009965099394321442, -0.008702057413756847, -0.009057854302227497, 0.007567416876554489, -0.004953784868121147, 0.0011623641476035118, 0.005610302090644836, -0.012272265739738941, -0.004120846278965473, 0.011557184159755707, 0.00618141982704401, 0.005305651109665632, -0.0019154326291754842, 0.012304749339818954, 0.008998148143291473, 0.006216863170266151, -0.013325328007340431, -0.014946111477911472, 0.0027559322770684958, -0.011659343726933002, -0.005426451563835144, -0.006547300145030022, 0.011558502912521362, 0.01365661807358265, -0.015140415169298649, -0.012594548985362053, -0.016918931156396866, -0.011265525594353676, -0.017517078667879105, 0.014577651396393776, 0.015038004145026207, 0.00010128577559953555, 0.00021863984875380993, 0.006063299253582954, -0.005740439053624868, -0.010610129684209824, -0.0013436563313007355, -0.019041940569877625, -0.0052206674590706825, 0.006110097281634808, -0.015765570104122162, -0.0015320796519517899, -0.0011406166013330221, -0.0114559605717659, 0.0007570430752821267, -0.0011033660266548395, 0.000548880489077419, -0.0020455587655305862, -0.012308710254728794, 0.00220415648072958, 0.01134546659886837, -0.011369925923645496, 0.007845775224268436, 0.0028344718739390373, -0.010515881702303886, -0.008682161569595337, -0.0185474194586277, -0.01738031953573227, -0.004196320194751024, 0.010564394295215607, 0.016545990481972694, -0.01706511154770851, -0.0069694616831839085, -0.01726340875029564, -0.0016210397006943822, 0.006781666073948145, 0.0031161231454461813, -0.009881852194666862, 0.011050993576645851, -0.015034351497888565, 0.005334208253771067, 0.0015310612507164478, -0.0037734913639724255, -0.016130508854985237, 0.02129213511943817, 0.004123646765947342, -0.016777029260993004, 0.009911938570439816, -0.004939796403050423, 0.004248638171702623, -0.009554760530591011, -0.008422499522566795, 0.013125136494636536, 0.00851923506706953, -0.013551967218518257, -0.019057614728808403, 0.005139629822224379, -0.0033726771362125874, -0.0056550269946455956, -0.022851089015603065, -0.003394962986931205, -0.002509859623387456, -0.01754552312195301, -0.015181762166321278, -0.012926961295306683, -0.01262112520635128, -0.01693107932806015, -0.00284069636836648, -0.009437689557671547, 0.009829636663198471, -0.017021408304572105, -0.014917034655809402, 0.010824378579854965, -0.004963141866028309, 0.009521652944386005, 0.003594106063246727, 0.011425275355577469, -0.006925789173692465, -0.009029209613800049, -0.014401383697986603, -0.0079651502892375, 0.0053376369178295135, 0.011099756695330143, 0.002093356102705002, 0.0019223404815420508, -0.007238509599119425, -0.014767913147807121, -0.008741172961890697, -0.023236051201820374, -0.020216934382915497, 0.008437776006758213, -0.02385067008435726, 0.008993297815322876, -0.014710827730596066, 0.010168843902647495, 0.0024706448893994093, -0.016034254804253578, 0.006111283786594868, -0.005795618519186974, 0.004758977331221104, -0.008575697429478168, -0.02037399634718895, -0.01958397403359413, -0.010589532554149628, -0.00617002509534359, -0.0034554318990558386, -0.004735857713967562, 0.004259165376424789, 0.0177182424813509, 0.004502471536397934, 0.006198811810463667, -0.0014665417838841677, 0.00369949615560472, -0.0053349765948951244, -0.013625689782202244, 0.008643997833132744, -0.008827959187328815, 0.01024879701435566, -0.003299231408163905, -0.0071403635665774345, -0.002330258022993803, 0.011023849248886108, -0.007388064172118902, -0.010148422792553902, -0.002026971196755767, -0.005234365817159414, -0.02365800552070141, -0.018877685070037842, -0.0031087093520909548, -0.011065353639423847, 0.00784868374466896, 0.010677707381546497, 0.00709525914862752, -0.01578591763973236, -0.02143014967441559, 0.004854593425989151, -0.002641250379383564, 0.005370011553168297, 0.011771060526371002, -0.008840018883347511, 0.0016285825986415148, -0.013978325761854649, -0.011699330061674118, 0.009698700159788132, -0.004758581984788179, -0.0006147283129394054, 0.0062636202201247215, -0.007697922643274069, 0.020074719563126564, -0.009227685630321503, -0.0069483546540141106, -0.015484112314879894, 0.011403840035200119, 0.004867302719503641, -0.002168667735531926, -0.006595302373170853, 0.0012971673859283328, -0.01828525774180889, -0.01608443632721901, 0.008957784622907639, -0.021343357861042023, 0.007048177067190409, -0.002788031008094549, -0.00817105546593666, -0.01583174243569374, 0.007536105811595917, 0.011573657393455505, -0.015625758096575737, -0.019560055807232857, 0.0031248736195266247, -0.016958728432655334, -0.005269127897918224, 0.007775742560625076, 1.379056539008161e-05, -0.002845141338184476, -0.0206967331469059, -0.011566303670406342, -0.013519532978534698, -0.004575164522975683, -0.016407206654548645, 0.0068109952844679356, 0.010023370385169983, -0.02099318616092205, -0.01687493547797203, -0.007327374070882797, 0.006032934878021479, -0.01893647015094757, 0.0047097355127334595, 0.005206965375691652, -0.004658913239836693, -0.015035539865493774, -0.023579135537147522, -0.009207374416291714, -0.005093448795378208, -0.021404139697551727, -0.019571851938962936, -0.020908981561660767, 0.006702574901282787, -0.002036050893366337, 0.01532578282058239, -0.009397824294865131, 0.00030165817588567734, 0.007021747995167971, 0.00463323388248682, -0.02257515676319599, 0.005926275625824928, 0.015883171930909157, 0.011703560128808022, -0.005082403309643269, -0.0028611738234758377, -0.015283327549695969, -0.012185551226139069, -0.011423264630138874, 0.0030925367027521133, 0.004352651536464691, 0.016660278663039207, -0.022023582831025124, 0.010709047317504883, -0.004856705665588379, -0.00565941259264946, -0.01607462204992771, 0.012593729421496391, 0.023293638601899147, 0.0099193025380373, 0.0076703522354364395, 0.012045112438499928, -0.010441150516271591, -0.003835146315395832, -0.015142862685024738, 0.001573269721120596, 0.02313033677637577, -0.01272096298635006, -0.00483796326443553, 0.015134690329432487, -0.012422326020896435, 0.00487566040828824, 0.0077337101101875305, -0.0005994708626531065, 0.004098579287528992, 0.007657513953745365, -0.008015378378331661, -0.0070908451452851295, -0.0065658921375870705, 0.0012907892232760787, -0.0016355494735762477, -0.020169518887996674, -0.010977932251989841, -0.011044153943657875, -0.006626359187066555, 0.00102279894053936, 0.0029996298253536224, 0.001545008271932602, -0.013902470469474792, 0.010807253420352936, -0.00524971354752779, -0.018818050622940063, 0.0019302807049825788, 0.001290470827370882, 0.009014837443828583, 0.0030225198715925217, -0.018962286412715912, 0.0013527103001251817, -0.012456963770091534, -0.022460004314780235, -0.003755166893824935, -0.018680453300476074, -0.022603405639529228, 0.010221130214631557, -0.017057619988918304, 0.005461307242512703, 0.0028342469595372677, -0.0005311199929565191, -0.010734202340245247, -0.0034903092309832573, -0.023052653297781944, -0.01323180552572012, -0.010798386298120022, -0.017214128747582436, -0.0024362709373235703, -0.0020877562928944826, -0.01264923345297575, 0.01024972926825285, -0.01668635755777359, -0.0016399972373619676, -0.02199542708694935, -0.01772434636950493, -0.023034127429127693, -0.007778610102832317, -0.013463920913636684, 0.011514166370034218, -0.011037209071218967, -0.012831345200538635, -0.020553426817059517, 0.0017837092746049166, 0.008927958086133003, -0.00782776903361082, -0.019212767481803894, -0.013310620561242104, -0.017367519438266754, 0.002874764148145914, 0.01169869489967823, 0.0004031131393276155, -0.019310981035232544, -0.01674003340303898, 0.01527448557317257, -0.020920349285006523, 0.0049574407748878, -0.016232481226325035, 0.012576747685670853, -0.004658725578337908, 0.0031439512968063354, 0.00936367642134428, -0.003520168364048004, 0.011403791606426239, -0.018504224717617035, 0.003394627943634987, -0.021431222558021545, 0.009002631530165672, -0.016299448907375336, -0.013174996711313725, 0.005151424091309309, -0.018266884610056877, 0.0037353895604610443, -0.0020033284090459347, 0.0026991814374923706, -0.0036741765215992928, -0.0029227694030851126, -0.01415580790489912, 0.0026917727664113045, -0.00700741820037365, -0.007879843935370445, -0.012313024140894413, 0.010579160414636135, 0.0018500571604818106, -0.006656015291810036, -0.02181670255959034, -0.012208265252411366, -0.01775708608329296, -0.010348532348871231, 0.017917711287736893, -0.00763844745233655, -0.02316678874194622, -0.007583502680063248, 0.0016591963358223438, -0.005555757787078619, -0.010295428335666656, 0.008457567542791367, -0.022545022889971733, -0.01748516969382763, -0.021235128864645958, 0.016028793528676033, 0.010914945974946022, -0.006827052682638168, -0.009843610227108002, 0.008733954280614853, -0.023347556591033936, 0.00371621735394001, 0.007138231303542852, -0.018444731831550598, -0.00149138318374753, -0.019985085353255272, -0.01790454052388668, -0.0015381074044853449, -0.017922930419445038, -0.018592122942209244, -0.01797848753631115, -0.017571087926626205, -0.006731480360031128, -0.0034093812573701143, -0.01469526905566454, -0.0066726189106702805, -0.009089283645153046, -0.021845566108822823, 0.0016997670754790306, -0.008744697086513042, 0.00932255107909441, -0.012647094205021858, -0.001803598483093083, -0.004367801360785961, -0.015380640514194965, -0.004108679946511984, -0.018431685864925385, 0.008565465919673443, -0.012806521728634834, -0.023579604923725128, 0.0010801921598613262, -0.008590239100158215, -0.02025950886309147, -0.004600280895829201, -0.008537816815078259, -0.007970139384269714, 0.001572132925502956, 0.007223311346024275, 0.005466748960316181, 0.004808157216757536, -0.0049766614101827145, -0.0017587932525202632, -0.009262670762836933, -0.020997973158955574, -0.009451653808355331, -0.018485913053154945, -0.002076737815514207, -0.007151873782277107, 0.005057797767221928, 0.008060313761234283, 0.009005184285342693, 0.0077891661785542965, -0.0038742017932236195, -0.005901194177567959, -0.011279583908617496, 0.0003490700910333544, -0.0219698678702116, 0.022190095856785774, -0.0014535828959196806, -0.01072967704385519, -0.011757995001971722, -0.01770111545920372, 0.010603765957057476, -0.012677439488470554, -0.021669846028089523, -0.012634594924747944, -0.010556447319686413, -0.023702014237642288, 0.008738194592297077, -0.008867695927619934, -0.010767672210931778, 0.012643400579690933, -0.003777326550334692, 0.007660523056983948, -0.005961952265352011, -0.013733982108533382, 0.006024588830769062, 0.010745881125330925, 0.0033974137622863054, 0.00010698504047468305, -0.0035085089039057493, 0.003814146388322115, 0.0025260711554437876, -0.02113473229110241, -0.00837387889623642, 0.022912833839654922, -0.0024887891486287117, 0.002188753103837371, -0.003960567060858011, 0.009503114968538284, 0.009497251361608505, -0.01042551826685667, -0.02078809216618538, 0.005944231990724802, -0.019969569519162178, 0.011208094656467438, 0.01062590442597866, 0.007377291098237038, -0.009886049665510654, 0.010306648910045624, 0.010605117306113243, 0.008711014874279499, 0.0048511093482375145, -0.01723727025091648, 0.01036966871470213, -0.015691541135311127, -0.007991698570549488, 0.009238481521606445, -0.003780701896175742, -0.006012078374624252, -0.017558157444000244, 0.002948288805782795, -0.010773031041026115, 0.00946088321506977, -0.012305512093007565, -0.0022800955921411514, -0.010351903736591339, 0.0006056450656615198, -0.004519521724432707, -0.017639553174376488, -0.02120913937687874, -0.007626226171851158, 0.00947488658130169, -0.016453318297863007, -0.011991539970040321, 0.006071490701287985, 0.005555801093578339, -0.02135862410068512, 0.0007531040464527905, -0.01081438921391964, 0.003949029836803675, 0.010932622477412224, -0.008663236163556576, 0.007318432442843914, -0.0038811375852674246, 0.011237590573728085, 0.010437444783747196, -0.0077179353684186935, -0.020232481881976128, -0.018453991040587425, 0.0008957802783697844, -0.001729726092889905, 0.005045942030847073, 0.010236968286335468, -0.010807380080223083, -0.01219248492270708, -0.013771389611065388, -0.00691794790327549, -0.006040382664650679, 0.010837463662028313, 0.011570105329155922, -0.007280974183231592, 0.011507618241012096, -0.014203839004039764, 0.011643826961517334, -0.01834871619939804, -0.010396743193268776, -0.005875485483556986, -0.015488912351429462, -0.018640490248799324, -0.0021229402627795935, -0.003604845842346549, -0.012773486785590649, -0.0007004434010013938, 0.009081484749913216, 0.003939792979508638, 0.0079108327627182, 0.004713611677289009, 0.0008340510539710522, -0.010855446569621563, -0.01726439595222473, -0.02362103760242462, -0.001564131467603147, -0.0035629814956337214, 0.0032431171275675297, -0.017452554777264595, 0.0037071681581437588, 0.0115122739225626, -0.010065284557640553, 0.006567769683897495, -0.021331852301955223, 0.01091435644775629, -0.014821442775428295, 0.01168963685631752, -0.002780947368592024, 0.003327462123706937, -0.0008582816808484495, -0.00014282156189437956, 0.0021346856374293566, 0.004809026140719652, -0.01653800904750824, -0.0027631826233118773, -0.004701857455074787, -0.008216828107833862, 0.01050601713359356, 0.0038364101201295853, 0.010864246636629105, -0.0013771597295999527, -0.0006971983821131289, -0.017813628539443016, -0.004452666733413935, 0.01272253505885601, -0.0059359632432460785, -0.019916310906410217, -0.009587361477315426, -0.022419841960072517, -0.015521146357059479, -0.005494764074683189, -0.015033344738185406, -0.0034951765555888414, -0.02220616489648819, 0.009057100862264633, 0.005685994867235422, 0.0019130974542349577, -0.01837078481912613, -0.018617769703269005, 0.010833208449184895, -0.023485733196139336, 0.011244069784879684, 0.006136586889624596, -0.022874698042869568, -0.0022879436146467924, 0.0016840668395161629, -0.021340124309062958, 0.006884390488266945, -0.015292923897504807, -0.014279267750680447, -0.021535599604249, -0.018599579110741615, -0.00889006070792675, -0.00792697537690401, 0.006649866700172424, 0.00018679369532037526, -0.00018109376833308488, -0.009102582931518555, 0.008723575621843338, -0.01106331218034029, 0.006594469770789146, 0.008855847641825676, 0.00774854002520442, -0.014535863883793354, -0.005781767424196005, 0.0027751245070248842, 0.01040626596659422, -0.005902575794607401, 0.010623781941831112, 0.0012464286992326379, 0.004154866561293602, -0.01322819571942091, 0.0038386082742363214, -0.010873313993215561, -0.0040257591754198074, 0.009498289786279202, -0.012738948687911034, -0.0029500448144972324, -0.016813041642308235, -0.01924584060907364, -0.004408200271427631, 0.010056616738438606, -0.00973676797002554, -0.021957799792289734, -0.017602868378162384, 0.005792122334241867, 0.00534325186163187, -0.005168043076992035, -0.02230343222618103, -0.018297521397471428, -0.013648885302245617, -0.0011295904405415058, 0.006512271706014872, -0.018692506477236748, -0.005135501269251108, -0.008598905988037586, 0.0020378052722662687, 0.009930159896612167, -0.012235146947205067, 0.011343642137944698, -0.015456285327672958, 0.004959513898938894, 0.004822913557291031, -0.002066971268504858, -0.008637609891593456, 0.0074615394696593285, -0.021180298179388046, -0.021127311512827873, 0.005564860533922911, 0.009432290680706501, -0.0031646033748984337, 0.0009548043599352241, -0.007217992562800646, -0.0040145269595086575, 0.006570989731699228, -0.01757109723985195, 0.013588936999440193, -0.011367300525307655, 0.010962001979351044, 0.01916416734457016, -0.004318573046475649, -0.0014059249078854918, -0.0070528388023376465, -0.01727718859910965, 0.002305998234078288, -0.016268344596028328, 0.00712739210575819, 0.005846301559358835, 0.00377394026145339, -0.004260154440999031, -0.0021835726220160723, 0.008564762771129608, 0.016867566853761673, 0.009217554703354836, 0.009194969199597836, 0.00035462225787341595, 0.013696190901100636, -0.007734156679362059, 0.009239563718438148, 0.00392150366678834, 0.007721219211816788, -0.022084485739469528, 0.007691981270909309, -0.02336573787033558, -0.013505730777978897, -0.0001075973195838742, -0.022809719666838646, 0.0029170785564929247, 0.004877894651144743, -0.004319995176047087, -0.010943478904664516, -0.002544502727687359, -0.015354792587459087, -0.006158117670565844, -0.017946109175682068, -0.009482898749411106, -0.01820407062768936, -0.008001651614904404, 0.00919218547642231, 0.003507747082039714, -0.0095657454803586, 0.007093935739248991, 0.0109410984441638, -0.007028356194496155, -0.017501749098300934, 0.0056070564314723015, 0.02224002219736576, 0.0016314088134095073, 0.006951309274882078, -0.016320010647177696, 0.0025393927935510874, -0.007517646998167038, -0.019403129816055298, 0.010537276975810528, -0.020595813170075417, -0.003495914163067937, 0.00980868749320507, -0.022602085024118423, -0.002916506491601467, -0.02329437993466854, -0.005111852195113897, -0.014082403853535652, -0.0006792094209231436, 0.004985234700143337, -3.1551635402138345e-06, -0.010881802998483181, -0.006377984303981066, 0.018010569736361504, -0.020130686461925507, -0.0232255756855011, 0.0026473291218280792, 0.01177900843322277, 0.006553162820637226, 0.0009187032119370997, -0.021716661751270294, -0.019999675452709198, -0.006181325297802687, 0.005481054075062275, 0.009522180072963238, 0.020883100107312202, -0.003898337949067354, 0.0002667481894604862, 0.002724269637838006, -0.01619521901011467, 0.011180073022842407, 0.004827301483601332, -0.0038017448969185352, -0.0003300409880466759, 0.007259720470756292, -0.0025856182910501957, 0.008913404308259487, -0.012992361560463905, 0.0021251291036605835, -0.019013885408639908, -0.0016956811305135489, -0.023816891014575958, -0.016788385808467865, -0.01483281422406435, -0.0048011429607868195, 0.0027214696165174246, -0.015619782730937004, -0.0039061433635652065, -0.017936434596776962, -0.015565485693514347, -0.00047496036859229207, -0.017287755385041237, -0.023379236459732056, -0.016181616112589836, -0.01080167293548584, 0.005687874276190996, 0.0035831329878419638, -0.006361756939440966, 0.004229776095598936, -0.013612640090286732, 0.009340206161141396, -0.011476083658635616, -0.004983860999345779, -0.018501773476600647, -0.008626425638794899, 0.0031729727052152157, -0.006724584382027388, 0.010714959353208542, -0.0197618305683136, -0.00224099843762815, 0.0072412206791341305, -0.01316177099943161, 0.008548123762011528, 0.004251808859407902, 0.0073616052977740765, 0.0026742664631456137, -0.002000243868678808, 0.006584010552614927, 0.010796315036714077, 0.004511444829404354, -0.01888444274663925, 0.00923403725028038, -0.014113888144493103, 0.0032635389361530542, 0.008896874263882637, 0.003083425108343363, 0.0008062177803367376, -0.013604946434497833, -0.02008937858045101, 0.007246617693454027, -0.021923482418060303, -0.005624293349683285, -0.010628190822899342, -0.023216966539621353, -0.02255273424088955, 0.010630988515913486, 0.003392387880012393, 0.014617858454585075, -0.004998074844479561, 0.008852602913975716, -0.002750125015154481, -0.0030042403377592564, -0.0009705567499622703, -0.0027985332999378443, -0.02081146463751793, 0.0031698362436145544, 0.004725481383502483, 0.004683538340032101, -0.019338365644216537, -0.013426574878394604, -0.010051777586340904, -0.004940905142575502, 0.005273759365081787, -0.0031282498966902494, -0.022913038730621338, 0.0060415565967559814, -0.020364826545119286, -0.015602579340338707, 0.006743754260241985, -0.0013967774575576186, -0.010928679257631302, -0.020866023376584053, -0.011752776801586151, 0.003721121698617935, -0.020123057067394257, -0.015167606063187122, -0.009718891233205795, -0.0048888674937188625, -0.012033921666443348, -0.0032984281424432993, -0.01371769793331623, 0.01001456007361412, -0.0018926423508673906, -0.022454898804426193, -0.008874823339283466, -0.023414209485054016, -0.009646186605095863, 0.007206844165921211, 0.0077811842784285545, -0.004618840292096138, -0.013711214996874332, 0.008311483077704906, -0.014030066318809986, -0.01369486190378666, 0.0050526210106909275, 0.002820815658196807, -0.0017183354357257485, -0.02278713881969452, -0.0028735543601214886, 0.005208638496696949, -0.01809506118297577, -0.0017449819715693593, -0.01372133381664753, 0.002757866634055972, -0.019630340859293938, -0.007593662943691015, -0.022546377032995224, -0.013845262117683887, -0.009729110635817051, 0.0009697919012978673, 0.0016035864828154445, 0.00960251223295927, -0.00817992351949215, 0.0014466119464486837, 0.00011499279935378581, 0.005559434182941914, 0.010967880487442017, -0.0238021370023489, -0.006879171822220087, 0.0029522038530558348, -0.00278315762989223, -0.020059455186128616, -0.013366167433559895, -0.011658735573291779, 0.002953236922621727, -0.0032804126385599375, -0.010126957669854164, 0.005236849654465914, -0.012429863214492798, 0.010204154066741467, -0.023288995027542114, -0.020927246659994125, 0.0029988631140440702, 0.0019918265752494335, -0.0033044633455574512, -0.005883221980184317, 0.00760432705283165, -0.0145008759573102, -0.008785494603216648, -0.01664167270064354, 0.004337612073868513, -0.004410299472510815, -0.0012568477541208267, 0.005436639301478863, -0.001827155239880085, 0.009589354507625103, -0.0036255004815757275, 0.007501474115997553, -0.022724276408553123, 0.0027527736965566874, -0.006640527863055468, -0.008599057793617249, -0.013607124797999859, 0.0037690645549446344, 0.00639283237978816, 0.006881083361804485, -0.012958810664713383, 0.003455882193520665, -0.006384050939232111, -0.014661128632724285, -0.02269427850842476, -0.013997879810631275, -0.023205773904919624, -0.016899362206459045, -0.012765994295477867, 0.006806991063058376, -0.017412221059203148, 0.0054771811701357365, -0.01922672800719738, -0.008515027351677418, 0.006621674168854952, 0.005078447051346302, 0.0029842511285096407, -0.022271160036325455, -0.004082574043422937, -0.0068242792040109634, -0.012497464194893837, 0.007663658820092678, -0.01948581449687481, 0.005505776032805443, 0.00924944318830967, 0.008321290835738182, 0.001261551515199244, -0.005539254285395145, -0.01809070073068142, -0.017469367012381554, -0.022031929343938828, -0.017163777723908424, -0.015913071110844612, 0.009541354142129421, -0.0033970149233937263, -0.0016221797559410334, -0.021953841671347618, 0.008730766363441944, 0.011214073747396469, -0.012821415439248085, -0.023761941120028496, 0.004941475111991167, -0.001786103006452322, -0.02161477878689766, -0.009351156651973724, -0.004019100684672594, -0.003994278144091368, -0.01367940753698349, 0.008564180694520473, 0.0005101837450638413, -0.019602887332439423, -0.00011220894521102309, -0.002147993305698037, -0.017189616337418556, -0.01939222775399685, 0.008752810768783092, 0.0035894729662686586, -0.022916488349437714, 0.0005255406722426414, -0.006809696089476347, -0.007500462234020233, -0.008220994845032692, -0.018789760768413544, -0.02382800355553627, -0.00403454527258873, -0.007988136261701584, -0.020241351798176765, 0.0006921659805811942, -0.022459283471107483, -0.016893690451979637, -0.0236805509775877, -0.013419991359114647, -0.015834253281354904, -0.01201352383941412, -0.021976087242364883, 0.0014780511846765876, 0.01040065661072731, -0.011465969495475292, -0.011678742244839668, 0.007549018133431673, -0.018339280039072037, -0.012382976710796356, -0.01987442746758461, 0.0022978035267442465, 0.01080943364650011, 0.009737874381244183, -0.022727811709046364, -0.008921591565012932, -0.011350167915225029, -0.016950812190771103, 0.0009789757896214724, -0.011060327291488647, 0.002787106204777956, 0.0021758805960416794, -0.0048988801427185535, -0.016807882115244865, -0.0018592260312289, -0.018734266981482506, 0.00925713311880827, 0.011674837209284306, 0.004620236344635487, -0.02289251610636711, 0.004489092156291008, -0.020819595083594322, -0.019253550097346306, 0.009641814976930618, -0.015512892045080662, -0.011856175027787685, -0.014681209810078144, 0.008044636808335781, -0.008281676098704338, -0.013704228214919567, -0.01462215930223465, -0.017318621277809143, -0.017502794042229652, -0.01592320390045643, -0.012330470606684685, 0.009012564085423946, -0.0020736840087920427, 0.0064355311915278435, -0.005437624175101519, -0.0020910787861794233, 0.00867012795060873, 0.002328525297343731, -0.00972437858581543, 0.003896592650562525, -0.0016482460778206587, -0.007363279350101948, -0.0143087487667799, -0.004553194623440504, 0.0046605016104876995, 0.0007997066713869572, 0.02035532146692276, -0.0025675094220787287, -0.01355011761188507, 0.023263411596417427, 0.010361215099692345, -0.018631165847182274, -0.008713562972843647, -0.01167075615376234, 0.007956315763294697, 0.009161798283457756, 0.002890854375436902, 0.00838000699877739, 0.0026123018469661474, -0.02252824977040291, -0.019879676401615143, -0.018663594499230385, -0.003612712025642395, -0.016034891828894615, 0.006946482229977846, -0.013345138169825077, -0.013814538717269897, -0.016726013273000717, 0.005143528804183006, 0.017060058191418648, -0.00887047965079546, 0.010095158591866493, -0.011864389292895794, 0.001215305645018816, -0.00888665858656168, -0.0007657858659513295, -0.01320028118789196, 0.008134681731462479, 0.005293434485793114, 0.009341085329651833, 0.006013541016727686, 0.0027742232196033, 0.011748945340514183, 0.011507414281368256, -0.001000247080810368, 0.007003699894994497, 0.008173630572855473, 0.009716158732771873, -0.00819211732596159, -0.009209425188601017, -0.012523900717496872, 0.004934962838888168, -0.021550152450799942, -0.006224374286830425, 0.003537473501637578, 0.004826338030397892, 0.0009836395038291812, -0.01305447518825531, -0.009054581634700298, -0.0035514310002326965, -0.021191950887441635, 0.001127344905398786, 0.007044978905469179, -0.0006961737526580691, -0.023189328610897064, -0.008737040683627129, 0.0026737507432699203, -0.008871721103787422, -2.8141830625827424e-05, -0.020548610016703606, -0.01012993324548006, -0.019966628402471542, -0.0032912655733525753, -0.017443599179387093, 0.010711322538554668, 0.0019798006396740675, 0.004554625600576401, 0.010524330660700798, -0.02359548956155777, -0.01840353198349476, 0.004529108293354511, 0.008477870374917984, 0.006712522357702255, -0.016921410337090492, -0.00596172409132123, 0.01431709062308073, 0.0012732810573652387, -0.011575578711926937, -0.005083339288830757, -0.002937306184321642, -0.010173854418098927, -0.0092442212626338, 0.008252534084022045, -0.019935280084609985, 0.0035023789387196302, -0.0022953306324779987, -0.0009669875726103783, -0.021398531273007393, 0.002748040482401848, 0.007991296239197254, -0.006631442811340094, -0.018778491765260696, 0.006389806978404522, -0.02086503989994526, -0.01672903448343277, -0.011350702494382858, -0.018453309312462807, -0.02349752001464367, -0.008147034794092178, -0.004577524494379759, -0.010043046437203884, -0.015614574775099754, -0.0040572164580225945, -0.004555525723844767, 0.004152290523052216, -0.019963838160037994, 0.0029860844369977713, -0.013224788941442966, -0.018331782892346382, -0.008128446526825428, 0.004246628377586603, -0.0005424176342785358, -0.01912110671401024, -0.0019740292336791754, -0.0024837045930325985, -0.02114899270236492, -0.001733365934342146, -0.02074665203690529, -0.005107535980641842, -0.019424637779593468, 0.005882264580577612, -0.01919865980744362, -0.009260323829948902, -0.012445303611457348, -0.0011254108976572752, 0.0018074536928907037, 0.0053458139300346375, -0.004222400952130556, -0.009564519859850407, -0.022946719080209732, 0.010606043040752411, -0.019777273759245872, -0.0034571404103189707, -0.013459541834890842, -0.0027251150459051132, -0.021887769922614098, -0.015570279210805893, -0.0035077806096524, -0.01880449429154396, 0.0019387620268389583, 0.00313087971881032, 0.009350381791591644, -0.018339842557907104, -0.010353217832744122, -0.004719826392829418, 0.009792021475732327, -0.012128005735576153, -0.02071850746870041, -0.013553827069699764, -0.01784023456275463, -0.0033511340152472258, -0.011437365785241127, 0.006009314674884081, 0.0038628950715065002, -0.021878257393836975, -0.01840466819703579, 0.0011244924971833825, -0.013449071906507015, 0.006174476817250252, -0.018838396295905113, 0.0022581180091947317, -0.017100298777222633, -0.022863464429974556, 0.008699852041900158, -0.012007108889520168, 0.002587513066828251, -0.017502380535006523, -0.020965341478586197, -0.019709963351488113, 0.001472968840971589, -0.02382163144648075, -0.0016189018497243524, -0.022859083488583565, -0.0003973768325522542, -0.017440402880311012, -0.0030840416438877583, -0.007090641651302576, -0.011470065452158451, -0.019915152341127396, -0.007404094096273184, 0.004259354900568724, -0.021924763917922974, 0.0008731193956919014, -0.014993974938988686, -0.008130709640681744, -0.012789796106517315, -0.014237808994948864, -0.020063798874616623, -0.004692199174314737, 0.010690117254853249, 0.008742186240851879, 0.003077073721215129, 0.0036106740590184927, -0.0023537366650998592, 0.023632405325770378, 0.008604813367128372, -0.011623471975326538, -0.0224336925894022, 0.018353508785367012, 0.0018305773846805096, -0.01647162437438965, 0.0012785749277099967, -0.01129820104688406, -0.007847307249903679, -0.02337138168513775, -0.01809002459049225, -0.005173813086003065, 0.003977981396019459, -0.022136181592941284, 0.001357684493996203, 0.0020387067925184965, -0.02289521135389805, 0.02152041345834732, 0.0010956707410514355, -0.013886784203350544, -0.011694582179188728, -0.006764913443475962, -0.008923303335905075, -0.0023904158733785152, 0.019601980224251747, -0.011745010502636433, -0.0022747935727238655, 0.015258623287081718, 0.006953315809369087, -0.0014851768501102924, -0.012587146833539009, -0.02122538909316063, -0.01796482317149639, -0.01518207136541605, -0.016253268346190453, -0.005399744957685471, -0.004269169643521309, -0.016859145835042, 0.0017390690045431256, 0.02100900374352932, -0.017158998176455498, 0.0007358332513831556, 0.004450631327927113, 0.00684330053627491, -0.0219544917345047, -0.008498817682266235, 0.004062171094119549, -0.02289162203669548, -0.009211743250489235, 0.00964664388448, 0.0062311203218996525, 0.005419207736849785, -0.0019527764525264502, 0.009200450032949448, -0.00689459964632988, 0.006145054474473, 0.007087111938744783, -0.003521822625771165, -0.001471633673645556, 0.011086436919867992, -0.015769613906741142, -0.0017588234040886164, 0.004152942448854446, 0.007316966541111469, 0.004726432263851166, 0.007947010919451714, -0.0005197469727136195, 0.007271032780408859, 0.004228063393384218, -0.0012332923943176866, -0.015013094060122967, 0.003721297951415181, 0.00935126468539238, 0.004843275994062424, -0.012057693675160408, -0.02062496542930603, -0.005802450701594353, -0.016538478434085846, -0.004349301569163799, -0.012504382990300655, -0.009549557231366634, -0.017211077734827995, -0.021741120144724846, -0.004436428193002939, 0.0050184400752186775, 0.009098500944674015, -0.02155294641852379, -0.00012940872693434358, -0.008183508180081844, -0.013056188821792603, -0.0006987806409597397, -0.008415778167545795, 0.0012077223509550095, -0.0025360286235809326, 0.006360946223139763, 0.0028846152126789093, -0.0009016990661621094, -0.017081381753087044, -0.016404030844569206, -0.017342444509267807, -0.010613533668220043, 0.01261916384100914, -0.009379161521792412, 0.012096041813492775, 0.010385870933532715, 0.006911803036928177, 0.014839934185147285, -0.010172116570174694, -0.015833411365747452, -0.002338603138923645, -0.011650213971734047, -0.023159001022577286, -0.0090978117659688, -0.008521278388798237, -0.011096768081188202, -0.0050968872383236885, -3.084726631641388e-05, -0.008746445178985596, 0.011648210696876049, 0.013259338214993477, 0.01203247718513012, 0.006202917546033859, 0.00011152587831020355, -0.006626286543905735, -0.008554559201002121, -0.005362326744943857, 0.007397904992103577, -0.008853989653289318, 0.01748897321522236, -0.014368543401360512, -0.012897792272269726, 0.00442085787653923, 0.0048296148888766766, 0.0014839597279205918, -0.009109435603022575, -0.010419880971312523, -0.01462352741509676, 0.010231820866465569, 0.001647280529141426, 0.008225474506616592, -0.008026951923966408, 0.0060296934098005295, 0.016258256509900093, -0.013766264542937279, -0.00580581184476614, 0.01619607023894787, 0.008963720872998238, 0.002445375546813011, -0.013357499614357948, 0.006576033309102058, 0.0054904501885175705, 0.003800729289650917, 0.007506398484110832, 0.0028191395103931427, -0.016916122287511826, -0.014135395176708698, -0.004247646778821945, 0.009820112958550453, 0.0006192326545715332, -0.0018612165004014969, -0.006769102066755295, 0.022372204810380936, -0.007699623703956604, -0.015532532706856728, 0.006611589342355728, 0.0161664467304945, 0.004787627607584, -0.011159475892782211, 0.013926325365900993, -0.006252768449485302, 0.0043001119047403336, 0.01706130988895893, -0.015822838991880417, 0.0033961180597543716, -0.007888930849730968, -0.012101694941520691, 0.01484145037829876, 0.016248343512415886, -0.002823885530233383, -0.007961384020745754, 0.016143715009093285, -0.006184718571603298, 0.015658581629395485, -0.009659716859459877, 0.01643604226410389, -0.0012956168502569199, -0.013475376181304455, -0.006314999423921108, 0.011003045365214348, -0.007774787954986095, -0.004102782811969519, -7.961854862514883e-05, 0.014795778319239616, 0.0005570868961513042, -0.008682583458721638, -0.009920676238834858, -0.0180705226957798, -0.021505557000637054, -0.017550453543663025, 0.011111305095255375, -0.01778973452746868, 0.004401726648211479, 0.01086894515901804, -0.013202546164393425, 0.011731765232980251, -0.019829772412776947, 0.00666471803560853, -0.006967554334551096, -0.017102757468819618, -0.005552592221647501, -0.00044473286834545434, -0.006012073718011379, -0.01811870187520981, -0.00911116786301136, -0.022791840136051178, -0.004830320365726948, 0.008180646225810051, 0.009928956627845764, -0.013988712802529335, -0.01170089840888977, -0.01920699141919613, -0.016704579815268517, -0.003376816399395466, -0.01738370768725872, 0.003942794166505337, -0.01904289238154888, 0.007209704723209143, -0.016878489404916763, -0.003527575172483921, 0.013518119230866432, 0.01470194198191166, 0.010383748449385166, -0.01088700070977211, 0.011458826251327991, 0.015085291117429733, 0.007494546473026276, 0.00720624066889286, -0.013304898515343666, -0.00960770808160305, -0.011067560873925686, -0.023153292015194893, 0.015147249214351177, 0.002980845747515559, 0.004377396777272224, 0.009586609899997711, 0.008657945320010185, -0.014013012871146202, -0.008233212865889072, -0.016156360507011414, 0.00560640636831522, -0.009832601062953472, 0.010950488038361073, -0.0013537112390622497, 0.004588304087519646, -0.0001447165705030784, -0.020903032273054123, -0.004295475780963898, 0.014919241890311241, 0.004496626555919647, -0.02184378169476986, 0.010785099118947983, -0.009206590242683887, 0.01048128679394722, 0.0022062472999095917, 0.01104699820280075, -0.007440500892698765, -0.00388348032720387, -0.005602389574050903, -0.02129041962325573, -0.006531460676342249, -0.012152595445513725, 0.005615334026515484, -0.015638938173651695, -0.017669668421149254, -0.0036064814776182175, -0.011218171566724777, -0.011322339996695518, -0.0036186263896524906, -0.017408696934580803, 0.002219913527369499, -0.006748276762664318, 0.007119553163647652, -0.0026758979074656963, 0.005349160172045231, -0.003528238506987691, -0.009491482749581337, -0.01687556877732277, 0.0033168382942676544, -0.009243616834282875, -0.004964761435985565, -0.017676912248134613, -0.015175024047493935, -0.007877839729189873, 0.0022226739674806595, 0.01531209610402584, -0.023401228711009026, 0.01051598135381937, 0.009690642356872559, -0.021999387070536613, -0.005659851245582104, -0.008437329903244972, -0.012368718162178993, -0.0018588337115943432, -0.023678578436374664, 0.003923420794308186, 0.008599352091550827, 0.0036946646869182587, -0.011201053857803345, -0.014770272187888622, -0.0062157404609024525, -0.015575096011161804, 0.02095472626388073, 0.0011884234845638275, 0.011637752875685692, -0.01533159427344799, 0.0051899682730436325, -0.015220830217003822, 0.004484407603740692, 0.006739755626767874, -0.0017623532330617309, 0.012619635090231895, 0.01580524630844593, 0.01626834087073803, 0.0012451894581317902, -0.009867196902632713, 0.009815880097448826, -0.017705189064145088, 0.00019943341612815857, -0.0031735794618725777, -0.011240268126130104, 0.014829153195023537, -0.012104992754757404, -0.013668331317603588, -0.000845000147819519, -0.01411602646112442, 0.0017357871402055025, -0.0017178496345877647, 0.008721696212887764, -0.022032005712389946, -0.002105051651597023, 0.001051083905622363, -0.014461596496403217, 0.010716943070292473, -0.014442862011492252, 0.00040336375241167843, -0.01975115016102791, -0.01329218689352274, -0.0145494993776083, -0.01784534938633442, -0.015459720976650715, -0.004964177031069994, -0.02178570069372654, 0.011725187301635742, -0.017370445653796196, -0.022808827459812164, 0.0072440034709870815, -0.003792187198996544, 0.0010141460224986076, -0.0014656699495390058, -0.022015269845724106, -0.01188700646162033, -0.01006009615957737, -0.017209898680448532, 0.011554892174899578, 0.0005126315518282354, 0.009760997258126736, -0.006754748057574034, -0.018896695226430893, -0.021059326827526093, 0.005400215275585651, 0.0035216431133449078, 0.0031644951086491346, 0.00033214749419130385, -0.010098576545715332, -0.008328982628881931, -0.0011396008776500821, 0.001288621686398983, -0.008241292089223862, -0.01987193524837494, -0.007850389927625656, -0.015865091234445572, -0.015605629421770573, -0.022160016000270844, -0.011106634512543678, -0.004694768227636814, -0.005213665310293436, -0.021153949201107025, -0.001858697272837162, 0.006381193641573191, 0.010447678156197071, -0.01619984768331051, -0.020076889544725418, 0.010921092703938484, 0.0007323593599721789, 0.009141655638813972, 0.009533260017633438, 0.0053916689939796925, -0.016403203830122948, -0.019913451746106148, -0.02074630744755268, 0.023777389898896217, 0.0059893205761909485, 0.007783337030559778, 0.002782017458230257, 0.0038869043346494436, -0.01430542767047882, 0.004511583596467972, -0.011182740330696106, 0.0072885421104729176, 0.0006788747850805521, -0.009980840608477592, -0.02334110625088215, -0.019190477207303047, -0.020532626658678055, 0.0024707706179469824, -0.020417891442775726, -0.022416215389966965, -0.0048850178718566895, -0.019136246293783188, 0.0073606050573289394, -0.014605552889406681, -0.014547587372362614, -0.006366736721247435, -0.005722461733967066, -0.015157084912061691, -0.0163815226405859, -0.005195519421249628, 0.009851323440670967, 0.008864089846611023, -0.020686417818069458, 0.005055628716945648, -0.018326053395867348, 0.0007923103403300047, -0.004600874148309231, -0.007531632203608751, 0.002122998470440507, -0.019773758947849274, -0.018750309944152832, 0.009076370857656002, -0.022426895797252655, 0.006015146616846323, -0.010983305051922798, -0.005044656805694103, -0.015612066723406315, 0.000849735049996525, 0.008902257308363914, -0.017168410122394562, 0.006590245291590691, 0.0033071592915803194, 0.011612385511398315, -0.000665016530547291, 0.006524540018290281, -0.005072568077594042, -0.011923601850867271, -0.0038824642542749643, -0.007887105457484722, 0.0073192971758544445, 0.0006947822985239327, -0.02228178083896637, 0.0040386696346104145, -0.013593299314379692, 0.008355190977454185, 0.0012975162826478481, -0.005645195487886667, -0.0007097032503224909, 0.00044414697913452983, 0.004829693119972944, 0.003238741774111986, -0.020161010324954987, -0.013009476475417614, -0.0011437453795224428, 0.00920690968632698, 0.003098830347880721, -0.0032934718765318394, -0.02184748835861683, -0.007021276280283928, -0.008640214800834656, -0.003123229369521141, -0.0007153164478950202, -0.0018247627886012197, 0.002759800758212805, -0.013162575662136078, 0.004452008754014969, -0.014414375647902489, -0.016120154410600662, -0.009579633362591267, -0.011219208128750324, -0.004945387132465839, -0.006604304071515799, -0.014609728939831257, -0.021279118955135345, -0.01795385405421257, -0.02364206872880459, 0.003918963018804789, 0.01051535364240408, -0.010563739575445652, -0.004566756077110767, 0.006759543903172016, -0.017084384337067604, -0.005171969998627901, -0.02254362590610981, -0.005381082184612751, -0.009419497102499008, 0.019959520548582077, -0.018929528072476387, -0.008270048536360264, 0.007205498404800892, -0.007175711449235678, 0.007848028093576431, 0.006903594825416803, 0.0008962684660218656, -0.00942440889775753, -0.02297697402536869, -0.0199528057128191, -0.016962314024567604, -0.0021428747568279505, -0.005020334385335445, 0.015095429494976997, 0.00987683143466711, -0.005729074589908123, -0.010717632248997688, 0.0025912784039974213, -0.02092450112104416, -0.003972863312810659, 0.004551935940980911, -0.0012991538969799876, 0.003981968853622675, -0.007426704745739698, 0.007301513105630875, 0.008545290678739548, 0.008169788867235184, -0.0074033779092133045, -0.014055815525352955, 0.0009905060287564993, 0.00494897598400712, -0.0021276434417814016, -0.020280515775084496, 0.009998016990721226, 0.0024630320258438587, -0.014559874311089516, 0.010881893336772919, -0.0193802397698164, 0.008958768099546432, -0.013536836951971054, 0.007689532358199358, -0.013814096339046955, -0.01897387206554413, 0.004265509080141783, 0.0017088836757466197, -0.015292676165699959, -0.010168269276618958, 0.011700626462697983, -0.0015692125307396054, -0.014056908898055553, -0.00034655604395084083, 0.0007707597687840462, 0.0018164096400141716, -0.023677626624703407, 0.0014622609596699476, -0.022670123726129532, 0.007202194072306156, -0.018476905301213264, -0.022012069821357727, 0.0009843969019129872, -0.005631039850413799, -0.015920450910925865, -0.01155025977641344, -0.007146359886974096, -0.020985430106520653, -0.00993824377655983, -0.019601598381996155, 0.00955656822770834, 0.009942790493369102, 0.010882498696446419, -0.019251277670264244, -0.01630425825715065, 0.009412634186446667, 0.0019864740315824747, -0.007533214520663023, 0.009586089290678501, -0.009145847521722317, 0.0020743582863360643, -0.013767438009381294, 0.010249540209770203, 0.014445868320763111, -0.0023340301122516394, 0.013971192762255669, 0.0006758928648196161, 0.006513448432087898, -0.008805252611637115, 0.010042239911854267, -0.02003161795437336, 0.011841565370559692, -0.022158963605761528, 0.00489615835249424, -0.017973512411117554, 0.015414474532008171, -0.01909172721207142, -0.008326291106641293, 0.004717424977570772, -0.007042315788567066, -0.0064880335703492165, -0.007984688505530357, -0.008529811166226864, -0.004708833061158657, 0.021093592047691345, -0.011041996069252491, 0.007805982138961554, -0.01867443323135376, -0.0032726614736020565, -0.0017168130725622177, 0.011756209656596184, -0.010845872573554516, -0.0029105686116963625, -0.021941399201750755, 0.005027536768466234, -0.003289962187409401, -0.01959461346268654, -0.0029583878349512815, -0.005807472392916679, -0.01934868097305298, -0.016661033034324646, -0.005895162001252174, -0.0072181043215096, 0.015905674546957016, 0.005717281252145767, -0.011636808514595032, -0.012476585805416107, 0.006823400501161814, -0.022746291011571884, 0.008560176938772202, 0.011344965547323227, -0.009354295209050179, -0.022882090881466866, -0.0026058382354676723, -0.0011828831629827619, 0.01124260388314724, 0.0016282108845189214, -0.0033001103438436985, -0.016533182933926582, 0.01581723429262638, -0.011719591915607452, -0.02208576537668705, -0.007378189358860254, -0.016166815534234047, -0.007111554965376854, -0.017454354092478752, -0.014825603924691677, 0.0003532164264470339, -0.01675323024392128, 0.010279729962348938, -0.014673525467514992, -0.017533861100673676, -0.019764235243201256, -0.013735329732298851, 0.0038979812525212765, -0.004610409028828144, -0.02012445591390133, -0.006405158434063196, 0.0007878640899434686, 0.0064930384978652, -0.016742991283535957, -0.014284348115324974, 0.004342366941273212, 0.0007528763962909579, -0.019840475171804428, -0.022457953542470932, 0.006733223795890808, 0.006594631355255842, 0.0023613281082361937, 0.0009324271231889725, -0.010727441869676113, 0.0034759354311972857, -0.016993897035717964, 0.01164844911545515, -0.017319779843091965, -0.012721526436507702, 0.013438643887639046, 0.006064858287572861, 0.013425609096884727, -0.00408562645316124, -0.010410377755761147, -0.003429044969379902, 0.004618380218744278, 0.014032365754246712, 0.0040620192885398865, -0.0066261887550354, -0.006835291627794504, 0.0027325116097927094, 0.015411967411637306, -0.01487905252724886, 0.015059815719723701, -0.0013454817235469818, -0.01273468416184187, -0.017153970897197723, 0.011017022654414177, -0.0018558483570814133, -0.008438038639724255, -0.006893628276884556, -0.00745073426514864, -1.0281801223754883e-06, -0.002256216248497367, 0.008775647729635239, -0.01140622142702341, 0.02254580333828926, -0.01074763759970665, -0.0005046389997005463, -0.013713711872696877, 0.011773815378546715, 0.0029587317258119583, 0.017447160556912422, -0.00420631468296051, -0.009895920753479004, -0.0004741046577692032, -0.008434411138296127, -0.01164395734667778, -0.01126763503998518, 0.013156307861208916, -0.017706120386719704, 0.013452978804707527, 0.002825998468324542, -0.003859160467982292, -0.020930102095007896, -0.021315785124897957, -0.013817726634442806, -0.02191292867064476, 0.012424096465110779, -0.0005396120250225067, -0.021993348374962807, -0.009667801670730114, -0.00215838011354208, 0.011072062887251377, 0.012286770157516003, -0.004894285928457975, 0.005315752699971199, -0.018624676391482353, -0.002404808532446623, -0.008788692764937878, -0.022558176890015602, -0.009305179119110107, -0.004834524355828762, -0.0012606048258021474, -0.005129062104970217, -0.013729281723499298, -0.023197520524263382, -0.018672887235879898, -0.0133274020627141, -0.007537737488746643, -0.006365643348544836, 0.00494381645694375, 0.001794013543985784, 0.007075425237417221, -0.016252892091870308, -0.02023434080183506, -0.020210444927215576, -0.005915709771215916, -0.004040904343128204, 0.011231310665607452, 0.00022545548563357443, -0.018017444759607315, -0.01701257936656475, -0.004840492736548185, 0.01427661906927824, 0.005052792374044657, 0.011474082246422768, -0.01098727062344551, -0.021637022495269775, -0.004495792556554079, -0.0034008738584816456, -0.01124177873134613, -0.004384619649499655, -0.020456932485103607, 0.0012658446794375777, -0.010224471800029278, -0.008808733895421028, -0.0007940586656332016, -0.010103138163685799, 0.010311354883015156, -0.0009022693266160786, -0.022950708866119385, 0.00018253925372846425, 0.008756021969020367, -0.006302202120423317, -0.011984491720795631, -0.017758432775735855, 0.005474720615893602, -0.013910329900681973, -0.020122775807976723, -0.018135061487555504, -0.02366054803133011, 0.005210643168538809, 0.0007986821583472192, -0.013666239567101002, 0.008927165530622005, -0.018275460228323936, -0.015132516622543335, -0.001595246372744441, -0.001700280001387, 0.009176558814942837, 0.001800424070097506, -0.008074389770627022, -0.02135699987411499, -0.01856303960084915, -0.015517838299274445, -0.011999718844890594, -0.010840697214007378, 0.002577116247266531, 0.010368905030190945, -0.01795683056116104, -0.00019203948613721877, -0.007596022915095091, 0.0019574961625039577, -0.0020008091814816, -0.018473809584975243, -0.01399523951113224, -0.015761950984597206, -0.0024826989974826574, -0.023397278040647507, -0.022748203948140144, -0.00744206178933382, -0.021429987624287605, -0.0035042224917560816, 0.010880275629460812, -0.02283831499516964, -0.01655971258878708, 0.002558717504143715, -0.00222667190246284, 0.002618503523990512, -0.022252162918448448, -0.0004612777556758374, 0.002238908549770713, -0.0067039839923381805, 0.004310272634029388, -0.01412250380963087, -0.006534894462674856, -0.004857012070715427, -0.019642120227217674, -0.013043628074228764, -0.007652856409549713, 0.006918668746948242, 0.00850676279515028, -0.010767578147351742, 0.0060180239379405975, -0.0226584579795599, -0.0003913111868314445, -0.016537675634026527, -0.02133229747414589, -0.015406492166221142, -0.005054425913840532, -0.011314799077808857, -0.004779343493282795, 0.00022159810760058463, -0.019530942663550377, -0.018033191561698914, -0.021430855616927147, -0.01687616854906082, 0.002123716054484248, 0.00328061287291348, -0.018132105469703674, -0.008593576028943062, 0.013631417416036129, 0.003550359047949314, 0.005072991829365492, -0.022152386605739594, -0.015493948943912983, -0.0003602557408157736, -0.004015482030808926, 0.001888258382678032, 0.007862154394388199, -0.02352406643331051, 0.010077029466629028, 0.0019024405628442764, -0.01683601178228855, -0.0058087753131985664, -0.0024204663932323456, 0.016397258266806602, -0.014378461055457592, -0.01564100943505764, 0.016125386580824852, -0.01609710231423378, 0.015269508585333824, -0.014191911555826664, -0.005476721562445164, 0.006495974026620388, 0.004806215409189463, 0.003985729534178972, 0.022282784804701805, 0.0058666192926466465, 0.0010616611689329147, 0.003124432871118188, -0.023303665220737457, -0.007766569033265114, -0.023069258779287338, 0.009035264141857624, -0.007870017550885677, 0.0015956461429595947, -0.012424828484654427, -0.012778022326529026, -0.016057409346103668, 0.011027523316442966, 0.009915431961417198, -0.020758625119924545, 0.01085001789033413, 0.0016514810267835855, 0.008390259929001331, 0.0075799147598445415, -0.010624942369759083, 0.008923464454710484, -0.0036781153175979853, -0.016847804188728333, 0.005547669250518084, -0.0029917301144450903, -0.008990442380309105, -0.022124214097857475, -0.003991988021880388, -0.008261232636868954, 0.013127228245139122, -0.022167012095451355, -0.0009361350093968213, -0.020940449088811874, 0.004708783235400915, 0.0005831043818034232, 0.017026295885443687, -0.01663685031235218, -0.015367349609732628, -0.018829643726348877, 0.011563791893422604, -0.01345276739448309, -0.017393488436937332, 0.0026318493764847517, 0.002784141805022955, -0.01825646124780178, -0.0016489181434735656, -0.02213999815285206, -0.009088492020964622, 0.0024000632110983133, -0.019838999956846237, -0.0006908600917086005, 0.0049804812297225, 0.0005008806474506855, -0.018598901107907295, -0.021044308319687843, 0.0009213461889885366, -0.0014213024405762553, -0.015166603028774261, -0.013554612174630165, -0.0014277944574132562, 0.009526489302515984, -0.00131636718288064, -0.02341887354850769, -0.02281087450683117, -0.0226847343146801, 0.0033915184903889894, -0.008615030907094479, -0.013479720801115036, 0.010929008014500141, 0.004896877333521843, -0.015778135508298874, -0.01306172925978899, -0.01800636015832424, 0.005753605626523495, -0.022453054785728455, -0.02377958409488201, -0.02307979017496109, 0.0056920964270830154, -0.02353045716881752, -0.01386232115328312, -0.017741462215781212, -0.013369128108024597, -0.0205871369689703, 0.005159360356628895, 0.00719016557559371, -0.004951935261487961, 0.0012760092504322529, -0.01801537722349167, -0.012323259375989437, 0.007362852804362774, -0.010505720041692257, 0.0013961928198114038, -0.017231088131666183, -0.009522796608507633, 0.007643427234143019, -0.009090978652238846, -0.015120365656912327, -0.01383270975202322, -7.347323844442144e-05, -0.023241402581334114, 0.00322519987821579, -0.00425302516669035, -0.0191311277449131, 0.006886160932481289, 0.009815573692321777, 0.010466720908880234, -0.018746057525277138, -0.011513639241456985, -0.010622741654515266, -0.023220650851726532, -0.013931235298514366, 0.0057280464097857475, -0.018646754324436188, -0.01506385300308466, -0.005585526581853628, -0.02355578914284706, -0.014501058496534824, -0.016291985288262367, 0.005830434150993824, 0.008404592052102089, -0.010494586080312729, 0.0069933803752064705, -0.01575232483446598, -0.007863670587539673, -0.017670808359980583, -0.0019563212990760803, 0.013398056849837303, -0.0010183211416006088, 0.0036249773111194372, 0.0099363774061203, -0.016699468716979027, -0.0034129130654037, -0.006012772209942341, -0.011001840233802795, -0.010532133281230927, -0.01181037724018097, -0.0008844844996929169, -0.013946806080639362, 0.00870554894208908, 0.0006250236183404922, -0.001547928899526596, -0.01087239384651184, 0.006501464173197746, 0.007860580459237099, 0.005231458228081465, 0.016342686489224434, 0.0022219487000256777, -0.02040310762822628, -0.012852974236011505, 0.01194970216602087, 0.003951357677578926, 0.009132804349064827, 0.0012007443001493812, -0.0033897641114890575, 0.0031510312110185623, -0.004913032054901123, -0.00034174500615336, 0.001426550792530179, -0.01740184612572193, -0.023490093648433685, -0.019725631922483444, -0.015569615177810192, -0.010125133208930492, 0.00851757824420929, -0.018557094037532806, -0.0025298406835645437, 0.007761095650494099, -0.011172317899763584, -0.01558579783886671, 0.017728688195347786, -0.01037484873086214, -0.012602868489921093, 0.011019702069461346, 0.0016078255139291286, -3.7798527046106756e-05, 0.0017979041440412402, 0.00691722147166729, 0.012763582170009613, -0.004675360396504402, -0.015182905830442905, -0.01474769040942192, -0.0012726075947284698, 0.005566777661442757, -0.023650990799069405, 0.010947045870125294, 0.008297666907310486, -0.003736083395779133, -0.010988820344209671, 0.004713412839919329, -0.013730230741202831, 0.005536163225769997, 0.006434034090489149, 0.003363379742950201, 0.0045451028272509575, -0.0005280789919197559, 0.0028309011831879616, -0.0036780748050659895, 0.00019851884280797094, -0.022995533421635628, -0.008440368808805943, -0.01486327312886715, -0.013077044859528542, -0.011282602325081825, -0.010787497274577618, 0.009189918637275696, 0.006919174920767546, -0.003017832525074482, 0.0101978350430727, -0.020754339173436165, 0.007508246228098869, -0.02281010150909424, 0.008973615244030952, 0.01122604962438345, -0.0040722074918448925, 0.004565055016428232, -0.006751876324415207, -0.003578828414902091, -0.023050501942634583, -0.013671875, -0.00911261048167944, 0.0003021754091605544, 0.009462486021220684, -0.007166784722357988, -0.007764345500618219, -0.02343512326478958, 0.0055299620144069195, -0.007444124668836594, -0.01563432812690735, -0.0026355907320976257, 0.008533643558621407, -0.00043914045090787113, -0.022600306198000908, -0.01827090233564377, 4.6053271944401786e-05, -0.004697521682828665, 0.001383139519020915, -0.007554520852863789, 0.01109850313514471, 0.00785020086914301, -0.0023037891369313, 0.011703754775226116, -0.01976930908858776, -0.00321065541356802, 0.00039345084223896265, 0.0076436144299805164, 0.009116392582654953, -0.011503239162266254, 0.003520306898280978, -0.0039167325012385845, 0.008540366776287556, -0.0043924120254814625, 0.011306729167699814, 0.009098788723349571, -0.013497063890099525, -0.014681373722851276, 0.009100189432501793, -0.022183207795023918, 0.006449876818805933, 0.009458676911890507, 0.004687828943133354, -0.013216412626206875, -0.02283705212175846, -0.012351040728390217, -0.017314547672867775, -0.00025740309501998127, -0.0068448614329099655, -0.012937101535499096, -0.015307975001633167, -0.016537992283701897, -0.021219540387392044, -0.01825808547437191, -0.004951133392751217, 0.009621637873351574, -1.8621938579599373e-05, -0.01196849625557661, -0.0063416422344744205, -0.00636088103055954, -0.010102002881467342, -0.022761903703212738, 0.010366976261138916, -0.00015090797387529165, -0.012637494131922722, -0.013440714217722416, -0.004972939379513264, -0.020171623677015305, -0.020863575860857964, 0.003506339155137539, -0.0031826598569750786, -0.01599695347249508, -0.021498503163456917, -0.010206716135144234, -0.017142951488494873, 0.01140030100941658, 0.00206646416336298, 0.00994198489934206, 1.1219181033084169e-05, 0.0014530479675158858, -0.010942766442894936, -0.004806659184396267, 0.0010068509727716446, -0.014595034532248974, 0.011348672211170197, -0.006016300059854984, 0.00016008417878765613, -0.022392502054572105, -0.01675034686923027, -0.0006758790696039796, -0.004380140919238329, -0.019521646201610565, -0.008050039410591125, 0.011297988705337048, -0.01587197370827198, 0.01033641118556261, -0.007983902469277382, 0.004169748164713383, 0.00905198510736227, 0.00109030248131603, -0.002436187118291855, -0.004250007215887308, -0.020411372184753418, 0.010637891478836536, -0.00913179386407137, -0.02021447941660881, 0.012010188773274422, 0.004805172327905893, -0.022393235936760902, 0.00713040865957737, -0.011171664111316204, -0.014033757150173187, -0.0024381866678595543, 0.009603425860404968, 0.01031704805791378, 0.0017308834940195084, -0.017506564036011696, -0.0035244356840848923, 0.0007509570568799973, 0.0037059467285871506, 0.0034740492701530457, 0.007346668746322393, -0.005820136517286301, 0.006378348916769028, 0.00806473195552826, 0.007022399455308914, -0.0006523542106151581, -0.017605580389499664, -0.018017780035734177, -0.009821275249123573, 0.01443660818040371, 0.00860367901623249, 0.01458062045276165, -0.009536528959870338, -0.00767496507614851, -0.012165731750428677, 0.011043423786759377, -0.013817988336086273, -0.0092304777354002, -0.0013861339539289474, 0.005172576755285263, -0.0083755012601614, 0.009493524208664894, -0.010683029890060425, -0.002982635982334614, 0.0061338176019489765, -0.0008226353675127029, -0.009703336283564568, 0.01177721843123436, 0.0012405738234519958, 0.010009342804551125, 0.01135275699198246, 2.5443732738494873e-06, -0.012903820723295212, 0.0029934383928775787, -0.00961025059223175, 0.004801042377948761, 0.0025881982874125242, 0.0109492102637887, -1.675449311733246e-05, -0.00690146628767252, 0.006777483969926834, -0.002764316275715828, 0.006096911150962114, 0.003052096115425229, -0.0027914089150726795, -0.002642659703269601, -0.014574279077351093, 0.0051650539971888065, 0.009629142470657825, -0.0026750636752694845, -0.012291450053453445, 0.0032476233318448067, 0.008593990467488766, 0.007040886208415031, -0.011537667363882065, 0.011844753287732601, -0.0016061844071373343, -0.01519796997308731, -0.009163875132799149, -0.02043026313185692, -0.009049170650541782, 0.008802386000752449, 0.007000282872468233, -0.02336687408387661, -0.0211393591016531, -0.00016861526819411665, -0.011242346838116646, -0.022945968434214592, -0.018418220803141594, -0.001844411832280457, -0.018230663612484932, 0.005619110073894262, -0.004490680992603302, 0.0025593978352844715, 0.010481294244527817, -0.012623690068721771, -0.009416698478162289, -0.01870717667043209, 0.008731788024306297, 0.00446205073967576, 0.0054761627689003944, -0.021711453795433044, -0.003741959808394313, 0.008806352503597736, -0.020671267062425613, -0.004955780692398548, -0.02046741172671318, -0.0012602605856955051, -0.005319918040186167, 0.010554159991443157, 0.009122056886553764, -0.007452772930264473, -0.011903555132448673, -0.01578456163406372, -0.0006176213501021266, -0.009252606891095638, 0.01747302897274494, -0.0005545711028389633, -0.004520354326814413, 0.004919172264635563, -0.01953662559390068, 0.0075294519774615765, 0.019149424508213997, -0.01247390080243349, -0.017838867381215096, -0.0172466691583395, 0.0019451581174507737, -0.017777089029550552, -0.008920229971408844, 0.00015788750897627324, -0.020979411900043488, -0.00040795101085677743, -0.02181807905435562, -0.0026942368131130934, -0.015186562202870846, -0.0013033316936343908, -0.0015400211559608579, -0.0003712447651196271, 0.020052211359143257, -0.005707734264433384, 0.00311050983145833, 0.009758642874658108, -0.005763148423284292, -0.017135506495833397, -0.009586287662386894, -0.0012792795896530151, 0.0018810234032571316, 0.0032111802138388157, 0.0038856039755046368, -0.009188647381961346, -0.0023458090145140886, -0.007754000369459391, -0.023747030645608902, 0.003468325361609459, -0.01043174508959055, -0.016816450282931328, -0.012869439087808132, -0.02125340700149536, -0.0016926922835409641, -0.008506556041538715, -0.00435827299952507, 0.005087563768029213, 0.0035083554685115814, 0.010652820579707623, 0.007330799475312233, 0.009124994277954102, -0.00973436702042818, -0.017009714618325233, -0.014284144155681133, -0.009510887786746025, 0.008431841619312763, -0.016540655866265297, -0.0184260755777359, 0.017577609047293663, 0.004162830766290426, 0.006363509222865105, 0.007838115096092224, -0.019409075379371643, -0.006372360046952963, 0.00772611191496253, -0.01420474424958229, -0.006970203947275877, -0.016017278656363487, -0.001864895224571228, -0.014451022259891033, 0.010966851375997066, -0.011539996601641178, -0.0011399644427001476, -0.02180933952331543, -0.013792825862765312, 0.004776394460350275, 0.002981475554406643, -0.011805961839854717, 0.0064789610914886, -0.00021452394139487296, 0.011119505390524864, -0.016566650941967964, 0.006984913721680641, -0.015299621969461441, -0.0115986168384552, 0.0034892363473773003, 0.01617106981575489, -0.00551380030810833, 0.0054542371071875095, 0.007623792625963688, -0.00021950680820737034, 0.007181436754763126, -0.010640628635883331, -0.005377541296184063, 0.004132213536649942, -0.003272500354796648, 0.010433783754706383, -0.013392729684710503, 0.0002930101763922721, -0.012092426419258118, 0.0007865186780691147, -0.015225262381136417, 0.0027074257377535105, -0.009971686638891697, 0.0025360716972500086, -0.021854564547538757, 0.0071015493012964725, 0.01896979659795761, 0.0023419808130711317, -0.004679528530687094, 0.009816906414926052, 0.011001679114997387, -0.00904364138841629, 0.006425153464078903, -0.01792950928211212, 0.009049843065440655, -0.0036924174055457115, -0.023247217759490013, 0.00964606273919344, -0.0021230580750852823, -0.020837217569351196, -0.017198454588651657, -0.007017495110630989, -0.008413907140493393, -0.020573023706674576, -0.014426114968955517, -0.008461078628897667, -9.187332761939615e-05, -0.0012037308188155293, 0.008603475987911224, -0.016634874045848846, -0.01758667267858982, 0.010284132324159145, 0.004643386695533991, 0.005288984626531601, 0.0026356978341937065, -0.017920957878232002, -0.007509440183639526, 0.00429160613566637, 0.0036865973379462957, 0.019689291715621948, -0.023149918764829636, 0.0017539076507091522, -0.006930781528353691, -0.0014220398152247071, -0.015641868114471436, -0.0022737733088433743, -0.001257292227819562, -0.02140265516936779, -0.004872649908065796, -0.02019582688808441, -0.0068570091389119625, 0.003912377171218395, -0.011336788535118103, 0.00791976135224104, 0.006737245246767998, -0.00756645854562521, -0.01899208314716816, -0.019929764792323112, -0.018703503534197807, -0.01889423094689846, -0.015278792008757591, -0.011879658326506615, -0.011990061029791832, -0.01569943130016327, -0.004431332927197218, 0.0010132999159395695, -0.006320151034742594, -0.01631886139512062, 0.0010843583149835467, -0.009254391305148602, -0.006106405518949032, -0.007741844281554222, -0.02061310224235058, -0.005875236354768276, 0.010264255106449127, 0.008585245348513126, 0.02161913365125656, -0.00951350573450327, -0.023143542930483818, -0.021477729082107544, -0.0017927191220223904, -0.0016512788133695722, -0.001188872498460114, 0.019786756485700607, -0.020519467070698738, -0.005776173900812864, 0.004475060850381851, -0.016286682337522507, 0.0038958871737122536, -0.009284052066504955, 0.011401022784411907, -0.023725109174847603, 0.0073167430236935616, -0.008531896397471428, -0.014917135238647461, 0.005171933211386204, -0.013911531306803226, -0.021835090592503548, 0.0073530361987650394, -0.0015572818228974938, -0.00342958839610219, -0.011258937418460846, -0.007469388656318188, 0.00047321495367214084, 0.004122557118535042, 0.00895288959145546, -0.019676368683576584, 0.00973349716514349, -0.016927570104599, -0.008991759270429611, -0.01746549643576145, -0.011507268063724041, 0.006857741624116898, -0.014079449698328972, -0.0065880767069756985, 0.002371361944824457, 0.008111624978482723, -0.013657459057867527, -0.021868528798222542, -0.008984945714473724, 0.010989750735461712, -0.009503561072051525, 0.0002157227136194706, 0.0020610184874385595, 0.0007987119606696069, 5.412272730609402e-05, 0.0032802866771817207, -0.013139240443706512, 0.005467594601213932, -0.022624175995588303, -0.023320985957980156, 0.00343243102543056, 0.0011936245718970895, 0.003758384147658944, -0.004317810758948326, 0.004852076061069965, -0.016780516132712364, 0.01180097833275795, 0.0017126861494034529, 0.011825664900243282, 0.005416556261479855, 0.005496995989233255, -0.003594346344470978, 0.008279778063297272, -0.018949823454022408, 0.006194961257278919, 0.007066745311021805, 0.007012620568275452, 0.003091545309871435, 0.00882669072598219, -0.021755408495664597, -0.0026667483616620302, 0.008878860622644424, 0.003416612045839429, 0.0007691966602578759, -0.018187761306762695, 0.002394096925854683, 0.002464582212269306, 0.011497185565531254, -0.0017226934432983398, -0.009728770703077316, -0.01003451831638813, 0.001797452219761908, -0.004588688723742962, -0.019684700295329094, 0.004432830959558487, -0.0048262751661241055, 0.002724691992625594, -0.016353057697415352, 0.0040301913395524025, -0.004075182136148214, 0.011597903445363045, -0.02072511799633503, -0.019552620127797127, -0.012411072850227356, -0.01938203163444996, -0.02250167727470398, -0.009230564348399639, -0.018986932933330536, -0.01616949401795864, 0.010560179129242897, 0.004522225353866816, -0.01097479835152626, -0.011327396146953106, 0.010253866203129292, 0.0017547633033245802, 0.0036453509237617254, -0.0009762385743670166, 0.003024128032848239, 0.00512605020776391, -0.0035260168369859457, -0.002254300517961383, 0.00011747651296900585, -0.016230065375566483, 0.003733488032594323, 0.0010653854114934802, 0.011834421195089817, -0.012527698650956154, -0.01459378283470869, -0.014148594811558723, -0.02325020730495453, 6.7926463088952e-05, 0.0016172109171748161, -0.023203594610095024, 0.006340774241834879, -0.006559651345014572, -0.012563097290694714, -0.0008124750456772745, -0.013072106055915356, 0.007511644158512354, -0.007343850564211607, -0.01840127632021904, -0.004228675737977028, -0.017701050266623497, -0.007200593128800392, 0.009293978102505207, -0.0008005502168089151, 0.008529161103069782, -0.00045023742131888866, -0.01567208394408226, 0.02077404223382473, -0.0004865179362241179, 0.00538819283246994, -0.00788173172622919, 0.007691648323088884, -0.007241619285196066, 0.01178131252527237, -0.003275555092841387, -0.013109619729220867, -0.0021768854930996895, -0.0075969756580889225, -0.005132358055561781, -0.02211928740143776, -0.008509251289069653, -0.0035805662628263235, -0.019749419763684273, -0.005636143032461405, 0.007611030712723732, -0.011286511085927486, 0.010781422257423401, 0.004680166020989418, 0.009937560185790062, 7.148331496864557e-05, -0.016660042107105255, -0.005938832648098469, 0.004537656903266907, 0.008456557057797909, 0.0071336315013468266, -0.01719038188457489, -0.0013383767800405622, -0.01223780307918787, -0.013805259950459003, -0.013353205285966396, 0.008375992067158222, 0.0035080518573522568, -0.019595947116613388, -0.020882340148091316, -0.015794530510902405, -0.007990140467882156, -0.016581255942583084, 0.00178249878808856, -0.017779400572180748, -0.015921741724014282, 0.00819112453609705, -0.00868253968656063, -0.022905077785253525, -0.021383605897426605, -0.0069716498255729675, -0.022661535069346428, -0.003435037098824978, 0.0019806246273219585, -0.009619459509849548, -0.007332171779125929, -0.0015791895566508174, -0.01779511384665966, -0.019702333956956863, 0.0016519022174179554, -0.009686180390417576, 0.004957325756549835, -0.014444269239902496, 0.00352528877556324, -0.02137012593448162, 0.005916574038565159, -0.019824031740427017, -0.001461662701331079, 0.009158243425190449], "bias": 0.00011762938811443746}