{"layer": "fc1", "index": 115, "weights": [0.004009029362350702, 0.004736824426800013, -0.035835981369018555, -0.07135314494371414, -0.05642242357134819, 0.09265277534723282, 0.01920281909406185, -0.07803241163492203, 0.05231548473238945, 0.08587377518415451, -0.005260386038571596, 0.04017788916826248, 0.05663134157657623, 0.031008552759885788, -0.06328518688678741, 0.027707504108548164, 0.08270291984081268, -0.00012503810285124928, 0.08278142660856247, 0.006851178128272295, 0.0015389081090688705, 0.04973659664392471, 0.05766228213906288, -0.012655538506805897, -0.09491253644227982, -0.0286056287586689, 0.07037203758955002, 0.026337115094065666, 0.010340481996536255, 0.03047707863152027, 0.05456637218594551, 0.012271623127162457, 0.010781311430037022, 0.012825948186218739, 0.03490153327584267, -0.01818166673183441, 0.03246164694428444, 0.03103206679224968, 0.05700011923909187, 0.010271861217916012, 0.020431630313396454, 0.0010101052466779947, 0.00298052909784019, 0.011869424022734165, 0.037281252443790436, 0.03763392195105553, 0.046331264078617096, 0.026383843272924423, 0.014646212570369244, -0.0035254911053925753, 0.002217724686488509, -0.016756635159254074, -0.035622552037239075, 0.013983888551592827, 0.0012039911234751344, 0.0038889329880476, 0.006799712777137756, 0.01387441623955965, 0.028717124834656715, -0.022170107811689377, -0.010010744445025921, 0.02059963345527649, -0.0152471037581563, 0.01550491526722908, 0.015534973703324795, 0.019216084852814674, -0.06708978116512299, 0.012369426898658276, 0.01010120939463377, -0.03588232398033142, 0.00425639096647501, 0.04228578507900238, 0.016744421795010567, -0.033832937479019165, 0.02873830311000347, 0.08752316236495972, 0.0048106019385159016, -0.007036948576569557, 0.06593576073646545, 0.04474727809429169, 0.022468676790595055, 0.053897857666015625, 0.05239126831293106, -0.04276764392852783, -0.015534305945038795, -0.0008179754950106144, 0.02435498870909214, 0.03984297811985016, 0.01395783107727766, 0.0503203384578228, -0.000469674589112401, -0.011272771283984184, -0.006320882122963667, -0.00821811892092228, 0.03716178610920906, -0.023825783282518387, -0.009484739042818546, 0.009192856028676033, -0.024454349651932716, -0.013509567826986313, 0.059680890291929245, 0.043017543852329254, -0.014112705364823341, 0.0512004978954792, 0.07231757789850235, 0.0165295097976923, 0.003102594055235386, 0.020482853055000305, -0.004498893395066261, 0.02255582995712757, -0.024417679756879807, -0.043744802474975586, 0.038678430020809174, 0.08982166647911072, -0.044390030205249786, -0.07061167806386948, -0.027283774688839912, -0.00660982308909297, 0.0070657748728990555, -0.013033219613134861, -0.09236007183790207, -0.06934648007154465, -0.031126320362091064, -0.06653683632612228, -0.16924867033958435, -0.07191512733697891, 0.04728081449866295, -0.02667667344212532, -0.04212751239538193, -0.032349828630685806, 0.012713368982076645, -0.015069128014147282, 0.029159637168049812, -0.00763189559802413, -0.032880064100027084, -0.06518039107322693, -0.06275811791419983, -0.06607241183519363, -0.01940171606838703, -0.005808250512927771, -0.014916007407009602, -0.028981955721974373, -0.03763977810740471, 0.01802736334502697, -0.0041724918410182, 0.011213020421564579, -0.01777922920882702, -0.0518084354698658, 0.02574830874800682, -0.01537344790995121, -0.09932035207748413, -0.061679549515247345, -0.03287602216005325, -0.004175964742898941, 0.03231468424201012, 0.056011997163295746, 0.04602813720703125, -0.06850486248731613, -0.00983735453337431, -0.005309997126460075, -0.027312178164720535, -0.033570677042007446, 0.05927013233304024, 0.02447383664548397, -0.10711982101202011, -0.06388561427593231, 0.050128642469644547, 0.00838361494243145, -0.08236297965049744, -0.0917520672082901, -0.1072087213397026, -0.12021826207637787, 0.03064100630581379, 0.030460188165307045, 0.0077945273369550705, -0.0012225891696289182, -0.05633677914738655, -0.1449710726737976, -0.07374712079763412, -0.03237202763557434, -0.02196524292230606, 0.015794776380062103, -0.01384405605494976, -0.056887317448854446, -0.02439669705927372, 0.011831575073301792, -0.022209366783499718, 0.046841155737638474, -0.07080268114805222, -0.022168060764670372, 0.06347090005874634, -0.02280559577047825, 0.05629139393568039, -0.04397322237491608, 0.014745776541531086, -0.05491139367222786, -0.004609088413417339, -0.005610757973045111, 0.021025782451033592, -0.01463057566434145, 0.001650797319598496, -0.013630569912493229, 0.020978927612304688, 0.01166856475174427, -0.028764113783836365, 0.03872477263212204, -0.030478082597255707, -0.058692459017038345, -0.007265844382345676, 0.003763498505577445, 0.004972739145159721, -2.9289210942806676e-05, -0.02588697150349617, -0.06275097280740738, -0.01252269372344017, -0.0307540874928236, -0.008030216209590435, 0.008116260170936584, 0.015215184539556503, -0.003799527185037732, 0.005575243849307299, 0.02319163829088211, 0.018511371687054634, -0.005094221793115139, 8.682049519848078e-05, 0.020718267187476158, -0.0622117854654789, -0.037555571645498276, 0.057379044592380524, -0.0049487450160086155, -0.012683338485658169, 0.010161095298826694, -0.049339186400175095, -0.051154863089323044, -0.024330509826540947, -0.0463918074965477, -0.0020790500566363335, -0.030582847073674202, 0.005815892945975065, -9.406530443811789e-05, -0.03018534742295742, -0.002131483983248472, -0.027774512767791748, -0.012626766227185726, -0.005669073201715946, 0.02408187836408615, -0.0492461659014225, -0.028196653351187706, 0.019784502685070038, 0.018787579610943794, -0.01821153424680233, -0.005852061789482832, -0.017285315319895744, 0.04000920057296753, 0.05692064017057419, -0.00880794320255518, 0.008576973341405392, -0.008910824544727802, -0.055471714586019516, -0.01642969436943531, 0.009016284719109535, -0.0352732352912426, -0.013333042152225971, 0.024950087070465088, -0.038361869752407074, -0.09418129920959473, 0.050946321338415146, 0.001386767951771617, -0.02849014475941658, -0.01971594989299774, -0.04201250523328781, 0.01825120858848095, -0.015020361170172691, -0.004555166698992252, 0.007102615665644407, -0.03722183778882027, 0.012036384083330631, -0.0680869072675705, 0.04232856631278992, 0.015529808588325977, 0.014055023901164532, -0.01812087558209896, 0.004275974817574024, 0.0165982935577631, 0.03789206221699715, -0.0445832796394825, 0.02709488943219185, 0.020224910229444504, 0.0018330116290599108, 0.037955645471811295, 0.08719952404499054, -0.00882640015333891, 0.0076700542122125626, -0.0013077949406579137, 0.011404527351260185, -0.06310499459505081, -0.03071572445333004, -0.03456224873661995, -0.05243491381406784, 0.0007882622885517776, 0.009830698370933533, 0.008416775614023209, 0.018210003152489662, 0.11752299964427948, 0.004313226323574781, 0.0253127571195364, -0.017080320045351982, 0.032887719571590424, 0.032876063138246536, 0.13262048363685608, 0.07310523092746735, -0.029483525082468987, 0.05325592681765556, 0.024878958240151405, 0.0880139172077179, 0.011928234249353409, -0.0028436544816941023, 0.07061495631933212, -0.12697067856788635, -0.00026950400206260383, 0.014778025448322296, 0.007443346083164215, -0.020991260185837746, -0.0011641239980235696, 0.0613248348236084, -0.08480023592710495, -0.0359656885266304, 0.03344099596142769, -0.0033604153431952, 0.0041471803560853004, 0.038336433470249176, -0.01304209791123867, -0.03412069007754326, -0.04447396844625473, -0.014743758365511894, -0.06402366608381271, -0.01055760495364666, -0.0034564677625894547, -0.0019699162803590298, 0.05406301096081734, 0.049055274575948715, -0.07747717201709747, -0.0407189205288887, 0.006640137173235416, -0.013949046842753887, -0.020514672622084618, -0.06875967979431152, -0.002159025752916932, -0.002227851189672947, -0.017219357192516327, 0.0004018645850010216, -0.015995817258954048, -0.007649653125554323, 0.027636386454105377, 0.02710832841694355, -0.03456438332796097, 0.022820547223091125, -0.01284787431359291, -0.00084131327457726, 0.004336639307439327, -0.0156842153519392, -0.021955516189336777, 0.04016589745879173, 0.010839533060789108, -0.0008946856833063066, 0.021790148690342903, 0.04105210304260254, 0.032001033425331116, -0.005975484848022461, 0.052709516137838364, 0.002830694429576397, 0.03848341107368469, 0.04195106402039528, 0.03514660522341728, -0.04129699245095253, 0.07747480273246765, 0.08076103776693344, -2.9097107471898198e-05, 0.0025228552985936403, -0.038357291370630264, -0.021037276834249496, 0.009558930061757565, 0.03612295165657997, 0.010456678457558155, -0.012600678019225597, -0.003977037966251373, 0.014045020565390587, -0.001906068529933691, 0.0028179283253848553, -0.02398676611483097, -0.01691841147840023, -0.04319917410612106, 0.002261602785438299, 0.0005999825079925358, 0.016585957258939743, -0.00472330441698432, -0.01608213409781456, -0.020075397565960884, -0.007233852054923773, 0.005482476670295, -0.010184875689446926, -0.025457490235567093, -0.05951913073658943, -0.0658796951174736, -0.016777178272604942, 0.0071895006112754345, 0.005713900551199913, -0.03630483150482178, 0.0419391430914402, 0.023829985409975052, 0.013653862290084362, -0.02006724290549755, 0.004792878404259682, 0.015111886896193027, 0.01896483823657036, -0.0022666167933493853, -0.00736828800290823, 0.05672827363014221, 0.04955071955919266, -0.011469098739326, -0.02112884446978569, 0.013046745210886002, 0.013616071082651615, 0.02912471443414688, 0.013594085350632668, -0.010741126723587513, -0.004974724259227514, -0.023336129263043404, -0.036066167056560516, -0.046154607087373734, -0.05196790397167206, -0.03418172150850296, -0.03369776904582977, -0.05660619959235191, 0.004898016806691885, 0.026539718732237816, -0.009947751648724079, -0.013574155978858471, -0.012448401190340519, 0.001980619737878442, 0.002718233736231923, 0.013950061984360218, -0.015596036799252033, 0.006432732567191124, -0.006770293693989515, 0.008452617563307285, -0.002867455594241619, 0.009376597590744495, -0.009349280968308449, -0.019384466111660004, 0.02443866804242134, 0.0020430567674338818, -0.018707387149333954, -0.015898220241069794, 0.0038653698284178972, 0.00878396350890398, 0.05910642445087433, -0.0599495992064476, -0.0017853265162557364, -0.020511532202363014, 0.0033452308271080256, -0.010043413378298283, 0.007300869561731815, 0.03635292872786522, 0.06490375846624374, -0.0016487524844706059, -0.05266885831952095, 0.03473740071058273, 0.019908864051103592, 0.012008960358798504, 0.04395686089992523, 0.07867294549942017, 0.011171571910381317, 0.030232785269618034, 0.04514556750655174, -0.013943511061370373, 0.012210478074848652, -0.018254393711686134, -0.04460960999131203, 0.03129710629582405, 0.05379015579819679, -0.03503193333745003, -0.007845127955079079, -0.0006918574217706919, 0.0013510278658941388, -0.06514429301023483, 0.011607727035880089, 0.015579640865325928, -0.03259144723415375, -0.026802359148859978, -0.0009709636215120554, -0.014262741431593895, -0.02915765717625618, -0.011908326297998428, -0.00713504571467638, -0.0059222569689154625, 0.020350011065602303, 0.020743830129504204, 0.043747950345277786, -0.013276347890496254, -0.017696887254714966, -0.022929513826966286, -0.04781462624669075, -0.00791829265654087, 0.00469873147085309, -0.0031007963698357344, 0.033035922795534134, 0.018160374835133553, 0.03573521599173546, 0.035308320075273514, -0.09045268595218658, 0.021362198516726494, 0.03880692273378372, 0.037916477769613266, -0.02535969391465187, 0.02980550192296505, 0.03944534808397293, 0.019588086754083633, -0.017882859334349632, 0.04083642363548279, 0.03350309655070305, -0.05152328684926033, -0.024092866107821465, -0.042147185653448105, -0.10335181653499603, -0.03262345865368843, 0.043315477669239044, 0.004209374077618122, 0.01364558283239603, 0.005405052099376917, -0.02820039726793766, -0.07792841643095016, 0.007438317406922579, 0.03334609046578407, 0.05411412566900253, -0.05098748207092285, -0.03556036949157715, -0.03712846711277962, 0.0015305730048567057, -0.06485278159379959, -0.03927914425730705, -0.0017567069735378027, -0.045234717428684235, -0.01908920332789421, 0.07855445146560669, -0.019731802865862846, 0.011136988177895546, 0.035733141005039215, 0.08358138799667358, 0.009935461916029453, -0.029550939798355103, -0.025459522381424904, 0.014026299118995667, 0.0250636488199234, 0.018911441788077354, -0.025807932019233704, 0.06467453390359879, 0.11696704477071762, 0.08773252367973328, -0.019705256447196007, -0.07343248277902603, -0.17163027822971344, 0.14510121941566467, -0.0006809212500229478, 0.028767703101038933, 0.058670058846473694, -0.012484705075621605, -0.034872300922870636, -0.06101079657673836, -0.08623029291629791, -0.053236108273267746, -0.0018646627431735396, 0.02696930430829525, 0.023303652182221413, -0.05688115954399109, 0.005127912387251854, -0.16895397007465363, 0.04348450154066086, 0.06319089233875275, 0.031807828694581985, 0.008549477905035019, -0.018847856670618057, 0.03199056535959244, 0.09110480546951294, 0.030605824664235115, 0.0321088507771492, -0.07617595791816711, 0.006461900658905506, -0.016664572060108185, -0.013339007273316383, -0.004869389813393354, -0.05642677843570709, 0.0036424649879336357, 0.0046358900144696236, -0.05447790026664734, -0.0413937009871006, 0.026776999235153198, 0.05978015065193176, -0.0014483830891549587, -0.024722689762711525, -0.04122258722782135, 0.016321368515491486, -0.012710589915513992, -0.036151304841041565, 0.05945800244808197, 0.02316000871360302, 0.07583921402692795, 0.034482263028621674, 0.012945880182087421, -0.03918648511171341, 0.06388355791568756, 0.07102293521165848, -0.08281506597995758, -0.05192163214087486, 0.09195104986429214, -0.022086653858423233, -0.03778468817472458, 0.025149719789624214, -0.06948798149824142, -0.18181030452251434, 0.0034779245033860207, 0.11128798872232437, -0.023357190191745758, -0.0471290722489357, -0.0609545037150383, -0.09388279914855957, -0.009835776872932911, 0.01007103081792593, 0.06306595355272293, -0.030779637396335602, -0.043641865253448486, 0.01649564690887928, -0.043732400983572006, 0.07627137005329132, 0.04930012300610542, -0.030177531763911247, -0.021891215816140175, 0.00032524351263418794, -0.012897397391498089, 0.00046093203127384186, -0.014660337008535862, -0.008973873220384121, 0.008836758323013783, 0.0017064620042219758, 0.00955191906541586, 0.0014486616710200906, -0.0012855218956246972, -0.030809292569756508, -0.023201312869787216, 0.004144995007663965, -0.0013131845043972135, 0.013263007625937462, 0.03832041099667549, 0.012075514532625675, -0.03700879588723183, -0.030603256076574326, 0.011460928246378899, -0.022462962195277214, -0.005119468085467815, 0.008876650594174862, 0.006118549965322018, -0.0003029419167432934, 0.032320279628038406, -0.021640196442604065, -0.004499492235481739, 0.009096412919461727, 0.02010142058134079, -0.007347448263317347, -0.0034756604582071304, 0.005261394660919905, -0.0005498746759258211, -0.034440912306308746, -0.028491629287600517, -0.033978819847106934, -0.04304436221718788, -0.0374162457883358, -0.02893267758190632, -0.039723098278045654, -0.014190925285220146, 0.0008262708433903754, 0.0036007484886795282, -0.007562199607491493, 0.024800963699817657, 0.00015041288861539215, -0.02624044008553028, 0.004151921719312668, -0.01346884947270155, -0.0007978187059052289, -0.022223029285669327, -0.05887675657868385, -0.02341518923640251, -0.03361170366406441, -0.01014707237482071, -0.04680895805358887, -0.028235791251063347, -0.014294656924903393, 0.04621848464012146, -0.03846234455704689, -0.017946206033229828, 0.06307464092969894, 0.012250608764588833, 0.01938069611787796, 0.03663366660475731, 0.10078471899032593, 0.030058328062295914, 0.08053184300661087, 0.09274785220623016, 0.028132202103734016, 0.046889178454875946, -0.016448289155960083, 0.051532305777072906, -0.1107073575258255, 0.04033340513706207, 0.028116755187511444, 0.03119276463985443, 0.001428769319318235, -0.05051741749048233, -0.04810246452689171, -0.047914981842041016, 0.021098189055919647, 0.03471648320555687, 0.011509647592902184, -0.04466324672102928, 0.04403352364897728, 0.04559120908379555, 0.01824103109538555, -0.03346753492951393, -0.018599607050418854, 0.002782099647447467, -0.022792711853981018, 0.03407140448689461, 0.05928260460495949, 0.05587748438119888, -0.05163037031888962, 0.0131047572940588, -0.01010297890752554, -0.018831701949238777, 0.03166921064257622, 0.019583720713853836, -0.031785618513822556, -0.04081414267420769, 0.01575225032866001, 0.0009540824103169143, -0.005797040183097124, 0.05735665559768677, -0.07668404281139374, -0.036635201424360275, -0.0315898135304451, -0.036578018218278885, -0.006179563235491514, 0.09343229234218597, 0.0007248352048918605, 0.03386860340833664, 0.09836692363023758, 0.058155450969934464, -0.03224588930606842, 0.0364670604467392, 0.09386969357728958, 0.008100071921944618, -0.03553975373506546, 0.08775927126407623, 0.0884273499250412, -0.03564697131514549, 0.04309997707605362, 0.046255242079496384, 0.02251332439482212, -0.0009219914209097624, -0.03273298963904381, -0.006213948130607605, -0.014442563988268375, -0.03288961574435234, 0.05893909931182861, 0.025142407044768333, -0.011080401949584484, 0.02066974900662899, -0.009351412765681744, -0.013049759902060032, -0.012794611044228077, 0.015597050078213215, 0.0332828126847744, -0.03991737589240074, -0.03862452879548073, -0.04023448005318642, 0.004322653170675039, -0.01584354043006897, -0.014043458737432957, -0.014104236848652363, 0.020405707880854607, -0.005166598130017519, -0.010065071284770966, 0.007000740617513657, 0.005311598535627127, 0.020852120593190193, 0.0012652912409976125, -0.0618845596909523, -0.06296635419130325, -0.02339787408709526, 0.00854005292057991, 0.1075637936592102, -0.05431978777050972, -0.056278079748153687, 0.012857280671596527, -0.024604806676506996, -0.022782646119594574, -0.015596448443830013, 0.033640068024396896, 0.05590708553791046, 0.025681881234049797, 0.038488518446683884, 0.06504318118095398, 0.014396224170923233, -0.016655785962939262, -0.002485104603692889, -0.027761027216911316, 0.04156022146344185, 0.027961144223809242, 0.04818969964981079, 0.05829470977187157, 0.014753282070159912, 0.012204385362565517, -0.01053401455283165, -0.007267994340509176, 0.013210771605372429, 0.014905693009495735, -0.035816363990306854, -0.04273237660527229, 0.04300924763083458, -0.08402154594659805, -0.025509852916002274, -0.03224162757396698, 0.031257737427949905, -0.0943521037697792, -0.001120316912420094, -0.02921953983604908, -0.025817768648266792, 0.0335211381316185, 0.039828091859817505, 0.004592003766447306, 0.005745902191847563, 0.020732518285512924, 0.08648093044757843, 0.014802779071033001, -0.022672506049275398, -0.012722393497824669, -0.003535939147695899, 0.005473107099533081, 0.00738808698952198, 0.033299025148153305, 0.08447772264480591, 0.013781524263322353, -0.03066897951066494, -0.030028294771909714, -0.01915593072772026, -0.027081700041890144, -0.024590596556663513, -0.10324364900588989, -0.0010323766618967056, -0.05694092810153961, -0.05289736017584801, -0.014495708979666233, -0.018682438880205154, 0.006813035812228918, -0.04793441668152809, -0.043959956616163254, -0.023235933855175972, -0.03511824831366539, -0.018987707793712616, -0.0174958948045969, 0.003985576797276735, -0.04906899482011795, -0.021580489352345467, 0.011047128587961197, -0.039898406714200974, -0.012196525931358337, 0.007365319412201643, 0.02365264855325222, -0.02064039185643196, -0.058595117181539536, 0.013919837772846222, 0.0411272868514061, -0.01797562651336193, -0.00357125885784626, 0.006107116583734751, 0.0033285964746028185, -0.05829798802733421, -0.04001396894454956, -0.016554370522499084, -0.017789196223020554, -0.008657648228108883, -0.0032782366033643484, -0.0019466951489448547, -0.016862448304891586, -0.04852355271577835, 0.011594729498028755, -0.019615937024354935, -0.02279016189277172, -0.03315500542521477, 0.03260619565844536, 0.01847555674612522, -0.0018714666366577148, 0.041084207594394684, 0.031765881925821304, -0.01345827430486679, 0.08542916923761368, 0.0840543732047081, 0.00475308345630765, -0.02825857698917389, 0.032775748521089554, 0.06723756343126297, -0.0329129584133625, 0.06356510519981384, 0.033636003732681274, 0.04903455451130867, -0.026986800134181976, 0.019327806308865547, 0.06694157421588898, 3.307513543404639e-05, -0.017951684072613716, -0.001386153162457049, 0.05910658836364746, 0.027156775817275047, 0.03999314829707146, -0.0051137241534888744, 0.024787403643131256, -0.008855375461280346, -0.00013050322013441473, -0.0035132793709635735, 0.042266715317964554, -0.05033300071954727, 0.0004691566282417625, -0.007603880483657122, -0.00970984436571598, -0.049035731703042984, 0.04821815714240074, 0.03429492563009262, -0.0448589026927948, -0.00231521506793797, -0.003669267985969782, -0.004251947160810232, 0.006985146086663008, -0.005955195520073175, -0.03140302747488022, -0.039140734821558, 0.04618053138256073, 0.013859259895980358, 0.15746887028217316, 0.04900471493601799, -0.019803278148174286, 0.004556017462164164, 0.0001730112126097083, 0.04425766319036484, -0.007678214926272631, 0.058498986065387726, 0.013400446623563766, -0.053924668580293655, -0.020253803580999374, -0.025066718459129333, -0.022299999371170998, 0.017147930338978767, -0.06356088817119598, -0.030024535953998566, -0.01846538670361042, 0.05477851629257202, -0.004075207281857729, 0.0070935883559286594, -0.029408996924757957, -0.03881245106458664, 0.002549176337197423, -0.06250516325235367, -0.050929710268974304, -0.03300049155950546, -0.04943656176328659, -0.015772318467497826, 0.03430671989917755, -0.06283678859472275, -0.082440584897995, -0.1060454249382019, 0.0014472386101260781, 0.07782205939292908, -0.01452087052166462, 0.011260063387453556, 0.045763932168483734, 0.017797796055674553, 0.007785824593156576, -0.002261803951114416, 0.03102126717567444, 0.004991939757019281, 0.019111212342977524, -0.00924552883952856, 0.011086045764386654, -0.03549778088927269, -0.07772242277860641, -0.0660717561841011, 0.010030309669673443, -0.01148633100092411, -0.0070570893585681915, -0.024313077330589294, -0.15802426636219025, -0.12153404206037521, -0.04346760734915733, -0.01782168075442314, 8.103464642772451e-05, -0.06829406321048737, -0.13393624126911163, -0.08956203609704971, -0.13095417618751526, -0.07119151949882507, -0.06949694454669952, 0.07551407814025879, 0.004784708376973867, -0.0642213225364685, 0.009093893691897392, 0.027403099462389946, 0.02807788737118244, -0.018450509756803513, -0.004584244452416897, -0.020174529403448105, -0.0346301831305027, -0.019590143114328384, -0.020204072818160057, 0.015772055834531784, 0.003845181781798601, 0.015723085030913353, -0.010835968889296055, -0.011630731634795666, -0.014962418004870415, 0.013388213701546192, -0.024494895711541176, -0.015108995139598846, -0.025655141100287437, 0.008191538043320179, -0.012379149906337261, -0.042639896273612976, 0.04657760635018349, 0.03647822141647339, 0.0001930785656441003, 0.021830139681696892, 0.031454212963581085, 0.0032800629269331694, 0.013288889080286026, 0.04321569576859474, -0.0451374277472496, -0.003610227257013321, 0.05852489173412323, 0.031924571841955185, 0.0387955978512764, 0.08633825182914734, 0.06632010638713837, -0.008626476861536503, -0.024678539484739304, 0.012841292656958103, 0.0316278375685215, 0.004150549881160259, -0.004308831878006458, -0.0386456698179245, -0.06480322033166885, -0.03565503656864166, -0.003877060255035758, 0.006130785681307316, -0.00900381151586771, -0.012615584768354893, -0.02799181453883648, 0.09204970300197601, -0.023737888783216476, -0.025326022878289223, 0.01382781658321619, 0.10539130866527557, 0.05276435986161232, 0.028481408953666687, 0.006294906605035067, -0.02228488028049469, 0.008046132512390614, 0.009135127998888493, -0.024361349642276764, 0.03181053325533867, 0.0014432629104703665, 0.015983154997229576, -0.02617969736456871, -0.004737932235002518, -0.005504507105797529, -0.01391350757330656, -0.011194701306521893, 0.028240781277418137, 0.01620250567793846, 0.0026522446423768997, 0.025311529636383057, -0.006839529145509005, -0.047877002507448196, 0.02184593677520752, -0.005592457950115204, -0.0314922034740448, 0.040552861988544464, 0.03500618040561676, 0.0605892576277256, 0.027355367317795753, 0.04116787016391754, -0.03592007979750633, -0.020833872258663177, -0.06430266052484512, 0.025698933750391006, -0.018083451315760612, 0.01844601146876812, 0.003916510846465826, 0.07144861668348312, 0.07442155480384827, -0.0015786313451826572, -0.019617898389697075, -0.09696655720472336, 0.04539067670702934, 0.07170826941728592, 0.0636010393500328, 0.08399979770183563, 0.0005842221435159445, 0.0013962393859401345, -0.019859908148646355, -0.011045978404581547, 0.03575628250837326, 0.015057611279189587, -0.059343062341213226, -0.004649570677429438, 0.021237514913082123, -0.04201899468898773, -0.08373580873012543, -0.06868544965982437, -0.054685261100530624, -0.07544238120317459, 0.020150870084762573, 0.00827253982424736, -0.011445626616477966, -0.02284466102719307, 0.02099001221358776, -0.00899969320744276, 0.01639600284397602, 0.003163337940350175, -0.0019984866958111525, -0.01523036789149046, -0.02252964675426483, -0.01930740848183632, 0.008235695771872997, 0.03453417122364044, -0.014823098666965961, 0.009668130427598953, 0.05941932275891304, 0.01179518923163414, 0.02952480874955654, 0.010707841254770756, 0.005582608748227358, -0.0016634698258712888, 0.00355631485581398, 0.05284862592816353, 0.0882456824183464, 0.029990313574671745, 0.002892394084483385, 0.04068862274289131, 0.00602761609479785, 0.0008990216883830726, 0.05528746545314789, 0.09197840839624405, -0.03779313340783119, -0.03441901132464409, 0.004862682893872261, -1.8059596186503768e-05, -0.030395496636629105, 0.016163835301995277, -0.05080677196383476, -0.020817851647734642, -0.04960745573043823, 0.012372682802379131, -0.03856593370437622, 9.491029777564108e-05, 0.01850365474820137, 0.006602269131690264, -0.00044823033385910094, -0.036571893841028214, 0.011374079622328281, -0.004581562243402004, -0.008475231938064098, -0.0048097288236021996, 0.005303784739226103, -0.008884085342288017, -0.018732942640781403, 0.017656944692134857, -0.013495632447302341, 0.01332478504627943, 0.04874340817332268, 0.0849834755063057, -0.09819778054952621, -0.07021049410104752, -0.029913632199168205, 0.012152595445513725, 0.03358461707830429, 0.010641117580235004, 0.01745346374809742, 0.009882829152047634, -0.008602781221270561, -0.0247346144169569, -0.041035838425159454, 0.0037100049667060375, 0.019838202744722366, -0.029514875262975693, 0.048378925770521164, 0.09646794945001602, 0.06836311519145966, -0.05896855145692825, 0.05288922041654587, 0.0016743321903049946, -0.02891162596642971, -0.0447377935051918, 0.03213905915617943, 0.10947811603546143, 0.012878862209618092, 0.009866907261312008, -0.004805608186870813, -0.04752471297979355, -0.020486608147621155, 0.01927974261343479, 0.026535606011748314, -0.0267852284014225, 0.004717851057648659, -0.0045908051542937756, 0.016092032194137573, -0.015383698977530003, 0.021957403048872948, -0.043928880244493484, -0.006987545173615217, -0.014370921067893505, 0.0057986523024737835, -0.02596397139132023, -0.04364553466439247, 0.03939902037382126, 0.01853470504283905, 0.001651266822591424, -0.04301230236887932, 0.044022589921951294, 0.014128124341368675, 0.004358578473329544, 0.04739576205611229, 0.05160702392458916, 0.004419478587806225, 0.055913109332323074, 0.0043143886141479015, 0.07023690640926361, 0.02363334782421589, -0.011831967160105705, 0.1019074022769928, 0.00803054217249155, -0.02185806632041931, 0.028229517862200737, 0.09444674849510193, 0.01013240311294794, 0.04007053002715111, 0.055699560791254044, -0.026839764788746834, -0.020488927140831947, 0.07804471999406815, 0.033685699105262756, -0.06647335737943649, -0.035866960883140564, 0.030568398535251617, -0.06282505393028259, -0.029479438439011574, 0.013843436725437641, -0.028304658830165863, 0.031718119978904724, 0.008364665322005749, 0.027188926935195923, -0.11290105432271957, -0.0068767792545259, 0.023690445348620415, 0.023043835535645485, 0.025088626891374588, 0.030945634469389915, -0.012109759263694286, -0.07733631879091263, 0.009037252515554428, 0.007125619798898697, -0.002689212327823043, -0.034883756190538406, -0.019039446488022804, 0.0028218713123351336, 0.014324336312711239, -0.016520122066140175, 0.007143768016248941, -0.009297525510191917, -0.017742516472935677, -0.049669068306684494, -0.054098330438137054, 0.02569999359548092, 0.015387226827442646, -0.00064814742654562, 0.039024390280246735, 0.007002241909503937, 0.001940741203725338, -0.028451142832636833, -0.014048723503947258, 0.025023575872182846, 0.0012709912844002247, -0.023854654282331467, 0.03855784982442856, 0.10139580816030502, 0.06662595272064209, -0.002019727136939764, -0.006247576791793108, 0.011413457803428173, 0.0006262537208385766, 0.006461990065872669, 0.039574094116687775, 0.02004464715719223, 0.0444541834294796, -0.029335225000977516, 0.004789065569639206, -0.007861602120101452, 0.022630125284194946, -0.027224017307162285, -0.010604809038341045, -0.030048860237002373, 0.009980368427932262, 0.002227031858637929, -0.03158232569694519, -0.0020091368351131678, 9.797071834327653e-05, -0.057889971882104874, -0.023139713332057, 0.01219844352453947, -0.0005086929304525256, -0.019520482048392296, -0.07649854570627213, -0.06387197971343994, -0.05150284990668297, 0.009119830094277859, -0.07986284792423248, -0.060249220579862595, 0.1566963642835617, -0.015985652804374695, -0.003078205045312643, -0.00247658952139318, -0.023510342463850975, 0.03632975369691849, 0.014441191218793392, 0.10297331213951111, 0.015103531070053577, 0.07420338690280914, 0.04618873447179794, -0.01753843016922474, 0.11456210166215897, 0.057753078639507294, 0.10699531435966492, -0.01024810504168272, 0.022197561338543892, 0.04307705909013748, 0.0033699842169880867, 0.055913351476192474, 0.09400179982185364, 0.08516702055931091, 0.025832893326878548, -0.06118275597691536, 0.05147272348403931, 0.02978765405714512, -0.0266597680747509, 0.03655465319752693, -0.010524692013859749, -0.020621703937649727, 0.011438170447945595, -0.005387238692492247, -0.013253551907837391, -0.005275559611618519, -0.011431091465055943, 0.013102121651172638, 0.035242512822151184, -0.005350454244762659, -0.049850501120090485, 0.014890629798173904, 0.0006569956312887371, -0.04055745154619217, 0.014062867499887943, 0.03557216376066208, -0.0037145011592656374, -0.04286223277449608, 0.02684558369219303, 0.0016776223201304674, 0.019632786512374878, 0.0372619703412056, -0.049727775156497955, -0.02880524843931198, -0.021802999079227448, 0.000355851516360417, 0.07446838170289993, 0.07579755038022995, 0.006107500288635492, -0.028219738975167274, -0.007818790152668953, 0.05437122657895088, -0.10057731717824936, 0.026550425216555595, -0.003820235375314951, -0.06434448063373566, 0.016781125217676163, 0.11229278147220612, 0.03847218304872513, -0.009555053897202015, -0.05182402953505516, -0.07458945363759995, -0.014204202219843864, -0.0023045476991683245, 0.022868415340781212, 0.05820757895708084, -0.029730554670095444, 0.02470945194363594, -0.06313177943229675, -0.07183892279863358, -0.018901869654655457, -0.06508543342351913, -0.0025167386047542095, 0.05600828304886818, 0.029459308832883835, -0.004431542940437794, -0.054328758269548416, 0.01671910099685192, -0.03029041364789009, -0.00830010510981083, -0.025394752621650696, -0.06170910224318504, -0.011891262605786324, -0.051650308072566986, -0.08905811607837677, -0.0051790159195661545, -0.029360992833971977, 0.006549107376486063, -0.03408868983387947, 0.02533833496272564, -0.007589275483042002, 0.028735248371958733, 0.03668593615293503, -0.028622834011912346, 0.0177199374884367, 0.030694883316755295, -0.002174133202061057, 0.02107100747525692, 0.09732912480831146, 0.1490667313337326, 0.1021805852651596, 0.03918290510773659, 0.0008601198787800968, -0.013562147505581379, -0.04785684123635292, -0.0002135030517820269, -0.04954933002591133, 0.03762512654066086, -0.009592963382601738, -0.020392999053001404, -0.007322927471250296, -0.0005061784759163857, -0.06790893524885178, -0.08031059801578522, 0.051164641976356506, 0.02618730254471302, -0.02119949832558632, -0.043585654348134995, 0.05911410599946976, 0.029680104926228523, 0.04734434187412262, -0.018860623240470886, -0.02763555943965912, -0.006421179510653019, 0.045844029635190964, 0.16070328652858734, -0.002043081447482109, 0.06108376383781433, -0.0857296735048294, -0.024594441056251526, -6.879349530208856e-05, -0.04742196202278137, -0.047213248908519745, 0.026589250192046165, -0.054899636656045914, -0.03057144768536091, -0.010956736281514168, 0.041287146508693695, 0.005957381334155798, 0.03094417415559292, -0.073873370885849, -0.0757049173116684, 0.0007736872066743672, -0.016276808455586433, -0.016442572697997093, 0.06117185205221176, 0.055631496012210846, -0.050711628049612045, -0.07190405577421188, -0.055442340672016144, -0.009386147372424603, 0.019153734669089317, 0.07229296118021011, 0.04759041592478752, -0.04260845482349396, 0.005386750213801861, -0.06194924935698509, -0.011423522606492043, 0.00990812387317419, -0.0054403990507125854, -0.05627305060625076, -0.05327597260475159, -0.060514699667692184, -0.01867808774113655, -0.0021753283217549324, -0.0024371547624468803, -0.011534543707966805, -0.06139712035655975, -0.02078152261674404, -0.1368538737297058, -0.050347983837127686, 0.0065840184688568115, -0.008205902762711048, 0.010936521925032139, 0.03858577832579613, -0.028088562190532684, -0.030428584665060043, -0.001596928108483553, -0.0015237448969855905, -0.05779068171977997, -0.07854459434747696, -0.037908971309661865, -0.10491982847452164, -0.0034207457210868597, -0.0904550701379776, 0.07155665755271912, -0.07034165412187576, -0.07862180471420288, -0.10162143409252167, 0.000891189556568861, 0.07541101425886154, -0.04775005578994751, 0.019053170457482338, -0.06330617517232895, -0.0034745449665933847, 0.010367420502007008, 0.029053525999188423, 0.048879995942115784, 0.024699315428733826, 0.05878276005387306, 0.040442001074552536, -0.021027477458119392, -0.031817588955163956, 0.050269581377506256, -0.0031890282407402992, 0.19569693505764008, 0.03329510986804962, -0.013725213706493378, -0.08102338016033173, -0.07110908627510071, 0.015934346243739128, 0.036952193826436996, -0.046587325632572174, 0.00614961190149188, 0.023443087935447693, -0.03381375968456268, 0.036070313304662704, 0.02153669483959675, 0.09216897934675217, -0.12563368678092957, 0.02578382007777691, 0.03608410432934761, 0.03606251999735832, 0.09424558281898499, 0.12721437215805054, -0.03482621908187866, -0.02624344266951084, -0.034514378756284714, -0.004628296941518784, 0.014131320640444756, -0.001714823767542839, 0.009023277088999748, 0.0002514796215109527, -0.007190643809735775, 0.014100439846515656, -0.006063063628971577, 0.004699470475316048, 0.0008013658225536346, 0.017715683206915855, -0.01534947194159031, -0.0021961890161037445, -0.01491178385913372, 0.015283068642020226, -0.016376536339521408, -0.000882977619767189, 0.00014644890325143933, -0.010169874876737595, -0.0011764764785766602, 0.0033127665519714355, -0.013540638610720634, 0.014644834212958813, -0.009572078473865986, 5.3724274039268494e-05, 0.0178187545388937, -0.0026787035167217255, -0.008075173944234848, -0.0015766192227602005, 0.006075013428926468, 0.001598479226231575, 0.0133149903267622, -0.01619904488325119, 0.002943357452750206, -0.011398188769817352, 0.003895852714776993, 0.007647080346941948, -0.011592869646847248, -0.0011289678514003754, -0.016039783135056496, -0.011698318645358086, -0.01723313331604004, 0.005380548536777496, -0.003605203703045845, -0.012834949418902397, -0.00515114888548851, -0.005149685777723789, 0.006002360954880714, -0.002595575526356697, -0.022195909172296524, 0.06863541901111603, -0.016350263729691505, -0.04465475678443909, -0.038733310997486115, -0.0018473842646926641, -0.019313422963023186, -0.07367176562547684, 0.01994003728032112, 0.028929468244314194, -0.05367389693856239, -0.014261260628700256, 0.03600172698497772, -0.010630562901496887, 0.02908722124993801, 0.04179844260215759, 0.04100019484758377, -0.03159581497311592, 0.09498735517263412, 0.08227811753749847, -0.021447116509079933, 0.025997618213295937, -0.010287578217685223, 0.005493178963661194, -0.0063962447457015514, 0.10062557458877563, 0.11576095968484879, 0.0055999658070504665, 0.007193155586719513, 0.08100464195013046, 0.07738745957612991, -0.04868733882904053, 0.004673832096159458, 0.029583370313048363, -0.04616878926753998, -0.0145326629281044, -0.022726688534021378, 0.016036037355661392, -0.02042357251048088, -0.06504181027412415, 0.022182844579219818, -0.0595516674220562, 0.014457961544394493, 0.04212496057152748, 0.0737261027097702, 0.01371329091489315, -0.012079722248017788, 0.020770851522684097, 0.0006772500928491354, -0.010261215269565582, -0.03895484283566475, -0.027256755158305168, 0.0071865832433104515, -0.007693081628531218, -0.011040540412068367, 0.013722018338739872, -0.006224513053894043, -0.0076116882264614105, -0.019353216513991356, 0.009851237758994102, 0.0016242609126493335, -0.02865144982933998, -0.02789747528731823, 0.06980130076408386, 0.06108766049146652, 0.02725883759558201, 0.08214285969734192, 0.03181803226470947, -0.01787756010890007, -0.05145438760519028, 0.029223723337054253, 0.014098062179982662, 0.011064513586461544, 0.14191551506519318, 0.06078837811946869, 0.008504649624228477, -0.016667522490024567, -0.042500775307416916, -0.05368586257100105, -0.014320007525384426, 0.04574986919760704, 0.0034385109320282936, -0.07225019484758377, -0.02326853573322296, 0.0015701556112617254, -0.005791450385004282, 0.03544032946228981, 0.018580181524157524, 0.005752519238740206, -0.0016039492329582572, 0.010153253562748432, 0.024019837379455566, 0.0018160438630729914, 0.05312265083193779, 0.06357767432928085, 0.07654394209384918, -0.012752953916788101, -0.01575697399675846, -0.007225809618830681, 0.011372895911335945, 0.0024892855435609818, -0.014322804287075996, 0.013577708974480629, 0.012370574288070202, -0.002626867266371846, 0.011987917125225067, 0.00991027057170868, 0.004665653686970472, 0.004691781476140022, -0.019398437812924385, 0.006556827574968338, 0.00580293033272028, -0.013784932903945446, -0.012467380613088608, 0.003969918936491013, 0.014123580418527126, 0.0028020371682941914, -0.0026921159587800503, -0.008943532593548298, 0.017805298790335655, 0.009005406871438026, -0.012229855172336102, -0.005014303606003523, 0.005233088508248329, -0.001057193148881197, 0.0006943400949239731, 0.0076360683888196945, 0.007865631952881813, -0.006742770317941904, -0.01368351187556982, -0.00932544469833374, 0.0032494610641151667, -0.012438896112143993, -0.01613132655620575, -0.015455176122486591, -0.018764642998576164, -0.01882929913699627, 0.0012091465760022402, -0.018296828493475914, 0.009919386357069016, 0.017416195943951607, -0.008350121788680553, 0.00389934703707695, 0.005145512521266937, -0.002364056184887886, 0.0019376147538423538, -0.011456809937953949, 0.01522929035127163, -0.025421658530831337, 0.04945344477891922, -0.012905776500701904, 0.02444402500987053, -0.012481403537094593, -0.01068002637475729, 0.036441873759031296, -0.0077992938458919525, -0.027335798367857933, -0.022011948749423027, -0.09307271242141724, -0.02584867551922798, 0.010860102251172066, 0.09925805032253265, -0.03309183567762375, -0.018539899960160255, 0.009363049641251564, -0.044337090104818344, -0.0668424665927887, -0.04390643537044525, 0.07889501750469208, 0.03549191728234291, -0.014301860705018044, 0.09334887564182281, 0.10076504200696945, 0.034260090440511703, 0.027005504816770554, -0.005612634122371674, -0.007781605701893568, 0.02969108708202839, 0.031998809427022934, -0.0018334443448111415, 0.07857928425073624, 0.01741379126906395, 0.021921368315815926, -0.01530599407851696, -0.027683168649673462, 0.004912120755761862, -0.017434077337384224, -0.022959552705287933, -0.018546929582953453, 0.02746943011879921, -0.03330754488706589, -0.059933312237262726, -0.024383239448070526, 0.002961336402222514, -0.09322461485862732, -0.006071807350963354, -0.01980113610625267, -0.0604049451649189, -0.005495459772646427, 0.007455373648554087, 0.02879108116030693, -0.001203246065415442, -0.010448725894093513, -0.038409121334552765, -0.03687454015016556, -0.04546096920967102, 0.004103104118257761, 0.03418359160423279, 0.015050218440592289, -0.00625802855938673, 0.002139342948794365, 0.04511149972677231, -0.005285633262246847, -0.029011888429522514, -0.017112627625465393, -0.02246665582060814, -0.03739376366138458, 0.04237543046474457, 0.027702681720256805, 0.03769824653863907, -0.002216548193246126, -0.03070714697241783, -0.029929162934422493, -0.05302705988287926, -0.012405568733811378, 0.052289433777332306, 0.08935882151126862, -0.04447559639811516, 0.0033615839201956987, 0.005928858183324337, -0.02193073183298111, 0.013698747381567955, -0.00857230369001627, -0.034026674926280975, -0.04043670743703842, -0.034034427255392075, -0.02014080248773098, -0.02621220424771309, 0.003923600539565086, -0.02187344990670681, -0.051584597676992416, 0.0025506815873086452, -0.03592560440301895, -0.03759756311774254, -0.014533262699842453, -0.02172253094613552, -0.009245910681784153, 0.05890081822872162, -0.012582818977534771, 0.020359618589282036, 0.03941207379102707, -0.005089819896966219, 0.005822247825562954, 0.005904526449739933, 0.04261462762951851, 0.04086282476782799, 0.046858638525009155, 0.01474959496408701, 0.001267974846996367, 0.0422397181391716, 0.14661863446235657, 0.002421437529847026, -0.035154059529304504, -0.03922918811440468, 0.060689281672239304, -0.08945047855377197, -0.06589712202548981, -0.28240129351615906, 0.00411959458142519, -0.1616998314857483, -0.056189507246017456, 0.027040285989642143, 0.00812345091253519, -0.06296765059232712, -0.11056991666555405, -0.07899569720029831, -0.06861670315265656, -0.12755610048770905, -0.027063533663749695, -0.03510863706469536, -0.04833070561289787, -0.11392354965209961, -0.06655027717351913, -0.02648681402206421, -0.0761849582195282, -0.052266668528318405, -0.007586715277284384, -0.02369881607592106, 0.005222572945058346, -0.022287018597126007, 0.006322105880826712, 0.009721426293253899, -0.0037069262471050024, -0.0185938011854887, -0.0074544623494148254, -0.0033215093426406384, -0.018896711990237236, -0.02600972354412079, -0.005729398690164089, -0.010341497138142586, 0.005827043671160936, 0.011102338321506977, 0.023915814235806465, 0.01453765481710434, -0.01733594760298729, 0.005849238485097885, 0.028163157403469086, -0.006272424943745136, 0.02681894414126873, 0.03547659516334534, 0.009739789180457592, -0.051503174006938934, 0.03281175345182419, 0.06132366508245468, 0.01316278800368309, -0.012177105993032455, 0.050503380596637726, 0.0466291606426239, -0.003561790566891432, 0.02475389465689659, 0.039964206516742706, 0.002596392994746566, -0.012013898231089115, 0.037973225116729736, 0.007929835468530655, -0.04264470189809799, 0.022322053089737892, 0.011188911274075508, -0.019978759810328484, -0.0008331923745572567, -0.04985317215323448, -0.04571481794118881, 0.024426395073533058, -0.05137883126735687, 0.02331179939210415, -0.03031899780035019, 0.003220419632270932, 0.02924194373190403, 0.0027124325279146433, 0.004797087516635656, -0.01702827773988247, -0.0024692837614566088, -0.019403453916311264, -0.0104769142344594, 0.005311299115419388, 0.03035997785627842, 0.07106491178274155, 0.027524081990122795, 0.0250164195895195, 0.0020480244420468807, 0.0031071288976818323, 0.04333439841866493, 0.04503970965743065, -0.034281909465789795, -0.029698876664042473, -0.028525833040475845, -0.0027980406302958727, 0.04616905003786087, 0.014287373051047325, -0.0887053981423378, -0.11838722229003906, -0.08312368392944336, -0.012975025922060013, -0.033589016646146774, 0.05640152469277382, 0.018762538209557533, 0.034583043307065964, 0.0067560081370174885, -0.00019135585171170533, -0.027170952409505844, -0.05182335525751114, 0.039405371993780136, 0.004804645664989948, 0.0032539854291826487, 0.06138378009200096, 0.12596428394317627, 0.07964435964822769, -0.029676586389541626, 0.010866422206163406, 0.017395254224538803, 0.006146551575511694, -0.0330415740609169, 0.029579058289527893, 0.05121632292866707, 0.02005195803940296, 0.0014212352689355612, -0.03374476358294487, -0.05976433679461479, -0.015458446927368641, -0.013427158817648888, -0.05094018206000328, -0.028831705451011658, 0.0012059472501277924, -0.020203344523906708, -0.031486012041568756, -0.0441424623131752, 0.029748493805527687, 0.013034994713962078, 0.006978894583880901, -0.057785674929618835, 0.03935294598340988, -0.012992522679269314, -0.037151508033275604, -0.009140122681856155, 0.021398017182946205, -0.002189623424783349, 0.027037780731916428, 0.014950791373848915, 0.043044496327638626, 0.01705610379576683, -0.015031657181680202, 0.0590193085372448, 0.07178854197263718, -0.0006571743870154023, 0.019584283232688904, -0.05708964169025421, -0.02401486225426197, -0.11124583333730698, -0.020306697115302086, 0.06603248417377472, -0.011317167431116104, -0.006617630831897259, 0.0005865154089406133, -0.03671567514538765, -0.11292451620101929, 0.028102178126573563, 0.016926130279898643, -0.045426543802022934, -0.025414392352104187, 0.06182713806629181, 0.053322482854127884, -0.016194187104701996, 0.012365279719233513, -0.021098855882883072, -0.01575291156768799, 0.017507459968328476, 0.033329349011182785, 0.060998231172561646, -0.005677411332726479, 0.00039886534796096385, -0.011461812071502209, -0.011995764449238777, -0.006176454480737448, -0.048178836703300476, -0.007653670385479927, -0.0192584116011858, 0.00865338183939457, -0.007073951885104179, 0.0029176645912230015, -0.015607835724949837, -0.0061159380711615086, -0.036662422120571136, 0.010404294356703758, 0.01364985853433609, -0.009719726629555225, 0.07920901477336884, 0.0669412910938263, 0.053903788328170776, 0.0020766970701515675, -0.0491483211517334, 0.059643641114234924, -0.005181515589356422, 0.09461832791566849, 0.06091318279504776, -0.007235535886138678, -0.054572995752096176, -0.00395966088399291, 0.04222647473216057, -0.031512707471847534, 0.061493366956710815, 0.04030459746718407, 0.02009730041027069, -0.006505042314529419, 0.01000693254172802, 0.0036154715344309807, -0.004628910683095455, -0.019432468339800835, -0.0105747627094388, 0.008813067339360714, 0.053106874227523804, -0.006282850168645382, -0.024916833266615868, -0.021091125905513763, -0.0057338811457157135, 0.003517997683957219, 0.04048270359635353, 0.022995010018348694, 0.01573525369167328, -0.028891652822494507, 0.008697202429175377, -0.009602751582860947, -0.05635375902056694, 0.025060098618268967, 0.0531412698328495, 0.028478626161813736, 0.0408896803855896, 0.005052375607192516, 0.036411359906196594, 0.0334993340075016, -0.0044985366985201836, -0.004436536692082882, -0.011062143370509148, 0.050562769174575806, 0.04736967384815216, 0.05176874250173569, 0.02121158316731453, 0.008636988699436188, 0.0014595685061067343, 0.0016433281125500798, 0.004467817954719067, -0.013738598674535751, 0.06098399683833122, 0.03226481005549431, 0.041747789829969406, 0.026236416772007942, 0.013953656889498234, 0.0015468329656869173, -0.04004012420773506, -0.04692074656486511, -0.06930988281965256, 0.04163239151239395, 0.029125981032848358, -0.04607142135500908, -0.002538712229579687, -0.021803485229611397, -0.013937913812696934, 0.0345328263938427, -0.0010587465949356556, -0.011562621220946312, -0.0585574246942997, -0.009976382367312908, -0.05260862782597542, 0.019495626911520958, -0.02062903717160225, -0.1588890552520752, -0.06343816220760345, -0.018510080873966217, -0.08255445212125778, -0.010438866913318634, 0.01337728276848793, 0.009967967867851257, -0.002579266671091318, 0.028573185205459595, -0.0192350372672081, -0.004660925827920437, 0.0016654228093102574, 0.03116953745484352, -0.016467036679387093, -0.06096962094306946, -0.005219968035817146, -0.0057383254170417786, -0.028045538812875748, 0.021647216752171516, 0.015547823160886765, 0.057041630148887634, -0.010738044045865536, 0.0017430591396987438, -0.005991946905851364, -0.006487046368420124, -0.03679020330309868, 0.007413533981889486, 0.11473187059164047, 0.09756911545991898, 0.02022329531610012, -0.02167241834104061, 0.04213836044073105, 0.008411791175603867, 0.004936982411891222, 0.03425269573926926, -0.0047322409227490425, 0.016017232090234756, -0.0718437060713768, 0.003841668600216508, -0.017451539635658264, -0.009312467649579048, 0.016942158341407776, -0.023805683478713036, -0.010241617448627949, -0.07615366578102112, -0.021831581369042397, -0.013415496796369553, 0.014837132766842842, 0.004919792991131544, -0.005837587174028158, -0.021974140778183937, 0.058438740670681, -0.04368896782398224, -0.03357121720910072, 0.014483638107776642, -0.013626059517264366, 0.00370764615945518, -0.011519277468323708, -0.014667772687971592, 0.0055055078119039536, -0.020164016634225845, 0.0054147252812981606, 0.001044484437443316, 0.014760565012693405, -0.007923655211925507, 0.030816789716482162, 0.04022303968667984, -0.006186346523463726, -0.029972760006785393, -0.001926066935993731, 0.0029212830122560263, 0.0008478841045871377, -0.02627967670559883, 0.02515539340674877, 0.0036406780127435923, 0.036067016422748566, 0.0724327489733696, 0.028032250702381134, -0.04770086705684662, -8.897719089873135e-05, 0.033885154873132706, -0.03472559154033661, 0.02452019974589348, 0.0010777800343930721, 0.032609205693006516, -0.025471296161413193, -0.012407023459672928, -0.04735701531171799, -0.03464872017502785, -0.03160722926259041, 0.07895923405885696, 0.06645157933235168, -0.02700870670378208, -0.017842136323451996, -0.026124000549316406, 0.010094115510582924, -0.009890391491353512, 0.040567077696323395, 0.05486128851771355, -0.040563274174928665, -0.15796801447868347, -0.005492123309522867, -0.01760369911789894, 0.0037169307470321655, -0.005965010728687048, -0.01908932626247406, -0.01894894614815712, -0.047495026141405106, -0.003120680805295706, 0.008844146504998207, -0.008266313932836056, 0.02215568535029888, -0.015403743833303452, -0.07029271125793457, -0.01638335920870304, 0.0140750827267766, -0.02103022113442421, 0.0652332752943039, 0.08092909306287766, 0.021741420030593872, -0.0019557089544832706, 0.026748988777399063, -0.014160485938191414, -0.02135317027568817, 0.08251968026161194, 0.12170761823654175, -0.018504612147808075, -0.00819852389395237, 0.019848400726914406, -0.054123442620038986, -0.005793984048068523, -0.002114267321303487, 0.018583819270133972, -0.021896813064813614, -0.0461791567504406, -0.0003156064194627106, -0.00676680775359273, -0.028773708269000053, -0.004713702481240034, -0.0021724726539105177, -0.026578739285469055, -0.01778838224709034, -0.05250997841358185, -0.04364485293626785, 0.00995686836540699, 0.008235749788582325, 0.020745476707816124, 0.032199565321207047, -0.017286837100982666, -0.0022696717642247677, -0.014476851560175419, -0.003334439592435956, 0.0038336811121553183, 0.0025426032952964306, -0.008046714588999748, -0.015008141286671162, -0.00284357531927526, -0.006058896891772747, 0.01316426694393158, 0.002160697942599654, -0.035777363926172256, 0.033712055534124374, 0.007494921796023846, -0.050896067172288895, -0.022843409329652786, 0.04137295112013817, 0.01217143889516592, 0.019785797223448753, 0.0714084729552269, 0.013596109114587307, -0.023118067532777786, 0.010162976570427418, -0.01491712685674429, 0.028470562770962715, 0.06432059407234192, 0.06889600306749344, -0.0002495113876648247, 0.019040465354919434, 0.034064553678035736, 0.0069965762086212635, 0.0233288686722517, 0.016238629817962646, -0.04071660712361336, -0.016436070203781128, 0.0010661319829523563, 0.00931205041706562, 0.009215154685080051, -0.021137624979019165, -0.030072348192334175, -0.024245036765933037, -0.018344933167099953, -0.028217487037181854, -0.012698945589363575, -0.016573023051023483, -0.008358064107596874, -0.0030124688055366278, -0.00042097573168575764, -0.005605924408882856, -0.04831615090370178, 0.012448480352759361, -0.027858713641762733, 0.012560340575873852, 0.011544930748641491, 0.005892970133572817, -0.01999332383275032, -0.0027972115203738213, 0.01820503920316696, 0.00821464229375124, -0.0011645016493275762, -0.018506892025470734, 0.00594842154532671, 0.029773708432912827, 0.049937233328819275, 0.05594725161790848, -0.032448362559080124, -0.0036094465758651495, 0.05712286755442619, 0.04163558781147003, -0.04451729729771614, 0.024030908942222595, 0.01427250076085329, 0.0015390707412734628, -0.0020472819451242685, 0.08387064933776855, 0.09421169757843018, 0.012437118217349052, 0.005270668771117926, -0.015898266807198524, -0.031657569110393524, -0.011201648972928524, 0.011986345052719116, 0.06199430301785469, 0.04380163922905922, -0.05740773305296898, 0.027233799919486046, -0.059230197221040726, -0.006502850912511349, 0.03313657268881798, -0.010384664870798588, -0.01866980642080307, -0.09247242659330368, -0.02398275025188923, -0.09323353320360184, -0.0017193969106301665, -0.006913293153047562, -0.004480790812522173, -0.032224416732788086, -0.00863865576684475, -0.09423382580280304, -0.04359321668744087, -0.0007900904165580869, 0.017972350120544434, 0.0093856705352664, 0.007496081758290529, -0.050666119903326035, -0.012384016998112202, 0.023450912907719612, 0.004530982114374638, 0.033651065081357956, 0.06430091708898544, -0.018806789070367813, -0.017146887257695198, -0.0127443578094244, 0.023994170129299164, 0.00038588803727179766, 0.07701878249645233, 0.03143912926316261, -0.029062729328870773, -0.004452063702046871, -0.0017823418602347374, -0.03732194006443024, 0.020919306203722954, 0.045508891344070435, -0.02372046560049057, -0.04045775160193443, 0.028562381863594055, 0.044305719435214996, 0.004972201306372881, 0.031207378953695297, -0.003674014937132597, 0.006703491322696209, -0.014988203532993793, 0.002855952363461256, 0.02732595056295395, 0.0002954116207547486, 0.0028560624923557043, -0.02740703709423542, -0.04272064194083214, -0.04799709469079971, -0.013753354549407959, 0.006122293882071972, -0.030542152002453804, -0.008150364272296429, 0.007654101122170687, -0.014599476009607315, 0.025604045018553734, 0.028050940483808517, -0.03041653335094452, -0.015188943594694138, 0.0442253053188324, 0.030449090525507927, 0.02973248064517975, -0.06212833523750305, 0.052494559437036514, 0.031023716554045677, -0.009872876107692719, -0.0073380246758461, 0.03741110488772392, 0.04256616160273552, -0.09898691624403, -0.09221883863210678, -0.1004081517457962, 0.013669315725564957, 0.015710564330220222, 0.03152841702103615, 0.006498939823359251, -0.04043785482645035, -0.03227397799491882, -0.01612846553325653, -0.028501465916633606, -0.007129992358386517, -0.04271719977259636, -0.07132775336503983, -0.05496290698647499, 0.10734891146421432, 0.09038743376731873, -0.06299714744091034, 0.04828674718737602, -0.03623030334711075, -0.08972309529781342, -0.05753086879849434, 0.03381103649735451, 0.10215477645397186, 0.008490531705319881, -0.013890212401747704, -0.04437866806983948, -0.03763510659337044, -0.03587302565574646, -0.011290881782770157, 0.02161881886422634, -0.04833972454071045, -0.0035118372179567814, 0.061672378331422806, 0.0017698381561785936, -0.009247705340385437, -0.02466612495481968, -0.024098165333271027, -0.02479890175163746, -0.014442377723753452, -0.025443201884627342, -0.029424821957945824, -0.04905575141310692, -0.052030809223651886, 0.018812982365489006, 0.008894776925444603, 0.010523906908929348, -0.022273190319538116, 0.04407496750354767, -0.02942994423210621, -0.004687040578573942, 0.031190263107419014, -0.012696008197963238, -0.03168890252709389, 0.047177016735076904, 0.042840540409088135, -0.017068326473236084, 0.06485495716333389, 0.01462896354496479, 0.008364609442651272, 0.0053703091107308865, 0.06509387493133545, 0.031903136521577835, -0.0027176064904779196, 0.040049321949481964, 0.044359274208545685, -0.024103187024593353, 0.05415552482008934, 0.07913275063037872, 0.07245437800884247, 0.030996067449450493, 0.02673417702317238, 0.03499610349535942, -0.006057293154299259, 0.0007916197064332664, 0.014385132119059563, 0.07980643957853317, 0.058750689029693604, 0.0189413633197546, -0.003479533828794956, -0.016932237893342972, 0.015520025044679642, 0.005320304539054632, 0.00806945189833641, 0.13866358995437622, -0.038199808448553085, -0.0009548783418722451, 0.010793767869472504, 0.004057108424603939, -0.0381329245865345, -0.08628293126821518, -0.018754536285996437, -0.0293276384472847, -0.022397741675376892, 0.007219756953418255, -0.008983760140836239, -0.04769520089030266, 0.08933689445257187, 0.02450716309249401, 0.05530576407909393, -0.01448992919176817, 0.03704047203063965, 0.02382899448275566, -0.023818889632821083, 0.04080340266227722, 0.0364670529961586, 0.11401751637458801, 0.06814268976449966, 0.0032585342414677143, 0.040641143918037415, -0.022337473928928375, -0.015805669128894806, -0.13518446683883667, 0.047423772513866425, 0.09055137634277344, -0.09420012682676315, 0.03741450607776642, -0.000221758964471519, 0.004792565945535898, 0.03383368253707886, 0.03890315815806389, -0.04794464632868767, 0.035039372742176056, -0.016943056136369705, -0.06469600647687912, 0.019387777894735336, 0.04431312158703804, 0.004467999562621117, -0.03250358998775482, -0.08370916545391083, -0.031688492745161057, 0.060882698744535446, 0.02165767177939415, -0.028003165498375893, -0.01467566192150116, -0.08813502639532089, -0.011132851243019104, -0.014077631756663322, -0.014099141582846642, -0.014826030470430851, -0.02127460204064846, 0.014454402960836887, -0.007296175230294466, 0.012385673820972443, 0.017771877348423004, -0.014653019607067108, -0.0353471040725708, -0.01770569011569023, -0.02817889302968979, 0.008035460487008095, -0.008327447809278965, -0.0027561206370592117, -0.0013626685831695795, 0.039973001927137375, 0.001343194511719048, 0.039450064301490784, 0.046304281800985336, -0.008947890251874924, 0.06033560261130333, 0.031803589314222336, 0.04985019564628601, 0.0071566118858754635, 0.029778391122817993, 0.023963790386915207, -0.003538439515978098, 0.0631418377161026, 0.06749226897954941, 0.003220255021005869, 0.020131850615143776, -0.024501513689756393, 0.04760291054844856, 0.011188366450369358, 0.02488444745540619, -0.004035744350403547, 0.009830291382968426, 0.05142312869429588, 0.02144070900976658, 0.009822175838053226, 1.6283542208839208e-05, 0.011416013352572918, -0.016629256308078766, 0.008853815495967865, 0.017214810475707054, 0.0008012511534616351, 0.008017919957637787, -0.02023923397064209, -0.0145036606118083, -0.027252746745944023, -0.04536353796720505, -0.03842644393444061, -0.0019569173455238342, -0.003476247424259782, -0.004833423998206854, -0.023584537208080292, 0.020809724926948547, -0.022777466103434563, -0.013869192451238632, 0.04382859170436859, 0.04488261044025421, 0.006531871389597654, 0.09395649284124374, 0.046042948961257935, 0.06358927488327026, 0.010969116352498531, 0.06872531771659851, 0.11568081378936768, -0.004181781318038702, 0.0743056908249855, 0.04984568431973457, 0.004248833749443293, -0.07398949563503265, 0.02042626030743122, 0.06958372890949249, -0.015463141724467278, 0.032512590289115906, 0.02414548210799694, -0.010420557111501694, -0.01945979706943035, 0.01759933866560459, -0.0073430538177490234, 0.01278587058186531, 0.008752160705626011, -0.0435749813914299, 0.0009487378410995007, 0.056770484894514084, 0.036118365824222565, -0.00852104090154171, 0.007183043751865625, 0.004857591353356838, 0.005470882635563612, 0.041001610457897186, 0.04603009298443794, 0.04009311646223068, 0.00016359123401343822, 0.011028511449694633, -0.007514105644077063, -0.07378098368644714, -0.007328779902309179, -0.010171276517212391, 0.011714767664670944, -0.021062036976218224, 0.00708612147718668, -0.061083439737558365, -0.051558975130319595, 0.14897069334983826, -0.014055856503546238, 0.025256020948290825, 0.03569982573390007, 0.0028386556077748537, -0.06949138641357422, 0.09690268337726593, -0.023456353694200516, 0.06005604565143585, 0.04821525514125824, 0.002075598109513521, -0.07906647771596909, -0.03521263971924782, -0.007339881267398596, -0.05289381369948387, 0.0007210175390355289, -0.07485387474298477, 0.022850632667541504, -0.0340605303645134, -0.0025362062733620405, -0.03890935704112053, -0.04547550529241562, -0.0689481794834137, -0.029176941141486168, -0.07405934482812881, 0.010737878270447254, -0.020885948091745377, -0.03869284316897392, 0.005227349698543549, 0.03049026057124138, 0.030383314937353134, -0.09477268904447556, 0.03093104623258114, 0.014525908045470715, 0.046107906848192215, 0.07693988084793091, 0.017740022391080856, 0.04266221821308136, -0.1014510914683342, 0.00539179565384984, -0.011934942565858364, -0.004646495450288057, 0.016073958948254585, 0.010853230021893978, -0.015631388872861862, 0.018317390233278275, 0.031006254255771637, 0.020083514973521233, 0.010025039315223694, 0.03435426577925682, 0.06426140666007996, 0.02290451154112816, -0.010936662554740906, 0.017096130177378654, 0.06372004002332687, -0.030011529102921486, -0.05243317782878876, -0.06401761621236801, -0.01892760768532753, -0.008981644175946712, -0.06949728727340698, 0.019511206075549126, 0.07134655117988586, 0.051709700375795364, 0.024189360439777374, -0.0028452796395868063, -0.11181456595659256, -0.05625522881746292, 0.00109880103264004, 0.0053112865425646305, 0.1138671487569809, 0.09651456773281097, 0.07995785027742386, 0.04636470973491669, -0.031897563487291336, -0.031893741339445114, 0.03089085780084133, 0.0071672177873551846, -0.03742901608347893, 0.01789836399257183, -0.011698534712195396, -0.012499954551458359, 0.0026872355956584215, -0.07244087755680084, -0.05520540475845337, -0.02505350112915039, -0.035190630704164505, -0.12582169473171234, -0.03368639573454857, -0.047209326177835464, -0.059287525713443756, 0.049491334706544876, 0.028407514095306396, -0.019613707438111305, -0.030290989205241203, -0.017118724063038826, -0.028609061613678932, 0.03753109276294708, -0.014464073814451694, -0.0683993399143219, -0.06850726902484894, 0.00911853089928627, -0.05516580864787102, 0.046670690178871155, -0.05196862295269966, -0.04993708059191704, -0.009861580096185207, -0.02569817565381527, -0.03910791128873825, -0.0682048350572586, 0.15157261490821838, -0.007000572048127651, 0.09499596059322357, 0.08299460262060165, 0.053842950612306595, -0.06812625378370285, -0.0565352663397789, -0.044021643698215485, -0.001309286104515195, 0.043015483766794205, -0.02433294802904129, -0.00653127720579505, 0.013928962871432304, -0.04763684794306755, -0.0022978009656071663, -0.013390004634857178, -0.0645870640873909, -0.01998542994260788, 0.021291794255375862, 0.012160111218690872, -0.01700230874121189, 0.045445140451192856, -0.030548838898539543, -0.04699551686644554, -0.013061940670013428, -0.028497951105237007, -0.07613568007946014, -0.03359036520123482, -0.019630683586001396, -0.0038649761117994785, -0.0053643290884792805, -0.030231058597564697, 0.0228269025683403, -0.000978803145699203, 0.0014074904611334205, 0.018374286592006683, -0.0028203343972563744, -0.04144006595015526, -0.029439613223075867, -0.03645084798336029, -0.062264442443847656, 0.037801288068294525, 0.011016430333256721, -0.03613325580954552, -0.026537680998444557, -0.006204357370734215, -0.039902981370687485, -0.032527849078178406, -0.08437066525220871, 0.010793988592922688, 0.03209701180458069, -0.003206363646313548, -0.005879294592887163, 0.05262766405940056, 0.11290553957223892, -0.03370942920446396, -0.012461508624255657, 0.0021296164486557245, -0.014384501613676548, 0.029709234833717346, 0.03701202943921089, 0.05595315620303154, 0.0034848570358008146, 0.009900524280965328, -0.0092938132584095, 0.007705757860094309, 0.024326512590050697, 0.0029156694654375315, 0.013510113582015038, -0.010667119175195694, 0.0386180616915226, -0.023453954607248306, -0.0115913525223732, -0.005125841125845909, 0.012315844185650349, -0.0592181533575058, -0.017881004139780998, -0.004030306823551655, -0.010098355822265148, 0.015488462522625923, -0.023662801831960678, 0.0012721765087917447, -0.008121270686388016, 0.005320030264556408, -0.00475075701251626, 0.029382249340415, 0.018712520599365234, -0.023041492328047752, -0.02671082690358162, 0.01259142067283392, 0.003754734992980957, 0.013379081152379513, 0.01281831320375204, -0.0014079388929530978, -0.016367232427001, -0.04672922194004059, -0.0035141301341354847, 0.0126575268805027, 0.018925588577985764, -0.015538467094302177, 0.021415967494249344, 0.01908867061138153, 0.037086643278598785, -0.005010691005736589, -0.0004536090709734708, 0.015923816710710526, -0.0050920890644192696, -0.019010597839951515, -0.0026758413296192884, -0.019027946516871452, -0.0025969964917749166, -0.009852196089923382, -0.011554830707609653, 0.003407401731237769, -0.0161979291588068, -0.006113346666097641, -0.033480316400527954, -0.011122867465019226, -0.07234223932027817, 0.0030229385010898113, -0.03578487038612366, -0.020337171852588654, -0.01856413297355175, -0.002718314528465271, -0.0159267820417881, -0.01682897098362446, 0.015125749632716179, -0.014427484944462776, 0.0024569048546254635, -0.01843211054801941, 0.005282815545797348, 0.008911543525755405, 0.0019185197306796908, -0.01239859964698553, 0.03194984421133995, 0.05605519190430641, -0.024608353152871132, -0.08410177379846573, 0.04134165123105049, -0.014495623297989368, -0.06024907901883125, 0.08729279786348343, 0.04733768478035927, 0.044203951954841614, 0.004479508381336927, 0.058121226727962494, -0.014317593537271023, 0.030103113502264023, 0.1444745659828186, 0.048419781029224396, -0.009039590135216713, -0.028764938935637474, 0.037405312061309814, 0.025304904207587242, 0.0628194510936737, 0.1588776856660843, 0.09618687629699707, -0.019496675580739975, -0.024172309786081314, -0.01431836374104023, -0.020502526313066483, -0.0016658531967550516, 0.01648498699069023, 0.04722907766699791, 0.007602661848068237, -0.024229831993579865, -0.02582794800400734, -0.024892296642065048, 0.01337575912475586, 0.06791788339614868, 0.08389206975698471, 0.045987751334905624, -0.01024211198091507, 0.007876412011682987, 0.0016431465046480298, 0.0046003651805222034, 0.010579923167824745, -0.008126101456582546, -0.0075005735270679, 0.005860393866896629, 0.0033265091478824615, 0.008001533336937428, 0.0022772192023694515, -0.01906595006585121, -0.05603905767202377, 0.0205908864736557, -0.014232219196856022, 0.047571562230587006, 0.013584296219050884, -0.005712612997740507, 0.17882484197616577, 0.013922078534960747, 0.03968154266476631, 0.014368346892297268, 0.09134465456008911, 0.0005115590174682438, 0.006923755630850792, 0.08789237588644028, 0.06968476623296738, -0.029137026518583298, -0.0024023207370191813, 0.034628842025995255, 0.007585191633552313, 0.025638386607170105, -0.014515357092022896, -0.017389027401804924, -0.013261794112622738, 0.06243453919887543, 0.05494675040245056, -0.024592828005552292, -0.006928663235157728, -0.006862253416329622, -0.02985542267560959, -0.01710396818816662, 0.09647922962903976, -0.0664813220500946, -0.03051634132862091, -0.020155753940343857, -0.009151685051620007, 0.037194427102804184, 0.01394660584628582, 0.016871316358447075, -0.038695327937603, 0.011024540290236473, 0.007102674338966608, -0.03883381932973862, -0.05455591157078743, -0.025405265390872955, -0.06451062113046646, 0.06743491441011429, -0.004764390178024769, -0.05080080032348633, 0.011535700410604477, 0.03797977790236473, -0.07149084657430649, 0.019176317378878593, 0.04597801715135574, -0.036628782749176025, -0.014394369907677174, 0.06835845112800598, 0.08036085218191147, -0.07102982699871063, 0.03318245708942413, 0.041920796036720276, -0.007581194397062063, 0.082924984395504, 0.0953373908996582, 0.02038848027586937, -0.15317262709140778, -0.01932862214744091, -0.006899872794747353, -0.023863207548856735, 0.013306679204106331, 0.020978784188628197, 0.02111102268099785, -0.06451187282800674, -0.008544017560780048, -0.043011873960494995, -0.03270191326737404, -0.024484826251864433, 0.003428221680223942, -0.013527153991162777, 0.01820608414709568, 0.029551154002547264, -0.024945886805653572, -0.004683248233050108, -0.010626537725329399, -0.01268887147307396, 0.08928487449884415, 0.021400079131126404, 0.024157127365469933, 0.0013424436328932643, -0.0035852158907800913, -0.025531351566314697, -0.06316059082746506, -0.029307445511221886, -0.031871598213911057, 0.01380184106528759, 0.011392327956855297, -0.009225579909980297, 0.0070594074204564095, -0.0021081194281578064, -0.07922407984733582, 0.053796201944351196, 0.0025184266269207, 0.0797964408993721, 0.009352066554129124, 0.07948358356952667, 0.04982675239443779, 0.06900337338447571, -0.003604850498959422, 0.010065717622637749, 0.054065488278865814, -0.03702760115265846, 0.06526613980531693, -0.014424237422645092, 0.08800298720598221, 0.05071389675140381, 0.02938227728009224, 0.0019323257729411125, -0.12025383114814758, -0.002813818398863077, 0.006221471820026636, 0.05222219228744507, -0.07848045974969864, -0.042625024914741516, 0.006609389558434486, -0.037114325910806656, -0.03749578073620796, 0.021863838657736778, -0.0393204502761364, 0.0005253579001873732, -0.0920182317495346, 0.028268149122595787, -0.08637712150812149, 0.03865746036171913, -0.04110526293516159, -0.05255058407783508, 0.021797748282551765, -0.0013746274635195732, -0.02626233734190464, -0.05353633314371109], "bias": -0.022288208827376366}