{"layer": "fc1", "index": 3, "weights": [-0.01718715764582157, 0.003847215324640274, -0.004680110607296228, -0.006212504580616951, -0.0029868544079363346, -0.0054012322798371315, -0.006927943788468838, -0.008966311812400818, -0.0066074165515601635, -0.01119952742010355, -0.01563176140189171, 0.02054651454091072, 0.018274424597620964, -0.012333180755376816, -0.012026986107230186, -0.006560551468282938, 0.011301879771053791, -0.0028781353030353785, -0.005579579621553421, -0.0007499218918383121, -0.001477232202887535, 0.003078412963077426, -0.023352866992354393, -0.016434526070952415, -0.0137682119384408, -0.023851988837122917, -0.016300639137625694, -0.0011422373354434967, -0.021453967317938805, -0.0011641680030152202, 0.009160197339951992, 0.008682084269821644, -0.017759380862116814, 0.006465727463364601, 0.017088068649172783, 0.003752724500373006, -0.02276301570236683, 0.007586609572172165, 0.02305406890809536, 0.005862795282155275, 0.014308587647974491, -0.010920512489974499, 0.0005196565180085599, -0.013965350575745106, -0.019917786121368408, 0.000877952843438834, -0.008158482611179352, -0.02096673659980297, -0.004111431539058685, -0.01259081531316042, 0.017232807353138924, 0.0013039420591667295, -0.0027659330517053604, -0.012793278321623802, 0.021883495151996613, 0.01563878543674946, 0.014240002259612083, -0.006743452046066523, 0.006266014650464058, -0.01423527393490076, 0.004272660706192255, 0.003452989738434553, 0.0011565223103389144, -0.004474445711821318, -0.01139638852328062, -0.015442733652889729, 0.0039705983363091946, 0.009896201081573963, 0.00018174838623963296, 0.011028317734599113, -0.0018728941213339567, -0.008339152671396732, -0.023080702871084213, -0.018606361001729965, -0.00645260838791728, -0.009704836644232273, 0.007163305766880512, 0.004201164469122887, 0.00560219120234251, -0.009073582477867603, -0.011192039586603642, 0.008829508908092976, -0.018146872520446777, -0.010406396351754665, 0.003287910483777523, -0.0002998631389345974, 0.007189954165369272, -0.01642303168773651, -0.017666395753622055, -0.0015962207689881325, 0.021812397986650467, -0.019023176282644272, -0.014978662133216858, -0.013750971294939518, 0.000870704127009958, -0.022415120154619217, -0.0034895131830126047, -0.005486893001943827, 0.0037699693348258734, -0.01943005993962288, -0.017916657030582428, 0.007651170250028372, -0.0016519833588972688, 0.0032308618538081646, 0.006519895046949387, -0.022635383531451225, 0.008617805317044258, -0.018108606338500977, 0.009284814819693565, 0.011412818916141987, -0.017685048282146454, -0.006411559414118528, -0.008809431456029415, -0.021226339042186737, -0.021705450490117073, -0.01128434855490923, 0.01152550708502531, -0.016877492889761925, 0.022196171805262566, -0.00225076824426651, -0.012070806697010994, -0.01018460001796484, 0.00039822733378969133, -0.017844419926404953, -0.0019184018019586802, 0.006269901990890503, -0.001565676648169756, -0.0061719235964119434, -0.015834206715226173, -0.02239447832107544, -0.016446352005004883, -0.02250831201672554, 0.012618687003850937, -0.007422071881592274, -0.021638864651322365, -0.012770425528287888, 0.01069995854049921, -0.017185555770993233, -0.012082918547093868, -0.006802151910960674, -0.003095402382314205, -0.014411280862987041, -0.023123133927583694, -0.013580895029008389, -0.007117895409464836, -0.014826023951172829, 0.007153306622058153, 0.015369905158877373, -0.01330178789794445, -0.006717256270349026, -0.0032052479218691587, -0.013108551502227783, -0.006362813524901867, 0.009836837649345398, -0.0199442096054554, -0.008638321422040462, -0.012266954407095909, 0.0020646778866648674, 0.022340239956974983, 0.011630342341959476, 0.006720228586345911, 0.009321519173681736, -0.010157248005270958, 0.018990786746144295, -0.0011874865740537643, 0.0005281546618789434, 0.005506064277142286, -0.02353384904563427, -0.00633602449670434, 0.00786086730659008, -0.011991272680461407, 0.0036321841180324554, -0.02090020664036274, -0.0024470584467053413, -0.011532978154718876, 0.007541248109191656, 0.01271102949976921, 0.008970093913376331, 0.003017295151948929, 0.016366027295589447, 0.004075250588357449, -0.007505403365939856, 0.01794663444161415, 0.009977223351597786, 0.018857460469007492, -0.020829400047659874, 0.007494282443076372, 0.003262844868004322, 0.0031061142217367887, -0.008365499787032604, -0.019401662051677704, 0.005524445325136185, -0.01004020031541586, 0.0036178065929561853, -0.010823741555213928, -0.017476540058851242, 0.00029800646007061005, -0.012875698506832123, -0.009493968449532986, -0.023067587986588478, -0.0037228772416710854, 0.0017160129500553012, 0.009639587253332138, 0.008936874568462372, 0.023426083847880363, 0.011698159389197826, -0.01787487417459488, -0.0068685621954500675, -0.008617894724011421, -0.012357866391539574, 0.005463102832436562, -0.02158317342400551, 0.005959696136415005, -0.004326066002249718, -0.003281054086983204, -0.0040029603987932205, 0.01008732058107853, -0.008460158482193947, -0.002742164069786668, 0.0034908170346170664, -0.01617559790611267, 0.02204046957194805, 0.0015117761213332415, -0.01719939336180687, 0.00865413062274456, 0.011291855946183205, -0.0018934166291728616, 0.010169210843741894, -0.01882646419107914, 0.008395334705710411, -0.018089940771460533, -0.006508179008960724, -0.011011737398803234, 0.010024551302194595, -0.018031232059001923, -0.021176498383283615, 0.0010835391003638506, 0.010655107907950878, -0.02066117897629738, 0.0004087123670615256, -0.012391599826514721, -0.014532794244587421, -0.002643824089318514, 0.010171672329306602, 0.0015196893364191055, -0.016989246010780334, -0.010723301209509373, 0.0032761513721197844, 0.0023516530636698008, 0.007797548081725836, 0.007214497309178114, 0.008408358320593834, -0.023600494489073753, -0.017453255131840706, -0.02141479216516018, -0.016744865104556084, -0.010176105424761772, -0.016800303012132645, 0.002300489693880081, -0.0072567034512758255, -0.0021206731908023357, -0.006316494662314653, -0.022846607491374016, 0.005624791607260704, 0.005872705951333046, 0.0070677646435797215, -0.0006499022128991783, -0.010254893451929092, 0.007634772453457117, -0.020457692444324493, -0.0073779127560555935, 0.0013472898863255978, 0.0012829761253669858, 0.005180699750781059, 0.021117571741342545, 0.004044451750814915, -0.012619218789041042, -0.005163875408470631, -0.005370435770601034, 0.0063523463904857635, 0.006269425619393587, 0.003576825372874737, -0.01677926443517208, 0.006940814666450024, 0.007532953750342131, 0.008360757492482662, 0.0033992957323789597, -0.00568805169314146, 0.001636603963561356, 0.007734415587037802, -0.002389288507401943, -0.0184249859303236, -0.0014847434358671308, -0.008774870075285435, 0.0017001200467348099, -0.021098192781209946, -0.00379478232935071, -0.013643357902765274, -0.0235770083963871, -0.00504442909732461, 0.010387197136878967, 0.007057992275804281, -0.01486868318170309, -0.021003512665629387, -5.609535037365276e-06, 0.00269423914141953, 0.0028507979586720467, -0.0030877869576215744, 0.009685439057648182, -0.002138030482456088, 0.01042212639003992, 0.009072931483387947, 0.0007335729897022247, 0.0009567245724610984, -0.014883565716445446, 0.0025164494290947914, -0.02186925709247589, 0.006245633587241173, -0.00841870903968811, -0.016380324959754944, -0.0013904643710702658, 0.0014344523660838604, -0.015324145555496216, -0.004696305841207504, -0.010741442441940308, -0.0034045218490064144, -0.02277425490319729, 0.009228300303220749, 0.010790806263685226, 0.0067971087992191315, 0.004923094995319843, -0.017948415130376816, -0.013224771246314049, 0.015621261671185493, -0.020284051075577736, -0.015806548297405243, -0.015849947929382324, -0.005408584605902433, 0.0011560125276446342, -0.00858671497553587, 0.016349878162145615, -0.01766648329794407, 0.009005783125758171, -0.015747569501399994, -0.01361177396029234, -0.012355433776974678, -0.021053114905953407, -0.005089590325951576, 0.00962550938129425, -0.0035507814027369022, 0.017830850556492805, -0.017517689615488052, 0.005883656442165375, 1.6540008800802752e-05, 0.007425654213875532, -0.008699366822838783, 0.0193365216255188, 0.00979325920343399, 0.009607380256056786, -0.021623928099870682, 0.0075385719537734985, -0.023349696770310402, 0.010431263595819473, 0.005563569255173206, 0.006796299014240503, 0.007965429686009884, -0.006014878395944834, -0.009231006726622581, -0.003369852900505066, -0.004004446789622307, -0.011157521978020668, -0.016234641894698143, 0.0018221825594082475, -0.00745392357930541, -0.013292912393808365, 0.01998797245323658, 0.009203624911606312, 0.002822115318849683, 0.00971416849642992, -0.012307927943766117, 0.00750728277489543, -0.016627579927444458, 0.0054152109660208225, -0.001021354109980166, 0.001499714213423431, -6.044343535904773e-06, -0.011379919946193695, -0.011003255844116211, -0.01816605031490326, -0.013739124871790409, -0.003374881576746702, -0.014395814388990402, -0.013841746374964714, -0.015891844406723976, -0.008300552144646645, -0.01123738568276167, -0.001789203379303217, 0.009250251576304436, 0.01697021909058094, -0.005796455778181553, -0.004474359564483166, -0.002824722323566675, -0.009992423467338085, -0.012344473972916603, 0.013552127406001091, 0.008517086505889893, -0.01132519543170929, 0.013822348788380623, -0.0007181367836892605, 0.0003691411984618753, -0.015416587702929974, -0.004870196338742971, -0.00036599300801754, -0.014700975269079208, -0.010431441478431225, 0.010359263978898525, 0.013108444400131702, -0.009846402332186699, -0.0007484215311706066, 0.007500264793634415, 0.00790848396718502, -0.019924387335777283, -0.009034845046699047, -0.0015806590672582388, 0.010290087200701237, -0.014972733333706856, -0.017008129507303238, -0.007363257929682732, -0.0001844111829996109, 0.0015551835531368852, 0.007778191473335028, -0.021102892234921455, 0.012649166397750378, 0.00422561913728714, -0.016898896545171738, 0.015105968341231346, -0.0049566589295864105, 0.01730012707412243, -0.018315711989998817, 0.009908771142363548, 0.006527597084641457, -0.0027356757782399654, -0.013710614293813705, 0.0036172806285321712, -0.019142240285873413, 0.0043626995757222176, -0.006829950027167797, 0.00891074351966381, 0.010824589058756828, 0.0005813949974253774, -0.013060065917670727, 0.004195201676338911, 0.001250328030437231, 0.006430517416447401, -0.0042994217947125435, 0.00442967563867569, -3.4644104744074866e-05, 0.001539501710794866, 0.0010224705329164863, -0.016952039673924446, 0.00841300468891859, -0.018457582220435143, 0.00303150387480855, 0.00786108523607254, 0.007566807791590691, 0.007443384733051062, -0.0027277800254523754, -0.00849900208413601, 0.010135140269994736, -0.006677982863038778, 0.003869394538924098, -0.019274989143013954, -0.02049054205417633, 0.018371496349573135, -0.0006227510166354477, -0.02238689735531807, 0.007363509852439165, -0.006081292871385813, -0.014945677481591702, 0.004277150146663189, 0.0005752516444772482, 0.00447296304628253, -0.014189622364938259, -0.00019092531874775887, -0.00529805663973093, -0.018465746194124222, -0.006761306431144476, -0.02190503478050232, -0.003743862733244896, -0.02086920477449894, 0.004768986254930496, -0.0021937473211437464, 0.0013074959861114621, -0.012970899231731892, -0.0007681488059461117, 0.008437569253146648, -0.0111427903175354, -0.007850421592593193, 0.004638694692403078, -0.01738656684756279, -0.016235901042819023, -0.01850237138569355, -0.003462980268523097, -0.010227661579847336, -0.010081944987177849, -0.007930271327495575, 0.0023334159050136805, -0.010238434188067913, 0.0016088510164991021, -0.02206585183739662, 0.013153376057744026, -0.00646223034709692, 0.005229027941823006, 0.02300269715487957, 0.01338463556021452, -0.014439908787608147, -0.020612381398677826, -0.009720402769744396, -0.010464131832122803, -0.015232357196509838, 0.008182923309504986, -0.022329721599817276, -0.013204248622059822, -0.007640973664820194, -0.008419695310294628, -0.0032728463411331177, -0.0001941278314916417, -0.01832597330212593, 0.009468157775700092, -0.014677665196359158, -0.020695138722658157, 0.018830059096217155, -0.010877919383347034, -0.00037060832255519927, 0.006530790124088526, 0.012990301474928856, -0.00563266733661294, 0.022917238995432854, 0.01387539692223072, -0.021446330472826958, -0.004737143870443106, -0.017651012167334557, 0.009819448925554752, 0.01148521713912487, -0.021478038281202316, 0.008696315810084343, 0.0065217637456953526, -0.022214073687791824, -0.006693828850984573, 0.022615956142544746, -0.015413862653076649, 0.010112746618688107, -0.020696287974715233, -0.007837310433387756, -0.00952128041535616, -0.02132248505949974, 0.010713613592088223, -0.013889600522816181, -0.008333501406013966, -0.021708421409130096, -0.009983371943235397, 0.010787680745124817, -0.009646338410675526, 0.011188178323209286, -0.005610830150544643, 0.005481658969074488, 0.0037020037416368723, 0.0087382597848773, -0.006354843266308308, 0.004902954213321209, -0.014950305223464966, -0.006602222099900246, 0.010103756561875343, -0.005754014011472464, -0.0005398996290750802, 0.00885778944939375, -0.001041537499986589, 0.0004233572108205408, -0.014419532380998135, 0.010455812327563763, -0.008531713858246803, -0.01291407085955143, -0.018853651359677315, -0.02364998683333397, 0.008036060258746147, 0.004487053956836462, -2.208284604421351e-05, 0.0039452314376831055, -0.017183717340230942, -0.004778494127094746, -0.008284898474812508, -0.014428566209971905, 0.0018251813016831875, -0.02122470550239086, 0.010390257462859154, -0.02112593874335289, -0.005202336236834526, -0.016060177236795425, 0.012084885500371456, -0.00972580723464489, -0.007090873084962368, 0.0022763977758586407, -0.006760148797184229, -0.02285582572221756, 0.01078458409756422, -0.020917419344186783, 0.008490020409226418, 0.010036750696599483, -0.004984143655747175, -0.012907490134239197, 0.009212225675582886, -0.01075816061347723, -0.012267285957932472, 0.0012424043379724026, 0.0002823243266902864, 0.010236268863081932, -0.021862991154193878, -0.007653690874576569, 0.0021486838813871145, -0.015503380447626114, 0.000366681138984859, 0.016223294660449028, -0.014671072363853455, 0.002811363898217678, -0.002883519511669874, 0.0030513459350913763, -0.01626725308597088, 0.007560159079730511, -0.020830852910876274, -0.012750476598739624, 0.003850008361041546, -0.003835108131170273, -0.00025337969418615103, -0.001968244556337595, 0.00634078960865736, 0.0007460895576514304, -0.0053051533177495, -0.011786757968366146, 0.006291726138442755, 0.00989478174597025, -0.011193018406629562, 0.003934613429009914, -0.02310495264828205, -0.018867013975977898, -0.012809881940484047, -0.007543712388724089, -0.018505694344639778, -0.0058968523517251015, -0.008195110596716404, -0.004806231241673231, -0.018840977922081947, 0.010738893412053585, 0.010580292902886868, -0.012817398644983768, 0.004533662460744381, -0.016082260757684708, 0.011469603516161442, -0.01797102950513363, 0.00339327659457922, -0.013596498407423496, -0.00792829878628254, 0.006568684242665768, 0.000987944076769054, -8.296396845253184e-05, -0.023183071985840797, 0.00023457297356799245, -0.007762561552226543, 0.0056089903227984905, 0.0104866037145257, 0.0070632523857057095, -0.014353720471262932, 0.0004062776279170066, 0.008109969086945057, -0.002715677721425891, 0.008758610114455223, -0.004337533842772245, 0.002855328842997551, 0.007893082685768604, 0.0021813232451677322, -0.010769395157694817, -0.001937206950969994, -0.0034703679848462343, -0.0008110140915960073, 0.0006964686326682568, 0.002333190990611911, -0.009911316446959972, 0.00037650050944648683, -0.004304843954741955, -0.019953962415456772, -0.01684417389333248, 0.0010831593535840511, -0.015841208398342133, -0.009882680140435696, 0.006214405409991741, -0.002393817761912942, -0.007071887142956257, -0.012171197682619095, 0.0010245064040645957, -0.02352774515748024, -0.005592070985585451, -0.003190646879374981, 0.005126217380166054, -0.015399144031107426, -0.008029120042920113, -0.012634610757231712, 0.020753391087055206, -0.006089050322771072, -0.015155291184782982, -0.01176025066524744, -0.01813407614827156, -0.016781458631157875, 0.0043006460182368755, -0.02371339127421379, -0.005925095174461603, -0.013666662387549877, -0.016891323029994965, -0.008193694055080414, -0.0029773348942399025, 0.0027752674650400877, -0.016885120421648026, -0.00793128740042448, -0.011783648282289505, -0.011956735514104366, 0.007038885727524757, -0.002299536019563675, 0.0038196619134396315, 0.0031212144531309605, 0.0033382379915565252, -0.0046996306627988815, 0.005767196882516146, -0.020606359466910362, -0.0018329655285924673, 0.004550652112811804, -0.021594198420643806, 0.0022712808568030596, -0.011425514705479145, -0.005277557298541069, 0.002910421695560217, -0.004975704941898584, -0.0005690150428563356, -0.012767675332725048, -0.02058171108365059, -0.017100542783737183, -0.01879647560417652, -0.0033496220130473375, -0.007926170714199543, -0.0029619517736136913, 0.0009931277018040419, -0.01396909449249506, 0.009421858005225658, 0.011102422140538692, -0.013609643094241619, 0.011132445186376572, -0.005091591272503138, -0.01513717882335186, 0.0030831280164420605, -0.014764050021767616, -0.0017528211465105414, -0.002446115016937256, -0.005402802024036646, 0.016769930720329285, -0.017381226643919945, -0.0217414740473032, -0.014087286777794361, -0.013484968803822994, -0.021999426186084747, -0.013331783004105091, -0.022814864292740822, -0.004407978150993586, -0.008606582880020142, -0.0026682645548135042, -0.004323796834796667, -0.01901368983089924, -0.009043657220900059, -0.004580238834023476, 0.012508690357208252, -0.0005891380715183914, -0.0070615592412650585, -0.013115530833601952, -0.01608164794743061, -0.01967010460793972, -0.01662365347146988, 0.015862299129366875, 0.009509277530014515, -0.016095953062176704, -0.020690327510237694, -0.01243664138019085, 0.011741884052753448, 0.003421357600018382, -0.02152971923351288, -0.021861691027879715, -0.0065294657833874226, 0.0038030543364584446, -0.0077220844104886055, -0.020138302817940712, 0.0019437546143308282, 0.007754395715892315, 5.900806627323618e-06, -0.0235768910497427, -0.016562016680836678, -0.000719534931704402, 0.0016027246601879597, -0.02096104435622692, 0.00776743283495307, -0.018572840839624405, -0.018569612875580788, -0.018580332398414612, 0.0085013872012496, -0.0074713584035634995, -0.0030831543263047934, 0.004720590077340603, 0.004541777074337006, 0.005553579423576593, -0.007657978683710098, 0.008421404287219048, -0.009799299761652946, 0.0003288902516942471, -0.014443566091358662, -0.012439466081559658, -0.007532387971878052, -0.00956807378679514, -0.004476220812648535, -0.01931806281208992, -0.0011067851446568966, 0.007608083542436361, 0.006455583032220602, -0.00987926498055458, 0.0006454597460106015, -0.0031070050317794085, -0.015982624143362045, 0.022643251344561577, 0.00014412282325793058, -0.018458804115653038, 0.010124873369932175, 0.002155700698494911, -0.022293999791145325, -0.013384552672505379, 0.004886267706751823, -0.017155664041638374, 0.008147934451699257, 0.01144394837319851, -0.008799665607511997, -0.0025232413318008184, -0.004399643745273352, -0.008774702437222004, 0.0077325101010501385, -0.0005156135302968323, -0.016369294375181198, -0.0036269475240260363, -0.004031285643577576, -0.004287198185920715, 0.02110951952636242, -0.0044891140423715115, -0.0033740373328328133, 0.007992030121386051, 0.007477774750441313, 0.010564747266471386, 0.019474023953080177, -0.004350352566689253, -0.01112357061356306, -0.02208957076072693, 0.01899234764277935, 0.0011217707069590688, -0.007119874935597181, -0.008460056968033314, -0.008594903163611889, -0.005182049237191677, -0.00667325546965003, 0.00133792613632977, -0.0013964687241241336, 0.00027588472585193813, -0.001151756732724607, 0.010184584185481071, 0.007148531265556812, 0.011582369916141033, -0.021747535094618797, -0.008873296901583672, -0.009593605995178223, -0.007575569674372673, -0.011002250015735626, -0.005035598296672106, -0.009760934859514236, 0.014616826549172401, 0.005453089252114296, -0.0023083845153450966, 0.01060684584081173, -0.013210350647568703, -0.0156314205378294, 0.02060461975634098, -0.0012573208659887314, -0.023086709901690483, -0.0018988546216860414, -0.000984368147328496, -0.015011743642389774, -0.01579967699944973, -0.006077589467167854, 0.011128280311822891, -0.007488252595067024, -0.006535057444125414, 0.009995833970606327, 0.006571085192263126, -0.003782345913350582, 0.0014422559179365635, -0.0204805638641119, -0.009865297935903072, -0.008695852942764759, 0.00812690332531929, -0.011481965892016888, 0.011206794530153275, 0.0007349502411670983, -0.010625170543789864, 0.001566456165164709, 0.010765437968075275, -0.009535170160233974, -0.020493753254413605, -0.018912937492132187, -0.01484728418290615, 0.00012422265717759728, -0.0210478026419878, -0.007262978237122297, 0.004567892290651798, -0.0070267957635223866, 0.009804315865039825, -0.0015865175519138575, 0.0055260853841900826, -0.014582432806491852, -0.014819581992924213, 0.005738511215895414, -0.005864681676030159, 0.007796004414558411, -0.0011065341532230377, -0.016939014196395874, 0.0029357867315411568, -0.009183116257190704, -0.0030082524754107, -0.013863971456885338, -0.0199685450643301, 0.0055304463021457195, -0.021184178069233894, -0.005450762342661619, -0.0062779453583061695, -0.0008195331320166588, -0.011373810470104218, -0.007726223673671484, 0.006565808318555355, 0.008495916612446308, 0.0006795321824029088, -0.015812009572982788, 0.0023743424098938704, -0.01942487061023712, -0.018838757649064064, 0.007928975857794285, -0.020388757809996605, 0.011235824786126614, -0.012427156791090965, 0.017669104039669037, -4.4239703129278496e-05, -0.012981809675693512, 0.002139626070857048, -0.00832077395170927, 0.006907337345182896, -0.006794479209929705, 0.004184721503406763, -0.01206848956644535, -0.014766269363462925, -0.022226927801966667, -0.019444989040493965, -0.01508781872689724, 0.004887789953500032, 0.00851172674447298, -0.016747847199440002, -0.019231300801038742, -0.011651432141661644, -0.016752377152442932, 0.008164064958691597, 0.005082049872726202, 0.01155706588178873, -0.0006326883449219167, 0.008000502362847328, 0.003096790285781026, -0.015426869504153728, 0.006712210830301046, 0.006148598622530699, 0.009514585137367249, -0.012186969630420208, -0.0025072498247027397, -0.018917305395007133, -0.01363013219088316, -9.415452950634062e-05, 0.01004423201084137, 0.004984688945114613, 0.0009781992994248867, -0.0018251525470986962, 0.004850083962082863, 0.00546532915905118, -0.006357299629598856, -0.011694121174514294, 0.009629196487367153, -0.010406650602817535, 0.02250780165195465, -0.0164449792355299, -0.0003478004946373403, -0.013431156054139137, 0.008584120310842991, -0.020046139135956764, 0.01126036699861288, 0.022042984142899513, -0.011157535947859287, 0.007638269569724798, 0.00040879074367694557, 0.008172178640961647, -0.01969718374311924, 0.014512386173009872, 0.0014867800055071712, -0.01993146352469921, -0.022947678342461586, -0.006134652532637119, 0.010909413918852806, 0.0036319883074611425, -0.021006213501095772, -0.019584381952881813, -0.005410156678408384, -0.01992938481271267, -0.021195676177740097, -0.013732663355767727, 0.0022784213069826365, -0.008272530511021614, -0.01557197980582714, 0.0009943768382072449, 0.01112831849604845, -0.014615821652114391, -0.0010764615144580603, 0.005466112866997719, 0.009620992466807365, 0.009218739345669746, 0.01155951526015997, -0.022848401218652725, 0.003802655963227153, -0.020391205325722694, -0.022072769701480865, 0.002115249168127775, -0.01783311925828457, 0.022857611998915672, -0.011838231235742569, -0.006610991898924112, 0.007377995643764734, -0.0032177288085222244, -0.010259808972477913, -0.02011602185666561, -0.007476645987480879, -0.010526551865041256, -0.00930588785558939, -0.013904938474297523, -0.00018151880067307502, -0.0024201953783631325, 0.00993032194674015, -0.014659869484603405, 0.010832885280251503, -0.013873942196369171, -0.023737149313092232, -0.0022162282839417458, -0.008685434237122536, -0.006322204601019621, -0.012762309052050114, -0.017705455422401428, 0.003043947508558631, -0.008176371455192566, -0.0069313813000917435, 0.01027377974241972, -0.005226520821452141, -0.0033878455869853497, -0.006080986931920052, -0.017650939524173737, 0.0014148819027468562, -0.019820820540189743, -0.012316305190324783, -0.01644877903163433, 0.0017173599917441607, -0.009903036057949066, -0.012909387238323689, -0.023197952657938004, 0.007795616984367371, -0.022937018424272537, -0.021655699238181114, 0.010164259932935238, -0.010611733421683311, -0.015012767165899277, -0.013185427524149418, -0.016737453639507294, 0.009239722974598408, -0.020974095910787582, -0.006888224743306637, 0.010700325481593609, -0.000915760756470263, -0.010803946293890476, -0.023322798311710358, 0.0047259205020964146, 0.0007441480993293226, -0.008108246140182018, -0.017483804374933243, -0.02266598865389824, -0.015864424407482147, 0.014261853881180286, -0.00026124122086912394, -0.017488526180386543, 0.010185083374381065, -0.014166570268571377, -0.016261061653494835, -0.008151919580996037, 0.008735488168895245, 0.008335388265550137, 0.01152586005628109, 0.0018182431813329458, -0.000354197109118104, -0.017383798956871033, 0.0018940005684271455, 0.011147726327180862, -0.005474182311445475, 0.0012696515768766403, -0.0033161165192723274, -9.21827377169393e-05, -0.0179370678961277, 0.0015374552458524704, 0.009706547483801842, 0.010693073272705078, 0.0025022609625011683, -0.02326037362217903, 0.011286521330475807, -0.007944300770759583, -0.012547018006443977, -0.020736820995807648, -0.013288360089063644, 0.002537161111831665, -0.007488966453820467, -0.00855150818824768, 0.004502532538026571, -0.022773802280426025, -0.020305577665567398, 0.010623792186379433, -0.009925629943609238, -0.00030831334879621863, -0.0022958654444664717, -0.0008787636761553586, -0.019108837470412254, -0.016757545992732048, -0.018381282687187195, 0.011804350651800632, -0.018616000190377235, 0.012416822835803032, 0.011694301851093769, 0.0016680567059665918, -0.02245432697236538, 0.009232650510966778, -0.012749170884490013, 0.0032138340175151825, -0.007181216962635517, -0.023164402693510056, -0.00550580769777298, -0.007884670048952103, 0.005459016654640436, -0.015492076985538006, -0.004088243003934622, -0.010752786882221699, 0.005594115704298019, -0.0007416867883875966, 0.0013497526524588466, -0.013574721291661263, -0.003846406005322933, 0.0011460192035883665, -0.019088035449385643, -0.015498392283916473, -0.0023750560358166695, -0.014577683061361313, 0.009815574623644352, -0.005161771085113287, -0.015023190528154373, 0.007092856802046299, 0.002838360145688057, 0.008516576141119003, -0.022887589409947395, -0.01748306304216385, 0.0025061240885406733, 0.0033359474036842585, 0.004217278677970171, 0.00888883601874113, -0.013503322377800941, -0.022660840302705765, -0.01249762624502182, -0.009163165464997292, -0.007476454135030508, -0.01742991805076599, 0.009639344178140163, 0.004197524860501289, 0.00688095111399889, -0.019500480964779854, -0.02037580870091915, -0.020414939150214195, -0.021395530551671982, -0.021672457456588745, -0.016222545877099037, -0.017433643341064453, -0.0012387663591653109, -0.011910025961697102, -0.0058815861120820045, -0.017123179510235786, 0.011260926723480225, -0.00708115054294467, 0.0024024508893489838, -0.003391498699784279, -0.00025032053235918283, -0.01661032810807228, 0.0006076970603317022, -0.007789741735905409, -0.0030520542059093714, -0.011860404163599014, 0.008508958853781223, -0.02067047357559204, -0.006479459349066019, -0.017450472339987755, 0.003374143736436963, -0.0027151505928486586, 0.0017130784690380096, -0.009513329714536667, 0.0032615105155855417, -0.008940881118178368, 0.015704495832324028, 0.01062837801873684, 0.003220528829842806, -0.020571283996105194, -0.01635040156543255, -0.011435010470449924, 0.004861838649958372, 0.011779636144638062, -0.012121201492846012, -0.0034801915753632784, -0.01547356229275465, -0.018682315945625305, -0.016420330852270126, -0.010659431107342243, -0.02315046451985836, -0.00843407865613699, -0.005239086225628853, -0.006562072783708572, -0.015217971988022327, 0.007691641338169575, -0.009739061817526817, -0.010599516332149506, -0.0020353710278868675, 0.005855359137058258, 0.008448303677141666, -0.02078729122877121, 0.00695808557793498, 0.0004907562979497015, 0.007420353591442108, -0.013938026502728462, -0.009160537272691727, -0.0053847068920731544, 0.004417148418724537, 0.00823976006358862, 0.011763113550841808, 0.008934225887060165, -0.008556118234992027, -0.022232314571738243, -0.011187460273504257, -0.0031946974340826273, -0.016401521861553192, -0.004674146417528391, -0.012047800235450268, -0.011009487323462963, -0.01750791072845459, -0.01154277753084898, 0.0044310372322797775, 0.007458773907274008, -0.01149046141654253, 0.017114000394940376, -0.014327275566756725, -0.01134162861853838, -0.0036531155928969383, -0.004352588672190905, 0.019410256296396255, -0.016337959095835686, -0.013913447968661785, -0.010465535335242748, -0.021867875009775162, -0.016466287896037102, -0.0065181925892829895, 0.004845738876610994, 0.000678518321365118, -0.021102702245116234, -0.023277053609490395, 0.010806306265294552, 0.0027531192172318697, -0.010918615385890007, 0.00967093463987112, 0.00951977726072073, 0.004757678136229515, 0.022915564477443695, 0.0062939864583313465, -0.007773418910801411, -0.021793697029352188, 0.009122315794229507, -0.0005311060231178999, -0.016246698796749115, 0.006644241511821747, -0.002721751108765602, -0.00982318352907896, 0.005751418881118298, -0.002580345142632723, 0.007816256955265999, -0.021134713664650917, 0.010691765695810318, -0.018126992508769035, -0.0034212577156722546, -0.0013408093946054578, 0.009438888169825077, -0.012078732252120972, -0.0017334299627691507, 0.0011653988622128963, 0.006633205804973841, 0.022188693284988403, 0.0024968828074634075, -0.021853499114513397, 0.002311575459316373, -0.012063353322446346, -0.010376717895269394, 0.0026706336066126823, 0.00885709747672081, 1.171075928141363e-05, -0.003034633817151189, -0.015179214999079704, -0.005714325699955225, -0.009056784212589264, -0.021472100168466568, -0.014688397757709026, 0.010302318260073662, -0.008342424407601357, -0.00846774410456419, -0.012854711152613163, -0.009444373659789562, -0.016206631436944008, -0.02107883244752884, 0.010820162482559681, 0.0008743286016397178, -0.011047628708183765, 0.008860238827764988, 0.0025527472607791424, 0.01076548732817173, 0.00016228394815698266, 0.0014451410388574004, 0.001417031278833747, 0.011292321607470512, -0.001217953977175057, -0.0015913993120193481, 0.006877835374325514, -0.013688379898667336, 0.010038425214588642, -0.0065178340300917625, -0.005921460222452879, -0.008857201784849167, -0.00878616888076067, 0.0012652268633246422, -0.018329240381717682, 0.0018217676552012563, -0.022608140483498573, -0.0006619209889322519, 0.007075230125337839, -0.002679192926734686, 0.0032770365942269564, -0.019985275343060493, 0.003858780488371849, -0.004150030668824911, -0.011513118632137775, -0.006796431262046099, 0.001443760935217142, -0.00809134729206562, 0.009426330216228962, -0.01073151919990778, -0.020946981385350227, 0.008276185020804405, 0.011080470867455006, -0.006466577760875225, -0.013829261995851994, 0.00520644336938858, -0.007575873751193285, 0.0019504765514284372, 0.008425447158515453, -0.02327333390712738, -0.014803657308220863, 0.0002702315687201917, -0.0024646541569381952, -0.023108016699552536, -0.022109411656856537, -0.016039181500673294, 0.011558014899492264, -0.01168848667293787, 0.021792743355035782, -0.015232747420668602, -0.013638694770634174, -0.008219820447266102, -0.005726338364183903, 0.004988898988813162, -0.019482029601931572, -0.015935566276311874, -0.01637715846300125, 0.0012487060157582164, -0.005034684669226408, 0.003895154222846031, 0.009118873625993729, -0.0008431894239038229, -0.013942974619567394, -0.0073669967241585255, -0.01757555827498436, -0.005550290923565626, -0.017443187534809113, -0.0034769310150295496, -0.01905883476138115, 0.01122833602130413, -0.016229743137955666, -0.016636645421385765, -0.00743825500831008, -0.017802920192480087, 0.0008280553156509995, -0.0001719878928270191, -0.00828778650611639, -0.01323973573744297, -0.016847101971507072, 0.008749268017709255, 0.0035991373006254435, -0.01816258393228054, 0.012902142480015755, -0.01273354608565569, -0.016760356724262238, -0.006161552853882313, 0.010982166044414043, -0.01791277527809143, 0.011250000447034836, 0.00952496100217104, -0.010814535431563854, -0.0059912852011621, 0.0021533770486712456, -0.0025495614390820265, -0.015334486030042171, 0.003455202095210552, -0.00048334369785152376, 0.006067247595638037, -0.017054736614227295, 0.0012066549388691783, 0.014681284315884113, -0.0026931201573461294, -0.016594422981142998, -0.02215690352022648, -0.004525235388427973, -0.009509136900305748, -0.02165687456727028, -0.008479244075715542, 0.007841681130230427, -0.021868383511900902, -0.022031359374523163, -0.011791929602622986, -0.0006667840061709285, 0.0058677406050264835, 0.008695343509316444, -0.018088510259985924, 0.011330373585224152, -0.021095314994454384, 0.015176490880548954, 0.0005795959732495248, 0.012977294623851776, -0.017023885622620583, -0.0016814910341054201, 0.0088742570951581, -0.022989042103290558, -0.009055016562342644, 0.005782075691968203, -0.011948502622544765, -0.020295102149248123, 0.009356030263006687, -0.006808900739997625, -0.011813899502158165, 0.007126813754439354, 0.0024488677736371756, 0.009816227480769157, -0.010505600832402706, -0.012459734454751015, -0.004758108407258987, -0.004074751399457455, -0.020633138716220856, -0.008092263713479042, -0.019051725044846535, -0.004584929905831814, 0.011015336029231548, -0.02128668688237667, -0.015489429235458374, -0.0015894598327577114, 0.008271390572190285, -0.011691601015627384, -0.014598810113966465, -0.00042264474905095994, -0.011450167745351791, -0.00907936692237854, -0.012272054329514503, 0.005058377981185913, -0.009093005210161209, 0.010463520884513855, -0.006750793196260929, 0.005340291652828455, -0.022244857624173164, -0.021941110491752625, -0.005768720991909504, 0.004342801868915558, 0.008080340921878815, -0.011066942475736141, -0.022071275860071182, -0.02125491015613079, 0.0023981293197721243, 0.012663423083722591, -0.023005375638604164, -0.009666678495705128, -0.017931073904037476, -0.017226960510015488, 0.014669472351670265, 0.012312754988670349, 0.00911598652601242, 0.008014760911464691, 0.0007124952971935272, 0.01499270461499691, 0.00579447066411376, 0.005770420655608177, 0.010662205517292023, -0.021252715960144997, 0.014723854139447212, -0.030954401940107346, 0.0024380888789892197, -0.009756255894899368, -0.0375652089715004, -0.011981206946074963, -0.016454653814435005, -0.012374697253108025, 0.006582416594028473, -0.012885643169283867, -0.012333766557276249, -0.03270608186721802, 0.003089095698669553, -0.01790589652955532, 0.013985546305775642, -0.011381426826119423, 0.010921457782387733, -0.0006951577961444855, -0.0019759454298764467, -0.029704833403229713, 0.004734199494123459, 0.012286832556128502, -0.016438066959381104, -0.010254276916384697, -0.013026218861341476, -0.0005816592602059245, 0.002118254080414772, -0.044685158878564835, 0.011593347415328026, 0.014590905979275703, 0.013881562277674675, 0.007135884370654821, -0.0072897011414170265, 0.0027193306013941765, -0.017219683155417442, 0.0114335548132658, 0.009248726069927216, -0.0021263454109430313, 0.0022941473871469498, -0.012746147811412811, 0.0038343463093042374, -0.007303227670490742, 0.01681007444858551, -0.003035647561773658, -0.01113760843873024, 0.005273917689919472, 0.0069515034556388855, -0.006753508932888508, 0.00034034065902233124, 0.007378051057457924, -0.017040666192770004, -0.002066817134618759, 0.008428703993558884, -0.010100111365318298, 0.01521514542400837, -0.011888193897902966, -0.00872927624732256, -0.006341082975268364, 0.006214633584022522, -0.010530027560889721, -0.023462295532226562, -0.01468962524086237, -0.013681197538971901, -0.003613574430346489, 0.012928016483783722, -0.002961140125989914, -0.013733962550759315, 0.01708429865539074, -0.011209024116396904, 0.013175483793020248, -0.005052856169641018, -0.002464054152369499, 0.0067941416054964066, 0.0006557125598192215, -0.014262296259403229, -0.0144071439281106, -0.004056109115481377, -0.013001792132854462, 0.015144037082791328, 0.011240852996706963, -0.010968217626214027, 0.014635274186730385, 0.009841211140155792, -0.008075258694589138, -0.01745477318763733, -0.0011010803282260895, 0.01442580483853817, 0.014602268114686012, 0.006911778822541237, 0.016772344708442688, -0.0095408009365201, -0.011436520144343376, -0.006239333190023899, -0.0006396956741809845, 0.016959266737103462, -0.022935982793569565, 0.011116339825093746, -0.015946291387081146, -0.0060715451836586, -0.005206079222261906, 0.005973111838102341, -0.00423852726817131, -0.01954888179898262, -0.0077617354691028595, -0.003485723864287138, 0.008517663925886154, -0.0015408826293423772, 0.010828636586666107, -0.014239671640098095, 0.0023698238655924797, 0.013877655379474163, 0.013925585895776749, 0.0029892504680901766, -0.011385378427803516, -0.002079347148537636, -0.0232803113758564, -0.021023433655500412, 0.004198749549686909, 0.011776763014495373, -0.01793573796749115, 0.005052756518125534, -0.015880871564149857, 0.000855261052493006, -0.0019214049680158496, -0.011864210478961468, -0.015144758857786655, 0.009896141476929188, -0.010709062218666077, -0.0064980583265423775, -0.004912421107292175, 0.002251603174954653, -0.013027680106461048, -0.020913325250148773, -0.002604252193123102, 0.006565933581441641, 0.002820238471031189, -0.012270736508071423, 0.001869489555247128, -0.004232350271195173, 0.004704924765974283, -0.018779750913381577, -0.01788485422730446, -0.010070604272186756, -0.0073532238602638245, -0.01955716870725155, -0.0036299503408372402, -0.006568781565874815, -0.008764664642512798, -0.005857657175511122, -0.011429116129875183, -0.002708927495405078, -0.02280607260763645, -0.015191571786999702, 0.009493086487054825, 0.010961025953292847, 0.013037735596299171, 0.006398612633347511, 0.011414128355681896, -0.005794363096356392, 0.01002029050141573, -0.0023925313726067543, 0.004972918424755335, 0.0037067318335175514, -0.007553333416581154, 0.001063563278876245, 0.01104250829666853, 0.0017130483174696565, -0.004271239507943392, 0.005897174123674631, 0.007769695017486811, -0.0057608624920248985, -0.01708068884909153, 0.009416506625711918, -0.013147413730621338, -0.004034724086523056, 0.018263576552271843, -0.00016808863438200206, 0.019423792138695717, 0.0010072541190311313, -0.009761171415448189, 0.005537972319871187, -0.003547054948285222, 0.010472160764038563, 0.004650646820664406, 0.0009278617799282074, -0.008236465975642204, -0.004900640808045864, -0.011435630731284618, 0.009356445632874966, -0.02217629738152027, 0.020039012655615807, -0.005542674567550421, 0.005790127441287041, -0.014896402135491371, -0.001537778414785862, -0.005966756027191877, 0.010675703175365925, 0.01017278153449297, -0.0023605681490153074, 0.015421418473124504, 0.011685948818922043, 0.018232164904475212, 0.009827935136854649, 0.006011032033711672, 0.012008553370833397, 0.017161833122372627, -0.012432043440639973, -0.0005856230272911489, 0.008007299154996872, 0.005376201588660479, 0.003236285410821438, -0.009937709197402, -0.01823081262409687, 0.013660067692399025, 0.010699791833758354, 0.012644117698073387, -0.019515840336680412, -0.02201305329799652, -0.007405911106616259, -0.0026092976331710815, 0.01619483344256878, 0.008935421705245972, 0.010880406014621258, 0.008693448267877102, -0.006013903766870499, 0.011851901188492775, 0.01414179615676403, -0.0007048137485980988, -0.015423022210597992, -0.011870895512402058, 0.006922157481312752, 0.013704931363463402, 0.008413411676883698, -0.005179855041205883, 0.01170856412500143, -0.02242816425859928, -0.015121848322451115, -0.0025959843769669533, 0.01188131794333458, 0.02097141183912754, 0.00823800079524517, -0.015180031768977642, 0.002345966873690486, -0.006577653810381889, -0.01667615957558155, -0.0059530059807002544, -0.0007798272417858243, 0.0009478080901317298, -0.0016933245351538062, 0.010943712666630745, 0.003930595237761736, -0.00963154062628746, -0.016056010499596596, 0.0016128234565258026, 0.00809933990240097, 0.0018846612656489015, 0.009178966283798218, -0.00022048648679628968, -0.009120593778789043, 0.009772148914635181, 0.013651843182742596, -0.01992308907210827, 0.0019876935984939337, -0.02094009332358837, -0.009539973922073841, 0.015465015545487404, -0.019119050353765488, -0.021611161530017853, 0.0004983071121387184, -0.02082410641014576, -0.01873559132218361, -0.013260715641081333, -0.005023695062845945, -0.01416151225566864, -0.013488263823091984, -0.008060190826654434, -0.019419945776462555, -0.009501675143837929, -0.012526207603514194, -0.0174882709980011, 0.007266251370310783, 0.003677971661090851, -0.008518156595528126, -0.011368566192686558, -0.008498690091073513, -0.013029580004513264, -0.01082602608948946, 0.009337193332612514, 0.0028271630872040987, -0.015149363316595554, 0.011429393664002419, 0.006189880892634392, -0.02342376857995987, -0.01823529601097107, -0.021755289286375046, -0.02372819371521473, 0.008280155248939991, -0.011522460728883743, -0.007527797017246485, 0.007590777240693569, -0.013213161379098892, -0.017624616622924805, -0.003991706296801567, 0.006279734894633293, -0.014754598960280418, -0.004842030815780163, -0.00379439746029675, -0.01960718259215355, -0.015305008739233017, 0.010475466959178448, -0.02095627784729004, -0.01721758395433426, -0.019908087328076363, 0.011940283700823784, -0.0001836566225392744, -0.0015178396133705974, 0.010057364590466022, 0.005510000512003899, 0.007982916198670864, -0.013202134519815445, -0.013182669878005981, -0.015765951946377754, -0.023851478472352028, 0.0023323502391576767, -0.022402238100767136, -0.013626125641167164, 0.0048326910473406315, -0.014747205190360546, 0.00781550444662571, 0.010990967974066734, 0.004486280493438244, -0.00230980571359396, -0.02109231799840927, -0.021266810595989227, -0.013486355543136597, 0.011408207938075066, 0.009136362932622433, 0.001171101233921945, 0.0036519188433885574, -0.021501725539565086, -0.02109818533062935, 0.008094746619462967, -0.016698457300662994, -0.016353143379092216, -0.022306831553578377, -0.01030358299612999, 0.005944712087512016, -0.018213214352726936, -0.011966712772846222, -0.01537229958921671, -0.0038678005803376436, -0.00904125813394785, -0.021591395139694214, -0.0018450181232765317, 0.008917037397623062, -0.0014755805023014545, -0.012437639757990837, 0.0013343680184334517, -0.014155149459838867, -0.010061237961053848, -0.0027874161023646593, 0.0015300065279006958, -0.01183534599840641, -0.019745590165257454, -0.0036121385637670755, 0.001732700620777905, 0.006253216881304979, -0.0030786432325839996, -0.019703488796949387, 0.011779622174799442, 0.008462173864245415, -0.006019698455929756, -0.006609733682125807, -0.023217327892780304, -0.004871821030974388, -0.0010482801590114832, -0.0010606279829517007, 0.0024441371206194162, -0.01588115282356739, -0.0212040264159441, -0.013810229487717152, 0.012624798342585564, 0.002209389116615057, -0.014008402824401855, 0.009172847494482994, 0.003999640699476004, -0.00975747685879469, -0.0006034776451997459, 0.009888442233204842, -0.0011513929348438978, -0.020630361512303352, -0.0057356092147529125, -0.016524672508239746, 0.006959791295230389, 0.005081101320683956, -0.008922911249101162, 0.008369491435587406, 0.0008163450984284282, -0.01698477379977703, 0.008761596865952015, -0.016453668475151062, -0.01135654840618372, 0.007792976219207048, -0.0028225919231772423, -0.0025949846021831036, -0.01171792671084404, -0.014007399789988995, -0.009249879978597164, -0.006675848737359047, -0.002164372941479087, -0.01850803941488266, -0.009277040138840675, -0.018481958657503128, 0.008673015981912613, 0.0007438377942889929, -0.02174200676381588, 0.01010744459927082, -0.016010550782084465, -0.007370698731392622, -0.011192644946277142, -0.005518598947674036, -0.002153795212507248, 0.006806662306189537, -0.009677962400019169, 0.0013656698865815997, 0.0004390632384456694, -0.012956418097019196, 0.01183342281728983, -0.023388171568512917, -0.017321109771728516, 0.0016277895774692297, 0.008646303787827492, -0.01999647729098797, -0.01962508074939251, -0.0184266846626997, -0.0040321191772818565, 0.004261615686118603, -0.0035768214147537947, 0.004126336425542831, -0.02052680216729641, -0.01718197949230671, 0.008118459023535252, -0.01853971928358078, -0.017378073185682297, -0.02239251509308815, -0.022235911339521408, -0.016627458855509758, 0.0017989686457440257, -0.013163627125322819, 0.002388179302215576, -0.0086022038012743, -0.01596839167177677, -0.0044904835522174835, -0.015410049818456173, -0.002186877653002739, -0.0025986097753047943, 0.0030574004631489515, 0.009167707525193691, 0.002352379495278001, -0.023262355476617813, -0.008250197395682335, 0.0026449693832546473, -0.010593011043965816, -0.007260600570589304, -0.005239066202193499, 0.0014813895104452968, -0.01268107257783413, 0.004017782863229513, 0.0045244391076266766, -0.008733991533517838, -0.01954421028494835, -0.005875084549188614, 0.010211046785116196, -0.0003081429749727249, -0.023432942107319832, -0.006388138979673386, -0.005200687795877457, -0.015539074316620827, -0.007907875813543797, 0.008683595806360245, -0.01585148274898529, -0.017124760895967484, 0.009962332434952259, 0.007176452316343784, -0.008978675119578838, -0.011444926261901855, 0.010641933418810368, -0.026278043165802956, 0.0018935694824904203, 0.0034339793492108583, 0.0055587091483175755, -0.010266105644404888, -0.006793835666030645, 0.0026626503095030785, 0.0029147036839276552, -0.01113304402679205, -0.0030512758530676365, -0.011686594225466251, -0.020017433911561966, 0.008453940972685814, -0.014589165337383747, -0.003924907185137272, -0.001384687959216535, -0.022153181955218315, -0.011537636630237103, -0.000952273840084672, 0.0004306775808800012, -0.003461487591266632, 0.016403090208768845, 0.008286920376121998, -0.017701750621199608, 0.001687171170488, 0.0191066674888134, 0.0015200016787275672, -0.022480959072709084, -0.00268728518858552, -0.006434302311390638, -0.006814808584749699, -0.0145670585334301, -0.015149698592722416, 0.008234646171331406, -0.002691806759685278, -0.0028453166596591473, 0.019517667591571808, 0.009796184487640858, 0.00941279623657465, -0.003234625095501542, -0.001945791533216834, -0.001177821890451014, -0.0007065161480568349, 0.00777122238650918, 0.0027284042444080114, -0.0020070590544492006, 0.001977396197617054, -0.0015092164976522326, -0.017927413806319237, -0.008921582251787186, 0.00294450088404119, -0.00010836814908543602, -0.0031266380101442337, 0.0010883236536756158, 0.004387678112834692, -0.01136553194373846, -0.0026569990441203117, -0.011058292351663113, 0.0007035645539872348, -0.016864286735653877, -0.012911377474665642, 0.011786301620304585, -0.004826616961508989, -0.007757825776934624, -0.02151207998394966, -0.01506106462329626, -0.0074399420991539955, -0.0002783804084174335, -0.004349617287516594, 0.009767835028469563, -0.017602551728487015, 0.007610953878611326, -0.007371174171566963, -0.017995944246649742, -0.01168203167617321, 0.0033618842717260122, -0.005113130901008844, -0.01823960244655609, 0.01060961652547121, -0.002969621680676937, -0.00886797159910202, -0.002268159994855523, 0.01526684034615755, -0.0013361639576032758, -0.0037919403985142708, 0.011596433818340302, -0.006476052105426788, 0.00015375323710031807, 0.003449337789788842, 0.0069237928837537766, -0.007829288020730019, -0.013679265975952148, 0.013219853863120079, 0.0029987525194883347, -0.021327240392565727, 0.008351746015250683, -0.008418451994657516, -0.0059408098459243774, -0.0028792517259716988, 0.007301088888198137, 0.021858694031834602, -0.0037567834369838238, 0.0071119340136647224, 0.008435901254415512, -0.013593491166830063, 0.01334853284060955, -0.025871332734823227, 0.013708383776247501, 0.02295728586614132, -0.009135325439274311, 0.007146812975406647, 0.013152699917554855, -0.013040263205766678, 0.004754900000989437, -0.03400593623518944, 0.020959941670298576, 0.020825395360589027, -0.005926898680627346, -0.009097150526940823, 0.01144670695066452, -0.001428423449397087, -0.03813442587852478, 0.013284964486956596, -0.015677889809012413, -0.003293597139418125, 0.013880966231226921, 0.016131432726979256, 0.016957661136984825, -0.013267764821648598, 0.015410332009196281, 0.008271876722574234, 0.013103177770972252, -0.002881739055737853, -0.005942871328443289, -0.004676296375691891, 0.014327024109661579, 0.006883091758936644, -0.010259981267154217, 0.002634873613715172, 0.007773147895932198, -0.021165234968066216, -0.01277451403439045, -0.02110174112021923, -0.02156570367515087, -0.0034000275190919638, -0.008241517469286919, 0.002859935164451599, -0.015889495611190796, -0.02006668597459793, 0.004443638026714325, -0.021987605839967728, 0.009249010123312473, -0.011982708238065243, -0.016314838081598282, -0.020933721214532852, -0.01118179876357317, -0.009582686237990856, 0.005945430602878332, -0.02379332110285759, -0.005047498270869255, -0.011845666915178299, -0.023141829296946526, -0.013741444796323776, 0.022744284942746162, -0.003493424504995346, 0.005506538320332766, -0.010572205297648907, -0.016763396561145782, -0.008589992299675941, 0.0036146489437669516, -0.005771642085164785, 0.011698402464389801, 0.005650389939546585, -0.021978091448545456, 0.001945891184732318, -0.016096772626042366, 0.0011864564148709178, 0.00937908049672842, -0.004655113909393549, -0.006880126427859068, 0.008551468141376972, 0.003092585364356637, -0.00984880793839693, 0.0025842783506959677, -0.018390443176031113, 0.015018820762634277, 0.021080248057842255, 0.0021277719642966986, -0.012214034795761108, -0.011854106560349464, -0.0003627260448411107, -0.005410328507423401, 0.0011201786110177636, -0.02320421114563942, 0.009093147702515125, -0.017248615622520447, 0.005792324431240559, -0.009420560672879219, -0.0010902611538767815, -0.000547831819858402, -0.015777509659528732, -0.001153965713456273, -0.008449246175587177, -0.021473359316587448, -0.022374223917722702, 0.006652384996414185, 0.0024830284528434277, 0.0016686487942934036, -0.006667968351393938, -0.0017436085036024451, 0.001440162886865437, -0.002504813950508833, -0.02254890650510788, -0.02147277444601059, 0.011022613383829594, 0.0030910037457942963, -0.022593408823013306, -0.0038311448879539967, 0.005789078772068024, -0.00994028989225626, 0.006514303851872683, -0.005578948650509119, -0.013910073786973953, 0.008337805978953838, 0.006914452183991671, 0.022202707827091217, 0.008271980099380016, -0.021875476464629173, -0.0052535925060510635, -0.009014733135700226, -0.013383682817220688, -0.01655607670545578, -0.01845046877861023, -0.009705234318971634, 0.008060863241553307, -0.01491974201053381, -0.023094503208994865, 0.004696952179074287, -0.019635220989584923, -0.0037522201891988516, 0.008585821837186813, -0.013092435896396637, 0.011833962984383106, -0.0024708048440515995, -0.017682865262031555, -0.005519652273505926, -0.018715281039476395, -0.020946944132447243, 0.003849721746519208, 0.0034675896167755127, 0.011305445805191994, -0.011977864429354668, 0.006846125703305006, -0.0016543864039704204, 0.0024794787168502808, 0.013576230965554714, -0.0015223679365590215, -0.003358240472152829, -0.015209030359983444, -0.005406415089964867, -0.019562238827347755, 0.01173776388168335, -0.0004587885632645339, -0.0011854578042402864, -0.0004945871187373996, 0.005251541268080473, -0.014404998160898685, -0.015618175268173218, -0.0022261799313127995, -0.008595635183155537, -0.018952779471874237, -0.0007030364940874279, 2.733393012022134e-05, -0.019218645989894867, 0.0038040662184357643, -0.0009293339098803699, -0.019722679629921913, 0.006742528174072504, 0.002838483080267906, 0.006039887201040983, -0.01206668745726347, 0.014103783294558525, 0.02101304568350315, -0.01418156549334526, 0.0008530598133802414, 0.015617938712239265, -0.0171213261783123, 0.00513877160847187, -0.012076042592525482, -0.007444280665367842, -0.020482070744037628, -0.023840054869651794, 0.004360570106655359, -0.017799433320760727, 0.012845508754253387, -0.019018275663256645, -0.02179119735956192, 0.008340545929968357, 0.002939254278317094, 0.005183254834264517, -0.010893064551055431, 0.0019244380528107285, 0.002637196332216263, 0.002512183738872409, 0.006572998594492674, 0.000320928986184299, -0.017370957881212234, -0.01810998097062111, -0.02016809768974781, -0.00043415711843408644, 0.01032858993858099, -0.006581282243132591, 0.005187583155930042, -0.015160990878939629, -0.011789336800575256, -0.00451627979055047, 0.005866222083568573, 0.0066107590682804585, 0.00989778432995081, -0.020647691562771797, -0.020770521834492683, -0.005363375414162874, 0.0029198424890637398, 0.007062281481921673, 0.004476608242839575, -0.01240391843020916, -0.004085212014615536, -0.00878023263067007, 0.008725970983505249, -0.02117370255291462, 0.003548695705831051, 0.00496042100712657, -0.021819982677698135, -0.004278655629605055, -0.011107648722827435, -0.006588370073586702, -0.022206883877515793, 0.00608946243301034, -0.0034258461091667414, 0.011417200788855553, 0.0038753757253289223, -0.009406265802681446, -0.02331477217376232, -0.01926092617213726, -0.023109907284379005, -0.00729028508067131, -0.014974931254982948, -0.009998507797718048, -0.014974905177950859, -0.019244199618697166, 0.0007570888265036047, -0.008661258965730667, -0.014947986230254173, -0.004428491927683353, -0.02375009097158909, -0.01721782051026821, 0.011024144478142262, -0.005355729255825281, -0.013415666297078133, -0.011336528696119785, -0.02130536362528801, -0.023004671558737755, -0.005416896194219589, -0.002819921588525176, -0.022377198562026024, -0.009584792889654636, -0.0025579403154551983, -0.013241112232208252, -0.006644092965871096, -0.012339313514530659, -0.0015548915835097432, -0.01721595786511898, 0.0069487630389630795, -0.01337606180459261, -0.010772081092000008, -0.022701427340507507, 0.0024290799628943205, -0.005068408325314522, 0.010736295022070408, -0.0230058953166008, 0.009906782768666744, 0.007826324552297592, -0.021564068272709846, -0.003429084550589323, 0.008968226611614227, -0.0011281471233814955, -0.012108514085412025, -0.0021412670612335205, 0.008457774296402931, -0.020422885194420815, -0.019699644297361374, 0.010793827474117279, -0.022302085533738136, 0.00468254741281271, -0.0013210162287577987, -0.007455870509147644, 0.014821804128587246, 0.020829614251852036, 0.011720019392669201, -0.0026469752192497253, 0.0073557049036026, -0.007951446808874607, -0.02324189618229866, -0.003995129372924566, -0.018180813640356064, 0.001382439280860126, -0.01297382265329361, -0.00963956955820322, 0.008526673540472984, 0.008622094057500362, 0.006594440434128046, -0.013507110998034477, 0.0067177764140069485, -0.016868170350790024, -0.014268960803747177, -0.004633239470422268, 0.018250221386551857, -0.018348179757595062, -0.001924597891047597, -0.009334677830338478, -0.011121229268610477, 0.0036945913452655077, -0.005342699121683836, -0.006013181526213884, -0.01647859625518322, -0.01173954363912344, 0.010924523696303368, 0.005832422059029341, -0.020102158188819885, 0.011911896988749504, 0.011133403517305851, -0.006874951533973217, -0.0090988390147686, 0.012394843623042107, 0.002544492483139038, 0.014698011800646782, 0.013148918747901917, -0.010441852733492851, -0.0025682859122753143, -0.004857071675360203, 0.007007189095020294, -0.0049935607239604, 0.009900880046188831, 0.007611458655446768, -0.012732879258692265, -0.0011735772714018822, 0.021115129813551903, 0.002128908410668373, -0.022466113790869713, 0.00896110013127327, -0.008624255657196045, -0.023029478266835213, -0.009737755171954632, -0.011140203103423119, -0.014289931394159794, 0.01010689977556467, -0.0061699883081018925, -0.020894575864076614, 0.023116998374462128, -0.009041565470397472, 0.01273922435939312, 0.004960969090461731, -0.014842203818261623, 0.011938171461224556, 0.003662271425127983, 0.018012909218668938, -0.023787129670381546, 0.004205696284770966, 0.015082860365509987, 0.005569776985794306, 0.006881559267640114, -0.003116993699222803, -0.01271217130124569, -0.008430727757513523, 0.017739001661539078, -0.0007373392581939697, -0.023653017356991768, -0.009005473926663399, -0.01045301929116249, -0.004116065334528685, -0.006430315785109997, -0.012502159923315048, 0.002166636288166046, -0.021149633452296257, -0.0009076090645976365, 0.010005973279476166, 0.010231565684080124, -0.020326809957623482, -0.0019582505337893963, -0.013373449444770813, 0.0012931869132444263, -0.0015831197379156947, -0.012244634330272675, -0.007060999982059002, 3.0975814297562465e-05, -0.019309151917696, -0.008628716692328453, 0.010568119585514069, -0.004315278027206659, -0.023423759266734123, -0.006473002955317497, -0.007152958773076534, -0.023209119215607643, -0.0009304442792199552, 0.003551300847902894, 0.022448286414146423, -0.004171236418187618, -0.018864527344703674, 0.008635368198156357, 0.011814483441412449, 0.008522490039467812, 0.010776953771710396, -0.023536788299679756, 0.0080301184207201, -0.006969700567424297, -0.022652694955468178, -0.008580051362514496, -0.0129120834171772, -0.006587229669094086, 0.006864350289106369, -0.015326974913477898, -0.003931890241801739, -0.008265424519777298, 0.010207963176071644, 0.006591754034161568, 0.004978435579687357, 0.01185599621385336, 0.02112530544400215, 0.014074151404201984, 0.004523623269051313, 0.005199637729674578, -0.014991434291005135, 0.0015393098583444953, 0.005384460091590881, -0.00673332903534174, 0.0032982779666781425, -0.009775255806744099, -0.004624766297638416, -0.004170984495431185, -0.005690597929060459, -0.011260061524808407, -0.006087104324251413, -0.017712730914354324, 0.007623009849339724, -0.023059992119669914, -0.014530720189213753, -0.0025075844023376703, -0.019588639959692955, -0.0026515107601881027, 0.009201368317008018, 0.008894551545381546, -0.00871733296662569, -0.010069325566291809, 0.00624051271006465, -0.019328275695443153, 0.005122536327689886, 0.011591658927500248, -0.008215661160647869, -0.023819034919142723, 0.000798397755715996, -0.0038935006596148014, -0.021154381334781647, -0.016236189752817154, -0.011559355072677135, -0.001330059953033924, -0.011936605907976627, -0.0223655104637146, -0.015555175952613354, -0.008073275908827782, -0.00025456855655647814, 0.006025056820362806, 0.008382742293179035, -0.003990618046373129, -0.0063773756846785545, -0.002207167213782668, -0.003427680116146803, 0.0022471530828624964, -0.014857948757708073, 0.008218459784984589, 0.010136636905372143, 0.001376194879412651, -0.007988713681697845, 0.006857283413410187, 0.010455026291310787, -0.012647832743823528, 0.009928010404109955, -0.014091686345636845, 0.0034011693205684423, -0.007924441248178482, -0.007929994724690914, 0.001260202843695879, -0.02266322262585163, -0.009480617940425873, -0.017637869343161583, -0.014108924195170403, -0.0003610392159316689, -0.00604311004281044, 0.00353544601239264, -0.006058524828404188, -0.014575095847249031, -0.02025270089507103, 0.010578520596027374, 0.005563706625252962, -0.02252817712724209, 0.0016321024158969522, -0.006980128586292267, 0.0023247709032148123, -0.009271057322621346, 0.007300266530364752, -0.007886264473199844, -0.01312786154448986, 0.0005763868102803826, 0.010115967132151127, -0.01221237052232027, 0.003738228464499116, -0.006637855898588896, -0.02366936393082142, -0.02238912507891655, -0.017752675339579582, -0.010110322386026382, 0.007925892248749733, 0.005302732344716787, -0.0011245099594816566, -0.004659723956137896, -0.0002110195637214929, 0.0019000413594767451, 0.018168441951274872, -0.0020129363983869553, 8.964017979451455e-06, 0.008234160020947456, -0.008507375605404377, -0.011869956739246845, 0.006087254732847214, -0.008452092297375202, 0.0005224235355854034, 0.01063838042318821, 0.016335098072886467, -0.01777256466448307, 0.02258935756981373, -0.016468485817313194, -0.026138678193092346, -0.016076214611530304, -0.007951304316520691, 0.017296036705374718, 0.014518510550260544, 0.008540118113160133, -0.023790596053004265, -0.03877760097384453, 0.005280066281557083, 0.0034942757338285446, -0.016618778929114342, -0.0019248242024332285, -0.011956903152167797, -0.040280185639858246, -0.002043753629550338, 0.01733562909066677, 0.0016245432198047638, -0.007682132069021463, -0.0015870057977735996, 0.0102124297991395, 0.017560601234436035, 0.0011579538695514202, 0.004552030935883522, 0.0025916509330272675, 0.0069407629780471325, 0.007182402536273003, 0.010502039454877377, 0.009267862886190414, 0.01646893285214901, 0.01459834910929203, 0.014998169615864754, -0.013752035796642303, 0.019080236554145813, 0.008775840513408184, 0.023689372465014458, -0.01578591577708721, 0.005617333576083183, 0.00943630188703537, -0.004556423518806696, -0.019945774227380753, 0.011788965202867985, 0.005959216970950365, -0.0057855285704135895, -0.005040658637881279, -0.018282504752278328, -0.020774438977241516, -0.021599572151899338, 0.00020620206487365067, -0.019600478932261467, -0.017186155542731285, -0.005808033514767885, 0.009009077213704586, -0.014267006888985634, -0.009199419058859348, -0.015689386054873466, 0.008333524689078331, -0.016478344798088074, -0.012171337381005287, -0.005969100631773472, -0.0014894873602315784, -0.00875001959502697, 0.004692737013101578, 0.0011614253744482994, 0.008101710118353367, -0.0018797124503180385, -0.015578743070363998, -0.02293059043586254, 0.008432120084762573, 0.0034287641756236553, 0.0026080096140503883, -0.022725211456418037, -0.021816587075591087, -0.013608179055154324, -0.004058126360177994, 0.006139716599136591, -0.0025836580898612738, -0.020199719816446304, -0.009191688150167465, 0.008179225958883762, -0.005653964821249247, -0.008425121195614338, -0.011088723316788673, 0.003126708557829261, 0.00826803408563137, 0.005769300740212202, 0.008832898922264576, -0.006317968014627695, 0.012543374672532082, -0.02372121810913086, -0.016939261928200722, 0.0102149723097682, 0.002575153484940529, 0.0003983915376011282, 0.02010783739387989, -0.010754521936178207, 0.009212186560034752, 0.007006598636507988, -0.011380170471966267, -0.01943995989859104, 0.0006482898024842143, -0.02092285268008709, -0.005924111232161522, 0.0059358347207307816, 0.009201576001942158, 0.009745300747454166, -0.01377411000430584, 0.0015434700762853026, -0.008178998716175556, -0.021306853741407394, 0.00966375321149826, 0.012094670906662941, -0.005422933958470821, 0.005241977516561747, -0.011274022050201893, -0.01044783927500248, -0.005278590600937605, 0.003554307157173753, 0.01698242500424385, -0.013041623868048191, -0.014809837564826012, 0.006165954750031233, -0.018805982545018196, 0.0036986609920859337, -0.019457286223769188, -0.010233297944068909, -0.013049565255641937, 0.021613067016005516, 0.010855305008590221, 0.0007197506492957473, -0.009027634747326374, 0.008947707712650299, 0.0022541414946317673, -0.01673017255961895, -0.009403535164892673, 0.0005824432009831071, 0.011746194213628769, -0.005111926235258579, -0.004058008082211018, 0.02041260153055191, 0.007169041782617569, 0.0055073341354727745, -0.017466092482209206, 0.02103267051279545, 0.015906209126114845, -0.005882793106138706, -0.00922445673495531, 0.02303403429687023, 0.0039109764620661736, -0.005884538404643536, 0.012425064109265804, 0.010555778630077839, 0.008555512875318527, 0.01622292958199978, 0.00030962322489358485, -0.010485050268471241, 0.005907184444367886, -0.004472631961107254, 0.0028019968885928392, 0.020881904289126396, 0.006840013898909092, 0.00965981837362051, 0.00916894618421793, 0.015584457665681839, -0.0020492072217166424, 0.00631589675322175, 0.0021934621036052704, 0.01718861050903797, 0.020553743466734886, 0.006664974614977837, -0.004518714267760515, -0.023298628628253937, -0.019853603094816208, -0.001780122285708785, -0.022076526656746864, 0.0029960833489894867, -0.006936501245945692, -0.009067867882549763, 0.0031836440321058035, -0.016085859388113022, 0.011286573484539986, 0.016265075653791428, -0.0033427642192691565, -0.0091562420129776, 0.001517270808108151, -0.010317053645849228, -0.012792324647307396, -0.001470710034482181, -0.005487458780407906, -0.008143585175275803, -0.00026394627639092505, -0.005800455808639526, 0.0030492234509438276, 0.006619621068239212, -0.004648648668080568, 0.010074312798678875, -0.01668613590300083, -0.0046972534619271755, -0.020712081342935562, -0.0011006887070834637, -0.006140463519841433, -0.004092380404472351, -0.006995272822678089, 0.007078262977302074, 0.00388752156868577, 0.002156372182071209, -0.0073547945357859135, 0.004220578353852034, 0.022795485332608223, -0.0024812028277665377, -0.01644500158727169, -0.022028231993317604, -0.022292708978056908, 0.00042740412754938006, -0.022211311385035515, -0.009134949184954166, -0.010416886769235134, 0.0038957237266004086, 0.011267079971730709, 0.0003914638073183596, -0.016520727425813675, 0.007703091017901897, -0.002053687581792474, 0.009692776016891003, -0.011408548802137375, -0.0066076964139938354, -0.0020089936442673206, -0.008038405328989029, -0.022621840238571167, -0.02267357148230076, -0.016515584662556648, 0.02235974743962288, 0.014731179922819138, -0.008274372667074203, -0.012324944138526917, -0.014971818774938583, -0.017413217574357986, 0.01201272290199995, -0.010466093197464943, 0.0032865770626813173, 0.00021636094606947154, 0.009441252797842026, 0.00961100310087204, -0.004404318518936634, 0.00669749965891242, -0.018494773656129837, -8.031357720028609e-05, -0.013898956589400768, -0.013756166212260723, -0.013043513521552086, 0.001939120702445507, -0.005771529395133257, 0.006418729666620493, 0.009073483757674694, 0.007041752804070711, 9.601213969290257e-05, 0.0054973638616502285, 0.023728936910629272, -0.00029359181644394994, 0.0006467883940786123, 0.007295260671526194, -0.009161566384136677, 0.002762790070846677, -0.016779610887169838, -0.01616538316011429, -0.0025147241540253162, 0.005912380758672953, -0.017557768151164055, 0.006007302086800337, -0.001321760006248951, 0.00920935533940792, 0.005903063341975212, -0.02248399704694748, -0.008741069585084915, 2.9171740607125685e-05, 0.004809425212442875, -0.0061455718241631985, -0.010327039286494255, -0.023131482303142548, -0.017164018005132675, -0.0020527630113065243, -0.0013335177209228277, 0.022453032433986664, 0.005146657582372427, 0.0004616892256308347, -0.0006403421284630895, -0.01877330057322979, -0.0026355343870818615, -0.010666190646588802, 0.0011865993728861213, 0.008971620351076126, -0.0054968879558146, 0.004345475696027279, -0.010682158172130585, -0.020086446776986122, -0.00699352752417326, -0.014608044177293777, -0.009030272252857685, 0.003808959387242794, 0.011575834825634956, -0.004285031463950872, 0.0012893805978819728, -0.009387283585965633, -0.013665215112268925, -0.0005428390577435493, -0.0006249089492484927, -0.009006062522530556, -0.010896964929997921, -0.015270425006747246, -0.01361731719225645, -0.012814570218324661, -0.014737731777131557, -0.013829706236720085, 0.00487231882289052, 0.0003991007397416979, 0.00829706434160471, -0.02048700489103794, 0.007726840674877167, -0.009707454591989517, 0.003311621258035302, -0.009574813768267632, -0.018299195915460587, 0.0013036581221967936, 0.010281317867338657, -0.0009383588330820203, -0.003215123200789094, -0.021068161353468895, 6.844474410172552e-05, 0.0009500913438387215, 0.006749964319169521, -0.0013010656693950295, 0.009707698598504066, -0.005837459582835436, 0.0065398202277719975, -0.010307682678103447, 0.004939293954521418, -0.006319350562989712, -0.010018179193139076, -0.004448708612471819, -0.0230400413274765, -0.01273274701088667, 0.0018419005209580064, 2.147035047528334e-05, -0.00019576090562622994, -0.003679807297885418, -0.014028571546077728, 0.010965856723487377, 0.009395466186106205, -0.01969643495976925, -0.0035959857050329447, 0.010091825388371944, -0.008947144262492657, -0.002057619160041213, -0.0217440202832222, -0.022403160110116005, -0.005770475137978792, -0.005338597577065229, -0.00914133433252573, 0.010520177893340588, 0.008278445340692997, 0.010562688112258911, -0.015139732509851456, 0.004845181480050087, -0.013142609037458897, 0.0006650016875937581, -0.01871492899954319, 0.009030280634760857, -0.011418169364333153, 0.0019339771242812276, 0.00799810141324997, 0.003869513515383005, -0.007724683731794357, -0.005663538351655006, -0.006788686849176884, -0.00875935610383749, -0.017522482201457024, 0.007266507018357515, 0.005182110704481602, -0.021064572036266327, -0.004846937023103237, 0.0022098063491284847, -0.010042673908174038, -0.013016519136726856, -0.012110721319913864, 0.007893784902989864, 0.005997244268655777, -0.020814239978790283, -0.016101540997624397, -0.022141840308904648, 0.0009151935228146613, 0.001644433825276792, -0.007810394745320082, -0.02360684797167778, -0.004182709380984306, -0.008502686396241188, 0.0002484119322616607, -0.008887608535587788, -0.007880641147494316, 0.005909501109272242, -0.019743848592042923, -0.025433026254177094, -0.009544621221721172, 0.008848194032907486, -0.01791110262274742, -0.020982660353183746, 0.009544098749756813, -0.015877656638622284, 0.010406997054815292, 0.006356030702590942, -0.0006434089737012982, -0.02196878381073475, 0.009363366290926933, -0.017454421147704124, -0.01794152893126011, -0.0034577015321701765, 0.016776032745838165, -0.008226320147514343, 0.011505457572638988, -0.01848605088889599, 0.002513872692361474, -0.008906195871531963, 0.011772910133004189, -0.020391516387462616, -0.012652207165956497, -0.02107517048716545, 0.013669365085661411, 0.006345226429402828, -0.02014215476810932, 0.006213049869984388, 0.004596921615302563, -0.0017823588568717241, -0.007475668098777533, -0.020025400444865227, 0.009841134771704674, 0.011371076107025146, -0.023660866543650627, 0.004632582888007164, 0.006956897210329771, -0.006019605789333582, 0.004542332608252764, -0.0032592718489468098, 0.00031615086481906474, -0.013939423486590385, 0.009025784209370613, 0.0050398507155478, 0.004812789149582386, -0.005466008558869362, 0.004153591580688953, -0.007373671047389507, -0.00975168589502573, 0.006502654869109392, -0.011903204023838043, -0.01883666217327118, -0.010639316402375698, 0.0164775587618351, 0.008482731878757477, -0.019587576389312744, -0.009431958198547363, 0.009198533371090889, -0.0014450947055593133, -0.0029636211693286896, 0.007778795436024666, -0.010524047538638115, -0.023227494210004807, -0.01436915434896946, 0.005603392608463764, -0.012797104194760323, 0.00020310432591941208, 0.006190556101500988, 0.00940343365073204, -0.008482739329338074, 0.016119273379445076, 0.0012561028124764562, 0.005066149402409792, 0.0009018763084895909, 0.0052798232063651085, -0.007719940505921841, 0.01687602326273918, -0.018989063799381256, -0.006142795085906982], "bias": -0.003544869599863887}