{"layer": "fc1", "index": 70, "weights": [0.006479515694081783, 0.030176879838109016, -0.10476396977901459, -0.024975523352622986, 0.008168919011950493, 0.019010670483112335, -0.013598348945379257, -0.06881901621818542, 0.020947210490703583, 0.01680753566324711, 0.026156799867749214, 0.06303311884403229, 0.02535383403301239, 0.027018053457140923, -0.06211056187748909, -0.013783943839371204, 0.03547515720129013, 0.028509581461548805, 0.06640913337469101, 0.01748560182750225, -0.0105409175157547, 0.013373862951993942, -0.04022477567195892, -0.04519365355372429, -0.08954180032014847, -0.025357084348797798, -0.04888348653912544, -0.009861770085990429, 0.011094722896814346, 0.0242622047662735, 0.041446391493082047, -0.006638566963374615, -0.032678380608558655, 0.047551874071359634, -0.04339629411697388, 0.01760207861661911, -0.013799047097563744, -0.02682526223361492, 0.028961991891264915, 0.01934664323925972, 0.0561530739068985, -0.05512448027729988, -0.0018115435959771276, 0.02812395989894867, -0.020905079320073128, -0.005706851836293936, -0.03754766657948494, -0.0103437015786767, -0.029876941815018654, 0.00397865567356348, 0.0003068181104026735, -0.008168487809598446, -0.020335176959633827, 0.009591843001544476, 0.004407354164868593, 0.009805910289287567, 0.00503643648698926, 0.0007676166715100408, -0.01263496559113264, 0.004262695088982582, 0.03349770978093147, 0.04742300137877464, -0.009660927578806877, -0.015857137739658356, -0.019798707216978073, 0.0006560191977769136, -0.07486269623041153, 0.006943137850612402, -0.0034912172704935074, -0.008952239528298378, 0.005607706494629383, -0.023723306134343147, -0.0039115725085139275, 0.016736706718802452, 0.02926209568977356, -0.023518787696957588, 0.004638824611902237, 0.005175099708139896, 0.0016546623082831502, -0.018737658858299255, 0.04714174196124077, 0.02826685830950737, 0.05098854377865791, -0.006273390259593725, -0.016977230086922646, -0.06449903547763824, 0.03676958754658699, -0.005966713652014732, 0.05285835638642311, 0.024992216378450394, -0.005550770554691553, -0.003114149207249284, -0.012204482220113277, 0.018488723784685135, -0.008095097728073597, 0.030385103076696396, -0.010918188840150833, 0.005308164749294519, -0.006325663533061743, -0.02971545048058033, -0.0053868889808654785, -0.006429476663470268, 0.04572133719921112, 0.0231308750808239, 0.06643912941217422, -0.02964920364320278, -0.009439950808882713, -0.020467251539230347, 0.0667305737733841, 0.04832540079951286, 0.008424382656812668, 0.02626689337193966, -0.020127274096012115, 0.006197312846779823, -0.06890147179365158, -0.09651120752096176, -0.1286940723657608, -0.12235765159130096, 0.006241379771381617, -0.012818548828363419, -0.0773770660161972, -0.060900162905454636, -0.006322228815406561, -0.040125004947185516, -0.1104748472571373, -0.0355481281876564, 0.02890164591372013, 0.10285001248121262, 0.03983093798160553, -0.0346309170126915, -0.11291081458330154, -0.08549708127975464, -0.016582898795604706, 0.02413153275847435, 0.0027447077445685863, -0.014569290913641453, -0.08819501101970673, -0.036191780120134354, -0.006808694917708635, -0.008887505158782005, 0.013384595513343811, 0.08650927245616913, -0.014806892722845078, -0.0416039414703846, 0.11887877434492111, 0.11713957041501999, -0.0025616008788347244, 0.003720766631886363, 0.09330499172210693, -0.015791216865181923, 0.07815895229578018, 0.007941349409520626, 0.03432835638523102, 0.007489118725061417, 0.08452824503183365, 0.07823670655488968, 0.14361810684204102, 0.0703921839594841, -0.03602460026741028, 0.022110173478722572, 0.0507466122508049, 0.1712208390235901, -0.037985969334840775, -0.07887091487646103, 0.028847025707364082, 0.00011331155110383406, 0.03698134422302246, 0.0716060996055603, -0.07645704597234726, -0.13917511701583862, -0.24038182199001312, -0.22014062106609344, 0.09958331286907196, 0.1091756820678711, 0.004688596818596125, -0.11297716200351715, -0.005270764231681824, -0.14701631665229797, -0.07954774796962738, 0.005020673852413893, -0.06736329197883606, 0.014393530786037445, 0.00140106410253793, -0.03206624463200569, 0.015008460730314255, -0.01829810068011284, 0.010678728111088276, 0.04167623817920685, 0.008210359141230583, 0.07045669108629227, 0.07917620241641998, 0.046743396669626236, 0.04197758063673973, 0.05789133161306381, 0.13612429797649384, 0.01067964918911457, -0.00788117852061987, -0.00408279150724411, -0.02085152640938759, -0.0379175990819931, -0.006224087439477444, -0.0020136332605034113, 0.007758531253784895, -0.009715738706290722, -0.020390944555401802, 0.04516236484050751, 0.027723034843802452, 0.007799063343554735, 0.02377091906964779, 0.00807863101363182, 0.004545754287391901, -0.03956999629735947, -0.018388820812106133, -0.07170040905475616, 0.006605210248380899, -0.020804913714528084, 0.010188557207584381, -0.021058082580566406, -0.057039711624383926, -0.010609661228954792, 0.05745687335729599, 0.07260441035032272, 0.020836973562836647, -0.0026678061112761497, 0.016699085012078285, 0.0022594451438635588, -0.037075843662023544, -0.0117565356194973, 0.00041868758853524923, -0.057560473680496216, -0.02917003259062767, 0.02109544351696968, -0.03598885238170624, -0.038064781576395035, -0.03922560438513756, -0.056723494082689285, -0.027846327051520348, 0.027111779898405075, -0.004653032869100571, -0.026033038273453712, 0.050676994025707245, 0.008134005591273308, 0.009900982491672039, -0.006073453463613987, -0.010980605147778988, 0.019423354417085648, -0.042694173753261566, -0.08919334411621094, -0.024854322895407677, 0.01814970374107361, 0.0505262091755867, 0.0036681017372757196, -0.07875695824623108, -0.07158199697732925, -0.06068945676088333, 0.011015377938747406, 0.03560906648635864, -0.02796357497572899, -0.04668889939785004, 0.012167012318968773, 0.01347123272716999, 0.026667973026633263, -0.04178514704108238, -0.0709163025021553, -0.04241994768381119, -0.03662196546792984, 0.05364614352583885, 0.05534135922789574, 0.06664513796567917, -0.021783042699098587, -0.0754714235663414, -0.0398886539041996, -0.04257708415389061, 0.03085383214056492, 0.02203904092311859, -0.0009776336373761296, -0.029190417379140854, -0.09513071179389954, -0.03058764897286892, 0.027210980653762817, 0.00016089100972749293, 0.015839407220482826, -0.007425629533827305, 0.0343627966940403, 0.0561298131942749, 0.06462685018777847, 0.015880169346928596, 0.025728575885295868, 0.011934538371860981, -0.03866177052259445, 0.05818824842572212, 0.087810218334198, 0.0804402157664299, -0.006646901834756136, 0.011560018174350262, -0.0644015222787857, -0.07854767143726349, -0.01876063272356987, 0.004969265311956406, -0.04667142778635025, 0.036428749561309814, 0.015821199864149094, -0.08999673277139664, -0.04590946063399315, -0.017014915123581886, 0.01752586103975773, 0.018298432230949402, 0.004617324098944664, 0.006996036507189274, 0.02996082603931427, 0.017610523849725723, -0.034334372729063034, 0.010615929029881954, 0.02143132872879505, -0.005621707998216152, 0.025826966390013695, 0.04700247943401337, 0.04782324284315109, -0.0903300940990448, -0.03783218562602997, 0.005725795403122902, -0.03744645044207573, 0.015300263650715351, 0.06868214160203934, -0.02828982286155224, -0.05491028353571892, 0.02790478616952896, 0.014917045831680298, 0.054816797375679016, 0.002284024143591523, -0.0019013144774362445, -0.01832595281302929, -0.0048830946907401085, 0.04951808601617813, 0.05231538042426109, 0.08230757713317871, 0.0036300066858530045, 0.00578301353380084, -0.007833323441445827, -0.036686815321445465, 0.01464369148015976, -0.07187268137931824, 0.007161186542361975, -0.015065442770719528, -0.0020448758732527494, -0.020238570868968964, -0.03530236333608627, -0.04972462356090546, -0.06969760358333588, -0.00942111387848854, 0.0010123845422640443, -0.0575130395591259, -0.05851185321807861, -0.04567720368504524, -0.018345367163419724, 0.031887512654066086, 0.01521021593362093, -0.0221257321536541, 0.043752335011959076, -0.06907530128955841, -0.05202210694551468, -0.02632523514330387, 0.0443529337644577, 0.006459005642682314, 0.034356340765953064, -0.03187040612101555, -0.049306467175483704, 0.014018078334629536, 0.05867190286517143, 0.058036696165800095, -0.004003714304417372, 0.030846497043967247, -0.03583929315209389, 0.04649319872260094, 0.06765643507242203, 0.057587433606386185, 0.029790518805384636, -0.018930235877633095, 0.04798506200313568, 0.006337416358292103, 0.01497194729745388, -0.022233275696635246, -0.014316322281956673, -0.03406480699777603, 0.012567364610731602, 0.0048227072693407536, 0.0525408498942852, 0.012944519519805908, 0.04557085409760475, -0.005683522671461105, 0.004659212660044432, 0.0067410957999527454, -0.007453298661857843, -0.018328258767724037, -0.009311120957136154, 0.004733987618237734, 0.007269273046404123, 0.02454700879752636, -0.035924408584833145, -0.006889429409056902, 0.029565608128905296, -0.0038630191702395678, -0.016984524205327034, -0.002704610815271735, -0.03230421245098114, 0.03861678019165993, -0.007427412085235119, -0.047896046191453934, -0.0366901233792305, -0.005971202626824379, 0.02563886158168316, -0.009784040972590446, 0.02679821476340294, 0.017197340726852417, -0.0408548042178154, 0.03722585365176201, 0.06052564084529877, 0.0672639012336731, 0.050259388983249664, 0.00632141251116991, 0.018046582117676735, -0.01594836264848709, 0.02697104401886463, 0.07639851421117783, -0.012830287218093872, -0.040109120309352875, -0.022769920527935028, -0.007659251801669598, -0.07767418771982193, -0.008637212216854095, 0.03753935918211937, -0.010193703696131706, 0.001720647094771266, 0.0246245339512825, -0.005503772757947445, 0.035343918949365616, 0.043239131569862366, 0.023271143436431885, 0.016469022259116173, 0.010038069449365139, -0.006034450605511665, -0.005920147057622671, -0.0011701828334480524, 0.005981610156595707, -0.0014715337892994285, 0.009866198524832726, -0.005969807505607605, -0.003619351191446185, 0.011510157957673073, -0.012025920674204826, -0.028744127601385117, -0.09076301753520966, -0.008973724208772182, 0.03696542605757713, -0.007684310898184776, -0.014808591455221176, 0.07585231214761734, -0.06551921367645264, -0.046774569898843765, -0.011069593951106071, -0.0043472303077578545, 0.015598270110785961, -0.017605407163500786, -0.022160178050398827, -0.05032414570450783, -0.0791860818862915, 0.04661170020699501, 0.018064357340335846, 0.029234720394015312, 0.04890836775302887, -0.014608362689614296, 0.008129734545946121, 0.0828150138258934, 0.0014998218975961208, 0.030367597937583923, 0.006201531272381544, 0.029847288504242897, -0.007028626278042793, -0.028752174228429794, 0.018248625099658966, 0.01624915935099125, -0.05198535695672035, 0.030837662518024445, -0.002355393022298813, 0.0120816919952631, -0.045667264610528946, 0.053570616990327835, 0.009832734242081642, -0.006563791073858738, 0.00790939386934042, -0.009521697647869587, -0.007638128008693457, -0.03372529521584511, 0.005728424061089754, 0.008517921902239323, 0.04744117707014084, 0.007618599105626345, -0.018957076594233513, 0.0033836346119642258, -0.03135564178228378, -0.03721705824136734, 0.025956084951758385, -0.007678317371755838, 0.024236414581537247, -0.01769348606467247, 0.0418442003428936, -0.026788167655467987, 0.008584128692746162, -0.02105959877371788, 0.0030666543170809746, 0.012937747873365879, 0.05074622109532356, 0.043820127844810486, 0.1281050592660904, 0.008968842215836048, 0.02031881734728813, -0.005151578225195408, 0.022465139627456665, 0.0039007978048175573, 0.03431703895330429, -0.014996648766100407, 0.0070509230718016624, -0.0355977937579155, -0.029087863862514496, -0.11544588953256607, -0.01907351426780224, 0.00462550250813365, -0.0015509417280554771, 0.006455586291849613, 0.022134393453598022, 0.004814700689166784, -0.03212359920144081, -0.014766814187169075, -0.027870817109942436, 0.02491646073758602, -0.020300788804888725, -0.04063082113862038, -0.05595482140779495, -0.012364793568849564, -0.064700186252594, -0.046928372234106064, -0.02807021327316761, 0.05908619984984398, 0.08768587559461594, 0.01941772550344467, -0.012845784425735474, 0.006032679695636034, 0.04766004532575607, 0.057323306798934937, 0.06341520696878433, -0.027961531654000282, -0.020404281094670296, -0.029523784294724464, 0.017926452681422234, -0.025546761229634285, -0.06487605720758438, -0.019208107143640518, 0.021352479234337807, 0.09029810130596161, -0.027818117290735245, 0.08532704412937164, -0.07567965984344482, 0.09380511194467545, -0.07431843131780624, -0.07862911373376846, 0.0305277518928051, -0.011407953687012196, 0.020799146965146065, -0.010763288475573063, -0.08270818740129471, -0.11049776524305344, 0.008389780297875404, -0.016228770837187767, -0.07569217681884766, 0.05772050470113754, 0.03782002255320549, -0.03990957885980606, 0.024552112445235252, 0.037957966327667236, 0.04597105085849762, 0.030942635610699654, -0.032913126051425934, 0.06659151613712311, -0.07135176658630371, 0.07253506034612656, 0.023895492777228355, 0.00927139725536108, 0.06436029821634293, -0.023939991369843483, -0.04882429167628288, 0.047487638890743256, -0.011336340568959713, -0.04510541260242462, -0.029621869325637817, 0.018112339079380035, 0.016409961506724358, 0.0398695133626461, 0.06678557395935059, -0.027421429753303528, -0.019311388954520226, 0.041561540216207504, -0.019420672208070755, 0.020958317443728447, 0.007790302392095327, -0.04056892171502113, -0.027101239189505577, 0.02008487656712532, 0.03888898342847824, -0.01904342696070671, 0.07724475860595703, -0.04252922907471657, -0.09473428130149841, -0.17018623650074005, 0.012224073521792889, 0.056811630725860596, 0.04119836539030075, -0.03407647833228111, -0.061287086457014084, -0.2584918141365051, -0.1265636384487152, -0.03853101655840874, -0.05184433236718178, -0.06920843571424484, 0.02231355756521225, 0.031868625432252884, -0.15871787071228027, 0.015934038907289505, 0.002831554738804698, 0.028182774782180786, 0.03991233557462692, 0.02999699115753174, -0.009245159104466438, -0.10493724048137665, 0.11022642999887466, 0.037961214780807495, 0.03518027067184448, 0.07486733794212341, 0.01682405360043049, -0.01742378994822502, -0.016192404553294182, -0.026115886867046356, 0.03331906720995903, -0.016652977094054222, 0.006485288497060537, -0.0019555813632905483, 0.06784196943044662, 0.001025500474497676, 0.03548590838909149, 0.005205607041716576, 0.005988465156406164, 0.0006263682735152543, 0.014263778924942017, 0.033470768481492996, 0.009668713435530663, -0.015787377953529358, -0.04146307334303856, 0.0036414689384400845, 0.003540951060131192, -0.008371070958673954, -0.0066720410250127316, -0.013680842705070972, 0.04391472786664963, 0.04377289488911629, 0.004928726702928543, -0.016808081418275833, -0.026914827525615692, 0.04025949910283089, 0.00744214141741395, -0.011449189856648445, -0.02322671003639698, -0.017293710261583328, -0.029527077451348305, 0.03805522620677948, -0.002329424489289522, -0.028152387589216232, -0.020604779943823814, -0.05294475704431534, -0.015395091846585274, 0.0009504491463303566, -0.020398475229740143, 0.029923683032393456, 0.03132776543498039, 0.0026552127674221992, 0.010111954063177109, -0.017201226204633713, 0.017166370525956154, -0.008379185572266579, -0.016500428318977356, -0.03468424826860428, -0.06622366607189178, -0.09507348388433456, -0.058151762932538986, -0.024748405441641808, -0.036432597786188126, -0.055836621671915054, -0.018699388951063156, 0.034598689526319504, 0.04716348275542259, 0.05282914638519287, -0.045258209109306335, -0.020464135333895683, 0.017881358042359352, 0.04927530884742737, 0.06395824253559113, 0.029972301796078682, 0.031412556767463684, 0.014747713692486286, -0.033413417637348175, 0.026598528027534485, 0.027340099215507507, -0.08407744765281677, -0.06257747858762741, -0.015399535186588764, 0.005271253176033497, -0.006339148618280888, 0.007368743419647217, -0.06869348883628845, -0.1351657211780548, 0.029468286782503128, 0.03973642364144325, -0.03524363040924072, 0.009020517580211163, -0.0451284758746624, -0.016733616590499878, 0.01704777590930462, 0.0898737981915474, 0.00406324677169323, 0.07064640522003174, 0.02070518769323826, 0.014455319382250309, 0.014080336317420006, 0.07422080636024475, -0.03481925278902054, 0.05238356441259384, 0.03531544655561447, -0.00960345659404993, -0.001404649461619556, -0.04522557556629181, 0.0003463198954705149, -0.0359225831925869, -0.023915445432066917, 0.010274767875671387, 0.004419207107275724, 0.057256218045949936, -0.05467411130666733, -0.009070264175534248, -0.04344028979539871, -0.003781920298933983, 0.005910853389650583, 0.04135148599743843, 0.034911997616291046, 0.015939844772219658, -0.02300722897052765, 0.055794522166252136, 0.07137416303157806, 0.016643311828374863, -0.10503789037466049, 0.003328861901536584, 0.02424602210521698, 0.0064666010439395905, 0.06699862331151962, 0.0397551953792572, 0.0030988820362836123, -0.05075543373823166, 0.015146799385547638, 0.06726817041635513, 0.04117093235254288, -0.03762846812605858, -0.08007984608411789, 0.011391694657504559, 0.018800558522343636, 0.022577377036213875, -0.010073866695165634, -0.012439430691301823, -0.029093779623508453, 0.018733961507678032, 0.012510989792644978, 0.050947073847055435, -0.025722624734044075, 0.028323069214820862, 0.00041590569890104234, 0.0008837511413730681, 0.009434341453015804, -0.011584646068513393, 0.004262890666723251, -0.005319992545992136, -0.015384413301944733, 0.023666270077228546, -0.032274357974529266, -0.0014435680350288749, -0.015144044533371925, -0.007247496396303177, -0.05953424051403999, -0.013638658449053764, -0.013608643785119057, -0.02374236099421978, -0.023352976888418198, 0.014367688447237015, -0.007707934360951185, -0.033687278628349304, -0.06537051498889923, -0.09993646293878555, -0.007338303606957197, 0.0054088169708848, 0.07234624028205872, -0.038026973605155945, 0.008288185112178326, 0.054254911839962006, 0.058533016592264175, 0.006473247893154621, 0.01457776129245758, 0.028340093791484833, 0.036880798637866974, -0.0014577388064935803, 0.010796386748552322, 0.012642276473343372, -0.0200981292873621, -0.01875074952840805, -0.05314711853861809, 0.062296368181705475, -0.004113450180739164, 0.010400778613984585, -0.05703030526638031, -0.06378772854804993, -0.007740940898656845, 0.042526841163635254, -0.05538403242826462, 0.01679438352584839, 0.12606368958950043, 0.0514189749956131, 0.05240805447101593, 0.05942705646157265, 0.012764710001647472, -0.02971133217215538, -0.06864596903324127, -0.03001539036631584, -0.025400474667549133, -0.002275018719956279, 0.016150107607245445, 0.037927255034446716, -0.0027889935299754143, -0.034938208758831024, -0.044342584908008575, 0.007193198427557945, 0.03583553060889244, 0.03617388755083084, 0.02390197291970253, -0.006413507740944624, -0.029778756201267242, -0.09781192988157272, -0.050697989761829376, -0.14993609488010406, -0.02349078096449375, 0.01737283356487751, -0.014142895117402077, -0.0632581114768982, 0.011773300357162952, 0.009724767878651619, -0.08729724586009979, -0.03431516885757446, 0.010932731442153454, 0.057687174528837204, 0.05090774595737457, -0.02366860955953598, -0.012183118611574173, -0.10367710888385773, -0.06266238540410995, -0.01009360607713461, 0.03448088839650154, 0.08472301065921783, 0.05676601454615593, -0.03652553632855415, -0.008455580100417137, -0.01516959723085165, 0.09947718679904938, 0.033262379467487335, 0.019089723005890846, -0.10388603061437607, 0.09834486246109009, 0.06747446209192276, -0.024687262251973152, -0.011982021853327751, -0.007579818833619356, -0.015732722356915474, -0.0516408272087574, -0.019754288718104362, -0.05928606539964676, -0.04788688197731972, -0.014802118763327599, -0.0011266657384112477, -0.035452455282211304, -0.011799512431025505, -0.07877505570650101, 0.024168051779270172, 0.009551155380904675, -0.02156929485499859, -0.03399571031332016, -0.004487413913011551, 0.007005771622061729, -0.05402098596096039, 0.028359832242131233, 0.06511856615543365, 0.009452037513256073, 0.004815579857677221, -0.024350281804800034, -0.018857091665267944, -0.05254808068275452, -0.027505002915859222, -0.06063104793429375, -0.0006108927773311734, 0.03668054938316345, -0.014846044592559338, 0.05483045428991318, 0.05589165911078453, 0.03310103341937065, 0.059416819363832474, -0.005225685425102711, -0.002455199370160699, -0.012611828744411469, 0.027732232585549355, 0.06276039034128189, 0.1054268404841423, 0.05808400735259056, -0.013270843774080276, 0.007810193579643965, 0.014751708135008812, 0.006620381493121386, 0.030245987698435783, -0.01842428557574749, -0.033849842846393585, 0.008835982531309128, -0.01649506203830242, -0.11747663468122482, -0.06489861756563187, -0.05257783085107803, 0.02557884156703949, 0.057725414633750916, -0.000986031023785472, 0.0679759830236435, -0.04554687812924385, 0.05492476746439934, 0.03374538943171501, 0.0350879542529583, -0.010661076754331589, 0.03116701915860176, 0.037502940744161606, 0.05250111222267151, 0.030601100996136665, -0.13208739459514618, -0.041168779134750366, -0.0812106728553772, -0.04451623558998108, -0.02367326244711876, -0.05169876292347908, -0.1754305362701416, 0.04427150636911392, 0.16688062250614166, -0.10742082446813583, 0.006032237317413092, 0.012074019759893417, 0.015820102766156197, -0.0021525893826037645, 0.02552635967731476, -0.018454717472195625, 0.04014131426811218, 0.022112727165222168, 0.013165175914764404, 0.10387472063302994, 0.024358125403523445, -0.0016321094008162618, -0.0008660044986754656, -0.029948288574814796, -0.009766548871994019, 0.13139833509922028, 0.03501412272453308, 0.0672340989112854, -0.1018405482172966, 0.05432260036468506, 0.07435967028141022, -0.025213079527020454, -0.0040331208147108555, 0.022703949362039566, 0.01740042120218277, 0.004591238219290972, -0.029672011733055115, 0.0007134685292840004, 0.023568006232380867, -0.01614578254520893, 0.011743588373064995, -0.01652630791068077, -0.06489158421754837, -0.07932596653699875, -0.016199078410863876, 0.010758016258478165, 0.09309577941894531, -0.09958618879318237, -0.1816040575504303, 0.0006128191016614437, 0.031670983880758286, -0.05303781479597092, 0.036490604281425476, -0.08044955134391785, -0.09028714150190353, -0.15839459002017975, -0.004950190894305706, 0.017153330147266388, 0.01827041059732437, -0.005058600567281246, -0.0343690849840641, 0.036256976425647736, 0.051705632358789444, 0.04818151146173477, 0.02363145351409912, 0.03813101723790169, 0.015656761825084686, 0.005864988546818495, 0.024467429146170616, 0.040574584156274796, -0.001209064619615674, -0.06846639513969421, 0.001847070292569697, -0.031000906601548195, 0.04448466747999191, 0.08407821506261826, 0.028367439284920692, -0.032047975808382034, 0.029317425563931465, 0.05353705585002899, 0.05078281834721565, -0.033616747707128525, -0.046651262789964676, -0.031201932579278946, -0.01504578348249197, 0.004592356272041798, 0.01956382393836975, -0.04633203521370888, 0.012115474790334702, 0.05516981706023216, 0.050132982432842255, 0.013945262879133224, 0.06535303592681885, 0.007770569995045662, 0.040668293833732605, 0.011853339150547981, 0.020914914086461067, 0.014713013544678688, 0.04541205242276192, -0.008329438045620918, 0.04165421053767204, 0.013724558055400848, 0.0204604659229517, -0.01935035176575184, -0.0373343750834465, -0.1786598265171051, -0.0527835488319397, -0.04859945550560951, 0.0056987907737493515, 0.046239517629146576, -0.019721055403351784, -0.03623677417635918, 0.010736946016550064, -0.020451121032238007, 0.02730073593556881, -0.046134769916534424, 0.020121116191148758, -0.07640993595123291, 0.0478392131626606, 0.09761868417263031, 0.04755657911300659, -0.0404704287648201, 0.03569193556904793, 0.008243202231824398, 0.00553134037181735, -0.025031771510839462, 0.005542308557778597, 0.009833411313593388, 0.008075879886746407, 0.007260823622345924, -0.011037091724574566, -0.015995198860764503, -0.05887822434306145, -0.008383688516914845, 0.03856275975704193, -0.004825688898563385, 0.036708660423755646, 0.03537038713693619, -0.001330050639808178, -0.034216515719890594, -0.008416305296123028, 0.018525224179029465, 0.012651938945055008, 0.003660748014226556, -0.0733778327703476, -0.05455446615815163, -0.04300262778997421, -0.08642443269491196, -0.10014182329177856, 0.0032839991617947817, 0.007535805460065603, -0.04221396520733833, -0.09324916452169418, 0.04261961579322815, 0.03919607028365135, 0.025039900094270706, 0.0023782795760780573, 0.013063095510005951, 0.04785894230008125, -0.04903902858495712, 0.008171537891030312, -0.000641455699224025, -0.023699220269918442, -0.04560183361172676, -0.005559605546295643, -0.027236031368374825, 0.07830347865819931, 0.05689192935824394, -0.0028118884656578302, -0.042972397059202194, -0.04350538179278374, 0.034774038940668106, -0.00037875454290769994, 0.07493080198764801, 0.09734372794628143, -0.04246235638856888, -0.02746879868209362, -0.025002382695674896, -0.00900216680020094, 0.024185404181480408, -0.036499157547950745, -0.06020384654402733, -0.005120380781590939, 0.018940197303891182, -0.03451893478631973, 0.008043825626373291, -0.04242217168211937, -0.03592156991362572, -0.06915616989135742, -0.031758006662130356, 0.045628808438777924, 0.011277482844889164, -0.004429035820066929, -0.06350498646497726, 0.020891837775707245, -0.03942563384771347, -0.00796906091272831, 0.036900825798511505, -0.030396943911910057, 0.00029803698998875916, 0.08858570456504822, 0.10431481897830963, 0.1517060101032257, 0.06371085345745087, -0.001137166516855359, 0.01506699901074171, -0.005777586251497269, 0.035977739840745926, 0.019391587004065514, 0.02347436174750328, 0.01693415455520153, 0.012961724773049355, 0.012473413720726967, -0.020300399512052536, -0.008996897377073765, 0.005194482859224081, -0.05567343160510063, -0.03579240292310715, 0.0018191963899880648, 0.0325499102473259, 0.004419243894517422, 0.010550370439887047, 0.030136533081531525, -0.034830156713724136, 0.02004430629312992, -0.02036025933921337, -0.006332571618258953, 0.003204441163688898, -0.009791350923478603, 0.010270342230796814, 0.01561726350337267, -0.03979918733239174, -0.046028174459934235, -0.055838484317064285, -0.0071129645220935345, 0.003303629346191883, -0.03735816851258278, 0.006776844616979361, -0.04194832593202591, -0.06746619194746017, -0.03125707060098648, 0.039960067719221115, 0.02354997955262661, -0.06387315690517426, -0.025667456910014153, -0.012267963960766792, 0.08795883506536484, -0.005735611077398062, -0.0024219558108597994, -0.042000290006399155, -0.026864435523748398, 0.010672337375581264, 0.05994940549135208, 0.10558950155973434, 0.02620728686451912, 0.043545521795749664, -0.013723136857151985, -0.022373275831341743, -0.020765580236911774, 0.00584601191803813, -0.060552455484867096, -0.09880156815052032, -0.029933137819170952, 0.015753107145428658, -0.009889699518680573, 0.0013016799930483103, -0.019200148060917854, -0.03428696095943451, 0.004958707373589277, 0.04729800671339035, 0.017422666773200035, 0.009701220318675041, 0.0336378775537014, 0.010151752270758152, -0.016198506578803062, 0.05800787732005119, 0.010382497683167458, 0.018171655014157295, -0.06594114750623703, -0.10622300952672958, -0.04794883355498314, 0.035111185163259506, -0.06817299872636795, -0.027683470398187637, -0.07061068713665009, -0.025485079735517502, -0.07333065569400787, -0.02264241687953472, 0.0046993144787848, 0.026776492595672607, 0.00302240252494812, -0.03994474932551384, 0.02262631431221962, 0.03179094195365906, 0.07772744446992874, 0.010870857164263725, 0.023397216573357582, 0.011202789843082428, 0.10110531002283096, 0.03528807684779167, 0.11141271144151688, 0.04748845472931862, -0.014745273627340794, 0.007025627419352531, 0.019451512023806572, 0.044352274388074875, 0.0312070082873106, -0.04186764359474182, -0.04761360213160515, 0.004021516069769859, 0.03792335465550423, -0.05759216099977493, -0.01029321551322937, 0.04826657474040985, -0.10261190682649612, -0.059486210346221924, 0.018593981862068176, 0.11049064248800278, 0.01572636142373085, 0.0075640301220119, 0.08820775151252747, 0.04937077686190605, -0.05369454249739647, -0.0033888458274304867, 0.006997027900069952, -0.039543237537145615, 0.005531436298042536, -0.013428416103124619, 0.0003006008337251842, -0.0027368345763534307, 0.012718528509140015, 0.00530531769618392, -0.008636132813990116, 0.006016403436660767, 0.038500092923641205, -0.008086116053164005, 0.008228257298469543, 0.016136910766363144, -0.027058454230427742, -0.002205464756116271, 0.009679503738880157, -0.03394200652837753, -0.03486298397183418, -0.0174501184374094, 0.021875496953725815, -0.001574273919686675, 0.01318682823330164, -0.019833702594041824, -0.002359815640375018, 0.03311751037836075, 0.03630204126238823, 0.011503910645842552, -0.007640267722308636, -0.001090322039090097, 1.9850413082167506e-06, 0.010655173100531101, 0.030946018174290657, 0.007686964236199856, -0.039495937526226044, -0.039302270859479904, -0.04698515683412552, 0.010973761789500713, -0.017322110012173653, 0.038516439497470856, 0.006960991304367781, -0.04106353968381882, -0.019076598808169365, -0.014644400216639042, 0.0015283821849152446, 0.0046443329192698, 0.0434463806450367, -0.005728716496378183, 0.03230716660618782, -0.02331680990755558, -0.021874116733670235, 4.018939580419101e-05, 0.017014557495713234, -0.04519464448094368, -0.17201006412506104, -0.0033217119053006172, -0.03307582810521126, -0.01612192392349243, 0.004084109328687191, -0.05568431690335274, -0.045167796313762665, -0.07233785092830658, 0.013815985061228275, 0.041566453874111176, -0.04803108423948288, -0.024045515805482864, 0.0035116656217724085, 0.024210486561059952, -0.03219097480177879, 0.023099111393094063, 0.05213063210248947, 0.011720477603375912, 0.006369539070874453, 0.04577939957380295, 0.06044549494981766, -0.05845997855067253, -0.005825603846460581, -0.0092626279219985, -0.00659568328410387, 0.06711804866790771, 0.0130955521017313, -0.009069246239960194, 0.012809052132070065, -0.03277694806456566, 0.029375769197940826, 0.025682182982563972, 0.005526457913219929, -0.03866105526685715, -0.04717095568776131, 0.028977060690522194, 0.017203139141201973, 0.029350437223911285, 0.062325894832611084, -0.004440023098140955, -0.05556337907910347, -0.07146943360567093, -0.016351191326975822, 0.012618258595466614, -0.029062269255518913, 0.010297229513525963, -0.016568977385759354, -0.08195185661315918, -0.043073322623968124, -0.04639334976673126, 0.006121225189417601, 0.03713797777891159, 0.014099173247814178, 0.0221604835242033, -0.0420890711247921, 0.06725647300481796, 0.0162221547216177, 0.048956576734781265, -0.07493188977241516, -0.032531630247831345, -0.008828824386000633, 0.05368940532207489, 0.05378861352801323, -0.03724929317831993, 0.049091774970293045, 0.008838201873004436, 0.013651431538164616, 0.011571565642952919, 0.008641254156827927, -0.009445668198168278, 0.05061185732483864, 0.11019258201122284, -0.012997382320463657, -0.0522594079375267, -0.019732847809791565, -0.0031059912871569395, -0.01429899875074625, 0.011678412556648254, 0.04013995826244354, 0.0067100017331540585, -0.025442369282245636, 0.051484569907188416, 0.061297982931137085, 0.02732601761817932, 0.021126139909029007, -0.10320990532636642, -0.03442949056625366, 0.04535568505525589, 0.06986018270254135, 0.04042382165789604, 0.026408381760120392, 0.0036122382152825594, -0.06012974679470062, -0.003174967598170042, 0.015990957617759705, -0.046067964285612106, -0.0529325045645237, -0.01790788397192955, -0.07589199393987656, -0.04957830160856247, -0.10808306187391281, -0.01860947161912918, -0.015094173140823841, 0.0007593649788759649, 0.027556056156754494, 0.026802288368344307, 0.0947885513305664, 0.050185058265924454, -0.01747613213956356, -0.01079685240983963, 0.01571391522884369, 0.06389397382736206, 0.021589860320091248, 0.04708085209131241, 0.05567822605371475, 0.0219485592097044, -0.0056634568609297276, -0.004303403198719025, -0.05069153755903244, -0.11399131268262863, -0.05532640218734741, 0.039743728935718536, 0.00436374032869935, 0.0202260073274374, -0.00882326066493988, -0.04805580899119377, -0.13372395932674408, 0.011130275204777718, 0.014285927638411522, -0.07628253847360611, 0.004692655056715012, -0.0029547098092734814, 0.03201146796345711, 0.09931368380784988, 0.0895996019244194, 0.03607704117894173, 0.0394696407020092, 0.004096142947673798, -0.01738976128399372, 0.04763253778219223, 0.02894391119480133, 0.05485440045595169, 0.008473253808915615, 0.08458376675844193, -0.012145484797656536, 0.0019882700871676207, -0.08185932785272598, 0.006001521833240986, -0.03465824946761131, -0.027268722653388977, -0.011644665151834488, -0.0031796065159142017, -0.007243657484650612, 0.04138902202248573, 0.02455884963274002, -0.007060575298964977, -0.056951165199279785, 0.0026025043334811926, -0.0285330880433321, 0.03495638445019722, 0.02687367983162403, -0.1125737801194191, -0.14297866821289062, -0.09485303610563278, 0.002439429983496666, 0.007597770541906357, 0.0889047160744667, -0.08312398195266724, -0.027372535318136215, 0.055494312196969986, -0.08064860850572586, -0.003683654125779867, 0.022063056007027626, -0.002755994675680995, -0.011404715478420258, 0.024343216791749, -0.0660359337925911, -0.06671463698148727, 0.005945943761616945, 0.0064509473741054535, 0.03464038670063019, 0.04113654047250748, 0.010874204337596893, -0.1244320273399353, -0.020073074847459793, -0.008894567377865314, 0.0035359631292521954, 0.015904119238257408, 0.030904216691851616, 0.03664497658610344, -0.016118494793772697, 0.0056163170374929905, 0.010565171018242836, -0.02584810182452202, -0.12422086298465729, -0.1288672536611557, 0.030400147661566734, -0.08133431524038315, 0.008652430959045887, -0.024520037695765495, -0.05264725908637047, -0.09194603562355042, -0.06921368092298508, 0.10261977463960648, 0.12953296303749084, 0.06483659893274307, -0.10928069800138474, -0.017320524901151657, 0.027590356767177582, 0.04046124592423439, 0.013233604840934277, 0.07478691637516022, 0.025084374472498894, 0.07231159508228302, 0.0031656879000365734, 0.035215746611356735, 0.09223822504281998, 0.021732212975621223, -0.028054481372237206, -0.018468888476490974, -0.015213199891149998, 0.05829834192991257, -0.049547672271728516, -0.05399820953607559, -0.05180665850639343, -0.013868016190826893, -0.05109911412000656, -0.08316459506750107, 0.012063000351190567, -0.010345724411308765, -0.03444288671016693, -0.011530444025993347, 0.0843556672334671, 0.0903097540140152, 0.13621056079864502, 0.03013305366039276, 0.013166854158043861, 0.019981974735856056, 0.06787502020597458, 0.0315687358379364, 0.04561363905668259, -0.02674500085413456, 0.013748114928603172, 0.014652783051133156, 0.004640225321054459, 0.005130168050527573, -0.0023751012049615383, 0.009584972634911537, -0.00014858765644021332, 0.012713605538010597, 0.01685747317969799, 0.007861819118261337, -0.014346042647957802, 0.013388572260737419, -0.012326049618422985, -0.005708664655685425, 0.0054792482405900955, 0.016886191442608833, -0.002714061178267002, 0.01202566921710968, 0.00495197344571352, -0.0003266744315624237, 0.01522904820740223, -0.015005161054432392, -0.007981679402291775, 0.011906720697879791, -0.005433708429336548, -0.017383553087711334, -0.0012583881616592407, 0.0017063729465007782, -0.0008056182414293289, 0.009234603494405746, 0.011098677292466164, -0.011604160070419312, 0.0006310027092695236, -0.0017797984182834625, -0.009851641021668911, 0.00672338530421257, 0.0008201934397220612, 0.000554841011762619, -0.0027819443494081497, -0.008344439789652824, -0.01677343249320984, 0.010877339169383049, 0.016576575115323067, 0.0033282265067100525, 0.0026214532554149628, -0.005654048174619675, -0.017510056495666504, -0.013638156466186047, -0.010133733041584492, -0.009056465700268745, -0.019308561459183693, -0.10508859902620316, -0.034219879657030106, -0.06827068328857422, -0.04890546575188637, 0.019038056954741478, -0.06187553331255913, -0.011992577463388443, -0.012518723495304585, -0.007388011552393436, 0.007281410042196512, -0.038587380200624466, 0.0193286444991827, 0.02086487226188183, 0.039005544036626816, -0.01813334971666336, 0.03595558926463127, 0.048904504626989365, 0.06418823450803757, -0.022888287901878357, 0.08720467239618301, -0.011194233782589436, 0.09779540449380875, 0.05241837725043297, -0.0025924949441105127, -0.01577351801097393, 0.0029020439833402634, 0.02518838457763195, -0.005169865675270557, 0.03138240426778793, -0.018250159919261932, 0.029934290796518326, 0.0033017604146152735, -0.036630645394325256, -0.0032758533488959074, -0.0564747080206871, -0.059482332319021225, -0.04507332667708397, 0.042954228818416595, 0.12418666481971741, -0.02785329706966877, 0.016625404357910156, 0.019358059391379356, 0.015048954635858536, -0.031504638493061066, -0.005836983676999807, -0.017808929085731506, 0.03584527596831322, -0.008185865357518196, -0.05163072422146797, -0.0027898673433810472, -0.015220818109810352, 0.03062666952610016, 0.009204675443470478, 0.018808560445904732, -0.013586364686489105, -0.05479981750249863, -0.07440420985221863, -0.05818835273385048, -0.006718332413583994, 0.03254259005188942, -0.0008017128566280007, 0.023060468956828117, 0.03219181299209595, 0.023456299677491188, 0.08423986285924911, -0.07243793457746506, 0.03369660675525665, -0.006490351632237434, -0.010194389149546623, 0.023468710482120514, 0.11776886880397797, 0.03472196310758591, -0.01511664129793644, -0.01087799109518528, 0.005036600865423679, 0.049250420182943344, 0.03593873232603073, 0.018776249140501022, -0.06060260906815529, -0.06561146676540375, -0.07814472168684006, 0.01708350144326687, 0.003660070477053523, -0.005047367420047522, 0.061578039079904556, -0.03180708736181259, -0.011535468511283398, 0.019453223794698715, 0.06650637090206146, 0.005862498190253973, 0.01489200722426176, 0.009471329860389233, 0.0054467665031552315, 0.012501669116318226, -0.09719111770391464, -0.013027309440076351, -0.01313849724829197, -0.004502509720623493, 0.010152237489819527, 0.012982231564819813, 0.008606304414570332, 0.0083596957847476, 0.004408344626426697, 0.006545821204781532, -0.016242720186710358, 0.014963360503315926, -0.004766558762639761, -0.015736568719148636, -0.021364077925682068, 0.011616045609116554, -0.004647895693778992, -0.016459381207823753, -0.014930417761206627, -0.0004582584369927645, -0.0020585607271641493, 0.00960814394056797, -0.013961071148514748, 0.0049717240035533905, 0.00903354398906231, 0.018743006512522697, -0.012129371054470539, -0.015243728645145893, 0.0039541530422866344, -0.0076209502294659615, -0.015184443444013596, 0.008111342787742615, -0.004038304090499878, -0.0020069878082722425, -0.004527730401605368, 0.012497170828282833, -0.0036364756524562836, -0.008024669252336025, 0.015065649524331093, -0.0017207079799845815, -0.015110508538782597, 0.02340010553598404, -0.0028490982949733734, -0.01135752722620964, -0.013814300298690796, -0.017319045960903168, 0.003772865980863571, 0.0031696930527687073, -0.0014909058809280396, -0.003261251375079155, -0.01053099799901247, -0.01324812974780798, -0.004401203244924545, -0.0706404447555542, -0.006684586871415377, -0.08161627501249313, 0.024133307859301567, 0.01846662349998951, 0.021546101197600365, -0.04562431946396828, -0.05561051517724991, -0.037544310092926025, -0.043935712426900864, -0.028976963832974434, 0.007624806370586157, -0.0438869446516037, -0.04262975975871086, -0.06565175205469131, -0.05393466353416443, 0.02630227617919445, 0.036876749247312546, 0.03607211634516716, 0.0007148223230615258, 0.06595524400472641, 0.09021107852458954, 0.09118040651082993, 0.014193148352205753, 0.005477088037878275, 0.02408622018992901, 0.02288338914513588, -0.021380659192800522, 0.04776676371693611, 0.03919356316328049, -0.09736253321170807, -0.03806940093636513, -0.03946983814239502, 0.040399275720119476, 0.04848482087254524, 0.024833980947732925, -0.04006188362836838, -0.059633564203977585, 0.02989804372191429, 0.019040262326598167, -0.026873169466853142, 0.023225441575050354, 0.07168157398700714, -0.030709698796272278, 0.026272716000676155, -0.031117182224988937, 0.008581533096730709, -0.016338776797056198, -0.0034066112712025642, -0.06956233084201813, 0.03170367702841759, -0.0279771126806736, 0.0041643730364739895, -0.023291563615202904, 0.0057908920571208, -0.07557232677936554, -0.015859121456742287, 0.021791379898786545, -0.019720399752259254, 0.005277054850012064, 0.04171980544924736, 0.007833851501345634, 0.05818833410739899, 0.02035551145672798, -0.04960804805159569, 0.00695572467520833, -0.0683588907122612, -0.02621389552950859, 0.027350125834345818, 0.0528130978345871, 0.05456041544675827, 0.051197998225688934, -0.05229693278670311, -0.04234953597187996, 0.0014033172046765685, 0.08206533640623093, 0.05704052373766899, 0.0586857944726944, -0.012777775526046753, -0.014560368843376637, 0.042571861296892166, 0.028590060770511627, -0.03689922019839287, 0.031723372638225555, -0.03542760759592056, -0.05673769861459732, 0.019176939502358437, -0.008160876110196114, -0.047086261212825775, 0.01843426004052162, -0.00489106634631753, 0.02430206723511219, -0.021534360945224762, -0.01640905812382698, 0.02763764187693596, 0.03349531814455986, -0.048591356724500656, -0.05537198483943939, 0.00463134003803134, 0.004181820433586836, 0.02264774963259697, -0.010036948136985302, 0.029571272432804108, -0.03804739564657211, -0.03231872245669365, -0.07198461890220642, 0.04143776744604111, 0.057283032685518265, 0.01242462731897831, 0.010959518142044544, -0.01712527871131897, -0.10980124026536942, -0.20410561561584473, -0.1177087277173996, -0.14759604632854462, 0.053496841341257095, 0.013021787628531456, 0.022710425779223442, -0.04450179636478424, 0.040474116802215576, -0.06550052016973495, -0.0697113424539566, 0.001366636366583407, 0.06031586229801178, 0.03322460874915123, -0.04229374974966049, -0.07296211272478104, -0.06642147153615952, -0.05736332759261131, -0.03230920061469078, 0.012866104952991009, -0.040908198803663254, 0.06157200038433075, -0.0729723647236824, -0.05891438201069832, 0.029699161648750305, 0.025374125689268112, 0.06931893527507782, 0.046339865773916245, 0.012262679636478424, -0.0046164486557245255, 0.01116659864783287, 0.0037757516838610172, 0.020766234025359154, 0.041633475571870804, -0.006740292999893427, 0.00738911097869277, -0.008058353327214718, 0.0009400243288837373, -0.013881083577871323, -0.008182081393897533, 0.010675225406885147, -0.0038146625738590956, -0.031007807701826096, -0.05452690273523331, -0.01991066336631775, 0.0363958515226841, 0.05988020449876785, 0.017451705411076546, -0.005092119798064232, -0.0015682133380323648, -0.027417855337262154, -0.03706976771354675, -0.023922482505440712, 0.022482972592115402, -0.0071430932730436325, 0.02221362479031086, -0.0011614435352385044, -0.004988620523363352, 0.059771738946437836, 0.026116978377103806, 0.018991967663168907, -0.012951040640473366, 0.004173534456640482, 0.012498179450631142, -0.05153721198439598, -0.02103700488805771, 0.0061242044903337955, 0.0066538164392113686, -0.01165869552642107, 0.015385255217552185, -0.03659391403198242, -0.03356290981173515, 0.0014208219945430756, -0.007430613972246647, 0.04992745444178581, 0.01312843058258295, 0.016596637666225433, 0.00254166591912508, 0.008484380319714546, 0.0014141068095341325, 0.008074096404016018, -0.006049506366252899, 0.005164952017366886, -7.988899596966803e-06, 0.0007300275610759854, -0.0018431401113048196, -0.06443384289741516, -0.08858165144920349, -0.017917903140187263, -0.008015668950974941, -0.01110560167580843, -0.06700357049703598, -0.073616161942482, -0.1167183518409729, -0.10169866681098938, 0.0005501279956661165, 0.054024577140808105, 0.04619228094816208, -0.0839407667517662, -0.047893211245536804, -0.024062324315309525, 0.019709568470716476, -0.005119016394019127, -0.002315425779670477, -0.02184700407087803, 0.010965644381940365, 0.02600926160812378, 0.014780320227146149, 0.10528474301099777, 0.06894244253635406, 0.07414329797029495, -0.004700572229921818, 0.06420690566301346, 0.061165209859609604, 0.03559882566332817, -0.021370047703385353, -0.059882257133722305, -0.016450541093945503, 0.012002550065517426, 0.03814255818724632, 0.0004064671229571104, -0.03078453056514263, -0.07282058894634247, -0.060049451887607574, -0.015221639536321163, -0.01727238856256008, 0.01053540501743555, 0.0007844931096769869, -0.006156586110591888, 0.02198113314807415, 0.017531756311655045, 0.06358178704977036, 0.009367444552481174, -0.03563797473907471, -0.0034372175578027964, 0.016034595668315887, 0.01387491449713707, 0.001246997737325728, -0.015920326113700867, -0.021292628720402718, -0.027404125779867172, 0.020669326186180115, -0.015991808846592903, 0.025168752297759056, 0.09463447332382202, -0.010496567003428936, 0.0014008991420269012, 0.016744989901781082, 0.027464987710118294, -0.027520788833498955, 0.044289059937000275, 0.03195594251155853, -0.018799109384417534, 0.024578336626291275, -0.01990952342748642, -0.04390840232372284, -0.11694517731666565, -0.11101964116096497, -0.03506264090538025, 0.048945024609565735, 0.04641414061188698, 0.019851326942443848, -0.003101516980677843, -0.05867261067032814, -0.0760437548160553, 0.02625889517366886, -0.01696818508207798, 0.009174575097858906, -0.0018783167470246553, 0.024615122005343437, 0.022510146722197533, 0.07195401936769485, 0.018516266718506813, 0.020820295438170433, 0.013664976693689823, 0.009296166710555553, -0.009335808455944061, 0.08596368134021759, -0.008820788003504276, 0.0605771504342556, 0.04590003192424774, -0.005410137120634317, -0.02158929966390133, -0.023646874353289604, 0.004144188482314348, -0.002135244896635413, -0.005023375153541565, 0.006282113958150148, -0.02898852527141571, -0.01761244609951973, -0.0008046038565225899, -0.025409307330846786, 0.016159264370799065, 0.027543559670448303, 0.013618001714348793, 0.011581185273826122, 0.00527144456282258, 0.003951674792915583, -0.02179878018796444, 0.0028610259760171175, 0.011746296659111977, -0.01778937317430973, -0.005226991139352322, 0.020114855840802193, -0.005817110650241375, -0.06743452697992325, -0.03505086898803711, -0.06278209388256073, -0.02213316038250923, -0.005056330468505621, 0.0031617393251508474, 0.05663886293768883, -0.04206976294517517, 0.01664678007364273, 0.0005622446769848466, 0.010247902013361454, -0.015828629955649376, -0.026933271437883377, 0.018274862319231033, 0.008928434923291206, -0.0007398411980830133, 0.03553307428956032, 0.013513213023543358, -0.002748098224401474, -0.0011132073123008013, -0.015570356510579586, 0.017077844589948654, 0.03392840549349785, -0.011477764695882797, 0.014534467831254005, -0.023563044145703316, -0.07113797217607498, -0.0469958558678627, 0.023745592683553696, 0.010068845935165882, -0.001439291168935597, -0.02585972100496292, 0.06919383257627487, -0.04101506993174553, -0.07025917619466782, -0.025501441210508347, -0.0033071269281208515, 0.024318912997841835, 0.042834408581256866, -0.03240915760397911, -0.0607568584382534, -0.007201738655567169, -0.0863800048828125, -0.017090726643800735, 0.05071153864264488, -0.013072889298200607, -0.07113421708345413, 0.018764957785606384, 0.12894609570503235, 0.03491971269249916, -0.031572721898555756, -0.025720110163092613, -0.013329176232218742, -0.004087195731699467, 0.035696566104888916, 0.049550484865903854, 0.05459124222397804, -0.05184168368577957, -0.067813940346241, -0.010010821744799614, -0.02990947663784027, 0.15448705852031708, 0.05075376108288765, -0.04577973112463951, -0.04679939150810242, 0.04116575047373772, 0.05968639254570007, 0.08358003199100494, 0.11173294484615326, -0.01173546351492405, -0.020412147045135498, 0.01730484887957573, 0.01109808124601841, 0.03570941090583801, 0.02024165354669094, -0.044443387538194656, -0.04571181535720825, 0.010646793060004711, 0.016910074278712273, 0.048074159771203995, 0.008859874680638313, -0.0030551317613571882, -0.018120652064681053, -0.0565464161336422, -0.041505347937345505, 0.026802612468600273, 0.009168753400444984, -0.0026440508663654327, -0.01909620873630047, -0.03948628902435303, -0.0487702339887619, -0.04291216656565666, -0.04808177053928375, 0.003592216642573476, 0.014496772550046444, 0.005868013482540846, 0.09672131389379501, 0.14537888765335083, 0.07163257151842117, 0.004898496903479099, -0.004880951717495918, 0.004915477242320776, 0.0032318492885679007, 0.08187162131071091, 0.025448741391301155, 0.025311119854450226, -0.027120832353830338, -0.019668737426400185, -0.014947822317481041, -0.010992593131959438, 0.027579883113503456, -0.009999181143939495, -0.028683124110102654, -0.042551226913928986, -0.0042029633186757565, 0.04625225067138672, 0.008015379309654236, 0.016782280057668686, 0.03400067239999771, -0.00590203981846571, -0.033178504556417465, -0.024611370638012886, 0.009572602808475494, 0.003497287631034851, -0.02204565331339836, -0.00827784277498722, -0.01364835910499096, 0.004211599938571453, -0.002193217631429434, -0.028927527368068695, -0.011295919306576252, 0.05564649775624275, -0.08927041292190552, -0.0443619005382061, 0.004144457168877125, 0.05263274535536766, -0.00045821390813216567, 0.04124049097299576, 0.017824335023760796, 0.08369316905736923, 0.008846661075949669, -0.051107894629240036, -0.027196023613214493, -0.011780302971601486, -0.006897445302456617, 0.12798498570919037, 0.007693108171224594, -0.09702589362859726, 0.07555032521486282, 0.016831638291478157, 0.0017213966930285096, -0.015077799558639526, -0.00803358107805252, 0.04601582884788513, -0.03635226562619209, -0.008150950074195862, -0.01578003168106079, 0.028461912646889687, 0.056364506483078, 0.046950262039899826, -0.027801577001810074, -0.06000679358839989, -0.09538168460130692, 0.036724552512168884, 0.01870984211564064, 0.04173322021961212, 0.04481052607297897, 0.053980544209480286, -0.011211981996893883, -0.049481187015771866, 0.013767299242317677, -0.007622665259987116, 0.020293183624744415, -0.026116851717233658, -0.06606251746416092, -0.021256286650896072, -0.010303308255970478, 0.01712445169687271, -0.002746838377788663, -0.015116582624614239, -0.025956982746720314, 0.04442787170410156, -0.025681154802441597, -0.0006688680150546134, -0.020970143377780914, 0.013350763358175755, 0.001092743594199419, 0.05629786103963852, -0.025106165558099747, -0.0895959883928299, -0.006006816402077675, -0.06951697170734406, -0.020244482904672623, 0.007925868034362793, 0.035317808389663696, -0.05425363406538963, 0.020187225192785263, 0.09051506221294403, -0.06582722812891006, -0.010325659066438675, 0.011827705428004265, -0.007928148843348026, 0.020394189283251762, -0.020707160234451294, -0.025216981768608093, 0.013615617528557777, 0.0004847519739996642, 0.03707993030548096, -0.015862951055169106, -0.021217629313468933, -0.01882767491042614, -0.07583321630954742, -0.020760664716362953, 0.0065765343606472015, -0.009219188243150711, 0.008083680644631386, 0.00784941203892231, 0.01343125756829977, -0.023229854181408882, -0.015209181234240532, 0.013893812894821167, 0.013675978407263756, 0.012209831736981869, -0.0016694674268364906, -0.02781149372458458, -0.028156299144029617, -0.016969652846455574, 0.0033439083490520716, -0.005471778102219105, -0.017448699101805687, -0.024696869775652885, -0.019052332267165184, -0.0020489906892180443, 0.0063573457300662994, 0.02063637040555477, 0.005549433641135693, 0.03510985150933266, 0.021440209820866585, 0.04003606736660004, 0.01509768981486559, -0.004547621589154005, -0.010588131844997406, -0.02756279706954956, 0.08235717564821243, 0.11725571006536484, -0.01930592954158783, 0.02950522117316723, 0.07084611058235168, 0.0254199355840683, -0.005796526558697224, 0.019874121993780136, -0.054304301738739014, 0.04253759980201721, -0.016787657514214516, -0.0502912811934948, -0.011975061148405075, 0.009324460290372372, 0.044534485787153244, 0.01079676765948534, -0.03137804567813873, -0.04839753359556198, -0.06273692846298218, 0.028759287670254707, -0.0025432424154132605, 0.0013890815898776054, -0.02137553133070469, 0.01742188073694706, -0.0146703589707613, 0.0036841868422925472, 0.010029166005551815, 0.004343404900282621, -0.009025554172694683, -0.014255315065383911, 0.01725129969418049, 0.0006982141640037298, -0.025462746620178223, -0.004460479598492384, -0.00878431648015976, -0.01891757920384407, -0.04331444948911667, -0.048765502870082855, -0.009362814947962761, 0.012370774522423744, -0.016033248975872993, -0.030088160187005997, 0.0051082042045891285, -0.04274481534957886, -0.014448689296841621, -0.009189342148602009, 0.03711067885160446, -0.0022095488384366035, -0.004078637808561325, 0.10462982952594757, 0.11014475673437119, 0.06531687825918198, -0.017754212021827698, -0.021479759365320206, 0.04842766746878624, 0.015536637976765633, 0.05382409319281578, 0.017526039853692055, 0.004132553469389677, 0.02338569425046444, 0.019473887979984283, -0.03415801376104355, 0.015438050962984562, 0.05907678231596947, -0.05165485665202141, -0.0821751058101654, -0.016805589199066162, 0.04450484737753868, -0.02739216387271881, 0.0019915250595659018, 0.0024844957515597343, -0.03025287762284279, -0.03231165185570717, 0.02847866714000702, -0.017371151596307755, 0.04022430256009102, 0.017721913754940033, 0.019908059388399124, -0.005427978932857513, -0.015696782618761063, -0.01798718050122261, 0.04054437205195427, 0.005565717816352844, 0.012285053730010986, 0.012419764883816242, 0.028601499274373055, -0.06145123019814491, 0.01564512588083744, -0.01841557025909424, 0.038344647735357285, 0.012561705894768238, 0.017122969031333923, 0.0644700676202774, 0.007966066710650921, -0.04073033481836319, -0.010565613396465778, -0.03619351238012314, -0.04028483107686043, 0.009236880578100681, -0.08040441572666168, -0.029224159196019173, 0.06977234035730362, 0.0895126610994339, 0.03459567576646805, -0.0014261719770729542, 0.015934642404317856, -0.01626642234623432, 0.006675477139651775, -0.01962643302977085, -0.00584408501163125, -0.05373532325029373, 0.04240459203720093, 0.03458161652088165, -0.01681298390030861, -0.02221641130745411, -0.014457999728620052, -0.011117317713797092, -4.622741926141316e-06, 0.02519937977194786, -0.005169965326786041, 0.010896239429712296, 0.055715952068567276, -0.003479075152426958, -0.005446848925203085, -0.017462002113461494, 0.11916891485452652, 0.09625116735696793, 0.073086217045784, -0.06450700759887695, -0.03502725064754486, -0.02628929913043976, 0.012398621998727322, 0.03250866383314133, -0.02651802822947502, -0.01647980697453022, -0.09112269431352615, -0.025967920199036598, -0.008928482420742512, -0.008864440955221653, 0.07382512837648392, -0.024598510935902596, 0.013082298450171947, -0.0197128988802433, 0.07671865075826645, -0.004894564859569073, 0.023615114390850067, -0.09518728405237198, -0.14182113111019135, -0.0960075855255127, -0.04029745236039162, 0.19520975649356842, 0.10592953115701675, 0.08492164313793182, -0.04850393906235695, -0.04884500056505203, -0.05778414011001587, 0.023760119453072548, -0.031052375212311745, -0.14708878099918365, -0.024280140176415443, 0.003633580869063735, -0.004542895592749119, 0.034773509949445724, 0.012382430955767632, -0.06776326894760132, 0.019615983590483665, 0.05435243993997574, 0.06143656745553017, 0.05224829167127609, 0.0790933147072792, 0.03806304186582565, 0.023401904851198196, 0.10019814968109131, 0.08161331713199615, 0.011135426349937916, -0.01835501380264759, -0.07776600867509842, -0.0021261414512991905, -0.04782458022236824, -0.03817528858780861, -0.008644329383969307, -0.012744123116135597, -0.0037559843622148037, -0.027056604623794556, -0.02451791986823082, 0.026092136278748512, 0.037396904081106186, -0.0014312495477497578, -0.007026611361652613, 0.00850758422166109, 0.058375537395477295, -0.048370566219091415, 0.013357553631067276, 0.09035024046897888, 0.002560575492680073, 0.013339091092348099, 0.022207370027899742, 0.02118605561554432, -0.05771593376994133, -0.0051871407777071, -0.015134717337787151, -0.031669653952121735, -0.0519355908036232, -0.030130362138152122, 0.039341039955616, 0.05521377921104431, 0.038963668048381805, 0.002657081466168165, 0.028697632253170013, -0.03761730343103409, 0.01317441277205944, 0.05626269429922104, 0.025852873921394348, 0.02329881489276886, 0.03641647845506668, -0.006395128555595875, 0.004510276485234499, -0.03638801351189613, -0.012018993496894836, 0.06608982384204865, 0.07986799627542496, -0.07298129796981812, 0.010763193480670452, -0.01757133938372135, -0.015970734879374504, -0.1153319701552391, -0.11244921386241913, 0.007960292510688305, 0.00415977044031024, -0.02273140847682953, -0.01421043649315834, 0.0060082534328103065, 0.021039871498942375, 0.03829502686858177, 0.05943922698497772, 0.05901147052645683, -0.019621150568127632, -0.00952304620295763, 0.015211476013064384, 0.12519769370555878, 0.0351945161819458, 0.004366141278296709, 0.038356319069862366, 0.011302432045340538, -0.03869776800274849, -0.035125989466905594, -0.00811067596077919, -0.11295662075281143, 0.03154163807630539, 0.046786077320575714, -0.07993526011705399, -0.013064786791801453, 0.019136549904942513, -0.011824887245893478, 0.061536286026239395, 0.011628632433712482, -0.011046390980482101, 0.01975664496421814, 0.026317978277802467, -0.0529363639652729, 0.047108475118875504, 0.08130668103694916, 0.001414573984220624, -0.0066396212205290794, -0.025688372552394867, 0.052781231701374054, 0.01316879689693451, 0.022346166893839836, 0.039579782634973526, -0.02300245128571987, -0.014049120247364044, 0.040261488407850266, -0.010610882192850113, 0.01276902575045824, -0.009784119203686714, 0.009306011721491814, 0.005765161942690611, -0.015427052974700928, -0.01053353026509285, -0.006322711706161499, -0.006838025990873575, -0.024875937029719353, 0.0015228604897856712, 0.015334691852331161, 0.014523200690746307, -0.015590961091220379, -0.021918173879384995, -0.01901322416961193, -0.020009920001029968, 0.05840884894132614, 0.0343155711889267, 0.02328198216855526, -0.02342328056693077, 0.061051614582538605, 0.03764849528670311, 0.06536367535591125, -0.04954751580953598, -0.047005221247673035, -0.04567822068929672, 0.0012689746217802167, 0.059985969215631485, 0.026320867240428925, 0.007295098155736923, 0.0002532128419261426, -0.04875562712550163, 0.051684387028217316, 0.011260568164288998, -0.033321257680654526, -0.01611444540321827, 0.023848818615078926, 0.009181756526231766, 0.03250326216220856, 0.057431504130363464, 0.014109927229583263, -0.013003484345972538, 0.03367237374186516, 0.018767433241009712, 0.03014063648879528, 0.049429114907979965, 0.0017693464178591967, 0.0017757272580638528, -0.00418983306735754, -0.10476204007863998, -0.023595962673425674, -0.032277196645736694, -0.016941824927926064, -0.0076047987677156925, -0.019985968247056007, -0.056488461792469025, -0.06249547004699707, -0.01732282154262066, 0.020506514236330986, 0.05520603060722351, 0.03630334511399269, -0.004822249989956617, -0.04258109629154205, 0.051766715943813324, 0.05660795420408249, -0.016651427373290062, 0.09005960077047348, 0.06382658332586288, 0.0010887554381042719, 0.009694050066173077, -0.010408187285065651, 0.008783050812780857, -0.08208293467760086, -0.03180178254842758, -0.08333974331617355, -0.014122238382697105, 0.019177723675966263, -0.014215188100934029, -0.019550004974007607, -0.05139831826090813, 0.001999966334551573, -0.0005918199312873185, 0.007112860679626465, 0.0022505486849695444, -0.028797606006264687, -0.00748091097921133, 0.007339766249060631, 0.06576017290353775, 0.046382807195186615, -0.02337183803319931, -0.0049094646237790585, -0.02227029763162136, 0.02538497932255268, 0.013711996376514435, 0.0036638944875448942, -0.00698449369519949, -0.007306928746402264, -0.0022605385165661573, -0.08092348277568817, -0.09968964010477066, -0.06911587715148926, 0.011841626837849617, -0.03634461760520935, -0.003278549760580063, -0.05233776569366455, -0.15316583216190338, -0.04263720661401749, 0.02653447724878788, 0.014753629453480244, 0.06296505779027939, -0.04671343043446541, -0.04988691583275795, 0.0006099641905166209, -0.01461507473140955, -0.0679418072104454, -0.03292448818683624, 0.04944620281457901, -0.003987907897680998, -0.013416873291134834, 0.014284737408161163, -0.08089835941791534, -0.006810163613408804, -0.09471847116947174, -0.004612921271473169, 0.03989525884389877, 0.042345188558101654, -0.05261263623833656, 0.0013425600482150912, -0.03390633314847946, 0.04158010706305504, -0.0834730789065361, 0.03975427523255348, 0.010759836062788963, -0.0011530561605468392, -0.028363529592752457, 0.002191219013184309, 0.07580727338790894, 0.05218367278575897, 0.12501360476016998, 0.049629561603069305, 0.09244287759065628, -0.054790664464235306, 0.08220987021923065, 0.06140485033392906, -0.05506758391857147, -0.009945462457835674, 0.008801623247563839, -0.005370995495468378, -0.011178343556821346, 0.018907960504293442, -0.013659232296049595, 0.0038458360359072685, -0.021118612959980965, -0.01954246498644352, -0.06890503317117691, -0.04474753886461258, -0.06530703604221344, -0.004681110382080078, 0.025668295100331306, 0.07887931913137436, -0.06829869747161865, 0.009325926192104816, 0.012547649443149567, -0.032063815742731094, 0.017874831333756447, 0.01835028827190399, 0.006849796045571566, -0.036423951387405396, 0.08043012022972107, 0.08171498775482178, 0.01717788726091385, -0.043699003756046295, -0.04120063781738281, -0.03768768534064293, 0.011097343638539314, 0.103621706366539, 0.11942566186189651, 0.06682004034519196, -0.017505651339888573, -0.03877124935388565, -0.05325830727815628, 0.013960517011582851, 0.06849079579114914, -0.026111163198947906, -0.04592286795377731, -0.0524551086127758, -0.050106097012758255, 0.014103182591497898, -0.026171013712882996, 0.020894885063171387, 0.02166789397597313, -0.013479523360729218, -0.019998086616396904, -0.03516305610537529, 0.013240049593150616, -0.008330895565450191, -0.026357831433415413, 0.017113665118813515, 0.08057572692632675, -0.06817559152841568, -0.07863543182611465, -0.02981671504676342, -0.01832929439842701, -0.11128232628107071, -0.04596390202641487, -0.09201987087726593, -0.02169922925531864, 0.025011232122778893, -0.013784523122012615, 0.057988062500953674, -0.07515306025743484, -0.05008988454937935, -0.06072167679667473, 0.029277633875608444, -0.020568953827023506, 0.027867348864674568, 0.07134068012237549, 0.1141507476568222, 0.14549855887889862, 0.08485748618841171, -0.08442139625549316, 0.007348043378442526, 0.10051365941762924, 0.019823705777525902, -0.021853772923350334, 0.02382456511259079, -0.002201732713729143, -0.09887242317199707, -0.06801316142082214, -0.05257927626371384, 0.056640349328517914, 0.06631219387054443, -0.026158582419157028, -0.10489322990179062, 0.004184544552117586, 0.03625413402915001, 0.06429262459278107, 0.0013823604676872492, 0.01652102917432785, 0.10415336489677429, -0.010893450118601322, 0.05026324838399887, 0.029568886384367943, 0.07806435227394104, -0.00984412245452404, -0.024420542642474174, -0.039218515157699585, -0.032435279339551926, 0.011124097742140293, 0.015104093588888645, -0.002739794785156846, 0.0369802862405777, 0.005165375769138336, -0.04308575764298439, -0.039688438177108765, -0.010945307090878487, 0.023813750594854355, 0.0328051820397377, -0.04200344160199165, -0.05517956614494324, -0.021180197596549988, 0.0022357716225087643, -0.03414396569132805, 0.04591982066631317, 0.020270422101020813, -0.023277591913938522, 0.016590794548392296, 0.06469600647687912, 0.018176058307290077, 0.06829001009464264, 0.036006126552820206, 0.025680769234895706, -0.037037257105112076, -0.011918487027287483, -0.004747312515974045, -0.02126505598425865, -0.045625582337379456, -0.07197459787130356, -0.04351136460900307, -0.015150245279073715, 0.047948677092790604, 0.0344831645488739, 0.0018469290807843208, -0.029452458024024963, 0.008193181827664375, -0.004442939069122076, 0.009427175857126713, 0.028347162529826164, 0.017851408571004868, 0.039879828691482544, 0.02225961536169052, -0.07621654123067856, -0.004707897547632456, -0.0023483114782720804, -0.00909320916980505, -0.033769041299819946, -0.026504088193178177, -0.020811500027775764, 0.01055137813091278, 0.0023329593241214752, 0.009492832235991955, -0.01136607676744461, -0.010400768369436264, 0.011965334415435791, 0.004877991043031216, -0.0010470118140801787, 0.01491402555257082, -0.0017841707449406385, 0.005773040931671858, -0.028228629380464554, -0.02165020816028118, -0.03349896892905235, 0.007208813913166523, 0.00021148312953300774, 0.01903238706290722, 0.01592969335615635, 0.04399896785616875, 0.01841604895889759, 0.013605844229459763, -0.012845832854509354, -0.006041777320206165, 0.006439915858209133, 6.744023994542658e-05, 0.06695304811000824, 0.04314618930220604, -0.02262873388826847, -0.026201440021395683, -0.00042419388773851097, 0.020455673336982727, 0.011776942759752274, 0.0014165288303047419, -0.03927396610379219, -0.013710454106330872, 0.017871707677841187, 0.032052528113126755, -0.001640709349885583, 0.0415232852101326, 0.05906641483306885, -0.00998654030263424, -0.014948047697544098, 0.004142226185649633, 0.007790423929691315, 0.0027238873299211264, -0.015765538439154625, -0.027113912627100945, -0.014730160124599934, 0.0005480268155224621, -0.007910560816526413, 0.0011776606552302837, -0.021902207285165787, -0.021516436710953712, -0.060188084840774536, -0.007098986301571131, 0.05135759711265564, -0.0030410178005695343, -0.004126906860619783, 0.006885583978146315, 0.04384433850646019, 0.008670274168252945, 0.031345952302217484, 0.018173905089497566, -0.014093867503106594, 0.0006036906852386892, 0.03371588513255119, 0.00910441018640995, 0.04086429998278618, -0.07599839568138123, 0.015815135091543198, 0.04452509805560112, 0.005714102182537317, -0.06729471683502197, 0.008350870572030544, -0.009541581384837627, 0.04386081174015999, 0.055689822882413864, -0.06855654716491699, 0.003614990971982479, -0.022518081590533257, -0.0004728102358058095, 0.027454674243927002, -0.034750670194625854, -0.024207498878240585, -0.05565568059682846, 0.004486433696001768, 0.00939845945686102, -0.005909368395805359, 0.007026287727057934, 0.035079460591077805, 0.03674988076090813, -0.027825213968753815, -0.0178168136626482, -0.01776714436709881, 0.00896785780787468, -0.0349874347448349, -0.020053796470165253, 0.01861049234867096, -0.007171251345425844, 0.000862719607539475, -0.011107133701443672, -0.014955566264688969, -0.057708386331796646, -0.02213294804096222, -0.008719909004867077, 0.017100824043154716, 0.019000070169568062, -0.01243529375642538, 0.05238427221775055, 0.02170570380985737, -0.017689358443021774, -0.011055156588554382, -0.019581815227866173, -0.0007626100559718907, 0.0034961169585585594, -0.02896588109433651, -0.0032305754721164703, -0.04587499052286148, -0.006581601221114397, 0.055627282708883286, 0.018392253667116165, -0.03329910710453987, 0.009904937818646431, -0.06827445328235626, 0.014586567878723145, -0.024718929082155228, -0.01976742595434189, 0.025108693167567253, 0.009393068961799145, 0.029540615156292915, 0.006785232573747635, 0.016896791756153107, 0.024785349145531654, -0.049401842057704926, 0.007205728441476822, -0.019444072619080544, -0.0006058519356884062, -0.04906293749809265, 0.0876002237200737, -0.033586736768484116, -0.023458091542124748, 0.005369378719478846, -0.01213306374847889, -0.02076433040201664, -0.08605942130088806, -0.017520448192954063, -0.028606971725821495, 0.01766590215265751, 0.010337872430682182, -0.009492135606706142, -0.033038366585969925, -0.025443628430366516, 0.00042631939868442714, 0.036314450204372406, 0.007285759784281254, 0.01938415691256523, -0.013412943109869957, 0.004246346652507782, 0.03123296983540058, -0.03902072086930275, -0.015290467068552971, 0.010498197749257088, 0.03203975409269333, 0.016119753941893578, 0.01814877986907959, -0.09995663911104202, -0.17168551683425903, -0.029130179435014725, -0.047931160777807236, -0.007908832281827927, -0.01255432702600956, 0.004060192033648491, 0.028495660051703453, -0.030687544494867325, -0.08335889130830765, -0.0688735842704773, 0.0076459557749331, -0.002194313332438469, 0.03105989284813404, 0.06194270774722099, -0.0029405620880424976, -0.00370059278793633, 0.0060086860321462154, -0.005676632281392813, 0.027963818982243538, -0.039690759032964706, 0.01761789433658123, 0.01567341759800911, -0.023586051538586617, -0.026082433760166168, 0.002972550690174103, -0.012278025038540363, -0.10991916060447693, -0.08360585570335388, 0.020367823541164398, 0.007257398217916489, -0.005718947853893042, -0.08686936646699905, -0.02685609832406044, -0.07252853363752365, -0.13799560070037842, -0.009340284392237663, 0.020887717604637146, -0.0046744560822844505, 0.0670665055513382, -0.06888851523399353, 0.017653651535511017, 0.0534423403441906, -0.0011791113065555692, 0.018002312630414963, -0.048964954912662506, 0.008131425827741623, 0.05375295504927635, 0.06813577562570572, 0.16522954404354095, 0.09862778335809708, -0.02868890017271042, -0.05138937756419182, 0.013362055644392967, 0.09312345087528229, 0.025943582877516747, 0.00795534998178482, -0.022051280364394188, -0.012276587076485157, 0.04189951717853546, -0.008323182351887226, -0.1442074477672577, 0.019556405022740364, -0.0936250388622284, -0.08443964272737503, 0.013606574386358261, 0.12265105545520782, -0.05303451046347618, 0.09558489173650742, 0.04713129252195358, -0.038908060640096664, -0.05131516978144646, 0.013044715858995914, 0.023936668410897255, 0.08273409307003021], "bias": -0.01957511156797409}