{"layer": "fc1", "index": 97, "weights": [-0.0045197936706244946, 0.042662423104047775, 0.04976411163806915, -0.06740957498550415, -0.03412546589970589, -0.08569853007793427, 0.01899837702512741, 0.07556679844856262, 0.07193216681480408, 0.009798485785722733, 0.0803845152258873, -0.06290870159864426, -0.0491473451256752, 0.022174617275595665, 0.00368653517216444, -0.026670096442103386, -0.03546043857932091, 0.07180384546518326, 0.027958650141954422, 0.007057011127471924, 0.07974500954151154, -0.025438247248530388, -0.07908274978399277, 0.010361534543335438, 0.03503116965293884, -0.052204594016075134, 0.06045612692832947, 0.059620410203933716, -0.01202948298305273, 0.01931615360081196, 0.11671976000070572, -0.027358604595065117, -0.017595263198018074, -0.029367640614509583, -0.0078273368999362, 0.018101515248417854, 0.026398399844765663, -0.05929769203066826, -0.023859906941652298, 0.006843021605163813, -0.03453472629189491, 0.03063341975212097, 0.01488523930311203, 0.0019860195461660624, -0.029458066448569298, -0.025883251801133156, -0.006988786160945892, -0.018804723396897316, 0.007167877163738012, 0.017311953008174896, -0.0002699740289244801, 0.025326408445835114, -0.005761698819696903, 0.02004074677824974, -0.009123804979026318, 0.0001851709675975144, 0.005485267378389835, -0.020656093955039978, 0.07503431290388107, -0.006819647271186113, 0.005505599547177553, 0.0023807662073522806, -0.008955582045018673, 0.015716206282377243, -0.015736818313598633, 0.005340880714356899, 0.04178947955369949, -0.03729427978396416, -0.011428472585976124, -0.019953077659010887, -0.005444405600428581, -0.048194751143455505, 0.009847333654761314, 0.044833648949861526, 0.005614160094410181, -0.025241883471608162, 0.006912875920534134, 0.014235632494091988, 0.0008233889238908887, 0.03344494104385376, 0.004776450339704752, -0.033343274146318436, -0.02402285486459732, 0.012302983552217484, 0.007220214232802391, 0.0012173897121101618, 0.006946571171283722, -0.019035527482628822, -0.01861931011080742, 0.006249693222343922, 0.006313723511993885, 0.007695947308093309, 0.007134868763387203, -0.006469291169196367, -0.009382572956383228, -0.011593620292842388, -0.010920637287199497, -0.002563898218795657, -0.013785498216748238, 0.02768534980714321, 0.06064416095614433, 0.006401727441698313, -0.015428882092237473, -0.04663845896720886, -0.02016688883304596, -0.004264544695615768, -0.04426512122154236, -0.033515509217977524, -0.007379038259387016, -0.1410859376192093, -0.064079150557518, -0.0831913948059082, 0.007754639722406864, 0.026397520676255226, -0.02294722944498062, 0.026394078508019447, 0.06707729399204254, 0.14550288021564484, 0.056173618882894516, 0.0387236550450325, 0.05544501915574074, 0.0726374015212059, 0.05395611748099327, 0.17605121433734894, 0.05944754183292389, 0.0951424315571785, 0.006153238005936146, -0.03492158651351929, -0.049375321716070175, -0.06784514337778091, 0.024570750072598457, 0.0331864170730114, -0.013427969068288803, -0.022086411714553833, -0.06255195289850235, 0.0280117429792881, 0.14106500148773193, 0.009185519069433212, 0.093357615172863, -0.00666729686781764, -0.022793425247073174, -0.0030958284623920918, 0.01751142553985119, -0.07741253077983856, 0.026745770126581192, 0.023547569289803505, -0.020288456231355667, -0.015827331691980362, 0.09322759509086609, -0.020075662061572075, 0.06542138010263443, -0.024376939982175827, -0.00938677042722702, 0.004846105817705393, 0.006813055370002985, -0.04043184220790863, 0.06119244545698166, -0.0758383572101593, 0.013088086619973183, -0.04181715473532677, -0.022036252543330193, -0.006879787426441908, 0.08337683230638504, 0.0007739014690741897, 0.09189525246620178, 0.04604422673583031, -0.0574050210416317, -0.03171277418732643, 0.012808909639716148, 0.07620745152235031, 0.05168474093079567, 0.02379484660923481, -0.03395313769578934, -0.08361907303333282, -0.0033978207502514124, -0.05078162997961044, -0.1102319061756134, -0.05716446042060852, -0.005665241740643978, -0.0009974257554858923, 0.048574261367321014, 0.025346141308546066, 0.04706009849905968, -0.013640830293297768, 0.00043884137994609773, -0.036531928926706314, -0.030102567747235298, -0.038108646869659424, -0.010151381604373455, -0.05370580032467842, -0.035827551037073135, 0.0028513669967651367, -0.16840681433677673, -0.0933772623538971, 0.005091147962957621, -0.04445032402873039, -0.004980356898158789, -0.018824322149157524, 0.008371317759156227, -0.01129632256925106, -0.001250270172022283, 0.009306429885327816, -0.010337122716009617, 0.02618352510035038, -0.04928833991289139, 0.017903733998537064, -0.032032184302806854, -0.0026539843529462814, -0.0135014234110713, -0.005171847529709339, 0.02964715100824833, -0.0014217165298759937, 0.005648099351674318, 0.02324450947344303, -0.043720271438360214, -0.03246896341443062, -0.029626954346895218, -0.01858336664736271, -0.05638095736503601, -0.014807834289968014, -0.0184362530708313, -0.020823104307055473, 0.015991000458598137, 0.02496342733502388, -0.0037203768733888865, -0.013353558257222176, 0.050779715180397034, 0.0512818917632103, 0.03589005768299103, 0.06583880633115768, 0.007711976300925016, 0.026671813800930977, 0.008540240116417408, 0.0643952265381813, 0.041926924139261246, -0.005273723043501377, -0.0026206534821540117, 0.023162320256233215, -0.0019590912852436304, -0.01329202763736248, -0.013601800426840782, -0.011168600991368294, -0.034865934401750565, -0.02503061480820179, -0.014054451137781143, -0.054012659937143326, -0.07499776780605316, 0.01792214997112751, 0.07855150103569031, -0.00934272538870573, -0.04228353500366211, 0.0060179210267961025, -0.022803427651524544, 0.026115668937563896, 0.007067957427352667, 0.02908272109925747, -0.04395834356546402, -0.06606214493513107, -0.032269082963466644, -0.040807440876960754, -0.002200671937316656, 0.026552194729447365, 0.018031064420938492, 0.06998030841350555, 0.10785912722349167, 0.04883408173918724, -0.015694906935095787, -0.021737821400165558, 0.049838464707136154, -0.04941067099571228, 0.03688421472907066, 0.032969437539577484, -0.012832984328269958, -0.021288711577653885, -0.10878382623195648, -0.07865113765001297, -0.04973193258047104, -0.019552916288375854, -0.03069976158440113, -0.0023258659057319164, -0.03989492356777191, 0.025175224989652634, 0.05699988082051277, -0.0928126722574234, -0.024960683658719063, -0.01645023562014103, -0.006035035476088524, -0.01570761948823929, 0.045707494020462036, -0.018953487277030945, -0.14907169342041016, 0.03960910439491272, -0.051158878952264786, -0.019239457324147224, -0.013233787380158901, -0.003092617727816105, 0.05827688053250313, 0.03028133325278759, 0.021006466820836067, -0.04956356808543205, -0.002535325475037098, -0.01607949286699295, -0.05215921625494957, 0.008285134099423885, 0.06770986318588257, 0.0812808945775032, -0.028543755412101746, -0.06870675832033157, -0.00025525083765387535, -0.06707871705293655, -0.04795432463288307, 0.10792680084705353, 0.01818607561290264, -0.021343808621168137, -0.003831349778920412, 0.002674354240298271, -0.014492177404463291, -0.049970656633377075, 0.027290785685181618, -0.005056023132055998, 0.06397546082735062, -0.0008053135825321078, -0.03059198148548603, 0.00016876080189831555, -0.06533849239349365, -0.07535232603549957, -0.06537660956382751, -0.0961662083864212, -0.021021965891122818, -0.016303380951285362, 0.01768343709409237, -0.018499914556741714, -0.09140985459089279, -0.06705465912818909, -0.012844770215451717, -0.047671448439359665, 0.024992812424898148, -0.02602153830230236, -0.03313293680548668, -0.08425599336624146, -0.040933672338724136, -0.022013815119862556, -0.0005915833753533661, -0.016387345269322395, 0.008017443120479584, 0.02388754114508629, 0.06944327801465988, 0.03973360359668732, -0.025940656661987305, -0.003663749201223254, 0.00025654322234913707, 0.046157754957675934, 0.03795331344008446, 0.01912892609834671, 0.014066219329833984, -0.0007765215705148876, -0.008800632320344448, -0.024404656141996384, -0.017432801425457, -0.014682049863040447, -0.017336297780275345, 0.008669808506965637, -0.05367400497198105, -0.04165690392255783, -0.03126032277941704, 0.010234496556222439, -0.06231565400958061, -0.05908939987421036, -0.04874546825885773, -0.011777696199715137, 0.005642813630402088, -0.011591865681111813, -0.011890320107340813, -0.0009979632450267673, -0.04190678149461746, -0.03586573526263237, 0.010256309062242508, 0.054912518709897995, 0.0026095735374838114, 0.011480940505862236, 0.03621629253029823, 0.037302788347005844, 0.025539172813296318, -0.028502263128757477, -0.01314826961606741, 0.017318062484264374, -0.02959556132555008, -0.024133719503879547, -0.018403857946395874, -0.034282732754945755, -0.043664298951625824, 0.011064167134463787, 0.004556860309094191, 0.024491162970662117, -0.020230792462825775, 0.0007458082982338965, 0.007665692362934351, -0.022401461377739906, 0.01175016537308693, 0.020938625559210777, -0.007290178909897804, 0.003907723352313042, -0.06850200146436691, -0.03543059527873993, -0.013881539925932884, 0.0031227630097419024, 0.001433646772056818, 0.021521776914596558, -0.04596264660358429, -0.049051880836486816, -0.0545874647796154, -0.010754778981208801, -0.05607929453253746, 0.004942002240568399, -0.033604517579078674, -0.008125259540975094, 0.0038704315666109324, 0.019675815477967262, 0.025792092084884644, 0.038151923567056656, 0.032957665622234344, -0.005147089716047049, 0.018848275765776634, 0.04986007139086723, 0.09303795546293259, -0.001607441110536456, 0.04874382168054581, 0.032034944742918015, 0.0035405862145125866, 0.000650235335342586, 0.03335563838481903, -0.021889839321374893, -0.039514657109975815, -0.03238799422979355, 0.015072469599545002, -0.015288312919437885, -0.01214639376848936, -0.008643747307360172, -0.04040995240211487, 0.011781553737819195, 0.010496139526367188, -0.007542783860117197, -0.020458580926060677, 0.018589725717902184, -0.010571382008492947, 0.005778698716312647, 0.004287028219550848, 0.018592795357108116, -0.004169312305748463, 0.03820590302348137, 0.05856768414378166, -0.009566488675773144, -0.023035520687699318, -0.01842171512544155, -0.013132109306752682, 0.0006935960263945162, -0.013371551409363747, 0.0014695116551592946, 0.00484878895804286, 0.006688718684017658, -0.03542894870042801, -0.0479113794863224, -0.007070798892527819, 0.052218470722436905, -0.04217830300331116, -0.01925501599907875, -0.02629688009619713, -0.018801875412464142, -0.01810567080974579, -0.0021035773679614067, -0.016672413796186447, 0.013737088069319725, -0.11146248877048492, -0.01226186566054821, -0.016769612208008766, 0.023379579186439514, -0.013050991110503674, 0.020849810913205147, 0.05942777916789055, 0.02103474736213684, -0.03884829208254814, 0.005612115375697613, -0.006223057862371206, 0.00560135580599308, -0.00916971918195486, 0.019798321649432182, -0.014084745198488235, -0.008342260494828224, -0.034902423620224, -0.014853035099804401, -0.015378491953015327, 0.024000052362680435, 0.023902934044599533, 0.0011190369259566069, -0.004227825440466404, -0.03257898986339569, -0.0015966417267918587, -0.022165872156620026, -0.03627007082104683, 0.02288338914513588, 0.021084407344460487, -0.008623771369457245, -0.04287439212203026, -0.04043601080775261, 0.02333209291100502, 0.006312446668744087, -0.013588146306574345, -0.05037583038210869, -0.002376821357756853, -0.022954031825065613, -0.03639860451221466, 0.03272486850619316, 0.016085688024759293, 0.015916986390948296, -0.02950986661016941, -0.02434873767197132, 0.012390008196234703, 0.08063841611146927, 0.01878027617931366, -0.030827343463897705, 0.045978572219610214, 0.04870325326919556, 0.013163452968001366, 0.005516774486750364, 0.031245028600096703, 0.019081011414527893, -0.01630997657775879, -0.005696769338101149, -0.02214205265045166, 0.001438454957678914, 0.0009903593454509974, 0.0041778357699513435, 0.0009628792759031057, -0.02548419125378132, -0.06106492504477501, -0.09120296686887741, -0.07608836889266968, -0.008495512418448925, -0.015753310173749924, -0.05091278627514839, -0.009516258724033833, 0.034382034093141556, -0.014263186603784561, -0.08497942984104156, -0.08350422978401184, -0.00445175776258111, 0.008756430819630623, 0.007532859221100807, -0.07651641964912415, -0.02662256360054016, -0.09424606710672379, -0.030731728300452232, -0.004841196350753307, -0.006402978673577309, -0.011706029064953327, 0.06013484299182892, 0.10778849571943283, 0.1372491419315338, -0.03308306634426117, -0.005435212980955839, 0.011453164741396904, 0.044505178928375244, -0.02426152490079403, -0.006182733457535505, 0.022227326408028603, -0.0877184122800827, 0.0037749349139630795, -0.08476577699184418, -0.16226980090141296, -0.17314593493938446, 0.034840453416109085, 0.022561026737093925, 0.05899067223072052, 0.0635177344083786, -0.06079188734292984, 0.09510093927383423, -0.019865093752741814, -0.04410269483923912, 0.03791351616382599, -0.06244621425867081, -0.007780882995575666, -0.01858842745423317, 0.05363752692937851, -0.049289967864751816, -0.10976140201091766, -0.07357221841812134, -0.05062961205840111, -0.0254462081938982, -0.032796356827020645, 0.08992949873209, 0.02231789380311966, 0.036793701350688934, -0.050955627113580704, 0.02349376119673252, 0.00775698758661747, 0.011084876023232937, -0.02186598815023899, 0.11045631021261215, 0.039389535784721375, 0.018193572759628296, -0.007338096387684345, -0.038554754108190536, -0.015882059931755066, 0.038196999579668045, 0.10903461277484894, 0.12713907659053802, 0.06431850790977478, -0.11012190580368042, -0.056338805705308914, 0.015935877338051796, 0.0196380615234375, -0.055665869265794754, -0.05351351574063301, 0.028210820630192757, -0.030807584524154663, 0.028488876298069954, -0.06537847220897675, 0.04299287497997284, -0.07049545645713806, -0.039775073528289795, 0.043342188000679016, 0.06317368149757385, 0.07603524625301361, -0.03868276625871658, 0.035779405385255814, -0.05532792955636978, -0.10134890675544739, -0.03892975300550461, -0.013414423912763596, 0.0059284185990691185, 0.018178999423980713, 0.00987466424703598, -0.10628803819417953, -0.04555021598935127, -0.09682201594114304, -0.07076850533485413, -0.01967732235789299, 0.008871974423527718, 0.02634589932858944, 0.027841150760650635, 0.009816947393119335, 0.01633661612868309, 0.014796552248299122, 0.014663085341453552, 0.011096438392996788, 0.010818134993314743, -9.942016913555562e-05, -0.005278611555695534, -0.021398652344942093, -0.03294138237833977, -0.00034070847323164344, 0.0046355766244232655, -0.006273176055401564, -0.05019150674343109, -0.025984687730669975, -0.017198583111166954, -0.03712679445743561, -0.03015271946787834, -0.026749979704618454, -0.029898231849074364, 0.01223317813128233, -0.004587773233652115, -0.002477604430168867, 0.03564612194895744, 0.024271206930279732, 0.009754033759236336, -0.0026040137745440006, 0.024395225569605827, 0.0009494819096289575, 0.043293293565511703, 0.02566622570157051, 0.005192408803850412, 0.015147888101637363, -0.005844022613018751, 0.03923395276069641, 0.02917747013270855, 0.022378800436854362, 0.018050486221909523, -0.005033387336879969, 0.0008140330901369452, -0.04464338719844818, -0.031908128410577774, -0.012424098327755928, -0.005300079472362995, -0.030663028359413147, -0.01531351637095213, 0.013483967632055283, 0.05043405294418335, -0.013192500919103622, 0.13490667939186096, -0.04076021537184715, -0.04049541428685188, 0.0025393308605998755, -0.0017740520415827632, 0.06012682244181633, 0.04307748004794121, 0.09813142567873001, 0.02828037366271019, 0.006626027636229992, -0.13530634343624115, -0.04991450533270836, 3.230964648537338e-05, 0.007797124329954386, 0.05444052442908287, 0.04233107715845108, -0.05158351734280586, -0.03518594056367874, 0.003264480270445347, -0.0028514054138213396, 0.02310553565621376, -0.054566171020269394, 0.03500876948237419, 0.009942385368049145, 0.04923074692487717, 0.012644067406654358, 0.03403748571872711, 0.11015920341014862, -0.1287507712841034, 0.01619776338338852, -0.04125785455107689, -0.004292261321097612, 0.014333223924040794, 0.07444308698177338, -0.013875140808522701, -0.13134275376796722, -0.1441146433353424, -0.08317555487155914, 0.0074366177432239056, 0.001540433382615447, -0.001883540186099708, -0.0312311053276062, -0.09155285358428955, -0.07334577292203903, -0.04841635376214981, -0.02125968597829342, -0.005423916503787041, 0.02644616737961769, 0.0519862100481987, -0.015190391801297665, -0.016890358179807663, 0.0010398139711469412, -0.021688109263777733, 0.007594787050038576, 0.0681721493601799, 0.05545484647154808, 0.03442324325442314, -0.025907088071107864, -0.1396709382534027, -0.05576915293931961, 0.04711119830608368, 0.04542863368988037, -0.03733832389116287, 0.032651666551828384, -0.07053535431623459, -0.03846871480345726, 0.018852969631552696, -0.06417308002710342, -0.051278118044137955, -0.09136193990707397, 0.07618100941181183, -0.054046615958213806, 0.025162681937217712, 0.1250087469816208, 0.010423737578094006, -0.04096934199333191, 0.05880357697606087, 0.0862727165222168, 0.08732403069734573, 0.040037743747234344, 0.021226730197668076, 0.028016481548547745, -0.04828692600131035, -0.054450780153274536, 0.04466170445084572, -0.01704983226954937, 0.000580121180973947, 0.031016547232866287, 5.978724220767617e-05, 0.008620473556220531, -0.04049164429306984, -0.0502648763358593, -0.04456383362412453, -0.06394665688276291, -0.0005416014464572072, -0.006571702193468809, 0.029072029516100883, 0.03510327637195587, 0.054914578795433044, 0.015417729504406452, 0.009445528499782085, 0.0006835389067418873, -0.01915591210126877, -0.02431517094373703, 0.02575477585196495, 0.0030950563959777355, -0.019763490185141563, -0.05370642989873886, -0.10752759873867035, -0.008238130249083042, 0.006294970866292715, -0.007101822178810835, -0.01112434733659029, 0.0023665702901780605, -0.06827160716056824, -0.049445878714323044, 0.015185277909040451, -0.049239810556173325, -0.03741621598601341, -0.005203886888921261, -0.016328414902091026, 0.029634151607751846, 0.0031415808480232954, -0.017764929682016373, 0.010727014392614365, -0.03245105221867561, 0.05062589421868324, 0.07323393225669861, 0.0548970066010952, 0.07188072800636292, 0.012736436910927296, -0.05274883657693863, -0.04888349771499634, 0.003485295223072171, -0.011586906388401985, 0.02975054457783699, 0.008059382438659668, -0.022036606445908546, -0.036577992141246796, -0.024949517101049423, -0.05500201880931854, -0.03292705863714218, -0.010783424600958824, -0.019634051248431206, -0.013302654959261417, -0.03104611672461033, 0.050919778645038605, 0.03157524764537811, 0.005861114710569382, -0.045794591307640076, -0.0645214393734932, -0.0478094108402729, -0.07549264281988144, -0.025412656366825104, -0.0131963100284338, -0.0550776869058609, -0.11581913381814957, -0.0789746344089508, 0.0544850118458271, 0.027816761285066605, 0.019496183842420578, 0.023086972534656525, 0.0869050845503807, 0.07004252076148987, 0.01701660454273224, 0.01645449735224247, 0.08082856237888336, 0.05919310823082924, 0.11213483661413193, 0.08319524675607681, 0.043708715587854385, 0.03468184918165207, -0.01231935154646635, -0.01736358180642128, -0.02308872900903225, -0.015941496938467026, 0.013638289645314217, 0.006023640278726816, -0.01761254295706749, -0.06479658931493759, -0.07680551707744598, -0.06406587362289429, -0.10887155681848526, -0.028417551890015602, 0.06787538528442383, 0.032060444355010986, -0.03141346573829651, -0.00447100168094039, -0.036138396710157394, -0.06962708383798599, 0.025471586734056473, -0.025813782587647438, -0.0021060851868242025, -0.011465118266642094, 0.019118305295705795, 0.10083625465631485, -0.019904207438230515, 0.0332924984395504, 0.002371659968048334, -0.015231462195515633, 0.025851307436823845, 0.010465804487466812, 0.025960521772503853, 0.055510204285383224, -0.035720665007829666, -0.019219646230340004, -0.019871575757861137, 0.029314564540982246, -0.0419132336974144, -0.010314172133803368, 0.05608123913407326, 0.025791926309466362, -0.00873888935893774, -0.017710687592625618, -0.022984523326158524, -0.03367004171013832, 0.025984402745962143, 0.019322648644447327, -0.0005715362494811416, 0.032451316714286804, 0.029787469655275345, 0.012124032713472843, 0.0003279992670286447, 0.025194155052304268, -0.04105436056852341, -0.08405276387929916, -0.08389165997505188, 0.035573866218328476, 0.036423198878765106, 0.01667620614171028, -0.0014840740477666259, -0.1652812957763672, -0.08630312979221344, -0.04218899831175804, 0.037789009511470795, -0.00011216640996281058, -0.0030254244338721037, -0.021739881485700607, -0.020309988409280777, 0.0045236945152282715, -0.0006408004555851221, 0.00884163286536932, 0.03162705898284912, 0.11072833836078644, 0.04918114095926285, -0.03297276422381401, -0.0021430915221571922, -0.0321761853992939, -0.013630728237330914, -0.06252244859933853, -0.025752846151590347, -0.04132474958896637, -0.043729063123464584, -0.07015042006969452, -0.04303717240691185, -0.031072713434696198, -0.005037043243646622, -0.046213094145059586, -0.04067585617303848, -0.03586751967668533, 0.050782255828380585, 0.05831680819392204, 0.005295308772474527, 0.00708076311275363, -0.032202232629060745, 0.07211697101593018, 0.031088320538401604, 0.022656656801700592, -0.03543180972337723, 0.0024876303505152464, 0.010595712810754776, -0.0008042585686780512, -0.03241133689880371, -0.07300330698490143, 0.026736155152320862, -0.03267992287874222, 0.03345087543129921, -0.045789215713739395, -0.10668676346540451, -0.06037236750125885, 0.01041479129344225, -0.0507935993373394, 0.0399773046374321, -0.020607100799679756, -0.04356207326054573, -0.04981633275747299, 0.017229022458195686, -0.033605653792619705, 0.014646126888692379, 0.004223650321364403, 0.010808856226503849, -0.011985003016889095, -0.02980666421353817, -0.005890315864235163, 0.010904882103204727, 0.018087932839989662, -0.009053812362253666, -0.00790322758257389, 0.014828313142061234, 0.10047481954097748, 0.13215896487236023, -0.033450089395046234, 0.011833827942609787, -0.007150283083319664, -0.019082732498645782, -0.027416501194238663, 0.050084128975868225, 0.030044497922062874, 0.02629675343632698, -0.019040359184145927, -0.06796170771121979, -0.028262780979275703, 0.004692009184509516, -0.013297817669808865, 0.06989122182130814, 0.08587872982025146, 0.015526778064668179, -0.06694228202104568, -0.0658736601471901, -0.033298760652542114, -0.1260455846786499, -0.12586155533790588, 0.07433353364467621, 0.0034393719397485256, 0.004722850397229195, 0.04825763404369354, 0.011776383966207504, -0.006912487559020519, 0.041389837861061096, 0.06601542234420776, 0.050235431641340256, 0.01818828471004963, -0.02076100930571556, -0.04243043437600136, -0.005956151522696018, 0.02766750566661358, -0.05391672998666763, -0.09250243753194809, 0.02387414500117302, 0.006761281285434961, 0.016406793147325516, 0.037439193576574326, 0.022739211097359657, -0.009500624611973763, -0.08105288445949554, 0.02374475821852684, -0.009920984506607056, -0.007457881700247526, 0.03380550816655159, 0.05798066034913063, 0.018422551453113556, 0.032765984535217285, -0.030174395069479942, -0.028327859938144684, -0.0349620059132576, -0.03238089382648468, 0.0306542981415987, 0.09317899495363235, -0.007196699734777212, -0.07252328097820282, -0.021872786805033684, -0.013858914375305176, 0.0037173812743276358, 0.010973213240504265, 0.04053354263305664, 0.01304033026099205, -0.08676963299512863, 0.08920437097549438, 0.0024469452910125256, 0.052557747811079025, 0.05784762650728226, 0.013780893757939339, -0.0005961148417554796, -0.003475602949038148, 0.06872206181287766, 0.0030588938388973475, -0.016697170212864876, -0.08648042380809784, -0.10371648520231247, -0.04597238078713417, -0.08645278960466385, -0.021445443853735924, -0.0052194613963365555, -0.02079966478049755, -0.05619245022535324, -0.02115977369248867, -0.0028617188800126314, -0.015269945375621319, -0.015276061370968819, -0.020123088732361794, 0.041551120579242706, 0.03381021320819855, 0.03751269727945328, -0.004033741541206837, -0.0018558371812105179, -0.0445660762488842, -0.03812321648001671, -0.019871307536959648, -0.0016955386381596327, -0.02376389503479004, -0.05419790372252464, -0.11948172003030777, -0.1484510451555252, 0.020220160484313965, -0.05954862758517265, -0.029076145961880684, -0.01850077509880066, 0.04285352677106857, 0.031324226409196854, -0.028099359944462776, 0.02091204561293125, 0.007219369988888502, -0.03612685948610306, 0.058549489825963974, 0.06851353496313095, 0.08141883462667465, 0.07744836807250977, 0.0342588946223259, -0.004970999900251627, -0.04898737370967865, 0.03370436280965805, 0.07277964800596237, -0.0002519915869925171, -0.0391383096575737, -0.024177759885787964, -0.046994853764772415, -0.12355509400367737, -0.10119975358247757, -0.01800445280969143, 0.06534210592508316, 0.10273151844739914, 0.002389201894402504, 0.017758110538125038, 0.035294413566589355, -0.01571553200483322, -0.033845819532871246, 0.02235342189669609, 0.003726676804944873, -0.018247168511152267, 0.030715497210621834, 0.059626057744026184, 0.026242872700095177, 0.024740448221564293, 0.0008797186892479658, -0.00974950473755598, -0.023534229025244713, -0.06797903776168823, 0.025645891204476357, 0.060610752552747726, -0.03445190191268921, -0.032805196940898895, -0.005719629116356373, -0.05227307975292206, -0.09267773479223251, -0.04339178651571274, -0.029051611199975014, -0.023215806111693382, -0.009008423425257206, -0.02638702280819416, 0.028621261939406395, -0.04057969152927399, -0.0323927216231823, -0.03006630949676037, -0.056129343807697296, -0.005329749081283808, -0.005739377811551094, 0.025722986087203026, -0.015525668859481812, 0.06399167329072952, 0.0955662652850151, 0.05809662863612175, 0.045818571001291275, 0.007034968119114637, -0.0038937286008149385, -0.019226402044296265, 0.041763316839933395, -0.0026888400316238403, 0.02603607252240181, 0.013733955100178719, -0.021054523065686226, 0.0006859214627183974, 0.005432091187685728, -0.0350051112473011, -0.03166067227721214, -0.009057838469743729, -0.00557173416018486, -0.011735334992408752, -0.01580885238945484, -0.005454891826957464, -0.00743095250800252, 0.03036554902791977, 0.016205385327339172, 0.025297461077570915, -0.009753646329045296, -0.027399828657507896, 0.03201843798160553, -0.04818889871239662, -0.04713018238544464, 0.00551364291459322, -0.08199376612901688, -0.05107305198907852, -0.004767918959259987, 0.02557825855910778, -0.004344176035374403, 0.05599582567811012, 0.002562294015660882, -0.048586707562208176, -0.05437428504228592, -0.0014204393373802304, -0.0008102150168269873, -0.028852779418230057, -0.030039774253964424, -0.017023731023073196, -0.002417116891592741, 0.0030273254960775375, -0.01055910810828209, 0.01720445230603218, 0.022666344419121742, 0.020153068006038666, 0.07984974980354309, 0.05743766576051712, 0.05243461951613426, 0.024201607331633568, -0.012980585917830467, 0.004573967307806015, 0.04987926781177521, -0.01416737586259842, -0.02352207712829113, -0.014683959074318409, -0.021594613790512085, 0.00041724593029357493, -0.041809506714344025, -0.0296762827783823, -0.041203513741493225, -0.04145682975649834, -0.011878857389092445, -0.03635132312774658, 0.07846943289041519, 0.046458419412374496, 0.014481045305728912, -0.00627603754401207, -0.014519580639898777, 0.008488764055073261, -0.006468642968684435, -0.0555553063750267, -0.0402517169713974, 0.06109501048922539, -0.014172876253724098, -0.05134878680109978, -0.023394525051116943, 0.0050342390313744545, -0.0023747393861413, -0.035925790667533875, -0.0429498665034771, 0.04835059866309166, -0.05522625520825386, -0.0062876418232917786, 0.029665714129805565, -0.007201382890343666, -0.019788330420851707, -0.08744189888238907, -0.1176384761929512, -0.03371148556470871, -0.004348462913185358, 0.05978391319513321, 0.019615788012742996, 0.07953428477048874, 0.0007062899530865252, -0.05726953223347664, -0.023214558139443398, 0.008602089248597622, -0.016321808099746704, -0.02463419921696186, 0.09347911179065704, -0.002572429832071066, 0.0058393231593072414, 0.028430311009287834, -0.026634078472852707, -0.02125663124024868, 0.01049850694835186, -0.024521291255950928, -0.040020208805799484, -0.003994890954345465, 0.020364994183182716, -0.010518449358642101, 0.014767229557037354, 0.03044920787215233, -0.016440734267234802, 0.015729866921901703, -0.00259512010961771, 0.00588163873180747, -0.00013599121302831918, 0.023200154304504395, -0.007232942618429661, -0.023950815200805664, -0.03697081282734871, -0.02777809649705887, -0.04178021848201752, -0.031097516417503357, 0.003256706753745675, -0.005441656336188316, -0.039303284138441086, -0.03165459260344505, -0.031098244711756706, -0.023838168010115623, -0.016023145988583565, -0.008721133694052696, -0.02409222349524498, -0.01830756478011608, 0.03382525593042374, -0.013371986337006092, 0.03122825361788273, 0.05188749358057976, 0.023345930501818657, 0.015686193481087685, -0.028427889570593834, 0.01845337636768818, 0.030303556472063065, -0.012266573496162891, -0.003815216477960348, 0.023408837616443634, -0.016362952068448067, -0.008336816914379597, 0.015608240850269794, -0.0029171654023230076, 0.009376376867294312, 0.044334471225738525, -0.023690132424235344, -0.03741370886564255, -0.03792092576622963, -0.020855052396655083, -0.027893176302313805, -0.025821246206760406, -0.02116544358432293, -0.010348373092710972, -0.004153345245867968, 0.05961998179554939, 0.0033981474116444588, 0.04266577959060669, 0.009631725959479809, 0.022608427330851555, 0.09803421050310135, 0.047598034143447876, 0.04265715926885605, 0.02643742971122265, 0.03377147018909454, -0.04434187337756157, -0.03636237978935242, -0.013400067575275898, 0.042623382061719894, -0.02499816007912159, 0.07981883734464645, 0.04051942750811577, -0.0390850268304348, 0.0007577856304123998, -0.055442068725824356, 0.045430734753608704, -0.1165064349770546, 0.026277104392647743, 0.0211708415299654, -0.0056403931230306625, 0.028200967237353325, -0.04359643533825874, -0.04405813291668892, -0.011497095227241516, -0.017181262373924255, -0.003091352293267846, 0.0028261865954846144, 0.025823749601840973, -0.025913557037711143, 0.05225551500916481, 0.052389323711395264, -0.10702140629291534, -0.04712223634123802, -0.03598778322339058, -0.008728301152586937, 0.01658393070101738, 0.0051578194834291935, -0.05041714385151863, -0.05177921801805496, -0.020601332187652588, 0.00920254085212946, -0.011118600144982338, -0.003890436142683029, -0.0043158577755093575, 0.05116832256317139, 0.004392585251480341, -0.005519776605069637, -0.039295222610235214, -0.044586993753910065, -0.03411238268017769, -0.04616932198405266, -0.04622497409582138, -0.04452686011791229, -0.1179034635424614, -0.11322331428527832, -0.07389800995588303, -0.025895457714796066, -0.0007939357892610133, -0.0441414900124073, -0.05921933427453041, 0.042424727231264114, -0.007101199124008417, 0.09304379671812057, 0.034392423927783966, 0.018323736265301704, 0.03410157933831215, 0.038907285779714584, 0.040224798023700714, 0.05631032586097717, -0.03447816148400307, -0.0021196017041802406, -0.035681117326021194, -0.030922221019864082, 0.00977274589240551, 0.026622818782925606, -0.030555542558431625, 0.04822300747036934, -0.021037742495536804, -0.1455506533384323, -0.04100055992603302, 0.03118361346423626, 0.07564384490251541, 0.00016358283755835146, -0.08316383510828018, -0.0016125703696161509, -0.07075265794992447, -0.022956006228923798, -0.059060338884592056, -0.10414495319128036, -0.04295291379094124, 0.030074503272771835, 0.0015412064967676997, 0.07010869681835175, 0.03760520741343498, 0.06709226965904236, -0.09685109555721283, -0.006251309998333454, 0.007539376616477966, -0.013816102407872677, 0.027059020474553108, 0.03225964307785034, 0.053446702659130096, 0.02057977020740509, -0.05127178877592087, -0.07584477961063385, -0.054140616208314896, -0.0004449011175893247, 0.047170620411634445, 0.03125336393713951, 0.05965358018875122, -0.07541628181934357, -0.058874983340501785, -0.036247313022613525, 0.02521671913564205, -0.011661725118756294, -0.06655154377222061, -0.008435351774096489, 0.0054720607586205006, 0.02889813482761383, -0.03111739456653595, 0.08673249930143356, 0.0007004528888501227, -0.06669674813747406, 0.016990529373288155, 0.014106430113315582, 0.07123761624097824, -0.00948374718427658, 0.08780379593372345, 0.010410137474536896, -0.17886076867580414, -0.08633152395486832, -0.03312455117702484, -0.011183100752532482, -0.04842662438750267, -0.08470592647790909, -0.1650044471025467, -0.16634739935398102, -0.1325104832649231, -0.03983854874968529, -0.010316009633243084, -0.016126854345202446, 0.016415035352110863, 0.06009869650006294, 0.013010489754378796, 0.011124582961201668, -0.0639483705163002, 0.0016050435369834304, -0.019796596840023994, -0.01878293789923191, -0.07892105728387833, -0.04011357203125954, -0.07488398253917694, -0.051660653203725815, -0.012810313142836094, -0.006644007284194231, -0.02492966689169407, -0.03636576607823372, 0.035793762654066086, 0.03466193377971649, 0.06888928264379501, 0.00802375003695488, -0.007942460477352142, -0.03754954785108566, 0.04541623964905739, 0.027103425934910774, 0.05836153402924538, 0.09974846243858337, -0.0043792081996798515, -0.01959225721657276, -0.03360346332192421, 0.11447349935770035, 0.05472315102815628, 0.07029145210981369, -0.006793882232159376, 0.03365771844983101, -0.021049126982688904, -0.037661533802747726, -0.018723653629422188, -0.023625703528523445, -0.013105475343763828, 0.013308570720255375, 0.0014941853005439043, -0.019270362332463264, -0.011235172860324383, -0.01612744852900505, 0.0037984042428433895, 0.005168918054550886, -0.01801440678536892, 0.005602160468697548, 0.08556109666824341, 0.1321050375699997, 0.065640389919281, 0.08707960695028305, -0.044059354811906815, 0.15126964449882507, -0.11837058514356613, -0.0509168840944767, 0.05688193440437317, -0.00863678939640522, 0.00851849652826786, -0.08459830284118652, -0.13900040090084076, -0.0838642418384552, -0.02593298628926277, -0.025206424295902252, -0.0016573918983340263, 0.028993945568799973, -0.019320068880915642, -0.026316454634070396, 0.005051563028246164, -0.01795567385852337, 0.02846434898674488, 0.006991472560912371, -0.08750705420970917, -0.04742690920829773, -0.16820073127746582, 0.03536483645439148, 0.005393112078309059, 0.11169345676898956, 0.06896816939115524, -0.12462365627288818, -0.19055795669555664, -0.05808546394109726, 0.015113884583115578, -0.0009308378212153912, 0.1131226196885109, 0.04344771429896355, -0.17995019257068634, -0.1321241557598114, -0.02354450523853302, -0.025080928578972816, -0.03926590085029602, 0.046338967978954315, -0.14193907380104065, -0.1109253391623497, -0.04150928929448128, -0.13549314439296722, 0.051582977175712585, 0.0036781448870897293, -0.014937976375222206, 0.0010062605142593384, -0.0017956215888261795, 0.010703250765800476, -0.010589484125375748, -0.018483174964785576, 0.005921348929405212, 0.016521839424967766, -0.012775029987096786, 0.013840226456522942, 0.003396429121494293, -0.00981479324400425, 0.012626076117157936, -0.011079316027462482, -0.011790129356086254, 0.013565560802817345, 0.00998709350824356, -0.013917533680796623, -0.0003816988319158554, 0.01105448603630066, -0.011004495434463024, -0.008438320830464363, 0.012392060831189156, 0.004335073754191399, -0.01627732813358307, -0.01627960242331028, 0.013822419568896294, 0.005081862211227417, 0.01523030735552311, 0.014995602890849113, 0.001012193039059639, 0.008185623213648796, 0.004406929016113281, 0.013004375621676445, 0.017329929396510124, -0.007282432168722153, 0.013496121391654015, 0.0038422439247369766, -0.016021549701690674, -0.008471891283988953, 0.007149234414100647, 0.003000859171152115, 0.0109733697026968, -0.0030015967786312103, -0.017428524792194366, 0.007021378725767136, 0.010150810703635216, -0.005493053235113621, 0.011596820317208767, 0.045984141528606415, 0.1385660320520401, 0.027929842472076416, 0.016384631395339966, -0.022706076502799988, 0.004063004162162542, 0.02925037033855915, 0.0074851843528449535, 0.013102499768137932, 0.06213722005486488, -0.018770184367895126, -0.022017067298293114, -0.019265884533524513, -0.013736101798713207, -0.023865215480327606, -0.005220640450716019, 0.05721839889883995, 0.012685354799032211, -0.09395016729831696, -0.0014418241335079074, 0.02773956023156643, 0.03199733793735504, 0.00961086805909872, -0.026915837079286575, -0.03319466859102249, -0.05213572457432747, -0.006656601559370756, 0.03065681643784046, 0.046462222933769226, 0.06445100158452988, -0.05319405719637871, -0.10203876346349716, -0.09061078727245331, -0.03666698932647705, 0.022572120651602745, -0.01595085673034191, 0.03819749131798744, -0.03051411360502243, -0.06189340353012085, -0.055615752935409546, 0.00020624930039048195, 0.005173928570002317, 0.00023978098761290312, -0.022962767630815506, -0.03045472502708435, -0.03236007317900658, 0.011046510189771652, 0.00955943763256073, -0.014749693684279919, 0.02397928200662136, 0.0442892387509346, 0.02573368139564991, 0.03100072406232357, -0.03366865962743759, -0.011939430609345436, -0.021553417667746544, -0.03413430601358414, 0.017738571390509605, -0.009845719672739506, -0.025468256324529648, -0.08944240212440491, -0.07074487209320068, -0.04860949516296387, 0.014170156791806221, 0.0008876217762008309, 0.01931384764611721, 0.04710488021373749, 0.04227770119905472, 0.00622813543304801, 0.004154142923653126, 0.05312767252326012, -0.04690904915332794, 0.045162901282310486, -0.008492817170917988, 0.009908383712172508, 0.09098247438669205, 0.00021366823057178408, 0.030805012211203575, 0.004214575979858637, 0.07315347343683243, 0.019615793600678444, 0.058320000767707825, -0.0176627766340971, -0.025809798389673233, -0.039922721683979034, -0.01093344483524561, -0.07312775403261185, 0.006769639439880848, -0.05670372024178505, -0.01286060456186533, -0.026950553059577942, -0.012676716782152653, -0.09226164221763611, -0.10230084508657455, -0.029957352206110954, -0.06454740464687347, -0.00575712276622653, -0.0005060136318206787, -0.008797375485301018, 0.0058874040842056274, -0.007864563725888729, 0.016141625121235847, -0.018479125574231148, 0.010120619088411331, -0.012430998496711254, -0.011366738006472588, 0.009337861090898514, 0.016064507886767387, 0.00424742279574275, -0.02464127168059349, -0.002076525241136551, -0.0016349144279956818, 0.004997901618480682, -0.015130827203392982, -0.012369616888463497, 0.006074368488043547, -0.004920091945677996, -0.0032225102186203003, -0.009411022067070007, 0.013510094955563545, 0.005634714383631945, -0.01902448758482933, 0.00403598602861166, -0.011487230658531189, -0.015411497093737125, -0.009491314180195332, 0.009354796260595322, -0.020231235772371292, 0.012899081222712994, 0.008680881932377815, 0.013810951262712479, 0.013527365401387215, 4.764087498188019e-05, 0.0008169896900653839, 0.006486116908490658, -0.008554208092391491, 0.016554055735468864, 0.009674872271716595, 0.0058059971779584885, 0.008789433166384697, -0.004759563133120537, -0.009984946809709072, -0.005027030594646931, 0.014107456430792809, 0.01676790602505207, -0.002862660214304924, 0.007390245795249939, 0.08421017974615097, 0.01849670708179474, 0.020676182582974434, -0.004905593581497669, -0.07938185334205627, 0.012078193947672844, 0.010471751913428307, 0.017054758965969086, -0.01053980365395546, -0.040595754981040955, -0.024683553725481033, -0.04744642227888107, -0.03624120354652405, 0.01825846917927265, -0.005011530127376318, -0.04056902602314949, 0.044791463762521744, 0.01654755510389805, -0.053190264850854874, -0.015313339419662952, -0.010229396633803844, -0.052273526787757874, -0.08691633492708206, -0.022130176424980164, -0.026039663702249527, 0.03183671459555626, 0.016931843012571335, 0.010863645933568478, -0.035615913569927216, -0.02966293692588806, 0.08212165534496307, 0.06692959368228912, 0.012670344673097134, 0.009278575889766216, -0.012409400194883347, -0.02343260683119297, 0.022610122337937355, 0.01089491881430149, -0.002378245582804084, 0.009500293992459774, 0.03925561532378197, -0.017537526786327362, -0.045830100774765015, -0.03632611408829689, -0.029663266614079475, -0.024207381531596184, -0.012486091814935207, -0.02413712814450264, 0.0009279564837925136, 0.09641648828983307, 0.06031109020113945, 0.006668052636086941, 0.006803189404308796, -0.0046605309471488, 0.0019526869291439652, -0.007144538685679436, -0.022958843037486076, 0.028519364073872566, 0.07532347738742828, 0.008768917061388493, 0.03803207725286484, -0.024461816996335983, -0.01423452515155077, -0.07112201303243637, -0.015821240842342377, 0.021723736077547073, -0.018320925533771515, -0.04148242250084877, -0.06039130687713623, -0.0048274570144712925, -0.017718903720378876, -0.0528082437813282, -0.06235918402671814, -0.05133839324116707, -0.07968273013830185, -0.023662390187382698, -0.012889370322227478, 0.00308893620967865, 0.017929891124367714, -0.02708466537296772, -0.05861950293183327, 0.009406577795743942, 0.05171594396233559, 0.005483710207045078, -0.009255250915884972, 0.04345095902681351, 0.04462527856230736, 0.03375929966568947, 0.03440450504422188, 0.0100519685074687, -0.022290341556072235, -0.04057278484106064, -0.02848665788769722, -0.010793722234666348, -0.004377179313451052, 0.013318302109837532, -0.03425852581858635, -0.02111763507127762, 0.01576485112309456, 0.08865465223789215, 0.07491257786750793, -0.01420324482023716, -0.07024193555116653, -0.018042873591184616, -0.0030062985606491566, -0.08003479987382889, -0.011842330917716026, 0.08408374339342117, -0.0382290817797184, -0.09421643614768982, -0.017832249402999878, 0.004114026669412851, -0.03132224828004837, 0.03156429901719093, 0.01386185921728611, 0.05096866190433502, 0.03712710738182068, 0.019443169236183167, 0.03944628685712814, 0.14929325878620148, -0.03514581546187401, 0.07618207484483719, 0.0743027999997139, 0.02642648294568062, 0.07018613815307617, -0.014708825387060642, -0.007328977342694998, -0.041568342596292496, 0.04161400347948074, 0.08309075236320496, 0.0469120591878891, -0.0021833728533238173, -0.0036380374804139137, -0.032232802361249924, -0.030267005786299706, -0.08847152441740036, -0.012100251391530037, 0.031016821041703224, -0.018283309414982796, 0.006029440090060234, 0.008914061821997166, 0.009654183872044086, -0.012408524751663208, 0.02336672879755497, 0.016023678705096245, 0.0001294889661949128, -0.013016685843467712, 0.019097408279776573, 0.034391164779663086, -0.01043944712728262, -0.001838040305301547, -0.0030132338870316744, -0.016198521479964256, -0.004345263354480267, -0.03143803030252457, 0.013324666768312454, 0.01901758275926113, 0.01214861124753952, -0.030416525900363922, -0.0013662198325619102, -0.002451877109706402, -0.025969726964831352, -0.0251722764223814, 0.038045816123485565, -0.042497143149375916, -0.04585348814725876, -0.014681082218885422, -0.009506790898740292, -0.046934619545936584, -0.0027759219519793987, 0.0440388023853302, -0.01109898928552866, -0.024919025599956512, 0.009976786561310291, 0.02273673564195633, -0.034880127757787704, 0.03811909258365631, 0.019955303519964218, -0.013363469392061234, 0.02766992524266243, -0.0006388180772773921, 0.03576258569955826, 0.006299010012298822, -0.007757906801998615, -0.01751231774687767, 0.0030625301878899336, 0.009590216912329197, -0.003011164953932166, -0.001967434771358967, -0.004024375230073929, -0.026809856295585632, -0.013597468845546246, -0.010602721013128757, -0.014599248766899109, -0.0034313928335905075, 0.0044921888038516045, 0.010008001700043678, -0.002336860401555896, 0.05108179524540901, 0.05780749395489693, -0.0011108671315014362, -0.019939038902521133, 0.0015434118686243892, 0.029928062111139297, 0.04518420994281769, -0.010627959854900837, 0.06439784169197083, -0.02172020822763443, -0.0704648420214653, -0.011189647018909454, -0.02264956198632717, -0.05087084323167801, 0.008188587613403797, -0.049461282789707184, -0.10987009853124619, -0.06264884769916534, -0.001111059682443738, -0.011953391134738922, -0.02292967587709427, -0.020916754379868507, -0.0383325032889843, -0.006528484635055065, -0.00887978170067072, 0.001710887299850583, 0.011831479147076607, -0.007689567748457193, -0.02226734347641468, 0.023601021617650986, 0.05783626064658165, 0.04899028316140175, -0.00938861258327961, -0.020383615046739578, 0.051125418394804, 0.05475704371929169, 0.05967817083001137, 0.04257125407457352, 0.026132093742489815, -0.016189951449632645, 0.0033357045613229275, 0.01461885031312704, -0.03669855743646622, -0.08713582903146744, 0.01020718365907669, 0.0072465999983251095, 0.016538076102733612, 0.027499878779053688, 0.016848493367433548, 0.0017142717260867357, -0.07841532677412033, -0.021977879106998444, 0.01334414817392826, -0.01307491585612297, 0.005301405675709248, 0.05606130138039589, 0.09453605860471725, -0.037353262305259705, 0.0387432798743248, -0.029666850343346596, -0.014368565753102303, -0.03471287339925766, 0.025097383186221123, 0.08710359036922455, 0.0193189550191164, -0.07132706046104431, -0.09003233164548874, -0.013176936656236649, 0.0049797589890658855, 0.022585634142160416, 0.01372896321117878, -0.018209313973784447, 0.02237962745130062, 0.009506192989647388, -0.005595004186034203, 0.0750589445233345, 0.09093229472637177, 0.01281563937664032, 0.04540042206645012, 0.00010658390237949789, -0.021430237218737602, -0.013126851059496403, 0.03791243955492973, -0.025350747630000114, -0.11889217793941498, -0.11716267466545105, -0.0711868479847908, -0.00044225133024156094, 0.0016593533800914884, -0.02232493832707405, -0.01725456863641739, -0.08691815286874771, -0.014274709858000278, -0.042428355664014816, -0.010102742351591587, -0.001236487994901836, 0.033088166266679764, 0.006299374159425497, 0.010000139474868774, -0.013704844750463963, -0.014985278248786926, -0.013870105147361755, 0.03368417173624039, 0.03529958054423332, 0.030048340559005737, 0.011779027990996838, -0.04820523038506508, -0.027920927852392197, -0.031173909083008766, -0.01122833602130413, -0.0250488743185997, 0.006195920053869486, 0.01598547026515007, 0.011202211491763592, -0.04065250977873802, 0.011291884817183018, -0.04496581852436066, -0.050508834421634674, 0.018649132922291756, 0.08833874762058258, -0.002781557384878397, -0.018286796286702156, 0.03893326222896576, -0.019230766221880913, -0.014928766526281834, 0.060957495123147964, -0.0011409757426008582, -0.02280103974044323, -0.031050829216837883, 0.024999437853693962, 0.035979244858026505, 0.03157259523868561, 0.013305554166436195, -0.056803103536367416, -0.035477422177791595, -0.026782160624861717, -0.01279346365481615, -0.011899813078343868, -0.0008355652098543942, -0.04020458087325096, -0.018455445766448975, 0.0002640722377691418, 0.012443706393241882, -0.011619470082223415, -0.05254078656435013, 0.12604360282421112, 0.10350508242845535, 0.03017350845038891, -0.021294351667165756, -0.0055039129219949245, 0.000879576604347676, -0.05747940018773079, -0.050005797296762466, -0.02345689944922924, 0.014993822202086449, -0.02648916468024254, -0.08199803531169891, -0.08868486434221268, 0.05298237502574921, -0.07982048392295837, -0.04292254522442818, -0.013712098821997643, 0.006228563375771046, -0.06375039368867874, -0.012094779871404171, 0.04194771870970726, -0.00634966092184186, -0.1240464374423027, 0.0525469034910202, -0.025492573156952858, 0.06899125128984451, -0.02985130436718464, 0.021849598735570908, -0.03315400332212448, -0.01485669519752264, 0.053264323621988297, 0.02967742085456848, -0.031016483902931213, 0.012242848053574562, -0.03158538043498993, -0.07716616243124008, -0.058262404054403305, -0.022746022790670395, 0.06726085394620895, 0.04909985139966011, 0.0008490239270031452, 0.012392914853990078, 0.02930448390543461, 0.019917471334338188, -0.1760728359222412, 0.04310125112533569, -9.301419777330011e-05, -0.009720487520098686, -0.009353424422442913, 0.02210414409637451, 0.05181003361940384, 0.02171589434146881, 0.010813836939632893, -0.004195088986307383, -0.00399920716881752, 0.008168458007276058, -0.02215338498353958, 0.005529351998120546, 0.025302188470959663, -0.017792992293834686, -0.05795682966709137, -0.02083761803805828, 0.007244724314659834, -0.08225353807210922, -0.04865756258368492, -0.062392741441726685, -0.009865389205515385, -0.017369979992508888, -0.02359892800450325, -0.010727128945291042, -0.02843884378671646, -0.05464283004403114, 0.013875596225261688, 0.003332090564072132, 0.00950663536787033, 0.03718322515487671, 0.017722202464938164, -0.007881112396717072, 0.001914235414005816, 0.05680210515856743, 0.05906440317630768, 0.009171516634523869, -0.015153516083955765, -0.0034430695232003927, -0.0028334525413811207, -0.04240824282169342, -0.008445424027740955, 0.008624161593616009, 0.06527115404605865, 0.032716743648052216, -0.00728644011542201, -0.02712465077638626, -0.03901965916156769, -0.028996996581554413, -0.005875424947589636, 0.012595226988196373, -0.014660391956567764, -0.019412396475672722, -0.001783568412065506, 0.02290538139641285, 0.015885841101408005, -0.008739718236029148, 0.003093000967055559, 0.022870954126119614, -0.013510975055396557, 0.06329285353422165, 0.0690789595246315, 0.004303907044231892, -0.017014948651194572, -0.032394081354141235, -0.03702500835061073, -0.026377197355031967, 0.10682466626167297, -0.061826031655073166, 0.04815712571144104, 0.043121688067913055, 0.028854116797447205, 0.017367759719491005, 0.02653035707771778, -0.0708014965057373, -0.03643885627388954, 0.03107358328998089, -0.002072727307677269, 0.00041730160592123866, 0.010147183202207088, 0.01547834649682045, -0.039394255727529526, 0.06466657668352127, 0.062047626823186874, -0.0040068551898002625, 0.03443535044789314, 0.026140181347727776, -0.0007588324369862676, -0.06213907152414322, -0.05191464722156525, -0.03685963898897171, -0.026691235601902008, 0.003942873794585466, 0.02682523801922798, -0.027205506339669228, -0.030543025583028793, -0.1949344426393509, -0.17635782063007355, -0.09826295077800751, -0.08019775152206421, -0.009187179617583752, -0.01743745245039463, 0.04455997049808502, 0.012713001109659672, 0.004309860523790121, -0.01375413779169321, -0.03879072889685631, 0.014695932157337666, -0.006988488137722015, 0.006221377290785313, -0.008067317306995392, -0.00020814681192860007, -0.07219035178422928, -0.04980647563934326, -0.047288864850997925, -0.03419061377644539, -0.02489226870238781, 0.03351450338959694, 0.007045330945402384, 0.021845661103725433, 0.06413953006267548, 0.03841407969594002, 0.009536872617900372, -0.027335023507475853, 0.032704614102840424, 0.04193781688809395, 0.02864663489162922, 0.023190516978502274, 0.01732679270207882, 0.03389277309179306, 0.0011487362207844853, 0.04217679798603058, 0.009062830358743668, 0.031727246940135956, -0.03291906416416168, 0.037773698568344116, 0.012514228001236916, -0.04063008353114128, -0.06201885640621185, -0.023717261850833893, -0.06580957770347595, -0.007890664041042328, -0.0038084054831415415, -0.013565349392592907, -0.006017352920025587, -0.020111417397856712, -0.03577222302556038, -0.023470332846045494, -0.01437363587319851, -0.01965581625699997, 0.00357269961386919, -0.007763292640447617, 0.012367581948637962, 0.04751582443714142, 0.01588820107281208, 0.016694750636816025, 0.020268311724066734, -0.015117021277546883, -0.024415144696831703, 0.012470155023038387, 0.015746114775538445, 0.013158547692000866, -0.02214539609849453, -0.007218055427074432, 0.013062486425042152, -0.006766297854483128, -0.011299011297523975, -0.024634525179862976, 0.016379153355956078, -0.01548511441797018, -0.04402505233883858, -0.0014139061095193028, -0.03230723366141319, -0.024134159088134766, 0.0005986659089103341, -0.04340440779924393, -0.011497522704303265, 0.0008645488996990025, -0.027173474431037903, -0.023353522643446922, 0.02750050462782383, 0.037246495485305786, 0.027096429839730263, 0.08239427953958511, 0.04360286518931389, 0.009341871365904808, 0.01317052822560072, 0.016171757131814957, 0.02889326959848404, 0.034649502485990524, -0.026272553950548172, 0.00898980163037777, 0.021734051406383514, -0.008290762081742287, -0.01383090391755104, -0.01406110916286707, -0.00834303256124258, -0.036543652415275574, -0.004584017675369978, -0.006900588050484657, 0.016890311613678932, 0.07603580504655838, -0.0183559637516737, 0.018839199095964432, 0.01887696050107479, 0.0077398973517119884, -0.005524712149053812, -0.006536913104355335, 0.0017353093717247248, 0.05224320665001869, 0.02855360321700573, -0.0332118459045887, -0.05402206629514694, -0.01585523411631584, -0.04120221361517906, 0.0012408298207446933, -0.012230170890688896, 0.001999660860747099, -0.02529502660036087, -0.04033489152789116, 0.0012397787068039179, -0.03341302648186684, -0.03864105045795441, -0.030006665736436844, -0.040636781603097916, -0.0008601027075201273, -0.06756047159433365, -0.0017478344962000847, 0.008277150802314281, 0.007261528167873621, 0.031441956758499146, -0.036093782633543015, -0.01400515902787447, -0.018555762246251106, 0.012887612916529179, -0.015240414068102837, 0.007523458916693926, 0.008930410258471966, 0.09850972890853882, 0.030554471537470818, 0.0004634973593056202, 0.007129637990146875, -0.019357694312930107, -0.0029779456090182066, -0.01818651705980301, -0.00014021391689311713, 0.03168564662337303, -0.014062480069696903, 0.010731241665780544, 0.017535977065563202, 0.012433555908501148, -0.0056331767700612545, -0.03676877170801163, -0.023915357887744904, 0.02470693178474903, 0.0018016209360212088, 0.01707802712917328, -0.00042867931188084185, -0.010906900279223919, -0.03160577267408371, -0.002592656994238496, 0.0008608690113760531, 0.004340048413723707, 0.02717764489352703, -0.016156364232301712, -0.02065197192132473, -0.020566368475556374, -0.045713670551776886, -0.03805793821811676, -0.004305704031139612, -0.012861222960054874, -0.048485543578863144, -0.025333944708108902, -0.01950160413980484, -0.05433017015457153, 0.024104557931423187, 0.004966201726347208, -0.061234574764966965, -0.02207614853978157, 0.02683761902153492, 0.03751413896679878, 0.03056136891245842, 0.005536527838557959, 0.024217387661337852, 0.0075398702174425125, 0.04162422940135002, 0.06497353315353394, -0.013345724903047085, -0.021184615790843964, 0.008912106044590473, 0.021665675565600395, -0.0031221704557538033, -0.031100979074835777, -0.04527558013796806, -0.03700569272041321, -0.0285307839512825, -0.002426288789138198, -0.009896665811538696, 0.00036665896186605096, -0.03367749601602554, 0.1109718382358551, 0.040066640824079514, 0.060009486973285675, -0.0032837886828929186, -0.051392387598752975, 0.05519050359725952, 0.002058642450720072, -0.0015445899916812778, -0.0021125730127096176, -0.09334196150302887, -0.07265351712703705, -0.013653702102601528, 0.05495366081595421, 0.0002894507779274136, 0.08412545174360275, -0.02458900585770607, -0.1371094286441803, -0.10128384083509445, -0.0001512643211754039, 0.06390612572431564, -0.08305470645427704, -0.0433025024831295, -0.07019355148077011, -0.010162658989429474, 0.011568967252969742, -0.026397662237286568, -0.05318370461463928, 0.011250832118093967, 0.019912587478756905, 0.1097676008939743, 0.07028259336948395, 0.041740912944078445, 0.050576433539390564, -0.027377557009458542, -0.013776491396129131, 0.061193302273750305, 0.008745714090764523, -0.016129860654473305, -0.010611926205456257, -0.019780205562710762, -0.07323072105646133, -0.0421442911028862, -0.061405085027217865, -0.08372778445482254, -0.09340637922286987, -0.06797327101230621, 0.010822637006640434, 0.02023441530764103, 0.06783699244260788, 0.0023745314683765173, -0.00464007118716836, 0.028598982840776443, -0.004521831404417753, 0.02042032964527607, -0.011085602454841137, 0.0415656752884388, 0.029333315789699554, -0.009701767936348915, -0.01690007746219635, -0.01596943847835064, 0.015772957354784012, -0.025713402777910233, 0.015787513926625252, 0.06535619497299194, -0.0054907482117414474, -0.02318204753100872, -0.014975002966821194, -0.011774220503866673, -0.07054755091667175, -0.011579054407775402, 0.012985683046281338, 0.012240172363817692, -0.007837295532226562, 0.03956351429224014, 0.004533074330538511, -0.01259781327098608, 0.054791975766420364, -0.0008183906320482492, -0.00997037161141634, -0.039445046335458755, 0.01774471625685692, 0.014999677427113056, -0.009579354897141457, -0.04198374226689339, -0.12746472656726837, -0.06817008554935455, -0.10728797316551208, -0.0026205105241388083, -0.008340314961969852, -0.048795077949762344, -0.10687670111656189, -0.06244219094514847, -0.07278506457805634, -0.030099589377641678, 0.00865930411964655, 0.01867455244064331, 0.023098314180970192, 0.10318244248628616, 0.03839460387825966, -0.09855791181325912, 0.022615326568484306, -0.04051355645060539, 0.006990887690335512, 0.07224269211292267, 0.05841205641627312, 0.01692233607172966, 0.021572958678007126, -0.0762559249997139, -0.0994400903582573, -0.03423334285616875, 0.11121942847967148, -0.0672747939825058, 0.006680943537503481, -0.0369337722659111, -0.035354483872652054, 0.00016538823547307402, -0.056727513670921326, 0.009415113367140293, -0.11473941802978516, 0.03724483773112297, -0.023651394993066788, 0.024434754624962807, 0.18446314334869385, 0.00125227274838835, -0.061410292983055115, 0.0049917008727788925, 0.011809861287474632, 0.13015390932559967, 0.0714058056473732, -0.050794001668691635, 0.009548326022922993, -0.026121417060494423, -0.027741264551877975, 0.006529562640935183, -0.03431812301278114, 0.010789512656629086, 0.006100696045905352, -0.03081386536359787, -0.10847293585538864, -0.07504987716674805, -0.10248395055532455, -0.0073964218609035015, -0.05968084558844566, 0.0034779070410877466, 0.02230267971754074, 0.04207640886306763, 0.028913546353578568, 0.034597933292388916, 0.009708695113658905, 0.0027910105418413877, -0.008436726406216621, -0.009528210386633873, -0.011990939266979694, 0.06402305513620377, -0.014867998659610748, -0.054825883358716965, -0.027822379022836685, -0.01516191940754652, -0.002219307469204068, -0.017122846096754074, -0.01760057918727398, 0.010292863473296165, 0.02407682314515114, -0.007768869865685701, -0.008076360449194908, -0.0035416099708527327, -0.05879369378089905, -0.02197810634970665, 0.007085676770657301, 0.03920220211148262, -0.029198551550507545, 0.004113790579140186, 0.008118508383631706, 0.002537782769650221, 0.06734201312065125, 0.05979706346988678, 0.015378911979496479, -0.033431313931941986, 0.021997278556227684, 0.01951630413532257, 0.030130509287118912, 0.02970087341964245, -0.02034909278154373, -0.04632972925901413, -0.02346893958747387, 0.01607646979391575, -0.023488804697990417, -0.01765519753098488, -0.037587862461805344, -0.031060779467225075, -0.043439868837594986, -0.029614660888910294, 0.017145490273833275, 0.0104930205270648, 0.09249178320169449, -0.018365826457738876, 0.003287167754024267, -0.04036630690097809, -0.004969233646988869, 0.009596477262675762, 0.008325370959937572, 0.07200988382101059, -0.009824037551879883, 0.06119709089398384, -0.03661489486694336, -0.07358866184949875, 0.0002556697581894696, -0.07177602499723434, -0.03627294301986694, -0.01646348275244236, 0.06956019997596741, -0.03820446878671646, -0.12083570659160614, 0.008683745749294758, -0.021928636357188225, -0.029380695894360542, 0.0125905591994524, 0.05768880993127823, -0.07155699282884598, -0.014731472358107567, -0.01178872212767601, -0.011899666860699654, 0.0631314069032669, 0.08953192085027695, -0.021972473710775375, -0.04931431636214256, -0.06294829398393631, -0.008129140362143517, 0.03258129581809044, 0.07853023707866669, 0.03789536654949188, -0.09395984560251236, -0.07260449975728989, -0.0793820321559906, 0.007884030230343342, 0.010776487179100513, -0.01175106130540371, -0.020035460591316223, -0.01603286899626255, -0.040067821741104126, -0.0213907640427351, -0.0033720815554261208, 0.003873899346217513, -0.022446323186159134, 0.05855361372232437, 0.09146708250045776, 0.03452758491039276, -0.028560055419802666, -0.05063335970044136, 0.004434927366673946, 0.05320122838020325, -0.01007657777518034, 0.10591929405927658, 0.02356656640768051, -0.09915293008089066, -0.13300101459026337, 0.011586017906665802, 0.028313519433140755, -0.01947922818362713, -0.005057308357208967, 0.06870786100625992, 0.014387212693691254, 0.0248245969414711, 0.0036514922976493835, 0.08834236115217209, -0.035472046583890915, -0.056973546743392944, 0.040903929620981216, 0.0026203193701803684, 0.043481696397066116, -0.021357320249080658, 0.10383529216051102, 0.0028635873459279537, -0.04216795042157173, 0.0012497188290581107, 0.021115116775035858, -0.015563692897558212, -0.046113789081573486, 0.12910200655460358, -0.03575325757265091, -0.11670897156000137, -0.022340618073940277, 0.005922324024140835, 0.005743805784732103, -0.007331525906920433, 0.003960810136049986, -0.05135374143719673, -0.02817205898463726, -0.055598728358745575, 0.005266484338790178, 0.011857791803777218, -0.009278135374188423, 0.05184482783079147, 0.029772013425827026, 0.018621420487761497, 0.010633067227900028, -0.029623672366142273, 0.000578174542170018, -0.01801137812435627, -0.05393649637699127, -0.003548597451299429, 0.04325857013463974, -0.07678420841693878, -0.08090625703334808, -0.05571659281849861, -0.015029952861368656, -0.043572068214416504, -0.03206478804349899, -0.042000316083431244, -0.03706388175487518, -0.016648856922984123, -0.03578636050224304, 0.00369330495595932, -0.044905636459589005, -0.04091077297925949, -0.055818893015384674, 0.003524179570376873, 0.05792428180575371, -0.029941417276859283, 0.020772017538547516, 0.026842547580599785, -0.007141731679439545, 0.06311284005641937, 0.009765809401869774, 0.011775302700698376, 0.08899838477373123, -0.0009817649843171239, -0.09437674283981323, 0.01379080954939127, 0.08615880459547043, 0.11133915930986404, 0.020783379673957825, -0.031350091099739075, -0.03535986319184303, -0.01969446986913681, 0.014684703201055527, -0.08983592689037323, -0.038858842104673386, -0.009020229801535606, -0.01559603400528431, -0.019088737666606903, 0.09419433772563934, 0.11220643669366837, 0.11831596493721008, 0.03130771219730377, -0.014174383133649826, -0.016516972333192825, -0.029638560488820076, -0.016900179907679558, -0.035770218819379807, 0.009506729431450367, -0.054219067096710205, -0.10421328991651535, -0.035627759993076324, -0.009303443133831024, -0.039827052503824234, 0.009045522660017014, -0.040683284401893616, -0.011737249791622162, -0.09543129056692123, -0.0316808857023716, -0.044975705444812775, -0.06173298880457878, -0.1221688985824585, -0.09503226727247238, -0.09373815357685089, 0.013533293269574642, -0.03560634329915047, -0.048593293875455856, -0.01836838200688362, 0.0012918297434225678, 0.06698552519083023, 0.035966452211141586, 0.06152001768350601, 0.04743804410099983, -0.06076342612504959, -0.06532809138298035, 0.005879620090126991, 0.014570984058082104, 0.03956890478730202, 0.04515387862920761, -0.04486391320824623, -0.06645684689283371, -0.104860320687294, -0.0695742815732956, -0.12175613641738892, -0.0617426298558712, -0.018375027924776077, -0.03692622855305672, -0.022754758596420288, 0.07187878340482712, 0.021542301401495934, 0.029215339571237564, -0.03556269779801369, -0.0747227817773819, -0.05840429663658142, -0.0050843264907598495, 0.018191022798419, 0.030666928738355637, 0.0018254725728183985, -0.02235444076359272, -0.10200522094964981, -0.1204303726553917, 0.03125376254320145, -0.003467064816504717, -0.03447408974170685, -0.005467628128826618, 0.0477144829928875, 0.0040154652670025826, -0.04448878392577171, -0.018747501075267792, -0.03867790848016739, -0.048595331609249115, 0.02548890933394432, -0.017494456842541695, -0.012126479297876358, 0.08596958220005035, 0.00792844407260418, -0.012063357047736645, 0.01860973611474037, 0.028785349801182747, 0.04139726608991623, 0.005073638167232275, -0.04051101952791214, 0.011918716132640839, -0.04908917099237442, -0.02669566683471203, -0.024551425129175186, -0.0337078832089901, -0.03085719235241413, 0.03768792375922203, 0.005514725111424923, -0.009218531660735607, -0.05114506930112839, -0.04711219668388367, -0.04033268615603447, -0.06394773721694946, 0.01378351915627718, -0.016913654282689095, 0.015312647446990013, 0.043775565922260284, 0.010888554155826569, -0.005162541288882494, 0.02034834399819374, 0.013385274447500706, -0.0064397850073874, 0.025148820132017136, -0.015848640352487564, 0.016117148101329803, -0.005550976376980543, 0.00552002526819706, -0.035214439034461975, 0.00340103218331933, -0.018706131726503372, -0.0240615401417017, 0.033086031675338745, -0.0026303930208086967, -0.00035085243871435523, -0.003605660516768694, -0.019068226218223572, 0.007818744517862797, -0.04551929980516434, -0.02170710265636444, -0.04018883779644966, 0.013297531753778458, 0.004692221060395241, -0.009884530678391457, 0.016188934445381165, 0.029108593240380287, 0.06394825130701065, 0.011254731565713882, 0.0380672886967659, 0.031200656667351723, -0.005174440331757069, -0.0008487561717629433, 0.011631742119789124, -0.003675960935652256, -0.015120085328817368, 0.00164455221965909, 0.026955988258123398, -0.006797321606427431, -0.013983605429530144, -0.04227045923471451, -0.04376488924026489, -0.03963237628340721, 0.019198596477508545, -0.00839803647249937, 0.008943917229771614, 0.024703869596123695, -0.009633656591176987, 0.026888851076364517, -1.2142840205342509e-05, 0.011857316829264164, 0.013810470700263977, 0.007435311563313007, -0.02271360717713833, 0.07692212611436844, -0.007550457492470741, -0.026988903060555458, -0.04642993584275246, -0.025226401165127754, 0.05841321870684624, -0.011288335546851158, 0.027803050354123116, -0.025996601209044456, -0.088313028216362, -0.022538183256983757, -0.003590672742575407, -0.011095846071839333, -0.10973285883665085, -0.035168759524822235, -0.03581022843718529, -0.03663131594657898, -0.04430050402879715, 0.017369432374835014, 0.0014470693422481418, -0.0461292490363121, 0.06213083118200302, 0.08568404614925385, 0.02685323730111122, 0.011143523268401623, 0.010280517861247063, -0.0033232385758310556, -0.04209674894809723, 0.02271217107772827, 0.01906673051416874, -0.08430599421262741, -0.062065478414297104, -0.00854358822107315, -0.007011334877461195, -0.07525871694087982, -0.0841948613524437, -0.04027571901679039, -0.014457381330430508, -0.0019262098940089345, 0.002071914728730917, -0.0030151871033012867, 0.0065469942055642605, -0.0028880962636321783, 7.487108814530075e-05, -0.020145023241639137, 0.021339738741517067, -0.007199796847999096, -0.0027550843078643084, 0.028020460158586502, 0.04855465888977051, 0.07176119089126587, 0.06826604157686234, -0.012416169047355652, -0.007098939269781113, -0.013287656009197235, -0.01307299081236124, 0.030370643362402916, 0.015078366734087467, -0.03564675524830818, -0.08354836702346802, -0.006733126938343048, -0.023072242736816406, -0.04125990346074104, -0.05514854937791824, -0.006641697604209185, -0.017287040129303932, -0.05228615552186966, 0.014179950580000877, -0.01779474876821041, -0.020728010684251785, -0.013248425908386707, -0.019773731008172035, -0.0025311000645160675, -0.042863067239522934, 0.03946240246295929, 0.0061204866506159306, -0.003066264558583498, 0.062003955245018005, 0.07305975258350372, -0.09845069795846939, -0.014074418693780899, -0.01707920990884304, 0.01891057752072811, -0.012436922639608383, 0.007460514083504677, -0.03536876663565636, -0.024035857990384102, -0.023875627666711807, 0.006877674255520105, -0.015853997319936752, 0.020008012652397156, 0.14071086049079895, -0.008588166907429695, -0.04902205243706703, -0.037952225655317307, -0.0034619730431586504, 0.027929697185754776, 0.01692814752459526, 0.014150263741612434, 0.018889840692281723, -0.06103862076997757, -0.04779936373233795, 0.0052868640050292015, 0.011159651912748814, -0.023145578801631927, -0.03410039469599724, 0.10594848543405533, -0.0003836147952824831, -0.035927802324295044, 0.007972797378897667, -0.003060762770473957, -0.03723211959004402, 0.03535725176334381, 0.0627804547548294, 0.015660420060157776, 0.02770952880382538, -0.0024441597051918507, -0.01142493262887001, 0.008579588495194912, 0.1608794629573822, 0.03070548176765442, -0.009702352806925774, 0.05320578068494797, -0.023641174659132957, 0.003356006694957614, -0.004129407927393913, 0.03832380473613739, -0.025754233822226524, -0.02462269738316536, -0.013355262577533722, -0.009306858293712139, -0.02749110385775566, -0.02636910043656826, -0.06003333628177643, -0.018666058778762817, -0.008209341205656528, -0.005233743693679571, 0.004197944421321154, 0.005725406110286713, 0.11280625313520432, 0.04978835955262184, 0.09193507581949234, -0.02370542101562023, 0.011340844444930553, -0.00733809033408761, -0.08408535271883011, -0.05831214785575867, 0.013314408250153065, 0.10804352164268494, -0.015054022893309593, -0.017469607293605804, -0.04290948063135147, -0.01660080812871456, -0.13363352417945862, -0.0540095753967762, 0.03370866924524307, 0.01362369954586029, -0.07119937241077423, 0.011986451223492622, -0.010159107856452465, 0.0031858470756560564, -0.06012656167149544, -0.11894629150629044, -0.08592409640550613, -0.05827092379331589, 0.005632263608276844, 0.008044689893722534, 0.033870089799165726, 0.06362896412611008, 0.023934751749038696, -0.03120700642466545, 0.017398646101355553, 0.060564011335372925, -0.030967604368925095, -0.014587156474590302, 0.09260690212249756, 0.05114858224987984, 0.04896564036607742, 0.03144462779164314, -0.03549078851938248, -0.006209279876202345, -0.033314574509859085, -0.00015550741227343678, -0.028120722621679306, -0.03897576034069061, 0.053318023681640625, -0.047589994966983795], "bias": 0.020963698625564575}