{"layer": "fc1", "index": 31, "weights": [-0.021613851189613342, -0.020806167274713516, -0.058903757482767105, -0.07126393169164658, -0.12540416419506073, -0.015398682095110416, 0.06281294673681259, 0.04460172727704048, 0.06031114608049393, 0.014501485973596573, -0.0013433954445645213, -0.08256840705871582, -0.0708862841129303, 0.048354268074035645, -0.0400037057697773, 0.007805039174854755, -0.030267344787716866, 0.052816782146692276, -0.052307263016700745, 0.06119180843234062, 0.11990106105804443, 0.007301291450858116, 0.0031769888009876013, -0.016771594062447548, -0.05032801255583763, -0.04121464118361473, 0.12459702044725418, 0.12148594856262207, 0.021690702065825462, 0.03135944902896881, 0.0033842972479760647, -0.026607254520058632, -0.025402100756764412, -0.03564083203673363, 0.1103527843952179, 0.0013774483231827617, 0.05599116533994675, -0.0007527910638600588, 0.017477521672844887, -0.03331971541047096, -0.057400550693273544, 0.10792253166437149, -0.004229831974953413, -0.00560340378433466, 0.011440177448093891, -0.04622993990778923, -0.018518909811973572, 0.005676370579749346, 0.040384441614151, -0.009787935763597488, 0.007468916475772858, 0.005522498395293951, -0.015137913636863232, -0.007340284995734692, -0.005532281938940287, -0.021628590300679207, 0.028577694669365883, 0.026402927935123444, -0.014245113357901573, 0.010923894122242928, 0.030774720013141632, 0.017214272171258926, -0.026838861405849457, -0.018393833190202713, -0.08670316636562347, -0.07078234106302261, 0.030299630016088486, -0.005135213956236839, 0.020075643435120583, -0.011963319964706898, -0.01673184521496296, -0.08402805030345917, -0.0886373370885849, 0.016145523637533188, -0.07766630500555038, -0.042331989854574203, -0.0041246721521019936, 0.00691602798178792, -0.016494236886501312, -0.02040472999215126, -0.012386203743517399, -0.03855960816144943, 0.008896044455468655, 0.010071019642055035, 0.038758471608161926, 0.04606785997748375, -0.01874403841793537, 0.022023970261216164, -0.04602808132767677, 0.018407082185149193, 0.010251572355628014, 0.019024072214961052, -0.004575009923428297, -0.009066623635590076, 0.0036329166032373905, -0.023548714816570282, -0.014148135669529438, -0.007411891594529152, -0.002018050756305456, 0.028643570840358734, -0.028382638469338417, 0.020737813785672188, 0.03308873996138573, 0.077135369181633, 0.03394920751452446, 0.01349718403071165, -0.03545369207859039, -0.007391151040792465, 0.03707756847143173, -0.09004900604486465, -0.02450885809957981, -0.0670977383852005, 0.02123754657804966, 0.044709403067827225, 0.09126775711774826, 0.15850436687469482, -0.08209419250488281, 4.336429265094921e-05, 0.033688127994537354, 0.029736997559666634, 0.05802848935127258, 0.08200015872716904, 0.15846771001815796, -0.02412380836904049, 0.008168102242052555, 0.06419087201356888, -0.014995227567851543, 0.026611793786287308, 0.062497563660144806, 0.05557021498680115, 0.07633037120103836, 0.034213948994874954, 0.029626380652189255, 0.05606421083211899, 0.03441908583045006, -0.0006317852530628443, 0.07502741366624832, 0.021357035264372826, 0.03512263670563698, 0.019044524058699608, 0.041039347648620605, 0.0319429486989975, 0.0013865688815712929, -0.08990666270256042, -0.01606740802526474, 0.03512047231197357, 0.0005285582737997174, -0.020521419122815132, -0.07447873055934906, -0.05797313153743744, -0.04500358924269676, -0.10250294208526611, 0.05996907502412796, -0.03488253429532051, -0.0090341093018651, -0.09944312274456024, 0.056241050362586975, -0.05975646898150444, 0.024801496416330338, -0.05970875173807144, -0.034087877720594406, 0.0409829244017601, 0.20281729102134705, 0.18191388249397278, 0.054188117384910583, 0.1042485460639, 0.008529944345355034, -0.02430911920964718, -0.01810111477971077, 0.1607147753238678, 0.16126883029937744, 0.19586977362632751, 0.015721727162599564, -0.05070186033844948, -0.03197416663169861, -0.0008327777031809092, -0.15656840801239014, -0.03253192454576492, 0.032513730227947235, -0.03134867548942566, 0.05199636518955231, -0.01589977741241455, 0.028020920231938362, -0.034283597022295, 0.03610751032829285, -0.020748192444443703, -0.015136703848838806, -0.04384249076247215, -0.020711122080683708, -0.04013139754533768, 0.014746839180588722, -0.0185146052390337, -0.08063507825136185, -0.02581312321126461, -0.04511387646198273, -0.025056935846805573, -0.005326705519109964, 0.008844176307320595, 0.006384231150150299, 0.02056930400431156, 0.022603508085012436, 0.014712325297296047, -0.016771208494901657, 0.030001722276210785, 0.0711124986410141, -0.00853411853313446, 0.0027550470549613237, -0.010733844712376595, -0.01987910084426403, -0.0296113733202219, 0.00045240516192279756, 0.04684009030461311, -0.005886698141694069, 0.03160317614674568, -0.016098953783512115, -0.0484064519405365, -0.04533315822482109, -0.019375639036297798, 0.0023031020537018776, 0.011618882417678833, 0.03051445446908474, -0.057777758687734604, -0.02828853763639927, 0.009087706916034222, 0.006460003554821014, 0.04314258322119713, 0.014846518635749817, 0.08712616562843323, 0.02220824919641018, 0.056281812489032745, 0.007590748369693756, 0.0003372855135239661, 0.009767194278538227, 0.024053912609815598, 0.07840088754892349, -0.009333090856671333, -0.003676005871966481, -0.017498008906841278, 0.03118664212524891, 0.006078831851482391, -0.012386762537062168, -0.015107358805835247, -0.03028014488518238, -0.01662149466574192, -0.016296828165650368, -0.02645053155720234, 0.007183902431279421, 0.00975888967514038, 0.018435150384902954, 0.029700109735131264, 0.07303187251091003, 0.05218258127570152, 0.07102693617343903, 0.003318364731967449, 0.035839587450027466, 0.004785778466612101, -0.02015591971576214, -0.033022161573171616, -0.05467008426785469, 0.1128217801451683, -0.0390826053917408, 0.08637737482786179, 0.09961351007223129, -0.04677586257457733, 0.012978957034647465, -0.026690993458032608, -0.08159661293029785, -0.019899357110261917, 0.050859514623880386, 0.01888352259993553, -0.009987160563468933, 0.041060756891965866, -0.0006577054737135768, -0.1180097907781601, -0.057758260518312454, 0.07996132969856262, 0.026782846078276634, -0.02155379019677639, -0.009959298186004162, 0.057691190391778946, 0.04957422614097595, 0.01485655177384615, -0.06900785118341446, -0.06691358983516693, 0.013572661206126213, -0.040090616792440414, 0.03726509213447571, 0.020120831206440926, 0.03703055903315544, -0.03266030177474022, -0.058804936707019806, 0.1531039923429489, -0.03287938982248306, -0.0043630595318973064, 0.002342339837923646, -0.028254035860300064, 0.012322777882218361, -0.06177457422018051, 0.009014776907861233, -0.03340955451130867, -0.008936997503042221, 0.0008721895865164697, -0.038640912622213364, 0.0011250763200223446, 0.07784952223300934, 0.09961562603712082, 0.030954545363783836, -0.018694046884775162, -0.017583301290869713, -0.0037460695020854473, -0.0923985093832016, -0.04715600609779358, 0.09693066775798798, 0.017907151952385902, 0.0017932344926521182, 0.025402843952178955, -0.0385110005736351, -0.08994472771883011, -0.15016993880271912, 0.002733715809881687, -0.031989097595214844, -0.03929789364337921, 0.03180377185344696, 0.017527898773550987, -0.013093901798129082, -0.13325032591819763, -0.0034088834654539824, -0.07077548652887344, -0.0387774333357811, 0.02074478752911091, -0.024455225095152855, -0.04529636725783348, -0.012494685128331184, 0.054023608565330505, 0.057708464562892914, -0.06919071078300476, -0.00923385750502348, -0.043515607714653015, -0.016527043655514717, -0.03472181782126427, 0.027172662317752838, -0.031594935804605484, -0.00017094601935241371, 0.013614920899271965, -0.015550942160189152, -0.009177297353744507, 0.0018961058231070638, -0.003619683440774679, -0.005101368296891451, -0.009373325854539871, 0.007168369367718697, 0.042152922600507736, -0.023646779358386993, -0.01702645793557167, 0.052154164761304855, -0.026553507894277573, 0.06642768532037735, 0.04162481427192688, 0.010382987558841705, -0.03583446145057678, -0.012434979900717735, -0.026993392035365105, -0.038965217769145966, -0.018625564873218536, -0.07215068489313126, -0.06357739865779877, -0.024847984313964844, -0.07437800616025925, 0.025606898590922356, -0.02674771472811699, -0.0678083673119545, 0.03418625146150589, -0.018088992685079575, -0.055815037339925766, -0.12093828618526459, 0.035136252641677856, -0.024109000340104103, 0.06778979301452637, -0.03748142346739769, 0.03971415385603905, 0.024320654571056366, 0.05394142493605614, 0.04035469517111778, -0.04509644955396652, -0.012965195812284946, 0.00503629120066762, -0.03219094127416611, -0.029309168457984924, 0.01610344648361206, -0.031075581908226013, 0.008864848874509335, -0.03072213940322399, 0.0005439618253149092, 0.010246921330690384, -0.03486483916640282, 0.01759674958884716, 0.026349162682890892, -0.0223969928920269, 0.028815478086471558, 0.0059726424515247345, -0.0005680563626810908, 0.02293846569955349, -0.005487499292939901, 0.039467889815568924, 0.007692642044275999, 0.03466585651040077, -0.0046930620446801186, -0.012265968136489391, 0.011231483891606331, 0.022377099841833115, 0.004903301130980253, 0.08562345057725906, -0.029807856306433678, -0.03275839984416962, -0.0172426737844944, -0.025855299085378647, -0.0699356272816658, -0.00584840215742588, -0.008759685792028904, 0.032000064849853516, 0.04994124546647072, 0.00033691449789330363, 0.07935656607151031, 0.04739755764603615, 0.05067560076713562, -0.026598308235406876, -0.007161297835409641, 0.023971540853381157, 0.03028610348701477, 0.030910003930330276, -0.005492284428328276, -0.015112325549125671, -0.015768589451909065, -0.06282153725624084, 0.011702198535203934, -0.01971501298248768, 0.019071752205491066, 0.012645489536225796, -0.014609022997319698, -0.003201608546078205, -0.011245962232351303, 0.014154831878840923, -0.004794568754732609, 0.016410063952207565, -0.0038844903465360403, 0.003872738452628255, -0.002978671807795763, 0.001251284615136683, 0.0013279661070555449, 0.002653539413586259, -0.050903886556625366, -0.061591874808073044, 0.020389992743730545, 0.016023410484194756, 0.024166595190763474, 0.02140861377120018, -0.017223218455910683, -0.01145871914923191, -0.08597790449857712, -0.0337151475250721, 0.025056978687644005, -0.009973318316042423, -0.011789928190410137, -0.025201793760061264, -0.023799395188689232, -0.004315135069191456, -0.03386114910244942, -0.032308973371982574, -0.04183837026357651, -0.017192911356687546, 0.03782741352915764, -0.08491280674934387, -0.10287606716156006, 0.048477765172719955, -0.02032499946653843, 0.015794290229678154, 0.03507085144519806, 0.055263832211494446, 0.03782215714454651, 0.10121791809797287, 0.008048349991440773, 0.00465036928653717, -0.015719521790742874, -0.022198250517249107, -0.006558328866958618, -0.004480925388634205, -0.006368617061525583, -0.020948467776179314, -0.021557439118623734, -0.019621586427092552, 0.0038334832061082125, 0.02299673855304718, 0.038100387901067734, 0.027914827689528465, 0.04212455824017525, -0.007222436368465424, -0.017780909314751625, 0.004042430780827999, -0.010776875540614128, -0.033235371112823486, 0.024261130020022392, -0.022328929975628853, -0.007216840051114559, -0.013484710827469826, -0.004701434168964624, -0.09385016560554504, -0.12109556049108505, -0.11852499097585678, 0.029860692098736763, -0.03346797078847885, -0.05054757744073868, -0.00969911739230156, -0.02070690505206585, -0.099540114402771, -0.01922786422073841, 0.03006240539252758, 0.014817404560744762, 0.02528338134288788, 0.025215907022356987, -0.004296578466892242, 0.015581038780510426, 0.03353612497448921, 0.0640602856874466, 0.030976099893450737, 0.022276317700743675, 0.05204646661877632, 0.03249683231115341, -0.02034873515367508, -0.019206052646040916, -0.001020200434140861, -0.04022308439016342, 0.034547798335552216, -0.010210148990154266, 0.06067816913127899, -0.016472646966576576, -0.00628582714125514, -0.040465097874403, -0.013685490004718304, -0.021528393030166626, -0.02033223584294319, -0.032907821238040924, -0.011828687973320484, 0.018945734947919846, -0.03277045488357544, 0.020272664725780487, 0.009790612384676933, 0.026084383949637413, -0.0247725211083889, 0.013702942989766598, -0.012023361399769783, -0.10014086216688156, -0.14863280951976776, 0.04201395437121391, 0.059497881680727005, 0.13439789414405823, 0.19853512942790985, 0.020361080765724182, 0.16178566217422485, 0.021732943132519722, 0.009289913810789585, -0.01862187683582306, -0.018907567486166954, 0.03651045262813568, 0.048278216272592545, 0.07267595082521439, -0.02716793678700924, -0.0037831051740795374, -0.058879487216472626, -0.004119321703910828, -0.00921107642352581, -0.07479960471391678, 0.0021332053001970053, -0.01122938934713602, 0.04607446864247322, -0.034300483763217926, 0.11179541051387787, 0.004143815953284502, 0.039683107286691666, 0.03087419643998146, -0.05760609731078148, -0.018164481967687607, 0.009766656905412674, -0.014637678861618042, -0.04744069650769234, -0.037025123834609985, -0.07680153101682663, 0.031133923679590225, -0.029913678765296936, -0.008969754911959171, 0.02618422918021679, -0.006194139830768108, -0.007448913995176554, -0.013318872079253197, 0.0086940573528409, 0.0016715917736291885, 0.01501904334872961, -0.04447190836071968, 0.006252591032534838, -0.15523946285247803, 0.004547304008156061, 0.03364356607198715, 0.10645290464162827, -0.014386983588337898, -0.03556535392999649, 0.08779654651880264, 0.10821102559566498, 0.10347340255975723, 0.025840789079666138, 0.005942598916590214, -0.04668866842985153, -0.0022371779195964336, 0.11121895909309387, 0.03946434333920479, -0.011524979025125504, 0.029418975114822388, -0.011754096485674381, -0.005050379317253828, -0.0029732827097177505, -0.12066235393285751, -0.1494225412607193, 0.03963060304522514, 0.01827356405556202, 0.0037896849680691957, -0.04177088662981987, -0.037256088107824326, 8.098942635115236e-05, -0.025597834959626198, 0.0059690773487091064, -0.03513374179601669, -0.02584478259086609, -0.0034760788548737764, -0.010911869816482067, -0.039650171995162964, -0.019908875226974487, -0.07571080327033997, -0.003954990301281214, -0.028694385662674904, 0.0010432343697175384, -0.0006454068934544921, 0.016853341832756996, 0.015175942331552505, -0.008650623261928558, -0.007714459672570229, 0.011105655692517757, 0.010318565182387829, 0.0101670166477561, 0.006641734857112169, 0.0015545368660241365, -0.004027655813843012, 0.030769873410463333, -0.005972045473754406, 0.01890498213469982, -0.011714927852153778, 0.0024078977294266224, -0.01371090579777956, -0.0046079689636826515, 0.0014934878563508391, -0.04771744832396507, -0.03858427703380585, -0.0001760347659001127, 0.001555763534270227, -0.0029023238457739353, 0.03502418473362923, 0.0251789391040802, 0.027278555557131767, 0.018082045018672943, 0.00558467349037528, 0.008245330303907394, 0.03411244601011276, 0.045290373265743256, -0.00739501416683197, 0.008914402686059475, 0.032614756375551224, -0.0013085086829960346, 0.026802871376276016, 0.016893930733203888, 0.0029210965149104595, -0.01056117657572031, -0.0018957292195409536, 0.004139072261750698, 0.010024141520261765, -0.004351769108325243, -0.019528916105628014, -0.009481463581323624, -0.018790606409311295, 0.009420177899301052, -0.007453125435858965, -0.008611131459474564, -0.01987089030444622, 0.021403208374977112, -0.047060124576091766, -0.09492800384759903, -0.0036432889755815268, -0.01449574064463377, 0.013986870646476746, -0.010960085317492485, 0.0055883219465613365, 0.05196915566921234, 0.04103092476725578, 0.04719299077987671, -0.08019786328077316, -0.07868335396051407, -0.12075649201869965, 0.011142997071146965, 0.032693859189748764, 0.1010528951883316, -0.019999923184514046, -0.03777284175157547, -0.10110233724117279, -0.12309280782938004, -0.03761998191475868, -0.046733226627111435, 0.019046347588300705, -0.01944742165505886, 0.004481191281229258, 0.03241368755698204, 0.030175907537341118, -0.14648108184337616, -0.014506722800433636, -0.011918392963707447, -0.037216756492853165, 0.007740780711174011, 0.06772365421056747, 0.004180442076176405, -0.07627049833536148, -0.023980289697647095, 0.013487234711647034, -0.009864362888038158, 0.00860279519110918, 0.013875788077712059, -0.044894639402627945, -0.041603200137615204, -0.012624761089682579, 0.01820664294064045, -0.028284166008234024, 0.025368766859173775, 0.03775763139128685, 0.050035953521728516, -0.10379330813884735, 0.08784355223178864, 0.0037072941195219755, 0.0326315276324749, 0.039180953055620193, -0.023809101432561874, 0.07220250368118286, -0.00607043644413352, -0.0023835657630115747, -0.07538248598575592, -0.05554259940981865, 0.05797741562128067, -0.04559941962361336, -0.02227787859737873, 0.12019721418619156, 0.08587457984685898, -0.05958228558301926, -0.058621279895305634, -0.06162279471755028, 0.024756625294685364, -0.06481757760047913, 0.09348990023136139, 0.06758798658847809, 0.07297119498252869, 0.08124450594186783, 0.031407829374074936, -0.03848214074969292, -0.06370270252227783, -0.010237039066851139, -0.016038168221712112, 0.027042165398597717, 0.05852369964122772, 0.03489384800195694, -0.005419790744781494, 0.01447416190057993, 0.015291711315512657, -0.04693302884697914, -0.031642504036426544, 0.018559828400611877, -0.013699574396014214, -0.007615112233906984, 0.06020248681306839, -0.004949828609824181, 0.009972531348466873, -0.0112871453166008, 0.0006618702900595963, -0.015587089583277702, 0.007249062415212393, 0.014026911929249763, 0.0463356077671051, 0.007707471493631601, 0.008768088184297085, -0.011308356188237667, 0.005423929076641798, 0.06710832566022873, 0.05926435813307762, 0.06474387645721436, 0.03115682676434517, -0.03263147920370102, -0.01929493620991707, -0.022207461297512054, 0.02963552437722683, 0.03587871417403221, 0.10526677221059799, 0.013261247426271439, -0.049953583627939224, -0.11972815543413162, -0.022496579214930534, -0.07572949677705765, -0.025978952646255493, -0.03295794129371643, -0.021586589515209198, 0.05827447399497032, -0.0031429107766598463, 0.0026725223287940025, 0.05139731243252754, -0.0001481054787291214, 0.044739384204149246, 0.08153188973665237, 0.005123878829181194, 0.04175511375069618, 0.03096730262041092, 0.017977584153413773, 0.03240474313497543, 0.052120719105005264, -0.02432108297944069, -0.01827450469136238, 0.008350731804966927, 0.0075604976154863834, 0.008388537913560867, -0.001232069218531251, -0.07034633308649063, -0.007647717371582985, -0.024832196533679962, 0.0020617556292563677, 0.0025212946347892284, 0.0523686446249485, 0.008848998695611954, 0.0360620841383934, 0.03250493109226227, 0.08800351619720459, 0.010622662492096424, 4.8916885134531185e-05, -0.016431357711553574, 0.0064490013755857944, 0.03820750117301941, -0.04338864982128143, -0.06417684257030487, -0.013884080573916435, 0.024025216698646545, 0.07669463008642197, 0.020852675661444664, -0.055085498839616776, -0.024090226739645004, -0.013736368156969547, -0.054888736456632614, 0.07047268748283386, 0.06950193643569946, 0.03772243112325668, 0.018423406407237053, -0.010104612447321415, 0.004699978046119213, 0.029025685042142868, -0.01828310452401638, 0.044495344161987305, 0.023321667686104774, 0.026216179132461548, 0.031631093472242355, 0.029164502397179604, 0.021984003484249115, 0.013691850937902927, 0.056181035935878754, -0.014488170854747295, -0.01340794563293457, 0.034643713384866714, 0.019445765763521194, 0.015853559598326683, 0.04014850780367851, -0.04226256161928177, -0.012778139673173428, -0.09408730268478394, 0.07900206744670868, -0.022949256002902985, 0.013536308892071247, 0.016848240047693253, 0.008902324363589287, 0.005149949342012405, 0.003230796428397298, -0.005505973938852549, 0.004938398487865925, -0.01437115017324686, 0.0046680038794875145, -0.0260048545897007, -0.048837196081876755, 0.023736746981739998, 0.043628402054309845, -0.007464509457349777, -0.030002636834979057, -0.08586457371711731, -0.1042698472738266, -0.0487787127494812, 0.13146552443504333, 0.07029762119054794, 0.04810009524226189, -0.00018839059339370579, -0.06286696344614029, -0.08624618500471115, -0.07724426686763763, -0.049316976219415665, 0.009361197240650654, 0.06031334772706032, 0.03917396068572998, 0.020414985716342926, 0.007499516475945711, -0.0688672587275505, -0.026641860604286194, -0.04936705157160759, -0.009349338710308075, 0.008293974213302135, 0.004353291820734739, -0.002312941011041403, -0.010753294453024864, -0.040199317038059235, -0.020532140508294106, -0.12703725695610046, 0.05777956172823906, 0.02282627299427986, -0.010798330418765545, 0.030213823541998863, -0.006651610601693392, -0.07304612547159195, 0.00160426483489573, -0.013468865305185318, 0.001144108478911221, 0.076896533370018, -0.0093334736302495, 0.034543368965387344, 0.03241948038339615, 0.020279375836253166, 0.07788992673158646, 0.04586031660437584, -0.04411562532186508, 0.0025318842381238937, -0.01821264997124672, -0.10391172021627426, -0.04229239746928215, -0.04431857913732529, -0.04869668558239937, -0.02795422449707985, 0.1645597666501999, 0.16768738627433777, 0.0016801486490294337, -0.01059955544769764, -0.002327957656234503, 0.004745455924421549, 0.08807652443647385, 0.12628844380378723, 0.07262672483921051, -0.11140965670347214, 0.04866312816739082, 0.02517092600464821, 0.027401456609368324, 0.01773994415998459, -0.06026077643036842, 0.008699051104485989, 0.007820780389010906, 0.008268829435110092, 0.02436503954231739, 0.03019377402961254, -0.09466804563999176, 0.05645349621772766, -0.0015377805102616549, 0.023503003641963005, 0.055894635617733, -0.003031071973964572, -0.08119567483663559, 0.03982067108154297, -0.0030762830283492804, -0.03323744982481003, -0.09336088597774506, 0.05511966347694397, 0.0073830923065543175, -0.0071757640689611435, -0.01868937350809574, -0.030187388882040977, 0.006455117836594582, 0.02631634846329689, 0.00028535365709103644, -0.015223696827888489, -0.006098559591919184, 0.06489550322294235, 0.2119535654783249, 0.09027649462223053, -0.006827040575444698, -0.08617380261421204, -0.010554826818406582, 0.05243668332695961, 0.13385047018527985, 0.13545356690883636, 0.14641110599040985, -0.04266016557812691, -0.050588272511959076, -0.03444548696279526, 0.022074783220887184, 0.08626377582550049, 0.07191979885101318, -0.022465845569968224, -0.03167679160833359, -0.09598632156848907, -0.019875390455126762, -0.03490220010280609, -0.10276158154010773, -0.02437523379921913, 0.03191172331571579, -0.01030116155743599, -0.04919419065117836, 0.019898943603038788, 0.056532081216573715, -0.017775671556591988, 0.05832348391413689, 0.06990619748830795, 0.019148193299770355, -0.015844620764255524, 0.0003413088561501354, -0.03669694811105728, 0.020999757573008537, 0.05228601023554802, -0.012991792522370815, -0.019298234954476357, -0.026438433676958084, 0.004023145884275436, 0.0012507549254223704, -0.047045957297086716, -0.0015672255540266633, -0.06669605523347855, -0.01297637727111578, 0.05376503989100456, 0.030220674350857735, -0.009374556131660938, -0.02197764627635479, -0.0472889170050621, -0.049266114830970764, 0.01651073433458805, 0.004964321851730347, -0.04354662820696831, -0.10334756970405579, -0.060335174202919006, 0.030945362523198128, 0.059927087277173996, 0.02160155028104782, 0.07465267181396484, 0.008591687306761742, 0.013449210673570633, 0.02576155588030815, 0.04085791856050491, -0.021901508793234825, 0.026834240183234215, -0.022517329081892967, -0.027077287435531616, 0.03443202003836632, 0.05122314766049385, -0.029321543872356415, -0.0741514340043068, -0.016644196584820747, -0.037770505994558334, 0.030950065702199936, -0.02043091505765915, 0.044388920068740845, -0.010165623389184475, -0.04933527112007141, 0.0005966275348328054, -0.03746269270777702, -0.06076148524880409, -0.0003431355580687523, 0.006502611096948385, 0.004806761164218187, -0.005022741388529539, -0.006408272311091423, 0.044190727174282074, 0.012175149284303188, 0.005136133171617985, 0.04118967801332474, 0.048919931054115295, 0.07384826242923737, 0.06271424889564514, 0.022037476301193237, -0.06883782893419266, 0.05740730091929436, 0.03700655698776245, 0.04372413456439972, 0.050084393471479416, -0.00487483199685812, -0.0427694097161293, -0.034072667360305786, 0.02174389734864235, -0.03440195322036743, -0.051150787621736526, -0.03588204085826874, -0.0010041454806923866, -0.067315474152565, -0.07642705738544464, 0.041026871651411057, 0.14170287549495697, 0.05565789341926575, 0.010196607559919357, 0.0381612628698349, 0.033562637865543365, 0.03911196067929268, 0.047006756067276, 0.015085931867361069, -0.00522572873160243, 0.03481893986463547, 0.07527906447649002, -0.0021917226258665323, -0.01269843615591526, -0.0006473598186857998, 0.011468801647424698, -0.004313181154429913, -0.03150423988699913, -0.01409848965704441, 0.012826100923120975, 0.11360717564821243, -0.029345372691750526, 0.05508798733353615, 0.09735435992479324, 0.04510626569390297, 0.019299743697047234, 0.019602691754698753, -0.0141921890899539, -0.005723258480429649, 0.02352895773947239, 0.06375632435083389, 0.03401254490017891, 0.029988203197717667, -0.017414936795830727, -0.008639639243483543, 0.004791471641510725, -0.04256639629602432, -0.010867509990930557, 0.019697383046150208, 0.007571261376142502, 0.02172250673174858, -0.023567359894514084, -0.012562639079988003, -0.12134688347578049, -0.18344485759735107, -0.04776068031787872, 0.07222124934196472, -0.01616998389363289, -0.018742650747299194, -0.03591109812259674, -0.13255693018436432, -0.16994836926460266, 0.011146262288093567, -0.008790282532572746, -0.024881023913621902, 0.009409750811755657, 0.008795564994215965, 0.04779988154768944, 0.02259019762277603, 0.0785660445690155, 0.07858850061893463, 0.006443336606025696, 0.017828144133090973, 0.044678445905447006, 0.006612594239413738, 0.016073152422904968, -0.013767403550446033, 0.023541957139968872, -0.004953248426318169, -0.025968363508582115, 0.013257507234811783, 0.01713292859494686, 0.0015769846504554152, -0.02214772254228592, -0.016605425626039505, -0.026337677612900734, -0.007621613796800375, -0.012966874055564404, 0.011289576068520546, 0.005660436116158962, 0.031304389238357544, 0.04547252133488655, 0.004052566830068827, -0.0213213749229908, -0.0065660723485052586, 0.1341186910867691, 0.0019802958704531193, -0.006882852874696255, -0.035714928060770035, -0.13313031196594238, -0.038419224321842194, 0.020194150507450104, 0.07128341495990753, 0.042615409940481186, 0.053179167211055756, -0.050716571509838104, -0.04868387058377266, -0.05901903659105301, -0.03595401719212532, -0.0509098581969738, 0.02345404587686062, -0.004050618503242731, -0.0451405867934227, -0.004821296315640211, -0.026134150102734566, 0.008445102721452713, -0.006709751207381487, 0.03635456785559654, -0.011525307781994343, 0.0919252410531044, 0.044962115585803986, 0.03368262201547623, 0.0033372442703694105, 0.04135558009147644, 0.0023690678644925356, 0.014192191883921623, 0.00729225343093276, -0.04465535283088684, -0.009174570441246033, 0.02224859781563282, 0.005129383411258459, 0.028703423216938972, -0.035652633756399155, -0.02892845869064331, -0.03548392653465271, -0.04148139804601669, -0.012969638220965862, 0.07301519066095352, 0.0644538477063179, 0.02472856268286705, 0.02260863408446312, 0.04813368618488312, 0.04242726042866707, 0.037702418863773346, -0.08603645116090775, -0.02220146544277668, 0.09146635979413986, 0.0037829678039997816, 0.05674811825156212, -0.011607030406594276, 0.005601202603429556, -0.17126286029815674, -0.2370554506778717, -0.13608001172542572, 0.0350053645670414, -0.0030235997401177883, -0.021101200953125954, -0.02241899073123932, -0.11440219730138779, -0.15982215106487274, -0.02255840227007866, -0.007509392220526934, -0.011741907335817814, -0.012593462131917477, -0.02399449050426483, 0.09295713901519775, -0.011055164970457554, -0.0002166558406315744, 0.05148037523031235, -0.006516929715871811, -0.03864968195557594, 0.11274725198745728, -0.00660861749202013, -0.044222597032785416, -0.04384804144501686, 0.046953387558460236, 0.0013028491521254182, -0.09304988384246826, 0.0005085848388262093, 0.049419600516557693, -0.06313731521368027, -0.043468501418828964, 0.06247466057538986, -0.062037572264671326, -0.0122470548376441, 0.014721959829330444, 0.018424849957227707, 0.014404417015612125, 0.01201140321791172, -0.03321259096264839, 0.0007196533260867, -0.01167143415659666, 0.042791787534952164, 0.030388519167900085, 0.03818058967590332, 0.033977534621953964, -0.0071357241831719875, -0.02267942763864994, 0.060860712081193924, 0.02632259763777256, -0.005349102895706892, -0.02800682745873928, 0.04270314425230026, -0.0026449195574969053, -0.0036048637703061104, -0.0018789235036820173, -0.016248784959316254, -0.039418213069438934, -0.008551286533474922, -0.011395745910704136, 0.026359081268310547, 0.024157816544175148, 0.024158300831913948, 0.007579985540360212, 0.040601540356874466, 0.014629393815994263, 0.06880386173725128, 0.06092505156993866, 0.006636995822191238, 0.027637936174869537, 0.023947639390826225, 0.015124225057661533, 0.021754954010248184, -0.019457323476672173, -0.043031446635723114, -0.03165804222226143, 0.022036658599972725, 0.0017025208799168468, 0.03597722575068474, 0.03136344999074936, 0.014822443015873432, -0.02103457972407341, -0.011713400483131409, -0.027542278170585632, -0.01117387693375349, 0.001924486830830574, 0.022077379748225212, -0.08763168752193451, 0.01836787536740303, 0.012473748996853828, 0.11833684146404266, 0.03110119327902794, -0.028940817341208458, -0.08230724930763245, 0.08643247187137604, 0.05725572258234024, -0.001930559752508998, 0.03942346200346947, -0.017748992890119553, -0.07723471522331238, -0.1839786320924759, -0.06493137776851654, 0.0951954647898674, -0.002564435126259923, 0.006486054044216871, 0.01764748804271221, -0.07746054232120514, -0.12144359946250916, -0.12537109851837158, 0.014173868112266064, -0.012381820939481258, -0.013861875981092453, 0.0009723669500090182, 0.04230077564716339, 0.015948336571455002, -0.0810699388384819, 0.00930554885417223, -0.05209362134337425, 0.010745501145720482, -0.05853568762540817, 0.03713707625865936, -0.012648914009332657, -0.13743039965629578, -0.01731652021408081, 0.0015972632681950927, -0.0362459197640419, 0.019490504637360573, 0.036305639892816544, -0.01349815633147955, -0.03430146723985672, -0.019810736179351807, 0.0017464933916926384, -0.03363127261400223, 0.004843413829803467, 0.03689055144786835, -0.017368091270327568, 0.049534350633621216, 0.0490700863301754, -0.004736621864140034, 0.10130507498979568, 0.02878192439675331, -0.012479953467845917, 0.021794745698571205, 0.01943686045706272, -0.05285964161157608, -0.09330100566148758, -0.09044253826141357, -0.07199542969465256, -0.015372096560895443, 0.05872136354446411, 0.08870898932218552, -0.0028132537845522165, -0.0703829675912857, 0.008015637286007404, 0.0690428838133812, 0.07237034291028976, 0.054148104041814804, 0.04630580171942711, 0.017185179516673088, 0.06963326036930084, -0.0011512433411553502, 0.012138317339122295, 0.03271784260869026, 0.007168963551521301, 0.06134837120771408, 0.04300349950790405, -0.03305945545434952, 0.059356432408094406, -0.00012586769298650324, -0.06611630320549011, 0.027187932282686234, 0.030407657846808434, 0.009067289531230927, 0.00490953354164958, -0.004716040100902319, -0.06296836584806442, -0.024895906448364258, 0.03456462547183037, 0.0016799289733171463, -0.06711246073246002, -0.01873799040913582, 0.020061220973730087, 0.0007117224740795791, -0.008148658089339733, -0.025203289464116096, -0.009786546230316162, -0.05454276129603386, -0.06781931221485138, 0.012140156701207161, 0.0021173341665416956, -0.04541315138339996, -0.020596198737621307, -0.06272047013044357, 0.029884297400712967, 0.005698375403881073, 0.051077768206596375, -0.07134252786636353, -0.08104290068149567, -0.05191773548722267, 0.03750638663768768, 0.1449267417192459, 0.017978327348828316, -0.0013886010274291039, -0.05362655967473984, -0.0583801344037056, 0.001415192848071456, -0.04559928923845291, 0.016311699524521828, 0.013329822570085526, -0.00809402670711279, 0.009324521757662296, 0.02868070639669895, -0.06475851684808731, -0.1329699456691742, -0.012962372973561287, 0.006347331218421459, 0.0113791823387146, 0.020997250452637672, 0.06043194606900215, -0.03381819278001785, -0.07906220108270645, -0.026196928694844246, -0.04721783846616745, -0.017881421372294426, -0.020079106092453003, 0.032714132219552994, -0.08347666263580322, -0.05247598513960838, -0.06640955805778503, -0.019751982763409615, -0.040346138179302216, -0.007421610876917839, 0.02973051369190216, -0.0410299152135849, 2.8098693292122334e-05, 0.07457730174064636, 0.03356022387742996, -0.010590369813144207, -0.011990743689239025, 0.0032355785369873047, -0.03714492917060852, -0.034482311457395554, 0.021875053644180298, 0.006874400191009045, -0.02630116231739521, -0.016576368361711502, -0.09468895941972733, -0.0249415822327137, 0.018158279359340668, -0.05975940823554993, -0.05291493609547615, 0.009998319670557976, 0.009768655523657799, -0.04085056856274605, 0.08606787770986557, 0.079531729221344, -0.029959043487906456, 0.026498090475797653, 0.019315604120492935, 0.015532375313341618, -0.015660280361771584, 0.0003402467700652778, 0.002575563732534647, 0.035669997334480286, 0.10294025391340256, 0.025719495490193367, -0.0007346596103161573, -0.0284957867115736, -0.03406441584229469, -0.08466730266809464, -0.049615055322647095, -0.005428974516689777, 0.014040582813322544, 0.001638562767766416, -0.01738409884274006, -0.0017027781577780843, 0.04398972541093826, 0.004927482455968857, -0.008964898996055126, -0.0006445219041779637, 0.033595819026231766, 0.024269480258226395, 0.0279177725315094, 0.03825916722416878, -0.02320944331586361, 0.11169061064720154, 0.02381186932325363, 0.05131912976503372, -0.06527216732501984, -0.021884744986891747, 0.03835124894976616, 0.03581266477704048, 0.018033059313893318, 0.10273427516222, -0.034989506006240845, -0.16463850438594818, -0.10050249844789505, -0.011748182587325573, 0.09402322769165039, -0.021642450243234634, -0.06612705439329147, -0.08962421864271164, -0.06693542003631592, -0.07101339846849442, -0.17293114960193634, 0.022090744227170944, -0.08835789561271667, 0.11782175302505493, 0.0017322422936558723, -0.0011234774719923735, -0.0003567899693734944, -0.06190064921975136, -0.039560843259096146, -0.06372816115617752, 0.022101856768131256, 0.05278201401233673, 0.06562815606594086, 0.006842461880296469, -0.0187055803835392, 0.034028418362140656, -0.12004906684160233, -0.03969136252999306, -0.023206643760204315, 0.04604417830705643, -0.06656572222709656, -0.04117392748594284, 0.09700673073530197, -0.1246720403432846, 0.007232399191707373, 0.010166695341467857, 0.0048507992178201675, -0.013604439795017242, 0.00972062349319458, 0.01164751686155796, 0.014923355542123318, 0.023141659796237946, 0.016677087172865868, -0.012561589479446411, 0.010349387302994728, 0.006551150232553482, -0.015063639730215073, 0.01059415191411972, 0.00011460110545158386, -0.013410354033112526, -0.014214035123586655, -0.01519162580370903, 0.010928710922598839, -0.008193382062017918, -0.005696963518857956, -0.00534703116863966, -0.004403961822390556, -0.008697315119206905, 0.007910732179880142, -0.0007537342607975006, 0.015046840533614159, 0.0032331570982933044, -0.007290729321539402, 0.012163912877440453, 0.00013622082769870758, -0.013569151051342487, -0.006011737510561943, -0.016864938661456108, -0.014811422675848007, 0.005110446363687515, 0.0057629868388175964, 0.008648032322525978, -0.009693590924143791, -0.00037089549005031586, -0.008869430981576443, -0.009077737107872963, 0.011323850601911545, 0.013557342812418938, -0.016897661611437798, -0.00747420359402895, 0.01283293217420578, -0.017151635140180588, -0.003338743932545185, -0.006456328555941582, 0.02303968369960785, 0.010773644782602787, 0.057962168008089066, -0.055005427449941635, 0.035392776131629944, 0.007772825658321381, -0.014486887492239475, 0.00852051842957735, 0.013639040291309357, -0.020388048142194748, 0.044782139360904694, 0.03512236475944519, 0.05102529004216194, -0.03364251181483269, -0.01667696423828602, -0.12354016304016113, -0.1263071745634079, -0.05887479707598686, 0.01265552919358015, 0.004420744255185127, -0.0012293178588151932, -0.02517636865377426, -0.09912218898534775, -0.17164993286132812, -0.08279331028461456, 0.025385072454810143, 0.010048369877040386, -0.01311432383954525, 0.000300933257676661, 0.10075277090072632, -0.08254009485244751, 0.001884247874841094, -0.018630824983119965, -0.05271000787615776, 0.008646243251860142, 0.03037158213555813, 0.03241506963968277, -0.012594337575137615, 0.044734250754117966, 0.051366742700338364, -0.04626380652189255, -0.013808905147016048, 0.012979592196643353, 0.013835486955940723, -0.07005153596401215, -0.011313550174236298, -0.0044380780309438705, -0.06843612343072891, 0.005962719675153494, 0.0020760500337928534, 0.020054807886481285, 0.015346499159932137, 0.03559619188308716, 0.015209264121949673, 0.013909930363297462, 0.0118562625721097, -0.022786516696214676, 0.00728994607925415, 0.027549808844923973, 0.03485900163650513, 0.012112193740904331, -0.025757979601621628, -0.06858965009450912, -0.060423340648412704, -0.08073921501636505, -0.07948306947946548, -0.12498743087053299, -0.012271438725292683, 0.018472794443368912, 0.01090043131262064, 0.003340638941153884, -0.03779762610793114, -0.107808917760849, 0.022232726216316223, 0.05884070321917534, 0.03468066453933716, 0.03436776623129845, 0.05032103508710861, 0.06442166864871979, 0.00426801573485136, 0.008020911365747452, 0.07849153131246567, -0.0049546342343091965, -0.025767451152205467, 0.010286313481628895, -0.02716634050011635, -0.027301693335175514, -0.09574917703866959, 0.006697099655866623, 0.0052139475010335445, -0.0738975927233696, 0.023415837436914444, 0.07457007467746735, -0.017038919031620026, -0.07489550113677979, -0.0032924881670624018, -0.00671243155375123, 0.004469092469662428, 0.011117305606603622, 0.01782846637070179, 0.0067009348422288895, 0.00040925524081103504, 0.0106493029743433, -0.008464797399938107, 0.011875697411596775, 0.0005421135574579239, 0.004443347454071045, 0.012240256182849407, -0.021605074405670166, -0.007478766608983278, 0.003425894770771265, 0.021233705803751945, 0.012710895389318466, 0.017122803255915642, -0.02606206201016903, 0.0017816273029893637, -0.00017227664648089558, -0.00016510981367900968, -0.005921287462115288, 0.00030693039298057556, 0.01812835782766342, 0.02483360283076763, 0.009312856942415237, -0.005526914726942778, -8.394821634283289e-05, 0.0009463698952458799, -0.0023899786174297333, 0.005759211257100105, -0.004419486504048109, 0.016099028289318085, -0.01829301193356514, -0.002647647401317954, -0.002993585541844368, 0.007034687325358391, 0.01351466216146946, 0.008168434724211693, -0.011696038767695427, -0.0023820684291422367, 0.006050009746104479, -0.002039831131696701, -0.00245530903339386, -0.016459045931696892, -0.0005885008722543716, 0.0029605943709611893, -0.01364191621541977, 0.00976543128490448, 0.003276156261563301, 0.020378204062581062, 0.09143482148647308, 0.07461179047822952, 0.15176920592784882, 0.045465338975191116, -0.033871132880449295, -0.012335080653429031, 0.024206269532442093, 0.06612838059663773, 0.11140882968902588, 0.09154804795980453, -0.013537264429032803, -0.07249701023101807, 0.04450972005724907, -0.011873442679643631, 0.04979971423745155, -0.060437895357608795, 0.025759659707546234, 0.002408432075753808, -0.07494012266397476, -0.05483991652727127, -0.04307762533426285, -0.1140524223446846, -0.0743386521935463, -0.012940589338541031, 0.024250824004411697, 0.029131755232810974, 0.01728486642241478, 0.0805329829454422, 0.03378387540578842, 0.028841475024819374, 0.09865957498550415, 0.08057691901922226, 0.03895467892289162, 0.02982332929968834, 0.035937268286943436, -0.01272503286600113, 0.05580480396747589, 0.016002420336008072, -0.036359481513500214, 0.006486893631517887, 0.03131119906902313, 0.004536191932857037, 0.04186277091503143, 0.03372779116034508, -0.0080967266112566, 0.042491309344768524, -0.03418919816613197, -0.0034645143896341324, -0.015478989109396935, 0.06309589743614197, 0.03422759473323822, 0.03681524842977524, 0.04814518988132477, -0.011021789163351059, 0.019881751388311386, -0.004237071610987186, -0.012708180584013462, 0.02117667905986309, 0.04083447530865669, 0.024504108354449272, -0.06635075807571411, -0.030017856508493423, -0.008665142580866814, -0.05390964075922966, -0.06811852753162384, 0.01879587583243847, -0.023074395954608917, -0.07560845464468002, -0.07423563301563263, -0.02358481101691723, -0.10141869634389877, -0.06413349509239197, -0.04810427874326706, -0.0037788779009133577, -0.0027722124941647053, -0.03526024892926216, 0.02622270956635475, -0.0329323336482048, -0.010298900306224823, 0.07469598948955536, -0.033797405660152435, -0.04992632195353508, -0.0064205629751086235, 0.006746199913322926, 0.013869618996977806, -0.007991672493517399, 0.04019791632890701, 0.08019357174634933, 0.054383765906095505, 0.0058586811646819115, -0.025784125551581383, 0.03160516545176506, 0.013353437185287476, 0.04782528430223465, -0.025096146389842033, -0.05043812096118927, -0.006573036778718233, -0.03257940337061882, 0.008371157571673393, -0.019061384722590446, 0.00747867813333869, 0.007111480459570885, 0.12061439454555511, 0.001997704617679119, 0.038202572613954544, -0.035929035395383835, 0.0037014796398580074, 0.04884925112128258, -0.002621609251946211, -0.018218833953142166, 0.016009779646992683, 0.017592687159776688, 0.08552088588476181, -0.05186598747968674, 0.0006443117163144052, 0.0335344634950161, -0.07971861958503723, -0.05234174802899361, 0.05860874056816101, 0.0605386458337307, -0.012306766584515572, 0.04890483617782593, -0.003348490223288536, 0.03020728938281536, 0.0038832728751003742, -0.036084454506635666, 0.08772579580545425, 0.058385077863931656, -0.001115575898438692, 0.052524663507938385, 0.007695558946579695, -0.017802022397518158, 0.007953258231282234, 0.03260653093457222, -0.0617758072912693, 0.055191557854413986, 0.04603249952197075, 0.03183629363775253, 0.0013744860189035535, -0.03971555083990097, -0.011451908387243748, -0.013770359568297863, 0.01280633918941021, -0.03980183228850365, 0.0022015785798430443, -0.027138611301779747, 0.0016155620105564594, 0.01868496648967266, 0.0007174776983447373, 0.012990600429475307, -0.005453028716146946, -0.021693401038646698, -0.014948759227991104, 0.005431903060525656, -0.005472077056765556, -0.04341651871800423, 0.016842521727085114, 0.025475073605775833, 0.030268952250480652, -0.003293696790933609, -0.019503623247146606, -0.07544217258691788, -0.06860393285751343, -0.010259314440190792, 0.011983624659478664, 0.00925296451896429, -0.023064199835062027, 0.01507597416639328, -0.040858540683984756, -0.06987949460744858, 0.007818522863090038, -0.03295712545514107, -0.008634204976260662, 0.01828322559595108, 0.016131680458784103, 0.020444123074412346, 0.016895512118935585, 0.0037460001185536385, 0.019696181640028954, 0.022005803883075714, -0.007728511467576027, 0.03064427711069584, 0.0174886342138052, -0.010017268359661102, 0.008431496098637581, 0.0007028309046290815, 0.017245421186089516, -0.0242824237793684, 0.03410324454307556, 0.005155358463525772, 0.02462511509656906, -0.030831318348646164, -0.029152408242225647, -0.019470317289233208, 0.009245935827493668, 0.007314122281968594, -0.014826658181846142, -0.010198927484452724, 0.010746609419584274, 0.04991855099797249, -0.015329236164689064, -0.0044591850601136684, -0.002347589936107397, 0.08804498612880707, 0.06405847519636154, 0.005501290783286095, -0.05777764692902565, -0.10091352462768555, -0.005942183546721935, 0.04913695156574249, 0.10365729033946991, 0.06527621299028397, 0.06571295857429504, -0.052520714700222015, -0.05395547300577164, -0.04227910190820694, -0.007929590530693531, 0.0147257000207901, -0.029825948178768158, -0.05926717817783356, -0.003912880085408688, -0.008719316683709621, -0.039140861481428146, -0.0316150076687336, -0.09194913506507874, -0.0028890834655612707, 0.08816010504961014, 0.09810656309127808, 0.0867251455783844, 0.027964681386947632, 0.027969062328338623, 0.0438852421939373, 0.028636857867240906, 0.05952879413962364, 0.045319270342588425, 0.02532663382589817, 0.03856518864631653, -0.024921275675296783, 0.020269013941287994, 0.04220271110534668, -0.030946871265769005, -0.06547404080629349, -0.032065246254205704, -0.014094821177423, 0.005200553685426712, -0.011636645533144474, -0.035030052065849304, -0.016112277284264565, -0.08222994208335876, -0.020285775884985924, 0.0037900167517364025, 0.00206278869882226, 0.013388825580477715, -0.0021881868597120047, -0.013117998838424683, -0.09915198385715485, 0.0291562732309103, 0.04295237734913826, -0.06231921166181564, -0.05770976096391678, -0.036428846418857574, 0.006843362003564835, -0.07065928727388382, 0.06568776816129684, -0.01466040313243866, 0.02881852351129055, -0.025567054748535156, 0.02317170798778534, -0.061390943825244904, -0.023653004318475723, 0.007311175111681223, -0.007663640193641186, 0.015160910785198212, 0.04269803315401077, -0.0008724636281840503, -0.12048067897558212, -0.007960092276334763, -0.024933263659477234, -0.006288399454206228, 0.0262276791036129, 0.03224679082632065, 0.013789278455078602, -0.08895474672317505, -0.01411129254847765, 0.02455262281000614, -0.021928753703832626, -0.010916406288743019, -0.002064957981929183, -0.010881504975259304, 0.009673772379755974, -0.009195469319820404, 0.02430211380124092, -0.05598596855998039, -0.012866235338151455, 0.012999861501157284, 0.01024710200726986, 0.005875510163605213, -0.022873297333717346, -0.01919853314757347, -0.010625234805047512, -0.009249850176274776, -0.003843102138489485, -0.02898329310119152, 0.013198287226259708, -0.05281422659754753, -0.028381312265992165, 0.0013675374211743474, -0.11235250532627106, -0.05851323530077934, -0.032303586602211, 0.05980507656931877, -0.04082420840859413, -0.0014644712209701538, -0.010964099317789078, -0.06516797095537186, -0.07438893616199493, -0.052357278764247894, -0.012759708799421787, 0.011570424772799015, 0.051629502326250076, 0.02905789390206337, 0.05135708674788475, 0.03408895805478096, 0.023126954212784767, 0.006894572172313929, -0.040478549897670746, 0.002541631693020463, 0.007325582206249237, 0.00832182914018631, 0.02879190258681774, -0.004573504906147718, -0.020204711705446243, -0.026570532470941544, -0.0835433378815651, 0.01842595636844635, 0.005785835441201925, 0.0022812446113675833, -0.006088993977755308, -0.04080665111541748, -0.014512863010168076, -0.01946328766644001, 0.01819848269224167, -0.02510758303105831, 0.1335717737674713, 0.10995325446128845, 0.06423524767160416, 0.025421317666769028, 0.013730050064623356, 0.025606272742152214, 0.010074354708194733, -0.021132618188858032, 0.05181341990828514, 0.02949817292392254, -0.01684780791401863, -0.010314944200217724, 0.06545588374137878, 0.07402860373258591, -0.023635635152459145, -0.117720827460289, -0.10550235956907272, -0.04126172885298729, -0.04180828854441643, -0.13732294738292694, 0.08206966519355774, 0.044839076697826385, -0.060699205845594406, -0.01564640924334526, 0.0025676805526018143, 0.03614502772688866, 0.004981896840035915, 0.030006714165210724, 0.009285731241106987, -0.0242473091930151, -0.0041097975336015224, 0.1411527693271637, -0.06526268273591995, -0.06378580629825592, 0.048261161893606186, -0.0071753039956092834, -0.0024429690092802048, -0.049776267260313034, 0.015739407390356064, 0.061879705637693405, -0.002990450942888856, -0.08707433938980103, 0.05634661391377449, 0.09762861579656601, -0.06023869290947914, 0.0015357264783233404, -0.03113078884780407, -0.027247311547398567, 0.007908002473413944, 0.024037843570113182, 0.07982055842876434, 0.0683206245303154, 0.03861483186483383, 0.008603394031524658, -0.03238177299499512, 0.005895282607525587, 0.006949970033019781, 0.03203373774886131, 0.018520353361964226, 0.0060084364376962185, 0.025389326736330986, -0.0195635799318552, -0.02453799918293953, -0.05590260773897171, -0.09711203724145889, -0.07677011936903, 0.03213827684521675, -0.03251999616622925, -0.02849622070789337, 0.00966104120016098, -0.06007758155465126, -0.10604903846979141, -0.020371945574879646, 0.00527369137853384, -0.011186869814991951, 0.010922534391283989, 0.015568568371236324, 0.03491687774658203, -0.0029638397973030806, 0.062067389488220215, 0.11211247742176056, 0.004705040715634823, -0.006260319612920284, 0.006699033547192812, -0.0052253385074436665, 0.026781843975186348, 0.0035892617888748646, -0.001938839559443295, 0.002695696894079447, 0.02606792189180851, 0.03445858135819435, 0.042778439819812775, 0.018939819186925888, -0.02679751254618168, -0.031187674030661583, -0.008098515681922436, -0.023450741544365883, 0.0023233473766595125, 0.012939708307385445, 0.008729600347578526, -0.020222360268235207, 0.013342438265681267, 0.02618994005024433, -0.00031256742659024894, 0.019295312464237213, -0.08046425879001617, 0.022877633571624756, -0.010783661156892776, -0.015173000283539295, -0.014073533937335014, -0.024727774783968925, 0.04695194214582443, -0.07646478712558746, -0.02121010608971119, 0.028218163177371025, 0.07439162582159042, -0.0626448318362236, -0.01739138923585415, 0.006329870317131281, 0.015520487911999226, -0.04665057733654976, 0.22023528814315796, 0.07573853433132172, 0.049277205020189285, 0.014764132909476757, -0.020403381437063217, -0.06869683414697647, -0.044991787523031235, -0.007997453212738037, -0.0315726175904274, -0.020500989630818367, 0.022039251402020454, 0.01604931242763996, -0.052438076585531235, -0.05724566429853439, 0.0002270823752041906, -0.04404741898179054, -0.014656123705208302, 0.02431410923600197, -0.0002290404518134892, 0.004510774277150631, -0.0029522539116442204, 0.11189809441566467, 0.07857948541641235, -0.02204964868724346, 0.012462524697184563, 0.007252335548400879, 0.03184448182582855, -0.03720252588391304, 0.015119973570108414, 0.01778198778629303, 0.018672717735171318, -0.0006133070564828813, 0.029266608878970146, 0.048188596963882446, -0.02088073454797268, -0.015950486063957214, -0.02704542502760887, -0.010032029822468758, -0.044807303696870804, -0.07185563445091248, -0.057340674102306366, 0.009560167789459229, 0.06283845007419586, -0.04882356896996498, -0.04741983860731125, -0.007675182539969683, 0.02586243860423565, -0.05323716625571251, -0.006452067289501429, 0.04192075505852699, 0.046434685587882996, 0.035989511758089066, 0.01779552921652794, -0.01618274115025997, -0.010463951155543327, -0.0071906824596226215, -0.026092590764164925, 0.006826461758464575, -0.007170060183852911, 0.04555458202958107, 0.021784557029604912, -0.024330448359251022, 0.025065748021006584, -0.01730543002486229, -0.06640463322401047, -0.01831934042274952, 0.0024530235677957535, 0.01014640461653471, -0.002737501636147499, -0.00310549046844244, -0.01276019774377346, 0.002841333858668804, 0.008371911942958832, 0.015455713495612144, -0.014013866893947124, 0.01879221573472023, -0.002576469210907817, 0.002729634288698435, 0.008350023999810219, -0.012400394305586815, 0.021687285974621773, 0.001737693091854453, 0.03297656401991844, -0.034139376133680344, -0.02439063973724842, -0.038096413016319275, -0.007739592343568802, 0.06015504524111748, 0.02111632563173771, -0.02721807174384594, -0.023529212921857834, -0.09899218380451202, 0.01086315419524908, -0.007938746362924576, -0.03531106188893318, -0.003101192181929946, -0.03958609700202942, -0.04280318319797516, 0.02618807554244995, 0.013184388168156147, -0.035251520574092865, -0.01972140371799469, -0.025386827066540718, 0.027695944532752037, 0.007986738346517086, 0.005349048413336277, 0.04256880283355713, 0.01074125710874796, 0.03388189151883125, 0.01599038578569889, 0.0364399291574955, 0.00918267760425806, 0.04796469211578369, 0.02175796777009964, 0.012901431880891323, -0.0039150104857981205, 0.031648583710193634, -0.017393387854099274, -0.009160022251307964, 0.005789844784885645, -0.05399530380964279, -0.018502958118915558, -0.031003287062048912, -0.0036945566534996033, 0.009946458972990513, 0.05496209114789963, -0.01899527944624424, 0.021168934181332588, 0.006779639981687069, -0.023593252524733543, -0.008634204044938087, 0.010438606142997742, 0.006668759975582361, 0.01175167690962553, -0.00169795798137784, 0.04153668135404587, -0.02981385588645935, -0.024594921618700027, -0.07952707260847092, -0.0691351443529129, -0.10074090212583542, 0.005564570892602205, -0.0356636568903923, -0.08857762068510056, 0.013319229707121849, -0.0772065669298172, -0.1330411434173584, 0.009499316103756428, 0.007273930590599775, 0.0058259558863937855, -0.0657549798488617, 0.02529929019510746, 0.005466906353831291, -0.039560820907354355, 0.02620788849890232, 0.055441804230213165, -0.022089578211307526, -0.02859736792743206, 0.025254063308238983, 0.009044398553669453, -0.002947344444692135, -0.021206427365541458, 0.13255999982357025, 0.03940806910395622, 0.04829518869519234, 0.017038755118846893, -0.006815140135586262, 0.027380093932151794, -0.01399313285946846, -0.00734616769477725, 0.010972130112349987, -0.024337654933333397, 0.00841423962265253, 0.0016259781550616026, -0.008087165653705597, 0.0022163165267556906, -0.040363430976867676, -0.011280963197350502, 0.034864407032728195, -0.01678411103785038, 0.027042649686336517, -0.025701867416501045, 0.033330805599689484, -0.02076837420463562, 0.02373812347650528, 0.024632081389427185, 0.012257032096385956, -0.016842098906636238, 0.040929581969976425, -0.0024736756458878517, 0.014798927120864391, 0.02464577555656433, -0.06215019151568413, 0.00012943058391101658, -0.007730867248028517, 0.0030587168876081705, 0.018606608733534813, 0.006765919271856546, -0.026090744882822037, 0.013620005920529366, -0.017892291769385338, -0.037404436618089676, -0.05479302629828453, 0.015011808834969997, 0.047069717198610306, 0.03703257441520691, 0.010641403496265411, 0.011685165576636791, 0.009271434508264065, -0.04398665949702263, 0.010529106482863426, -0.036871735006570816, -0.014487629756331444, -0.010284255258738995, 0.034677617251873016, -0.01629580184817314, 0.028456108644604683, 0.004028122406452894, -0.00816758070141077, -0.04039088264107704, -0.008320590481162071, -0.06818100064992905, -0.054629482328891754, -0.017668284475803375, -0.005378348752856255, 0.021996023133397102, -0.05204944685101509, -0.03408517315983772, -0.06420537084341049, 0.11184270679950714, 0.00394141860306263, -0.03823711350560188, -0.060307469218969345, -0.13638316094875336, -0.004447679966688156, 0.05464735999703407, 0.18146488070487976, 0.11269575357437134, 0.10569167882204056, 0.0003089001402258873, -0.06019703298807144, -0.11018162965774536, 0.01986190676689148, 0.026382451876997948, 0.05630788952112198, 0.0797603651881218, -0.001032668398693204, 0.0064313835464417934, -0.044949132949113846, -0.022044403478503227, -0.07853648066520691, -0.05304406210780144, 0.026509741321206093, 0.07790977507829666, 0.10491888970136642, 0.016985785216093063, 0.027687067165970802, 0.046666789799928665, -0.021874357014894485, 0.04513239860534668, 0.021882152184844017, -0.04198623448610306, -0.019477708265185356, -0.012961247935891151, -0.042136747390031815, 0.022257521748542786, -0.033446382731199265, -0.07997959852218628, -0.050414737313985825, -0.014124189503490925, -0.012307624332606792, 0.037976838648319244, 0.04861629754304886, 0.03634915500879288, 0.011347834020853043, -0.010070997290313244, 0.016074523329734802, 0.004023159854114056, -0.03447359800338745, -0.011660049669444561, 0.0016230301698669791, -0.021157648414373398, -0.03341764211654663, -0.022468848153948784, -0.05762269347906113, -0.10526823997497559, -0.06845289468765259, 0.09986111521720886, 0.07044205814599991, 0.03210802003741264, -0.020417045801877975, -0.04014616832137108, -0.06522536277770996, -0.07817231118679047, 0.04865085706114769, 0.0598866268992424, 0.025426700711250305, 0.033995017409324646, 0.062150031328201294, -0.01588621363043785, -0.05092018097639084, -0.04126244783401489, -0.026966027915477753, -0.014658276923000813, -0.010442468337714672, 0.025312522426247597, -0.01284349150955677, -0.022371768951416016, -0.015995556488633156, -0.032246097922325134, -0.08704154193401337, -0.0032087762374430895, 0.02632461115717888, 0.020569561049342155, -0.015996189787983894, -0.04784088581800461, -0.02798178791999817, -0.005124953109771013, -0.0036044595763087273, 0.016051577404141426, 0.019942117854952812, 0.05552029609680176, -0.04648621380329132, -0.09894329309463501, -0.016670256853103638, 0.004879162181168795, 0.013632924295961857, 0.05205414071679115, 0.0014239669544622302, 0.07296809554100037, 0.01319097075611353, -0.061716895550489426, -0.04421455040574074, -0.04345451295375824, -0.04199376329779625, -0.02664651721715927, 0.0996169000864029, 0.11864369362592697, 0.07638651132583618, -0.09235373139381409, -0.006089970003813505, -0.004047437105327845, -0.025465913116931915, 0.05894900858402252, 0.05622110888361931, 0.0050799245946109295, 0.14141276478767395, -0.01116140279918909, -0.09945809096097946, -0.044148433953523636, 0.0020334762521088123, 0.05103684589266777, -0.031617458909749985, 0.015309720300137997, 0.02508755587041378, -0.030796777456998825, -0.043698519468307495, 0.0235717985779047, -0.03984721004962921, -0.028939200565218925, 0.034671202301979065, 0.004397200886160135, -0.03472359478473663, 0.038582686334848404, 0.019914524629712105, 0.012743484228849411, 0.028868140652775764, -0.0019732180517166853, 0.009926089085638523, 0.0417962446808815, 0.02107369899749756, 0.012961464934051037, -0.02187928557395935, -0.008131909184157848, 0.019340986385941505, 0.005712106358259916, -0.009234744124114513, -0.036570705473423004, -0.022697575390338898, -0.045349083840847015, -0.05144834145903587, -0.01753772608935833, -0.03941546380519867, -0.09121744334697723, -0.09954894334077835, -0.05137646198272705, -0.004637164529412985, 0.020341798663139343, -0.008995295502245426, -0.09963789582252502, -0.09788402915000916, -0.03524310886859894, 0.04886995255947113, 0.02777395211160183, 0.03132836893200874, -0.004361276514828205, 0.06824973970651627, 0.015402482822537422, 0.02706102468073368, -0.0476376935839653, -0.02183515578508377, -0.00821672286838293, -0.004355978220701218, -0.0017498955130577087, 0.005953263957053423, -0.01289435476064682, -0.044340454041957855, -0.043193232268095016, -0.10675669461488724, -0.012847104109823704, 0.021619463339447975, -0.015150037594139576, -0.025102516636252403, -0.026431633159518242, -0.03923417255282402, -0.013115162961184978, 0.0030739251524209976, 0.006344894878566265, 0.007507579866796732, -0.0580398254096508, 0.013288342393934727, -0.03878090903162956, -0.004938324447721243, 0.022795382887125015, -0.04843723773956299, -0.020398501306772232, -0.052793361246585846, 0.03765503689646721, -0.0684782862663269, -0.10267937928438187, 0.011573266237974167, -0.10842461884021759, -0.12832260131835938, -0.08918388187885284, 0.010710932314395905, 0.02071494795382023, 0.03967239707708359, -0.0046082753688097, -0.03582550957798958, -0.05486778914928436, -0.0706402137875557, -0.04584875702857971, -0.005398365203291178, 0.07573625445365906, -0.011036600917577744, 0.05300204083323479, 0.05622522905468941, 0.0013789227232336998, -0.019832447171211243, -0.04493561387062073, -0.04313000664114952, -0.01267768070101738, -0.014411933720111847, 0.06192202866077423, 0.027250079438090324, -0.00531327398493886, -0.04458160325884819, -0.13530457019805908, -0.011279968544840813, 0.01759849488735199, -0.018034622073173523, -0.019070394337177277, -0.033523380756378174, -0.047296248376369476, -0.012214337475597858, 0.001168333343230188, 0.01188586838543415, -0.050530966371297836, -0.018345162272453308, -0.0007757579442113638, 0.04974692314863205, 0.10939761996269226, 0.07661431282758713, 0.07516271620988846, 0.012319243513047695, -0.010610819794237614, 0.03460729867219925, 0.05567903816699982, -0.06961199641227722, 0.00032872287556529045, -0.013043071143329144, -0.01847393997013569, -0.02594703622162342, -0.10119348019361496, 0.08228274434804916, -0.04928578808903694, -0.046396587044000626, -0.0432918481528759, -0.08547664433717728, -0.06108304485678673, -0.024539731442928314, 0.022800564765930176, 0.004501124378293753, -0.0178731307387352, -0.03914725407958031, 0.010057973675429821, 0.03214579075574875, -0.01788395456969738, 0.07680277526378632, 0.07597888261079788, 0.023945435881614685, 0.02990279532968998, 0.08184786140918732, -0.08517396450042725, -0.07065635174512863, 0.019963359460234642, 0.03710788115859032, 0.0015950611559674144, 0.026063261553645134, 0.015217272564768791, -0.015521997585892677, -0.043578121811151505, -0.017884500324726105, 0.005992767866700888, 0.04543384537100792, -0.002569614676758647, 0.030333979055285454, 0.03382692113518715, 0.004417551215738058, 0.019502371549606323, 0.016118714585900307, 0.10070618987083435, -0.0009919432923197746, 0.03501331806182861, -0.03064933978021145, 0.04580793157219887, -0.04579664021730423, -0.030053621158003807, 0.040177490562200546, -0.008192785084247589, -0.06060074269771576, -0.07763047516345978, -0.05090699344873428, -0.08693186193704605, -0.06811434775590897, -0.017558040097355843, 0.01820044219493866, -0.11963285505771637, -0.08780942112207413, -0.05971266329288483, -0.0020704998169094324, 0.018869109451770782, -0.003299778327345848, 0.004886924754828215, 0.0014016658533364534, -0.028124399483203888, 0.13574106991291046, 0.03877155855298042, -0.04964897409081459, 0.050712134689092636, 0.013476083986461163, 0.052239540964365005, 0.02880014106631279, 0.05051933228969574, 0.09864690154790878, 0.039824049919843674, -0.04536819830536842, 0.02029251493513584, 0.05924789980053902, 0.04165629297494888, 0.0063334982842206955, -0.018770910799503326, 0.02389099821448326, -0.00805757287889719, 0.02310599759221077, 0.0979049876332283, 0.2324705719947815, 0.20950858294963837, 0.07872497290372849, -0.10013627260923386, -0.05862536281347275, 0.05459592491388321, 0.08934134244918823, 0.07721126079559326, 0.06650395691394806, -0.036488112062215805, -0.1332041621208191, -0.016870243474841118, 0.06860232353210449, 0.027816370129585266, 0.03732331842184067, 0.05981481447815895, -0.06988023221492767, -0.1143287792801857, -0.10999087989330292, -0.19687719643115997, -0.08888213336467743, 0.025399839505553246, -0.035218220204114914, -0.02301887609064579, 0.048779044300317764, -0.00274720904417336, 0.020580271258950233, -0.0025196168571710587, -0.017881132662296295, 0.12123801559209824, 0.00816437043249607, 0.03887132927775383, 0.07357713580131531, 0.06039690598845482, 0.018024710938334465, -0.001630258047953248, -0.002790686674416065, 0.004371019080281258, -0.015842176973819733, -0.02458738535642624, 0.021913137286901474, 0.007551751099526882, -0.04526747390627861, -0.08512517064809799, -0.01360306330025196, -0.00328449415974319, -0.01828802563250065, 0.011924603953957558, 0.06833720207214355, 0.04616699367761612, 0.035427894443273544, 0.06773079186677933, -0.01730540581047535, -0.024102872237563133, 0.008952704258263111, 0.03445708379149437, 0.0481320396065712, 0.0661197230219841, -0.020316002890467644, -0.09156745672225952, -0.016073860228061676, -0.004913641605526209, -0.014535422436892986, -0.012562564574182034, -0.00559803145006299, 0.016773173585534096, -0.004034409299492836, -0.043820325285196304, -0.07131662219762802, -0.06617709994316101, -0.056984059512615204, 0.05587498098611832, 0.03724066913127899, 0.04090070351958275, 0.07593915611505508, 0.050637997686862946, 0.03299737721681595, 0.010687945410609245, 0.06731124222278595, 0.009316782467067242, 0.040030159056186676, -0.02640223503112793, 0.027221880853176117, 0.0330178327858448, 0.007063794881105423, -0.033304713666439056, -0.0020435990300029516, -0.07945743948221207, 0.07040178775787354, -0.015678325667977333, 0.04673180729150772, 0.05495969206094742, 0.008244876749813557, -0.028293590992689133, -0.007577244658023119, 0.012178197503089905, 0.016125256195664406, 0.011634405702352524, 0.0511481948196888, 0.044841915369033813, 0.0073536597192287445, 0.009249473921954632, -0.025155074894428253, 0.036855146288871765, 0.062336452305316925, 0.030013341456651688, -0.012683680281043053, -0.01574806496500969, 0.012144486419856548, 0.0011143259471282363, 0.039204951375722885, 0.02475644089281559, -0.05619901418685913, -0.036416195333004, -0.011376858688890934, -0.021041281521320343, -0.024234464392066002, -0.037738312035799026, -0.06528066843748093, -0.06390063464641571, -0.030376192182302475, 0.009857293218374252, 0.011242831125855446, 0.016310827806591988, 0.013730884529650211, 0.04987948387861252, 0.010903432965278625, 0.03628627210855484, 0.01300861407071352, 0.029667776077985764, 0.02070176973938942, 0.006002269685268402, 0.015442626550793648, 0.03705897182226181, 0.01279486995190382, 0.015809502452611923, 0.023853274062275887, -0.017212027683854103, 0.020344017073512077, -0.005935923662036657, -0.0447407104074955, -0.026875143870711327, 0.018827714025974274, -0.028652889654040337, -0.009776704013347626, 0.010758510790765285, -0.005490440875291824, 0.025564812123775482, 0.019002975896000862, 0.025505244731903076, -0.014319301582872868, 0.009021084755659103, 0.007324783597141504, -0.017155639827251434, -0.002509982790797949, -0.042965441942214966, 0.0009106191573664546, -0.006342147011309862, -0.008991682901978493, -0.00949119869619608, -0.14691050350666046, -0.06732938438653946, -0.068376325070858, 0.008884245529770851, 0.050338637083768845, -0.014223743230104446, -0.07264535874128342, -0.08625901490449905, -0.06885535269975662, 0.06222284212708473, 0.027388492599129677, -0.033292509615421295, -0.010911839082837105, 0.019743118435144424, -0.03850105032324791, -0.0551045723259449, 0.05189954489469528, -0.027296848595142365, 0.03157992660999298, 0.014927230775356293, 0.06023406609892845, -0.007970914244651794, -0.049829211086034775, 0.0297107957303524, -0.05282710865139961, 0.0020312860142439604, 0.005089608021080494, -0.0002453795459587127, 0.07483819872140884, 0.05925070121884346, -0.030755195766687393, -0.006663656327873468, -0.02778850495815277, -0.0029747190419584513, -0.0029941233806312084, 0.01246844232082367, 0.020956315100193024, 0.026722600683569908, 0.00892601814121008, 0.009975702501833439, -0.011957029812037945, -0.0031816638074815273, 0.06400377303361893, -0.046674199402332306, -0.03170556575059891, 0.008877072483301163, 0.04408217966556549, 0.0027904834132641554, 0.021937813609838486, -0.028303449973464012, 0.011781812645494938, -0.03880106285214424, 0.006330252159386873, 0.03408927097916603, -0.0029221728909760714, -0.03364235907793045, -0.052042122930288315, -0.053052131086587906, 0.05259018391370773, 0.025248005986213684, -0.026939217001199722, 0.0002597092534415424, -0.007641592528671026, 0.0721176415681839, -0.06500686705112457, -0.04275378957390785, -0.029642891138792038, 0.015378318727016449, 0.003038537921383977, 0.0013286730973049998, 0.03986264020204544, -0.019356418401002884, 0.05947215482592583, -0.045239415019750595, 0.044832535088062286, -0.0002630712988320738, 0.006481959950178862, -0.0007922729128040373, 0.07816321402788162, -0.011793017387390137, -0.02527301199734211, -0.010332324542105198, -0.0023995728697627783, 0.01299502607434988, 0.00685231713578105, 0.00928732194006443, -0.019713206216692924, -0.07378000766038895, -0.052609704434871674, 0.0029488890431821346, -0.004911139141768217, -0.0029597782995551825, -0.02407701313495636, -0.03956286236643791, -0.06297106295824051, -0.0594499371945858, -0.02702256664633751, -0.07197700440883636, -0.08571892231702805, -0.05151484161615372, -6.202445365488529e-05, -0.15855614840984344, -0.007967144250869751, -0.004374159500002861, -0.005692225880920887, -0.008058563806116581, 0.055494681000709534, 0.0768623873591423, -0.10923973470926285, 0.0982237234711647, -0.010531667619943619, 0.042248837649822235, 0.050201158970594406, 0.033053457736968994, -0.05346802622079849, -0.022492270916700363, 0.06781072169542313, 0.00046831744839437306, 0.007122948300093412, -0.018253661692142487, -0.0019992380402982235, -0.08296278119087219, -0.07358146458864212, -0.04087374359369278, -0.01587221957743168, -0.05017579719424248, -0.025178296491503716, 0.06879845261573792, 0.06819605082273483, 0.02378046326339245, -0.0037779330741614103, 0.0066751171834766865, 0.020352555438876152, 0.06131831184029579, 0.08082886785268784, 0.11573036015033722, -0.0021954530384391546, -0.0272962786257267, -0.01582629419863224, 0.04429292678833008, -0.07616323977708817, 0.07392638176679611, 0.09238657355308533, 0.05401431769132614, -0.02201278693974018, -0.02291594259440899, 0.03430286422371864, -0.13898620009422302, -0.1834488958120346, -0.08618222177028656, -0.03591446578502655, -0.002897412283346057, -0.07095161825418472, -0.006689334753900766, -0.08975570648908615, -0.16539528965950012, -0.061609022319316864, -0.026452388614416122, 0.00027270513237453997, -0.022861966863274574, 0.02749655954539776, 0.056892845779657364, -0.10812447965145111, 0.14237235486507416, 0.00306170666590333, -0.023023046553134918, 0.0429699681699276, 0.016039935871958733, 0.06089609116315842, -0.015932677313685417, 0.00889353547245264, 0.08409728109836578, 0.013044002465903759, -0.0412934310734272, 0.02872018702328205, 0.029589587822556496, -0.025098254904150963, 0.01668022945523262, 0.018799301236867905, 0.011925783939659595, -0.039968106895685196], "bias": 0.016997719183564186}