{"layer": "fc1", "index": 41, "weights": [0.0632578656077385, 0.0399693064391613, 0.12938353419303894, 0.06292659789323807, -0.01701938547194004, -0.06785908341407776, -0.012818613089621067, 0.01059757824987173, 0.04951046407222748, 0.06168457493185997, 0.11451400816440582, 0.06460092216730118, 0.005621471907943487, -0.0866478905081749, 0.007618797477334738, -0.015586656518280506, -0.013577941805124283, 0.08505754917860031, -0.05874933302402496, -0.12540489435195923, -0.05815182253718376, 0.0003658590139821172, -0.07087571173906326, 0.00733158690854907, 0.01564256101846695, -0.031017253175377846, 0.017858508974313736, -0.03877920284867287, -0.031004514545202255, -0.07287267595529556, -0.02788686752319336, -0.03472268953919411, 0.027828997001051903, 0.044479649513959885, -0.047680120915174484, 0.01160417404025793, -0.05968775600194931, -2.118248085025698e-05, -0.001956118969246745, -0.020175565034151077, 0.03601657971739769, -0.02300385572016239, -0.004677478224039078, -0.020120803266763687, 0.038750290870666504, -0.021195869892835617, 0.015405920334160328, 0.031068159267306328, -0.017198991030454636, 0.013503344729542732, 0.025594495236873627, 0.010263677686452866, 0.022273069247603416, 0.0369562953710556, -0.015722354874014854, -0.013228246942162514, 0.014470603317022324, 0.03213665261864662, -0.0054163639433681965, 0.050579365342855453, 0.09576861560344696, -0.00822096224874258, 0.01252132747322321, 0.008871268481016159, -0.02117202617228031, -0.034759171307086945, 0.06592636555433273, 0.009219562634825706, 0.033386100083589554, -0.004595134407281876, 0.006465132813900709, -0.07048024237155914, -0.03502913936972618, 0.03392689675092697, -0.06079137325286865, -0.013939802534878254, -0.00864362996071577, -0.002802512841299176, -0.06864789128303528, -0.06422305852174759, -0.004648681730031967, -0.001639493159018457, 0.05361843854188919, -0.018460985273122787, 0.007925792597234249, -0.05360719934105873, -0.02368161827325821, 0.0014573559165000916, -0.010218176990747452, 0.018833572044968605, 0.021768538281321526, 0.015399806201457977, -0.020479820668697357, 0.00870892871171236, -0.03074345365166664, -0.0022932286374270916, -0.0016636932268738747, 0.009860255755484104, 0.008765063248574734, -0.02891063131392002, -0.07683210074901581, -0.019965263083577156, -0.022438514977693558, -0.014155861921608448, -0.028804784640669823, -0.008817669004201889, 0.017694910988211632, -0.05262085050344467, -0.06266080588102341, 0.03265930712223053, 0.022083794698119164, 0.04925444722175598, 0.012508900836110115, -0.02965472638607025, -0.012964456342160702, 0.15277406573295593, 0.15453597903251648, 0.02416873909533024, 0.01713724061846733, 0.006568334065377712, 0.06485509872436523, 0.033587392419576645, 0.07126384228467941, -0.02024354599416256, 0.020356496796011925, -0.04607035219669342, -0.02236558124423027, 0.1151115745306015, 0.18198075890541077, 0.07332955300807953, 0.013334684073925018, 0.04603596776723862, 0.048553287982940674, 0.010293660685420036, 0.13150130212306976, 0.1481669396162033, 0.10478849709033966, 0.08790495991706848, -0.04517262056469917, -0.012394513003528118, 0.0356462337076664, -0.00497332401573658, 0.02987530082464218, -0.03000590018928051, -0.08191584050655365, 0.035093072801828384, -0.00645780423656106, -0.03411289304494858, -0.027243705466389656, -0.1790386587381363, -0.07206717878580093, 0.11825109273195267, 0.018553905189037323, -0.003525506006553769, -0.0026542216073721647, -0.1651023030281067, -0.15955595672130585, 0.007050536572933197, 0.01653377152979374, 0.12144532054662704, 0.016784824430942535, -0.06845827400684357, 0.05317992344498634, -0.0034446949139237404, -0.09225046634674072, 0.12011964619159698, 0.015485155396163464, 0.0027284526731818914, -0.04867516830563545, 0.19833362102508545, 0.08616755902767181, -0.005071394145488739, -0.02858484350144863, -0.09134326130151749, 0.011534588411450386, 0.0679035484790802, 0.025745591148734093, 0.17783638834953308, -0.034576281905174255, -0.05108196288347244, -0.14564232528209686, -0.032189417630434036, -0.04197503626346588, -0.018454069271683693, 0.07096202671527863, 0.02019832655787468, 0.037831585854291916, -0.022052649408578873, 0.04416618123650551, 0.005958074238151312, -0.10397316515445709, 0.05539156496524811, 0.0015737951034680009, 0.04672076553106308, 0.025710158050060272, 0.049431249499320984, 0.0230972059071064, 5.955581218586303e-05, 0.03620699420571327, 0.03154844418168068, 0.0317574143409729, 0.012952304445207119, 0.010817194357514381, 0.021029718220233917, 0.09891290962696075, -0.0010858055902644992, 0.01032232865691185, 0.054790809750556946, 0.06912121921777725, -0.006976032163947821, 0.005592996720224619, -0.04220683127641678, -0.09338802099227905, -0.05860365927219391, -0.027980756014585495, 0.08944588154554367, 0.012983033433556557, 0.009668649174273014, -0.022408122196793556, 0.012173866853117943, 0.04783189669251442, -0.07091602683067322, -0.02842545509338379, 0.001854417147114873, 0.01996302604675293, -0.06837823987007141, -0.011055104434490204, -0.006620476022362709, -0.06192883476614952, -0.04359784349799156, 0.005005603190511465, -0.013595080003142357, -0.019406303763389587, -0.0077420733869075775, -0.018093256279826164, -0.05823440104722977, -0.03395650535821915, -0.01004041451960802, 0.008409244939684868, 0.031176971271634102, 0.022677503526210785, -0.02047782763838768, 0.02105008065700531, 0.008447842672467232, -0.03371957689523697, -0.03078155219554901, -0.003711372148245573, -0.04515668377280235, -0.025639032945036888, 0.006939420010894537, -0.013910790905356407, 0.045301828533411026, -0.005171482916921377, 0.09123771637678146, 0.011190874502062798, -0.07044211775064468, -0.0281431432813406, -0.008242925629019737, 0.018527038395404816, -0.020141182467341423, 0.018389029428362846, -0.004473413340747356, 0.06786186993122101, 0.026421118527650833, -0.023248635232448578, -0.012253430671989918, -0.0365859679877758, 0.02346397191286087, 0.09307671338319778, 0.08053142577409744, 0.05489636957645416, 0.020571185275912285, 0.06018761545419693, -0.1013604924082756, 0.09569059312343597, 0.1863240748643875, 0.055133432149887085, -0.01829535886645317, 0.048337649554014206, 0.06105688214302063, -0.08099446445703506, -0.003773682052269578, 0.00205916166305542, -0.04424077644944191, -0.06833832710981369, -0.061079997569322586, 0.0037516411393880844, -0.04624786227941513, -0.06607205420732498, -0.02614441327750683, -0.07950428873300552, 0.07746753841638565, 0.10705792158842087, -0.0058090901002287865, 0.033787328749895096, 0.07342173904180527, -0.022149544209241867, -0.022932792082428932, 0.02843707613646984, 0.035731736570596695, -0.006274094805121422, -0.013660346157848835, 0.14013604819774628, 0.16185414791107178, 0.0059721814468503, -0.0026955583598464727, -0.0024125073105096817, 0.016286594793200493, -0.03258443623781204, 0.12873528897762299, 0.17076972126960754, -0.04251424968242645, -0.07637278735637665, -0.1172453835606575, -0.059176426380872726, 0.053562991321086884, 0.11066407710313797, 0.07095198333263397, 0.027142144739627838, 0.04459550604224205, -0.022382061928510666, -0.03362463414669037, -0.01637386716902256, 0.15580786764621735, 0.02809913456439972, 0.009511258453130722, 0.002513222862035036, 0.03683864325284958, -0.0009437595144845545, 0.003928161226212978, 0.0255756676197052, -0.05103369057178497, 0.15265128016471863, 0.057835813611745834, -0.006400909274816513, 0.07871341705322266, -0.06700825691223145, 0.013265763409435749, 0.0345812551677227, 0.029299447312951088, -0.018188299611210823, -0.013537748716771603, 0.06223689764738083, -0.010925399139523506, 0.014566692523658276, 0.0472426600754261, 0.04475650563836098, 0.08249175548553467, 0.07665169984102249, -0.0431610569357872, 0.017620394006371498, 0.0034539748448878527, -0.0037609071005135775, 0.02388393133878708, 0.03980589285492897, 0.020301969721913338, -0.002544976770877838, 0.024587195366621017, -0.026115577667951584, -0.04971650615334511, 0.006918992847204208, 0.012607358396053314, 0.04864085093140602, 0.03651430457830429, -0.015463040210306644, -0.031480807811021805, -0.10631348937749863, -0.027659133076667786, -0.030314402654767036, 0.0011029988527297974, -0.027610423043370247, 0.021119171753525734, -0.06500659137964249, -0.05773833766579628, -0.010405908338725567, -0.013501837849617004, -0.11015345901250839, -0.03287936747074127, -0.0027712516020983458, 0.01101546362042427, -0.052360162138938904, 0.029991548508405685, 0.01521294005215168, 0.00029529485618695617, -0.02802528627216816, 0.008568275719881058, -0.04249413311481476, 0.025041228160262108, 0.030285531654953957, 0.002842114306986332, 0.06770218163728714, 0.04347975179553032, 0.013663196936249733, -0.005890439730137587, -0.05562220513820648, 0.05973828211426735, 0.05225024372339249, 0.01754685305058956, 0.005716347135603428, 0.013820945285260677, -0.015448138117790222, 0.004734818823635578, 0.0060235606506466866, 0.015951788052916527, 0.011310430243611336, 0.00680225994437933, 0.014031837694346905, 0.006413704715669155, 0.024192607030272484, -0.05777513608336449, 0.010668724775314331, 0.04790099710226059, 0.05297223851084709, -0.012317201122641563, 0.03385136276483536, -0.03187800943851471, -0.03234700486063957, 0.01567237079143524, -0.06782093644142151, -0.07021616399288177, -0.0014073456404730678, -0.04175540804862976, -0.014096013270318508, -0.023012785241007805, 0.02220788039267063, 0.0007604986894875765, -0.10562894493341446, -0.029160095378756523, 0.03134061023592949, 0.046373043209314346, 0.017082717269659042, 0.03954960033297539, 0.05311577767133713, 0.11256608366966248, 0.011267047375440598, -0.01213955506682396, 0.020801322534680367, 0.022243257611989975, 0.07877511531114578, 0.03240028768777847, -0.012179592624306679, -0.0070725721307098866, 0.012526254169642925, 0.02942202240228653, -0.0021449453197419643, 0.0296628400683403, 0.0064007011242210865, 0.0008364086970686913, -0.004975049756467342, 0.006515804212540388, 0.0499296635389328, 0.059044867753982544, 0.07292809337377548, 0.006373686715960503, 0.013163897208869457, -0.013211877085268497, -0.0034762518480420113, -0.06514755636453629, 0.017277000471949577, 0.047658104449510574, -0.03206287696957588, 0.00013580055383499712, -0.013664484024047852, -0.03711363300681114, -0.06739124655723572, -0.02463511750102043, -0.0656597688794136, -0.03613174334168434, -0.027981897816061974, 0.056022074073553085, -0.040697675198316574, -0.1249987855553627, -0.045002300292253494, 0.00014168929192237556, -0.03377264738082886, -0.006717885844409466, 0.06034187972545624, -0.01075033564120531, -0.0674654021859169, 0.05144518241286278, 0.049734801054000854, 0.03934306651353836, 0.008898203261196613, -0.0426630824804306, 0.026370152831077576, 0.04367811232805252, 0.011908837594091892, -0.009372361935675144, 0.016409100964665413, 0.018844015896320343, 0.015375458635389805, -0.0037434399127960205, 0.01257034670561552, 0.03673349693417549, 0.008529122918844223, -0.030131518840789795, -0.015940383076667786, 0.014692598022520542, 0.05687885731458664, 0.012715202756226063, -0.008300455287098885, -0.0389520525932312, -0.00836515985429287, -0.04367437586188316, 0.006720800884068012, -0.033852752298116684, -0.12030112743377686, -0.02679498679935932, 0.03988802805542946, -0.03653593733906746, 0.1175764873623848, -0.011391651816666126, -0.049625568091869354, -0.04310495778918266, 0.042472030967473984, 0.08338119089603424, 0.029658665880560875, -0.02479383535683155, 0.001917970017530024, -0.0151553675532341, 0.011140008457005024, 0.07267440855503082, 0.06802784651517868, 0.03602983430027962, 0.011679056100547314, 0.0241775531321764, 0.0022639583330601454, 0.010887280106544495, -0.03611721470952034, 0.012520045042037964, -0.009482376277446747, 0.03680841997265816, 0.029246969148516655, 0.010959750972688198, 0.0643984004855156, 0.03338845819234848, 0.003989318385720253, 0.011281234212219715, 0.0868212953209877, 0.02914794348180294, 0.033011000603437424, -0.018410639837384224, 0.016362033784389496, -0.006238103378564119, 0.009451782330870628, 0.02085260860621929, 0.03011605329811573, 0.03591131791472435, -0.04142528772354126, -0.04876062273979187, 0.06276918947696686, 0.09754349291324615, 0.03965723142027855, -0.0798933207988739, -0.021556822583079338, 0.1489507406949997, 0.09663215279579163, 0.009750235825777054, 0.007305815815925598, 0.006798651069402695, 0.02159150131046772, 0.05505984649062157, -0.05478667840361595, 0.09204486012458801, -0.041351642459630966, -0.06877416372299194, -0.10923264920711517, -0.015601771883666515, 0.18196535110473633, 0.12186794728040695, -0.0165584497153759, 0.01395727600902319, -0.08784499019384384, 0.0005102820578031242, 0.01610126718878746, 0.1324285864830017, 0.17561738193035126, -0.03976641595363617, 0.03612743690609932, -0.012958786450326443, 0.001102730049751699, -0.12070951610803604, -0.039120085537433624, -0.08974242210388184, 0.06962325423955917, -0.011677579022943974, 0.06558123230934143, 0.04492620751261711, -0.008010259829461575, -0.008359621278941631, 0.018397256731987, 0.015073515474796295, 0.03983870521187782, 0.004296383820474148, -0.049208737909793854, -0.04592595621943474, -0.06431858986616135, -0.010458141565322876, 0.09757500886917114, 0.2028985172510147, 0.13185501098632812, 0.06396739184856415, -0.08132123202085495, -0.048683956265449524, 0.11491873115301132, 0.10501664876937866, 0.00392758846282959, 0.10099730640649796, 0.00700453482568264, -0.08659855276346207, 0.021774327382445335, 0.09874403476715088, 0.07381577789783478, -0.08037377148866653, -0.06613053381443024, -0.1323348730802536, -0.0026103139389306307, -0.04307318478822708, 0.0030379502568393946, 4.956842167302966e-05, -0.007176503073424101, -0.030219728127121925, -0.025307100266218185, -0.009931514039635658, 0.04593344032764435, 0.11088685691356659, 0.02141670137643814, 0.04623730480670929, -0.026089301332831383, 0.0211483146995306, -0.0415319949388504, -0.014659946784377098, -0.015686411410570145, 0.07715333253145218, 0.05199877917766571, 0.011540709063410759, 0.0339699387550354, -0.00754115916788578, 0.010597066953778267, 0.00669519929215312, 0.03941842168569565, 0.062289390712976456, -0.01252181176096201, -0.037980347871780396, -0.003636120818555355, -0.044766832143068314, 0.009309764951467514, -0.0358567051589489, 0.022868165746331215, 0.040248092263936996, -0.0040377965196967125, 0.022949794307351112, 0.005865467246621847, 0.0004749417712446302, -0.06807999312877655, -0.021535629406571388, 0.029611684381961823, 0.03664671257138252, 0.009714185260236263, -0.03959451988339424, 0.014908809214830399, 0.023645997047424316, -0.05257749557495117, -0.011106438003480434, -0.012086978182196617, -0.017067037522792816, -0.018290629610419273, -0.036355916410684586, 0.011036709882318974, -0.04218846559524536, 0.030816342681646347, 0.0025097026955336332, -0.0035356006119400263, 0.014067117124795914, -0.0010053713340312243, 0.0009365696460008621, -0.004280863329768181, -0.018351685255765915, 0.039500925689935684, 0.01843797042965889, -0.0025733530055731535, 0.00449098227545619, -0.01813756674528122, 0.02310803346335888, 0.025798015296459198, -0.010065145790576935, -0.00598664116114378, -0.008747037500143051, 0.04151597246527672, 0.0871630311012268, -0.00470053032040596, 0.04260822758078575, 0.0031574307940900326, -0.006197302136570215, 0.034457940608263016, 0.16014322638511658, 0.20663167536258698, 0.07317478209733963, 0.08126465976238251, 0.00952418427914381, 0.00423250300809741, 0.0029758671298623085, 0.07201413810253143, 0.017640357837080956, -0.1469372659921646, -0.029523687437176704, -0.05507798120379448, -0.047374360263347626, -0.06596455723047256, 0.0515451654791832, -0.012926566414535046, -0.05321931466460228, -0.04315880313515663, -0.09752803295850754, -0.06266758590936661, -0.010325192473828793, -0.011867227032780647, -1.1234245903324336e-05, 0.031014421954751015, 0.02975175715982914, 0.017798449844121933, -0.008306935429573059, -0.006044773850589991, -0.039197828620672226, 0.03645044565200806, 0.08225204795598984, 0.014359959401190281, 0.08774101734161377, -0.028214314952492714, -0.02102568931877613, -0.03152045980095863, -0.040059108287096024, 0.015438112430274487, 0.040508292615413666, 0.03856245055794716, -0.01713378168642521, 0.042313266545534134, -0.06274646520614624, 0.08545342087745667, 0.08854696154594421, 0.08095826953649521, 0.07904548197984695, 0.046404849737882614, -0.06243058666586876, -0.054022159427404404, -0.016905026510357857, 0.06838151067495346, 0.119331955909729, 0.08871404081583023, 0.01860659010708332, -0.03737850487232208, -0.017518840730190277, -0.01415896788239479, 0.05084053426980972, 0.02247321978211403, 0.08933418989181519, 0.05246670916676521, -0.15937769412994385, -0.04376498609781265, 0.015530120581388474, -0.07942413538694382, -0.20729169249534607, -0.15159033238887787, -0.06624942272901535, -0.1062379777431488, -0.1075165793299675, -0.0551186166703701, -0.05229070782661438, 0.0032128682360053062, 0.059025026857852936, -0.05865302309393883, 0.028685029596090317, 0.06703439354896545, 0.04447401314973831, 0.030263446271419525, 0.007336009759455919, 0.04484359920024872, 0.02639446035027504, -0.002182334428653121, 0.0986754521727562, 0.12738001346588135, 0.16288313269615173, 0.09152313321828842, -0.005024629179388285, -0.0019993267487734556, 0.0003240336664021015, -0.043793920427560806, -0.04270455241203308, 0.026965590193867683, 0.05189315974712372, 0.02597264014184475, 0.0005448850570246577, 0.048767030239105225, 0.03793912008404732, 0.029853707179427147, 0.04452270269393921, 0.051022108644247055, -0.005066629499197006, 0.033127907663583755, 0.037042468786239624, 0.023060135543346405, 0.0022284274455159903, 0.020178157836198807, 0.024019984528422356, 0.011433711275458336, -0.020796475932002068, -0.019077995792031288, 0.004407860338687897, 0.04019588977098465, 0.09412464499473572, 0.009906359016895294, -0.10939860343933105, 0.005033174529671669, -0.02781865745782852, 0.001820949837565422, 0.05018547922372818, 0.052662886679172516, -0.048648651689291, -0.05385483056306839, -0.06173191964626312, 0.022974727675318718, 0.04034688323736191, 0.012553488835692406, -0.051655787974596024, -0.06658155471086502, -0.0025997725315392017, 0.07196427136659622, 0.13100066781044006, -0.005181446205824614, -0.017939040437340736, 0.002658734330907464, -0.025907695293426514, -0.01401564758270979, 0.031017502769827843, -0.003867591032758355, -0.03167833015322685, -0.012602904811501503, 0.027754496783018112, 0.020137973129749298, 0.01825524866580963, 0.020824018865823746, 0.03375685214996338, -0.02009231597185135, -0.03976631164550781, -0.008109976537525654, -0.018443139269948006, -0.028859633952379227, -0.021028850227594376, -0.024696046486496925, -0.053084686398506165, 0.017344705760478973, 0.050303466618061066, 0.03551381081342697, -0.02515318989753723, -0.002930236514657736, 0.041302893310785294, 0.013118727132678032, 0.07364364713430405, 0.0725589469075203, 0.055818211287260056, -0.01279077585786581, 0.06325483322143555, 0.12812143564224243, 0.0768728032708168, 0.021909963339567184, 0.06206420809030533, 0.07443539053201675, 0.025861550122499466, 0.09480031579732895, 0.1372038871049881, 0.013643590733408928, -0.015500994399189949, -0.010573443956673145, -0.024388181045651436, 0.02703879214823246, -0.06971758604049683, -0.06591477990150452, 0.03652915358543396, -0.08314623683691025, -0.03710855171084404, -0.02651783637702465, 0.00929222907871008, 0.029600609093904495, 0.019184600561857224, 0.0029726140201091766, 0.016772329807281494, 0.083370640873909, 0.020178157836198807, -0.003204172244295478, 0.037598706781864166, 0.0032233584206551313, 0.012489557266235352, 0.08016838878393173, 0.078346848487854, 0.02307545579969883, 0.04675513133406639, 0.00204664608463645, 0.034180838614702225, 0.073931023478508, 0.11346811056137085, -0.00880444422364235, -0.07990335673093796, -0.015795188024640083, 0.018707459792494774, -0.047712262719869614, -0.01626748777925968, -0.01817145198583603, -0.01259941142052412, -0.048501793295145035, -0.060415979474782944, 0.0010057027684524655, -0.003238232573494315, -0.0673329308629036, 0.04834609851241112, 0.032659370452165604, 0.07123542577028275, 0.06937085837125778, 0.0015564413042739034, 0.0209770780056715, 0.031711727380752563, -0.008596690371632576, -0.0072663272731006145, 0.09313502907752991, -0.06415005773305893, 0.0037311401683837175, -0.006206403952091932, -0.005571180954575539, -0.0381268635392189, 0.023910067975521088, 0.042076412588357925, 0.03781474009156227, 0.040604736655950546, -0.0001749635412124917, 0.007938372902572155, -0.00012847871403209865, 0.03707745671272278, 0.04924166202545166, -0.036884818226099014, -0.001036211266182363, 0.015120304189622402, -0.09446853399276733, -0.02642633393406868, -0.055132873356342316, 0.023462699726223946, 0.05394163355231285, -0.08018811047077179, -0.07008474320173264, 0.0029545000288635492, 0.05061126872897148, 0.009868658147752285, 0.06056315824389458, 0.016738204285502434, -0.07436349242925644, 0.03298884257674217, 0.059244994074106216, 0.05081462115049362, -0.1628929078578949, -0.05749775469303131, 0.015665821731090546, 0.00013836700236424804, 0.08341150730848312, 0.032747432589530945, -0.10266648977994919, -0.04501622915267944, 0.01516578160226345, -0.011760672554373741, 0.014668949879705906, 0.05294286087155342, 0.2637377679347992, 0.12190622091293335, 0.07588222622871399, 0.025959976017475128, -0.009096965193748474, -0.03955206647515297, -0.014262153767049313, 0.034084074199199677, 0.04175456985831261, -0.06365466117858887, 0.032454609870910645, -0.0013945421669632196, -0.008460425771772861, -0.04967266321182251, -0.09332680702209473, -0.041077498346567154, -0.019653359428048134, -0.032794054597616196, -0.0327506884932518, -0.0059284972958266735, -0.05962597206234932, -0.021434105932712555, 0.006104651838541031, 0.058416321873664856, 0.08434838056564331, -0.019806919619441032, -0.035766370594501495, 0.1085486114025116, 0.06887008249759674, 0.05765130743384361, 0.1378469169139862, 0.08277081698179245, -0.009852789342403412, 0.019286053255200386, 0.15624259412288666, 0.12345461547374725, 0.04211297258734703, 0.07525079697370529, 0.10364875197410583, 0.09060895442962646, 0.011445200070738792, 0.03678083419799805, 0.1181253120303154, 0.02518048882484436, 0.0004900831845588982, -0.005231368355453014, -0.08624039590358734, -0.03643990680575371, -0.021157879382371902, 0.037542540580034256, -0.011075296439230442, -0.01838824711740017, -0.028672363609075546, -0.013027973473072052, 0.0034519408363848925, -0.055512893944978714, 0.02482951432466507, 0.018545882776379585, -0.04797903448343277, -0.03402888774871826, 0.05190258473157883, -0.005375432316213846, -0.037878651171922684, 0.0038209890481084585, 0.057493340224027634, 0.01336603332310915, -0.002055682707577944, 0.027917321771383286, -0.08541728556156158, -0.046265944838523865, -0.09002332389354706, 0.10910964012145996, 0.13752493262290955, 0.07356854528188705, 0.07295376062393188, -0.05509794503450394, -0.06303758919239044, 0.06595462560653687, 0.05384441465139389, -0.05697640776634216, 0.07712594419717789, -0.0616423524916172, -0.1154625415802002, -0.022689852863550186, 0.07427109032869339, 0.014514842070639133, 0.022148601710796356, -0.0874234139919281, 0.010164784267544746, -0.09117459505796432, -0.08948071300983429, -0.09794299304485321, -0.07557103782892227, -0.029592100530862808, 0.02319464646279812, 0.015242686495184898, 0.003784193191677332, -0.04448632523417473, -0.07426630705595016, -0.06473486125469208, 0.023318815976381302, 0.004048663191497326, 0.027761459350585938, -0.004427184350788593, 0.03646961227059364, -0.0008158872369676828, 0.06124558299779892, -0.04199356958270073, 0.05333024635910988, 0.06588114798069, 0.031900059431791306, 0.027752693742513657, -0.014612522907555103, 0.04713571444153786, 0.04325975105166435, 0.02347237803041935, -0.01326018013060093, 0.014168362133204937, 0.017823074012994766, 0.033764373511075974, -0.034984882920980453, -0.009478871710598469, -0.006897732615470886, -0.028742508962750435, 0.00364117999561131, -0.003162273671478033, 0.032567162066698074, 0.07465305924415588, 0.07715129852294922, -0.00033258568146266043, 0.004335263278335333, -0.03496800735592842, 0.07366017252206802, 0.016478020697832108, 0.09947355836629868, 0.08626071363687515, 0.021924450993537903, -0.08202216029167175, -0.003387323347851634, 0.03122749924659729, -0.006374218501150608, 0.007822481915354729, 0.016848692670464516, 0.021349560469388962, 0.07724089920520782, 0.03353823348879814, 0.047307953238487244, 0.02974640019237995, 0.026185551658272743, -0.015682870522141457, -0.022003047168254852, 0.030985599383711815, -0.08059854060411453, -0.01080197375267744, 0.09646419435739517, 0.08251127600669861, -0.06886361539363861, -0.024971485137939453, -0.002360153943300247, -0.006579030305147171, -0.026350075379014015, -0.0016114591853693128, -0.0024556568823754787, 0.01970663294196129, -0.0019966373220086098, 0.006473834626376629, -0.0022630339954048395, 0.10192076861858368, 0.05436340346932411, -0.033315155655145645, -0.04101298004388809, -0.07102425396442413, -0.026963038370013237, 0.020580196753144264, 0.001503320992924273, -0.08617070317268372, -0.08604789525270462, -0.016691984608769417, -0.0033925645984709263, 0.03333158791065216, -0.0125162024050951, -0.07881384342908859, -0.0014290721155703068, -0.010665716603398323, 0.04638836905360222, -0.008428212255239487, 0.00892967451363802, 0.054982490837574005, -0.030300665646791458, -0.001918599009513855, 0.04149049147963524, -0.008716356009244919, -0.005402637179940939, 0.013602141290903091, 0.010137293487787247, 0.008561162278056145, 0.03636249899864197, 0.002488009398803115, -0.055845003575086594, -0.02536546252667904, 0.010130536742508411, -0.008343168534338474, -0.0024020629934966564, 0.03901808336377144, -0.02395263873040676, -0.04924103245139122, 0.0184207521378994, -0.00720213633030653, 0.0008237251895479858, 0.004543875344097614, 0.008482052944600582, -0.020644329488277435, 0.0524417906999588, 0.023285096511244774, 0.02423105016350746, 0.03181927651166916, 0.004108848981559277, 0.04315454885363579, 0.05493441969156265, 0.03829184174537659, 0.06774438917636871, 0.030626816675066948, 0.018008030951023102, 0.03991486877202988, 0.05287075787782669, 0.006008225027471781, 0.007135682739317417, 0.042532775551080704, 0.025799598544836044, 0.006066055968403816, 0.010705173015594482, 0.03116072155535221, 0.04463513568043709, 0.005062852054834366, -0.05382712557911873, -0.06702979654073715, -0.01165517047047615, -0.051189251244068146, 0.026114199310541153, 0.02112887240946293, -0.06440030783414841, -0.028856627643108368, -0.018959784880280495, -0.054569125175476074, 0.02175874076783657, -0.003444590838626027, -0.0025788000784814358, -0.02777962200343609, -0.08059132099151611, -0.010241699405014515, -0.006828214041888714, 0.06746724992990494, 0.018998775631189346, -0.0043576788157224655, 0.008423320017755032, 0.02490626834332943, -0.010494659654796124, 0.07297973334789276, -0.047404464334249496, 0.030864804983139038, -0.029925832524895668, 0.0215744785964489, -0.002361761871725321, 0.003323835087940097, 0.017601264640688896, 0.14615865051746368, 0.19772319495677948, -0.02313346043229103, -0.02597220055758953, -0.045803748071193695, -0.023301968351006508, 0.06635060161352158, -0.011183035559952259, -0.08184743672609329, -0.12475647032260895, -0.00570821575820446, -0.04377776384353638, -0.001473280368372798, 0.03616504371166229, -0.06855200976133347, -0.02891651540994644, 0.053151149302721024, 0.015391340479254723, 0.01002890057861805, 0.019702859222888947, 0.08742251247167587, -0.03148546814918518, 0.01782793551683426, 0.07170490175485611, 0.06017995625734329, -0.02042410895228386, 0.05552443489432335, 0.07759261876344681, -0.02630039118230343, 0.03810742124915123, -0.06028071790933609, 0.0656762421131134, -0.01176243182271719, 0.0458749420940876, 0.08231140673160553, -0.0421098992228508, 0.09992942959070206, -0.05127067491412163, -0.036388617008924484, -0.06485442817211151, 0.05065269395709038, -0.00814528577029705, -0.01985548809170723, -0.011018241755664349, 0.09271524101495743, 0.10032518208026886, 0.029265714809298515, -0.012869631871581078, -0.02924185059964657, -0.025276903063058853, -0.012522232718765736, 0.01060902327299118, -0.011505895294249058, -0.0006518415175378323, -0.02772093378007412, 0.010659515857696533, 0.01503725629299879, 0.03785654902458191, 0.05751454830169678, -0.06760191917419434, 0.01735612191259861, 0.024873655289411545, 0.024622343480587006, -0.0006141409394331276, 0.0021998630836606026, 0.04652119800448418, 0.047689467668533325, -0.05782159045338631, -0.07612022012472153, -0.0004439717158675194, -0.02000587061047554, 0.010895904153585434, -0.0030017991084605455, 0.036822907626628876, -0.0011941606644541025, 0.029990695416927338, 0.0070846788585186005, 0.03190605714917183, -0.0055822161957621574, -0.001903003896586597, -0.007681871764361858, -0.04137660935521126, 0.03157782554626465, 0.027878480032086372, 0.03862423449754715, 0.01529459934681654, 0.010273742489516735, -0.03629255294799805, -0.04714512079954147, 0.05759719759225845, 0.023521380499005318, 0.0638047605752945, 0.11382478475570679, -0.05146070569753647, 0.0349564291536808, 0.09709105640649796, 0.0402628518640995, 0.06175122782588005, 0.07280047982931137, 0.18501964211463928, 0.05874963849782944, -0.08167669922113419, -0.019152270630002022, -0.000480561051517725, -0.0025244716089218855, 0.08427735418081284, 0.03035726584494114, 0.07955991476774216, -0.06321641057729721, -0.029173748567700386, -0.06573492288589478, 0.034323424100875854, 0.02974631078541279, 0.04228927567601204, -0.014374876394867897, -0.0054642632603645325, -0.02159314602613449, 0.0009406636818312109, 0.0067579071037471294, 0.06324215978384018, 0.05204693228006363, -0.04308886080980301, 0.0280291885137558, -0.03777328506112099, 0.0372794046998024, -0.027033012360334396, 3.864459722535685e-05, -0.015251468867063522, 0.0542215034365654, 0.040101297199726105, -0.003292341949418187, 0.02208801731467247, 0.0021207670215517282, 0.06093214452266693, 0.019829366356134415, 0.025080233812332153, -0.02141658589243889, -0.008891579695045948, 0.036825668066740036, -0.004251435864716768, -0.008609959855675697, 0.017248323187232018, 0.006607372779399157, 0.020950812846422195, 0.031229058280587196, 0.06002441421151161, -0.008683295920491219, 0.003797431942075491, -0.0586627721786499, -0.04063304886221886, -0.039527829736471176, 0.08438143134117126, 0.013251894153654575, -0.029818281531333923, -0.11391998827457428, 0.00437499862164259, 0.04443010687828064, 0.03662426397204399, 0.032748591154813766, -0.017524251714348793, 0.002827596617862582, -0.0812741219997406, 0.0103575075045228, 0.058120980858802795, -0.050778139382600784, -0.04791809618473053, 0.07305604219436646, -0.018966257572174072, 0.021390020847320557, -0.004922178108245134, 0.03440577909350395, 0.017096159979701042, -0.09655546396970749, -0.012793881818652153, 0.035292115062475204, 0.0972137302160263, 0.06930021941661835, 0.011130256578326225, 0.03234159201383591, -0.006258475594222546, -0.016185784712433815, -0.0607435517013073, -0.07793710380792618, -0.04086771979928017, 0.05997991934418678, 0.04090743139386177, 0.041811756789684296, 0.020710451528429985, 0.04055580496788025, -0.019272292032837868, 0.020520616322755814, 0.10516583919525146, -0.003996398765593767, 0.07489574700593948, -0.01956707239151001, -0.04010656848549843, -0.025613581761717796, 0.020550308749079704, 0.15442053973674774, 0.09271006286144257, 0.09805738180875778, 0.030424924567341805, -0.06641196459531784, -0.028104867786169052, 0.025706429034471512, 0.08909136801958084, -0.07574654370546341, -0.0096987159922719, -0.025194574147462845, -0.09460277110338211, -0.012700596824288368, 0.13527843356132507, 0.044031862169504166, -0.0856516882777214, -0.05911049619317055, -0.08026901632547379, -0.06801377236843109, -0.04693233594298363, -0.07146787643432617, 0.005135543178766966, 0.0549817718565464, 0.020446399226784706, 0.03009597398340702, -0.05204423516988754, -0.055979516357183456, -0.03119669482111931, -0.0051081255078315735, 0.0401591956615448, 0.008897100575268269, 0.03901996463537216, 0.005223697982728481, 0.04206768050789833, -0.053941499441862106, 0.028297968208789825, 0.02041912078857422, 0.00211328431032598, 0.01763029396533966, 3.754404679057188e-05, 0.02871769666671753, 0.05282648280262947, -0.01326761208474636, 0.0517587810754776, 0.10649716109037399, 0.004052051808685064, -0.0426953099668026, -0.04516111686825752, -0.09496122598648071, -0.030577359721064568, 0.03912392631173134, 0.07511024177074432, 0.017730290070176125, 0.005977615714073181, -0.0812775269150734, -0.10876598209142685, 0.01917988993227482, 0.1590154469013214, 0.1139431893825531, -0.0186073686927557, -0.01123921386897564, -0.12733501195907593, -0.03570033237338066, 0.09223934262990952, -0.0462397001683712, -0.027599018067121506, 0.03875884413719177, -0.056136712431907654, -0.09649684280157089, -0.12201026827096939, -0.07001697272062302, -0.08040805160999298, 0.06520813703536987, -0.006262052804231644, -0.04832959175109863, 0.04874686896800995, 0.04350554198026657, -0.047298088669776917, 0.1113901361823082, 0.023604635149240494, -0.042490746825933456, -0.03213980048894882, 0.025408942252397537, -0.03337934613227844, 0.019862636923789978, 0.007704475894570351, -0.009735372848808765, 0.015624943189322948, 0.010410367511212826, 0.07002125680446625, -0.0014754587318748236, 0.10609620064496994, -0.0013987318379804492, -0.07484357059001923, 0.0037865727208554745, 0.04335905611515045, 0.08554329723119736, 0.23724883794784546, 0.2675088047981262, 0.006965756881982088, 0.09839416295289993, -0.028932442888617516, -0.0038618682883679867, -0.008099403232336044, 0.0031646890565752983, 0.06912214308977127, -0.25185033679008484, -0.06202448531985283, -0.05871231481432915, -0.09834115952253342, -0.01687416434288025, 0.025300052016973495, 0.03391978144645691, 0.08070500195026398, -0.07949338853359222, -0.004147383850067854, -0.07630030810832977, 0.024404650554060936, 0.041652802377939224, 0.007780211046338081, 0.055826641619205475, 0.029560290277004242, -0.0028782780282199383, -0.0576462559401989, -0.005463622976094484, -0.0703686997294426, 0.01756437122821808, 0.018409691751003265, 0.0520600751042366, -0.03732593357563019, 0.01759909838438034, -0.04844336211681366, -0.028464116156101227, -0.027222612872719765, 0.029397036880254745, 0.10959357768297195, -0.11534225940704346, -0.004613038152456284, -0.0021668188273906708, 0.00352383591234684, 0.012114651501178741, -0.01103956624865532, -0.014516767114400864, 0.00510399229824543, 0.0036957301199436188, 0.0060605816543102264, 0.015840115025639534, 0.003802308812737465, -0.009673085063695908, -0.005801576189696789, 0.0037656426429748535, 0.0013491678982973099, -0.014886931516230106, 0.014426691457629204, 0.01575099118053913, -0.00558041874319315, -7.635354995727539e-05, 0.002319902181625366, -0.012245573103427887, -0.006530327722430229, 0.014808734878897667, 0.006201229989528656, -0.011637533083558083, 0.0017860215157270432, 0.014033975079655647, -0.0001851338893175125, -0.011785452254116535, -0.00018435344099998474, -0.014077464118599892, 0.00927082821726799, -0.017073536291718483, -0.0033640265464782715, -0.004439773038029671, 0.006356481462717056, -0.007870018482208252, -0.015430711209774017, 0.007201697677373886, -0.0021328460425138474, 0.009036865085363388, -0.008807549253106117, 0.01385057158768177, 0.009431591257452965, -0.01533894706517458, 0.011993678286671638, 0.006788115948438644, 0.014378776773810387, 0.008389176800847054, -0.06887837499380112, -0.01612594723701477, -0.001584444660693407, 0.13863810896873474, 0.042194217443466187, -0.004382978659123182, -0.01855074055492878, 0.0717923566699028, 0.1374252438545227, 0.053734466433525085, -0.017258886247873306, -0.01929408498108387, -0.014701166190207005, 0.021592436358332634, 0.006008329335600138, 0.0338752381503582, 0.006086314562708139, -0.046149544417858124, -0.09255460649728775, -0.016040712594985962, -0.024024777114391327, -0.04169737920165062, -0.019327297806739807, 0.06542299687862396, -0.01642581820487976, -0.03530636429786682, -0.02183501236140728, 0.030215421691536903, -0.051575563848018646, 0.01245620846748352, 0.10259878635406494, 0.003315925830975175, 0.004705637693405151, 0.0394543819129467, 0.0013744517927989364, 0.030375881120562553, -0.013444510288536549, 0.030513588339090347, 0.08351835608482361, 0.013331931084394455, 0.036135878413915634, 0.015659185126423836, -0.0071866740472614765, 0.056417591869831085, -0.041345249861478806, -0.0008408775902353227, 0.05444583296775818, -0.0033350870944559574, 0.003904257668182254, 0.018731888383626938, 0.013900993391871452, 0.022404344752430916, -0.030941428616642952, -0.026301201432943344, -0.012690297327935696, -0.011116900481283665, 0.029426712542772293, 0.03881288692355156, 0.027237270027399063, 0.042156483978033066, 0.012358170002698898, -0.0013618756784126163, -0.052906665951013565, -0.08194360136985779, -0.07492586970329285, -0.05102032795548439, 0.11826848238706589, 0.038104623556137085, 0.008735627867281437, -0.007146219722926617, -0.06303179264068604, -0.00879446230828762, -0.004476842936128378, 0.06375185400247574, -0.011868258938193321, -0.054597754031419754, -0.020148998126387596, -0.03937113285064697, -0.03254265710711479, -0.009309372864663601, 0.06864182651042938, 0.05716704577207565, -0.02776818349957466, -0.030746545642614365, -0.0340142622590065, -0.03890922665596008, -0.0069807665422558784, -0.03455420210957527, -0.017821090295910835, 0.04780322685837746, 0.008608591742813587, 0.0673094242811203, -0.05278334766626358, -0.01168415229767561, -0.09023948013782501, 0.030542127788066864, 0.03555302694439888, 0.005749702453613281, -0.007061519660055637, -0.010126687586307526, -0.011167262680828571, 0.0019217468798160553, -0.003697044216096401, -0.0013939831405878067, -0.00594758614897728, -0.011068176478147507, 0.021647470071911812, 0.00856971088796854, 0.01141484547406435, 0.006379663944244385, 0.009958924725651741, -0.016868188977241516, 0.017046233639121056, 0.0022736918181180954, -0.015483292751014233, -0.0006171036511659622, -0.0029204573947936296, 0.015121622011065483, 0.01582934893667698, -0.017439797520637512, -0.007343750447034836, -0.013714767061173916, -0.004796178080141544, -0.006401202641427517, 0.007243664935231209, 0.013571677729487419, 0.017214415594935417, -0.003858453594148159, -0.012354135513305664, 0.0007792896940372884, 0.012923694215714931, 0.010691648349165916, -0.012043704278767109, -0.016509883105754852, 0.014754367992281914, -0.010226729325950146, 0.01737344078719616, -0.014910553582012653, -0.007655567489564419, 0.002186274155974388, 0.005164150148630142, 0.011565029621124268, 0.01770692504942417, -0.00412842258810997, 0.004293154925107956, -0.006080540828406811, 0.008360573090612888, -0.07748063653707504, -0.03561699762940407, 0.047630392014980316, 0.029677705839276314, 0.01181798055768013, 0.0009248842252418399, 0.007623810321092606, 0.043022774159908295, 0.05472096428275108, 0.02646445296704769, 0.05737077072262764, 0.0209235567599535, -0.06175718829035759, -0.018965890631079674, 0.061453670263290405, 0.06133655458688736, 0.0450289323925972, -0.011339457705616951, -0.01936701126396656, 0.02395445667207241, -0.008279291912913322, 0.0032390893902629614, 0.041196029633283615, 0.08647766709327698, 0.03954264894127846, -0.04740623012185097, -0.05379357188940048, 0.006714431568980217, -0.008657839149236679, 0.03196422755718231, 0.018525131046772003, 0.03253718838095665, 0.0008526969468221068, 0.016879837960004807, -0.019905630499124527, -0.019590968266129494, 0.028782257810235023, 0.0010413354029878974, -0.042664408683776855, -0.06632521748542786, 0.0030835927464067936, 0.007201089058071375, 0.05381179228425026, 0.059982649981975555, 0.0048970747739076614, -0.03099795989692211, -0.029234934598207474, 0.049178771674633026, -0.002644987776875496, 0.07998128235340118, -0.021331017836928368, -0.024795902892947197, -0.06616131961345673, 0.008598643355071545, 0.03763829916715622, 0.049888428300619125, 0.11697716265916824, 0.05449343100190163, 0.04877964034676552, -0.009859052486717701, -0.05848240479826927, 0.017350763082504272, -0.034964777529239655, 0.0371348038315773, -0.01988106407225132, -0.012710643000900745, 0.016768380999565125, 0.03513504937291145, 0.07058526575565338, -0.030794408172369003, -0.01967257261276245, -0.02729818783700466, -0.008273017592728138, 0.07284398376941681, 0.07120589911937714, 0.05832158774137497, 0.03604656085371971, -0.020408891141414642, 0.0070205130614340305, 0.08758807927370071, 0.05971098318696022, 0.0009233938762918115, -0.11175990849733353, 0.0253001656383276, 0.023071248084306717, -0.0046668825671076775, 0.0132273118942976, -0.010354450903832912, -0.004857642576098442, -0.031087810173630714, 0.034698113799095154, -0.049797479063272476, 0.005619223695248365, 0.04757818579673767, -0.031118955463171005, -0.00784290861338377, 0.030273621901869774, 0.022333888337016106, 0.04103654995560646, -0.047328412532806396, -0.017540954053401947, -0.027076872065663338, 0.035987455397844315, -0.063933826982975, -0.006562549155205488, 0.1452656239271164, 0.07777178287506104, -0.12998272478580475, -0.060769181698560715, -0.02832435443997383, -0.03311707451939583, 0.01330585591495037, 0.1342678964138031, 0.0347222201526165, -0.02858693152666092, -0.026402058079838753, -0.060252051800489426, 0.04121775925159454, 0.0654972717165947, 0.23682911694049835, 0.019811158999800682, 0.17735303938388824, 0.05320443958044052, -0.008208607323467731, -0.13099154829978943, 0.127957284450531, 0.1969909965991974, 0.1230994313955307, 0.08227964490652084, 0.06023899465799332, 0.005987266544252634, 0.0062324898317456245, 0.10877024382352829, 0.11965236812829971, 0.00613697525113821, 0.07763688266277313, 0.027720164507627487, -0.03394296392798424, 0.015733124688267708, -0.15255913138389587, -0.11412203311920166, -0.0640302374958992, -0.09874248504638672, -0.05709034577012062, -0.0851178914308548, -0.05357964336872101, 0.014905573800206184, -0.02857857383787632, -0.020673155784606934, -0.0007145131239667535, 0.02608761377632618, -0.02444135956466198, 0.0012879112036898732, 0.02623889036476612, -0.00576551491394639, 0.0073959617875516415, 0.008160826750099659, -0.019280748441815376, -0.0013925263192504644, -0.013988032937049866, 0.010712946765124798, -0.03526841104030609, -0.052295081317424774, -0.0020346646197140217, -0.019933560863137245, -0.02881726063787937, 0.01681000553071499, -0.01893007569015026, -0.06411474198102951, -0.06596409529447556, -0.0064409957267344, -0.01505318470299244, 0.026507051661610603, 0.004676965065300465, -0.009958364069461823, -0.0659325122833252, -0.009186098352074623, 0.003892879467457533, -0.004305425565689802, 0.05982175096869469, 0.014140987768769264, -0.0014800834469497204, -0.014252958819270134, 0.040426939725875854, 0.03640110045671463, 0.008111401461064816, 0.013548504561185837, 0.03163651004433632, -0.00023421470541507006, 0.002851207507774234, 0.040751367807388306, -0.005102907307446003, -0.013440166600048542, 0.0006247559213079512, -0.026011211797595024, -0.013924793340265751, -0.040372926741838455, -0.05664227530360222, -0.07359004020690918, -0.09959278255701065, -0.043729253113269806, -0.03799733892083168, -0.007338923867791891, -0.020190024748444557, 0.026769360527396202, 0.019899435341358185, 0.022849956527352333, 0.05397973954677582, 0.051955804228782654, -0.020775001496076584, 0.10035862028598785, 0.103697270154953, 0.10036821663379669, 0.061607930809259415, 0.08680201321840286, 0.008418870158493519, 0.002715705195441842, 0.0036413075868040323, -0.02560853213071823, -0.0026596698444336653, 0.02863808162510395, 0.012242312543094158, 0.02084839902818203, -0.008159602992236614, -0.029799968004226685, 0.07887991517782211, 0.12776224315166473, 0.03129173070192337, -0.043454669415950775, -0.043869491666555405, -0.043867114931344986, -0.042185887694358826, -0.019084665924310684, -0.059558313339948654, -0.0537029504776001, -0.01746918447315693, -0.02283458411693573, 0.0221211276948452, -0.019535085186362267, 0.015793008729815483, -0.012846830300986767, -0.025259701535105705, -0.04276955500245094, 0.026764297857880592, 0.019248399883508682, -0.005648705177009106, -0.019017456099390984, 0.08799850940704346, -0.008877359330654144, -0.009257498197257519, 0.014960337430238724, -0.08777772635221481, -0.04960927739739418, -0.030811578035354614, 0.1541164219379425, 0.08693148195743561, 0.06810624152421951, 0.04756533354520798, -0.06118778511881828, -0.07252141833305359, 0.008104502223432064, 0.12114900350570679, -0.0424700602889061, 0.07415898144245148, -0.03560767322778702, -0.08935340493917465, -0.042703889310359955, 0.07561264932155609, 0.04698386415839195, -0.06276123225688934, -0.013325020670890808, -0.08327464759349823, -0.0627225786447525, -0.04397023096680641, -0.09569326788187027, 0.010023176670074463, -0.04578811302781105, 0.04927043616771698, 0.005319859832525253, 0.03644639998674393, -0.0521843321621418, -0.06269122660160065, 0.018138382583856583, 0.06203445792198181, 0.009332703426480293, 0.031482864171266556, -0.05648590996861458, 0.0028081133496016264, -0.004940166603773832, 0.06322887539863586, 0.05223990976810455, -0.001969890436157584, 0.010121691972017288, 0.0034885238856077194, -0.016987081617116928, -0.01996598020195961, 0.06741715967655182, 0.014204442501068115, -0.0016947495751082897, -0.018363455310463905, 0.0479617565870285, 0.011047658510506153, 0.004318298771977425, 0.10205692797899246, 0.050057653337717056, 0.0048973942175507545, 0.02116480842232704, 0.017975851893424988, -0.01277090609073639, 0.04757623374462128, 0.11347633600234985, 0.015982426702976227, -0.045629534870386124, -0.03475073352456093, 0.024137116968631744, -0.045256324112415314, 0.007173832971602678, 0.015909472480416298, -0.03153752535581589, -0.01708473265171051, -0.022833915427327156, -0.005458145402371883, -0.03943668305873871, -0.10356803238391876, 0.024580685421824455, 0.03940169885754585, 0.07393283396959305, 0.02292514406144619, -0.006241159047931433, -0.06003261357545853, -0.0627584382891655, -0.052373673766851425, 0.05809089541435242, 0.05888215824961662, -0.005332283675670624, 0.010625695809721947, 0.005454492289572954, 0.007893533445894718, -0.02092381753027439, 0.02348390594124794, 0.02185157686471939, -0.006962287239730358, 0.04783239960670471, -0.014506480656564236, 0.0068375468254089355, -0.008778441697359085, -0.006792518775910139, -0.020110497251152992, 0.04477502778172493, 0.04552428051829338, 0.08246119320392609, 0.019333716481924057, -0.030805744230747223, -0.02245892770588398, -0.008053289726376534, -0.020729217678308487, -0.011939262971282005, 0.11414718627929688, 0.0033961664885282516, -0.09542803466320038, -0.018862662836909294, -0.0552813820540905, 0.021914226934313774, 0.014576294459402561, 0.026099737733602524, -0.009585957042872906, 0.07019372284412384, 0.0788399875164032, 0.07058870792388916, -0.1207771897315979, 0.05644160509109497, 0.05072810500860214, 0.03386900946497917, 0.09039667993783951, 0.09203988313674927, 0.04433415085077286, 0.020749138668179512, 0.05543418228626251, -0.0036059017293155193, 0.06036233529448509, 0.022478045895695686, -0.04160595312714577, -0.06990500539541245, -0.007509835064411163, -0.026516614481806755, 0.038947995752096176, 0.09913037717342377, 0.0662788599729538, 0.006200617644935846, -0.0375860258936882, 0.002588030183687806, 0.02744114398956299, -0.013811033219099045, -0.02931457757949829, 0.054463110864162445, 0.03255102038383484, -0.02091711014509201, -0.0038262205198407173, -0.007794602774083614, 0.03011275641620159, -0.011661582626402378, -0.057322222739458084, -0.0493353046476841, -0.02729741670191288, -0.05218818783760071, -0.022512342780828476, 0.011036100797355175, -0.05106935277581215, -0.033755671232938766, -0.02004011906683445, -0.047174740582704544, 0.028836823999881744, -0.008643734268844128, -0.05868139490485191, -0.06185685470700264, 0.03358541429042816, 0.03148858994245529, 0.0044110543094575405, -0.03674142435193062, 0.010009166784584522, -0.012143939733505249, 0.036617208272218704, 0.049302197992801666, 0.07791334390640259, 0.03540752828121185, 0.020313074812293053, 0.00473992433398962, -0.010758675634860992, 0.018427563831210136, -0.003562014549970627, -0.005241291597485542, -0.04069532826542854, -0.005188817158341408, 0.031468238681554794, 0.05386970564723015, 0.05615217238664627, 0.015758773311972618, -0.03197672218084335, -0.040487878024578094, 0.03528790548443794, 0.0027364916168153286, 0.009839467704296112, -0.02364824153482914, 0.017750641331076622, 0.02824084460735321, 0.015252887271344662, -0.01952211558818817, 0.026177041232585907, -0.003910834435373545, -0.048105932772159576, 0.0011033200426027179, -0.03479040786623955, -0.027163593098521233, 0.01704675704240799, 0.04906608909368515, -0.041552163660526276, -0.1228557825088501, -0.03428657725453377, 0.07303307950496674, 0.04674593359231949, 0.011439872905611992, -0.032434117048978806, -0.10603558272123337, -0.01516948826611042, 0.181697279214859, 0.06154020130634308, -0.0516001395881176, 0.04084152728319168, -0.0882156640291214, -0.08533046394586563, -0.07302790135145187, -0.08345380425453186, -0.06999125331640244, 0.05408861115574837, 0.007175004109740257, -0.10427772253751755, -0.002938162302598357, 0.09837120026350021, 0.06037898734211922, 0.06928680092096329, 0.00822486449033022, -0.018445564433932304, 0.07302117347717285, 0.03203534707427025, 0.13216206431388855, 0.16143521666526794, 0.30902400612831116, 0.14612680673599243, 0.014268722385168076, 0.012483282946050167, 0.023608237504959106, 0.028563745319843292, -0.010994917713105679, 0.07199493795633316, 0.03387000784277916, -0.026639441028237343, -0.005654162261635065, -0.03117450512945652, -0.07444640249013901, 0.006844298914074898, -0.004115919582545757, 0.0376230888068676, 0.00258443970233202, -0.01762249507009983, -0.06252821534872055, 0.0029186762403696775, 0.06642024964094162, 0.11690797656774521, 0.045098237693309784, 0.020294345915317535, -0.03803081065416336, -0.09026803076267242, -0.018388889729976654, 0.00273418752476573, -0.12896272540092468, 0.006035735365003347, 0.029513219371438026, -0.059080347418785095, -0.05715017765760422, -0.021677890792489052, 0.0030257361941039562, 0.030278073623776436, 0.012143446132540703, 0.02414282225072384, 0.00844512414187193, -0.016917698085308075, 0.05075269937515259, 0.023019110783934593, 0.0793788805603981, 0.020385045558214188, -0.030702661722898483, -0.0010639384854584932, 0.024916956201195717, 0.0055903601460158825, 0.03387077897787094, 0.05794619768857956, 0.02623463235795498, 0.015858730301260948, -0.008279712870717049, 0.02373809926211834, -0.02596168778836727, -0.022403068840503693, 0.002166492398828268, 0.009842094033956528, 0.010298133827745914, -0.0019014232093468308, -0.026781199499964714, -0.007501036860048771, -0.025607537478208542, -0.012058034539222717, 0.09185847640037537, -0.005087633617222309, 0.0019488645484670997, -0.0917799100279808, -0.04286143556237221, -0.019926277920603752, 0.03469743952155113, 0.07029928267002106, 0.07998176664113998, -0.0029389008414000273, -0.10904256254434586, -0.06694530695676804, -0.054888784885406494, 0.04366972669959068, -0.03517626225948334, -0.028010932728648186, 0.010611879639327526, -0.06838219612836838, -0.013878761790692806, 0.027365587651729584, -0.046554386615753174, -0.0391567163169384, 0.00659220851957798, -0.0016662260750308633, -0.009212595410645008, 0.014927473850548267, -0.05774100124835968, 0.005137117113918066, 0.04036723077297211, 0.030552834272384644, -0.0070681823417544365, 0.016585394740104675, 0.04311225190758705, 0.01629825495183468, 0.051922108978033066, 0.05253913253545761, 0.03630631044507027, -0.0015209781704470515, -0.022075528278946877, -0.03051319345831871, 0.028175605461001396, 0.04063761979341507, -0.03459577262401581, -0.008553116582334042, -0.017307622358202934, 0.04214373975992203, -0.009883739985525608, -0.047675661742687225, 0.020788803696632385, -0.053370218724012375, -0.0018446347676217556, 0.00925033912062645, 0.03863503411412239, -0.06494183093309402, -0.15499931573867798, -0.06730465590953827, -0.05428824946284294, 0.05303383246064186, -0.02185709774494171, -0.04750674217939377, -0.0910961702466011, -0.021980445832014084, 0.0441545695066452, 0.07695315778255463, 0.007704403251409531, 0.02577422559261322, 0.04417338967323303, -0.039333850145339966, 0.005723185371607542, 0.09603042155504227, 0.03311879187822342, 0.07928626984357834, 0.0066816844046115875, 0.041241999715566635, 0.07057952135801315, 0.05436524748802185, 0.0655345618724823, -0.009271761402487755, 0.013797782361507416, 0.006783606950193644, 0.014711158350110054, 0.007929443381726742, 0.02951551228761673, -0.003379089292138815, -0.02273247204720974, 0.045284684747457504, -0.006675091106444597, -0.00010084604582516477, -0.018672974780201912, 0.005982106551527977, 0.0876443088054657, 0.04609242081642151, -0.04727296158671379, 0.011708945035934448, -0.010175283998250961, 0.04891875386238098, -0.09715586155653, -0.0019883851055055857, 0.040047384798526764, -0.005312816239893436, 0.034918397665023804, 0.009338152594864368, -0.01222167257219553, -0.0587545670568943, -0.005171508062630892, 0.08115172386169434, 0.11629176884889603, 0.02615363895893097, -0.035618528723716736, -0.04973359778523445, 0.0553777851164341, -0.008053193800151348, -0.06783942878246307, -0.05173014849424362, -0.03936909884214401, -0.0674893856048584, -0.008859628811478615, -0.002414730377495289, -0.01795576885342598, -0.016697745770215988, 0.013185592368245125, -0.06669953465461731, 0.06625653058290482, -0.004390378948301077, 0.0037511333357542753, 0.030805686488747597, 0.03466175124049187, -0.01324080117046833, 0.04829694703221321, 0.012604628689587116, 0.011826928704977036, -0.02844325266778469, 0.004661950748413801, 0.03314981982111931, 0.010319405235350132, -0.032606787979602814, -0.022217227146029472, -0.008528138510882854, -0.013247719034552574, 0.01838017627596855, -0.02810237742960453, -0.02699541486799717, -0.01866426132619381, -0.06321477144956589, 0.028048351407051086, 0.053352802991867065, 0.0936138927936554, 0.1594858318567276, 0.104018434882164, -0.013963722623884678, 0.034561414271593094, 0.04063919559121132, -0.017641570419073105, 0.04015212133526802, 0.10015443712472916, 0.04922866448760033, 0.03467850387096405, 0.06271552294492722, 0.0556819848716259, 0.028040951117873192, -0.010091052390635014, -0.08895587921142578, -0.11053738743066788, 0.05671416223049164, -0.053190622478723526, 0.03347431868314743, 0.0030964361503720284, -0.08879214525222778, -0.08323168009519577, -0.031035499647259712, -0.08171289414167404, -0.007570494897663593, -0.03300655260682106, -0.01506090722978115, -0.00903477892279625, -0.02891511842608452, 0.028020037338137627, -0.009172837249934673, -0.0030426443554461002, -0.00707629881799221, 0.052725549787282944, 0.037276845425367355, 0.05438821762800217, 0.05733226612210274, 0.015757324174046516, 0.004337414633482695, 0.01508606318384409, 0.06556704640388489, 0.09678271412849426, -0.002167807426303625, 0.07879319787025452, 0.05830242857336998, 0.04059436544775963, 0.026140715926885605, 0.021765155717730522, 0.027105191722512245, 0.008248923346400261, 0.018383502960205078, -0.012684378772974014, 0.021307485178112984, 0.0027467110194265842, 0.11268932372331619, 0.04568477347493172, -0.047250617295503616, -0.008108009584248066, -0.0018137942533940077, -0.08778537064790726, -0.010616473853588104, 0.07252918928861618, 0.0177836362272501, -0.07747779041528702, -0.02830643020570278, -0.00019801233429461718, -0.07749314606189728, -0.09268775582313538, 0.006984831299632788, 0.027381455525755882, 0.03674715757369995, 0.017996923997998238, -0.011609494686126709, -0.011590235866606236, -0.00525609590113163, 0.05415574833750725, 0.033102527260780334, 0.08438639342784882, 0.0010335437254980206, 0.020751142874360085, -0.031084168702363968, 0.05985013023018837, 0.008053692989051342, 0.058405958116054535, 0.08368432521820068, 0.05590176209807396, 0.048517536371946335, 0.0568448081612587, 0.09377916902303696, 0.03985108435153961, 0.15065795183181763, 0.050990305840969086, 0.08712559193372726, 0.04171641170978546, -0.02729976922273636, -0.0835312083363533, -0.031875502318143845, 0.04639064893126488, 0.11562628298997879, 0.058794572949409485, 0.018360940739512444, -0.057456038892269135, -0.11889194697141647, 0.0027287346310913563, 0.0005070437910035253, -0.04085659608244896, -0.014545915648341179, -0.0030669618863612413, -0.03451867401599884, -0.05449248105287552, 0.009088599123060703, -0.03742620348930359, -0.19547729194164276, -0.1111084520816803, -0.014258491806685925, -0.15077842772006989, -0.09966971725225449, -0.16060380637645721, -0.06897865980863571, -0.0036904546432197094, -0.012879854999482632, -0.08113352954387665, 0.029288796707987785, 0.003592337481677532, 0.043678876012563705, 0.09074356406927109, 0.11066555231809616, 0.09497438371181488, 0.0336323119699955, 0.08564396947622299, 0.0922689363360405, 0.1348779946565628, 0.07184214144945145, 0.1761321872472763, 0.03595070168375969, 0.017090173438191414, 0.015713205561041832, -0.03885987773537636, 0.003976316191256046, 0.08663707226514816, -0.025549553334712982, -0.020520977675914764, 0.06471288949251175, 0.05345499888062477, -0.009555339813232422, 0.03911658748984337, 0.08989442139863968, -0.044337958097457886, -0.002442185301333666, -0.024593081325292587, 0.003471655072644353, -0.08749322593212128, 0.1263498067855835, 0.09538868069648743, 0.043899569660425186, 0.08912813663482666, 0.004172386135905981, -0.02420925348997116, -0.02523057907819748, 0.11277347058057785, -0.002578758168965578, 0.002790603321045637, -0.004014415666460991, 0.011428829282522202, -0.042910825461149216, -0.046504195779561996, -0.05975458025932312, 0.05995134636759758, 0.016917701810598373, 0.0893709734082222, -0.005754290614277124, -0.0034177452325820923, -0.07967948168516159, -0.03940641134977341, -0.02633359096944332, 0.02917690947651863, -0.04637158289551735, 0.022236576303839684, 0.0004142305988352746, -0.013340771198272705, -0.022505948320031166, -0.019093364477157593, 0.011228047311306, 0.012705785222351551, 0.061595480889081955, -0.053945668041706085, 0.04524275287985802, 0.08868928253650665, -0.006849999539554119, 0.02284078672528267, -0.005644469056278467, -0.01008489541709423, 0.003316175891086459, 0.07410668581724167, 0.12842190265655518, -0.010261774063110352, 0.012055475264787674, 0.01740352436900139, -0.008089597336947918, -0.03875737637281418, 0.004579335916787386, 0.059153757989406586, -0.08186653256416321, -0.06828563660383224, 0.01140738744288683, -0.03155839443206787, -0.04284531995654106, -0.004028587602078915, 0.017696479335427284, -0.006013260222971439, 0.04289792478084564, 0.0024310338776558638, -0.06361756473779678, -0.013997296802699566, -0.0664263665676117, 0.023590780794620514, 0.019439904019236565, 0.07577408850193024, 0.017221659421920776, -0.010635140351951122, -0.06377226114273071, -0.05189548060297966, 0.0022739903070032597, 0.03521212562918663, 0.08826425671577454, 0.03385390713810921, -0.007729640696197748, -0.011615553870797157, -0.029978252947330475, -0.06896962225437164, 0.02181687392294407, 0.029606061056256294, 0.018597524613142014, -0.011041609570384026, 0.09493180364370346, 0.009352496825158596, -0.09364713728427887, -0.020832153037190437, 0.0633314698934555, 0.03295132890343666, 0.06463371962308884, 0.1661631017923355, 0.23824846744537354, -0.07842658460140228, -0.11757354438304901, -0.0688510313630104, -0.01281165610998869, -0.018177339807152748, -0.030930159613490105, -0.013639122247695923, -0.025075672194361687, -0.04958823323249817, 0.0010765481274574995, -0.06501848250627518, 0.010904457420110703, 0.07518497109413147, 0.11030914634466171, 0.030654359608888626, 0.09148912876844406, 0.11591865122318268, -0.0012828671606257558, -0.01713644713163376, 0.10850776731967926, 0.1576884686946869, 0.10985472798347473, 0.038844265043735504, -0.036977510899305344, 0.03347555175423622, -0.033587172627449036, 0.04107348620891571, -0.111546590924263, -0.045767124742269516, 0.08813751488924026, 0.0005588142666965723, -0.028456877917051315, -0.03199193999171257, -0.025731703266501427, -0.021473955363035202, -0.04044945910573006, -0.13089455664157867, -0.1073136180639267, 0.01909491792321205, 0.04082940146327019, 0.0011565269669517875, -0.01296252105385065, -0.02152901329100132, -0.08277565985918045, -0.047379523515701294, -0.0567057766020298, 0.030287809669971466, 0.051984988152980804, -0.002440502867102623, -0.019235018640756607, -0.05065146088600159, -0.04330332577228546, 0.06576729565858841, -0.012334170751273632, 0.007956529036164284, 0.011581763625144958, -0.02460869587957859, -0.016672078520059586, -0.05147555097937584, 0.03806093707680702, -0.0032224184833467007, -0.08225028961896896, -0.08822549879550934, 0.01255505159497261, 0.07623208314180374, 0.05628145486116409, 0.025823799893260002, 0.0266417209059, -0.06741812080144882, -0.004462145734578371, 0.08327644318342209, 0.0570007860660553, -0.038417112082242966, -0.05150904133915901, -0.010597866028547287, -0.0294909980148077, 0.021182609722018242, -0.006615219172090292, -0.031164027750492096, -0.04915037378668785, -0.01786397397518158, 0.12544198334217072, 0.056045446544885635, 0.01863674260675907, 0.07449685782194138, -0.03743556886911392, -0.055302128195762634, 0.025351369753479958, 0.10245930403470993, -0.1000777930021286, -0.06957533210515976, -0.08520820736885071, -0.021572912111878395, 0.05246378108859062, -0.04929203540086746, 0.05645337700843811, 0.08436911553144455, 0.04070935770869255, 0.055010221898555756, 0.08736386150121689, 0.017377225682139397, 0.07946936041116714, -0.015748385339975357, 0.11103583872318268, 0.035679906606674194, 0.03183040767908096, 0.010917107574641705, 0.036971140652894974, 0.0074013941921293736, -0.07031739503145218, 0.04332655668258667, -0.008565684780478477, 0.061008185148239136, 0.032482825219631195, 0.0005247590015642345, -0.007878941483795643, -0.023045076057314873, 0.057827241718769073, 0.0417751744389534, 0.061989910900592804, 0.053419679403305054, -0.03130333870649338, -0.06858952343463898, 0.03187686577439308, -0.008300257846713066, 0.026676120236516, -0.025043029338121414, -0.09123734384775162, -0.06285632401704788, 0.029009981080889702, 0.133487269282341, 0.0708029568195343, -0.015341131947934628, 0.007164136506617069, 0.004214379470795393, -0.03957857936620712, 0.06772299855947495, -0.03526763990521431, -0.07512399554252625, 0.023467669263482094, 0.08074463158845901, 0.05081461742520332, 0.014136207289993763, 0.037484727799892426, 0.02223673090338707, 0.050654761493206024, 0.029403846710920334, 0.03910164535045624, 0.04828675091266632, -0.02128925733268261, -0.013488764874637127, -0.028420081362128258, 0.04362030699849129, 0.05213422700762749, 0.07753878831863403, 0.08455384522676468, 0.01204729825258255, 0.0418369323015213, 0.020664554089307785, 0.004397325683385134, 0.029677147045731544, 0.107394278049469, 0.07017789781093597, -0.06818609684705734, -0.13019439578056335, 0.037637703120708466, -0.05073177441954613, 0.04455167427659035, 0.03587362542748451, 0.005700694862753153, -0.0018728263676166534, 0.0314004123210907, -0.023872042074799538, -0.03959481045603752, -0.04076369106769562, 0.022275730967521667, -0.002493674401193857, -0.01102637778967619, 0.05175832286477089, -0.018716195598244667, 0.030101461336016655, 0.057184211909770966, 0.03243009001016617, -0.014683972112834454, 0.07069643586874008, 0.020535482093691826, 0.01579221710562706, -0.015574369579553604, -0.028930962085723877, 0.038554076105356216, 0.029076015576720238, 0.017656732350587845, -0.0018314284970983863, 0.06346458941698074, 0.028685830533504486, 0.05845822021365166, -0.012251004576683044, 0.005187806207686663, -0.023994389921426773, -0.06414557248353958, 0.015912385657429695, 0.015727940946817398, 0.0019018639577552676, 0.06652296334505081, 0.032554835081100464, -0.006875104270875454, -0.004539807792752981, 0.007930751889944077, 0.028018301352858543, 0.020254623144865036, 0.026874810457229614, -0.022105569019913673, 0.003955610562115908, -0.023701343685388565, 0.03023369237780571, 0.0052016242407262325, -0.022513315081596375, -0.059077415615320206, 0.020010879263281822, 0.00797988474369049, -0.0015446775360032916, -0.005237600300461054, 0.0055557130835950375, 0.006302197929471731, 0.034141138195991516, 0.013884180225431919, -0.039193637669086456, 0.013657716102898121, 0.010687708854675293, 0.031083539128303528, -0.0022499216720461845, 0.012498000636696815, 0.009479588828980923, 0.019037354737520218, 0.032236892729997635, 0.007964168675243855, 0.00989362969994545, 0.008538699708878994, 0.05639439448714256, 0.029245877638459206, 0.036716245114803314, -0.014771685004234314, 0.09119798243045807, 0.0675036758184433, 0.046504195779561996, -0.050546154379844666, 0.011293662711977959, 0.004750194493681192, 0.03670404106378555, 0.03833504021167755, -0.0068534077145159245, -0.10308738797903061, 0.003900800598785281, 0.061531782150268555, 0.059709154069423676, 0.0710299164056778, -0.06878340989351273, -0.07777850329875946, -0.0027043474838137627, 0.046375956386327744, 0.019824951887130737, -0.04755924269556999, 0.004283139482140541, -0.026225287467241287, -0.14610980451107025, -0.11950404942035675, 0.005420783534646034, -0.04937678202986717, 0.07372405380010605, 0.01340128481388092, -0.035127706825733185, -0.0486234575510025, -0.051127418875694275, 0.05316425487399101, 0.09176307171583176, 0.0842965766787529, 0.025066766887903214, 0.07072540372610092, -0.007562436629086733, 0.08377531915903091, 0.0038727163337171078, 0.012793960981070995, 0.03733326122164726, 0.004568072501569986, 0.003915144130587578, 0.01354646310210228, 0.03629973903298378, -0.0009322594851255417, 0.01027075108140707, 0.008204231038689613, -0.03760521858930588, 0.034811947494745255, 0.03575454652309418, 0.04317452013492584, 0.07570300996303558, 0.10050597786903381, -0.03837242349982262, -0.025351885706186295, 0.00789551343768835, -0.00506105599924922, -0.10713721811771393, -0.02040029875934124, 0.033661361783742905, 0.024043874815106392, 0.01722189225256443, -0.01151077076792717, -0.037396837025880814, -0.14052264392375946, 0.018888795748353004, 0.0035785124637186527, -0.06279434263706207, -0.01325332373380661, -0.019203608855605125, -0.12916763126850128, -0.0670214369893074, 0.01764027401804924, -0.052992336452007294, 0.040708642452955246, 0.028191640973091125, -0.002094812458381057, -0.007907282561063766, -0.09607236832380295, 0.05738900229334831, 0.016207357868552208, 0.10695742070674896, 0.04956750571727753, -0.06013542041182518, 0.03161570057272911, 0.0710461363196373, -0.004571579862385988, 0.005457853898406029, 0.00961820874363184, 0.020936230197548866, 0.018062077462673187, 0.04682253673672676, 0.044787775725126266, -0.006974013056606054, 0.0749155655503273, -0.04648856073617935, -0.0006985071813687682, -0.032206788659095764, -0.016329452395439148, -0.0383869968354702, 0.07590088993310928, 0.08419343084096909, 0.07862243801355362, 0.02867581881582737, -0.024551408365368843, -0.053707193583250046, -0.04090429097414017, 0.10841646045446396, 0.05921800434589386, 0.07401169091463089, -0.012230492196977139, -0.001095525803975761, -0.09494562447071075, 0.048402030020952225, 0.1170065626502037, -0.10289335250854492, -0.02212829887866974, -0.010454969480633736, -0.027202727273106575, -0.06904702633619308, -0.11584949493408203, -0.09086068719625473, -0.05484728887677193, 0.05526479706168175, 0.009847388602793217, -0.005057578440755606, -0.0462682768702507, -0.06528300046920776, -0.10273081064224243, 0.040317073464393616, 0.029888736084103584, 0.0006863741436973214, 0.035201821476221085, -0.008849683217704296, 0.08557657152414322, 0.012970463372766972, 0.05184149369597435, 0.007740008644759655, 0.003916509449481964, 0.06093234196305275, 0.03579553961753845, -0.010313193313777447, 0.06861921399831772, -0.03867504373192787, 0.01804727129638195, 0.12119457125663757, 0.09569916874170303, 0.18601718544960022, 0.14083486795425415, 0.005112592130899429, 0.04586034640669823, -0.11491937190294266, -0.030551675707101822, 0.030247000977396965, 0.06068846210837364, -0.09880514442920685, -0.13595694303512573, -0.07328759133815765, -0.05798352509737015, 0.08002720773220062, -0.07539121806621552, -0.04823268577456474, -0.08058752864599228, -0.049951691180467606, 0.019096896052360535, 0.027894653379917145, 0.1467493623495102, 0.07824738323688507, 0.018914002925157547, 0.010196643881499767, 0.09187601506710052, 0.004879952408373356, -0.04542657360434532, -0.032965127378702164, 0.052396927028894424, 0.04536356404423714, 0.013143808580935001, -0.024808058515191078, 0.019015194848179817, -0.03432908654212952, -0.0019919925834983587, -0.03022042289376259, 0.04855531454086304, 0.011775529012084007, 0.024702558293938637, -0.006127627566456795, -0.06006946042180061, 0.01865340583026409], "bias": 0.0018907944904640317}