{"layer": "fc1", "index": 5, "weights": [0.029450807720422745, -0.012087348848581314, 0.006487119942903519, 0.09172368794679642, 0.03471019119024277, -0.007703772746026516, -0.01533148530870676, 0.03190557658672333, 0.019513286650180817, 0.04612533375620842, 0.08255458623170853, 0.058502692729234695, 0.05811905115842819, -0.06390566378831863, -0.009130064398050308, -0.022920461371541023, -0.018012354150414467, -0.014589479193091393, -0.03242189809679985, 0.01464371383190155, -0.05694522708654404, 0.04158824682235718, -0.07437389343976974, 0.031019767746329308, 0.03149091452360153, -0.008603734895586967, -0.08912499994039536, -0.03830419480800629, -0.029547104611992836, -0.15634912252426147, -0.07616382837295532, 0.03097946010529995, 0.026808535680174828, 0.007356186397373676, -0.020964961498975754, -0.01862013153731823, -0.028405820950865746, -0.00020925665739923716, 0.07676882296800613, -0.019426114857196808, 0.01316712237894535, -0.05582454055547714, 0.0018148735398426652, 0.01430114358663559, -0.006609644740819931, -0.01371526625007391, 0.01565619744360447, -0.02502576634287834, 0.0014679990708827972, 0.009883969090878963, -0.001214554300531745, 0.00019059126498177648, 0.004364938475191593, 0.012939682230353355, -0.0034197941422462463, -0.0014867965364828706, -0.010713750496506691, 0.004555989522486925, -0.01631781831383705, 0.028186645358800888, 0.06958228349685669, -0.013046491891145706, 0.001297184033319354, -0.003066878765821457, -0.009590905159711838, -0.020208360627293587, 0.04087000712752342, 0.016093425452709198, -0.005989661905914545, 0.013538960367441177, -0.02224217914044857, -0.023202452808618546, 0.005545041058212519, 0.054287075996398926, 0.018633652478456497, -0.02239413745701313, -0.01902126520872116, 0.00908072479069233, -0.0524379201233387, -0.053690291941165924, 0.03275466337800026, 0.0378473661839962, -0.006274290382862091, -0.00015488459030166268, -0.009000950492918491, -0.0315609946846962, -0.037800975143909454, 0.0013982527889311314, -0.008791746571660042, 0.005188575480133295, -0.0041772304102778435, 0.009372249245643616, 0.028010791167616844, -0.014468750916421413, -0.022400034591555595, 0.031278096139431, 0.0019021665211766958, 0.005589317996054888, 0.001593301771208644, 0.021655002608895302, -0.01723690889775753, -0.000773389358073473, -0.03322526812553406, 0.0017641629092395306, -0.05887738987803459, 0.006396651733666658, -0.05187557637691498, -0.01486276462674141, -0.022758884355425835, 0.05999444052577019, 0.03612206503748894, 0.07389461249113083, 0.002507929690182209, -0.08366087079048157, 0.025907550007104874, 0.03714032471179962, 0.08118657022714615, 0.060445841401815414, 0.0450599305331707, 0.020126063376665115, -0.0641193836927414, -0.07577113807201385, -0.0016105473041534424, -0.050099313259124756, -0.05944165959954262, -0.03485175967216492, -0.020398546010255814, 0.10963854193687439, 0.1356641948223114, 0.09590239077806473, -0.013542579486966133, 0.0033080116845667362, -0.006645753514021635, -0.002807741519063711, 0.1335858553647995, 0.14187613129615784, 0.0233799759298563, -0.011278411373496056, -0.0067368727177381516, 0.02214231714606285, -0.02398163266479969, 0.011027266271412373, 0.009655684232711792, -0.010741690173745155, -0.03863136097788811, 0.008963718079030514, -0.0009986140066757798, 0.03312613070011139, 0.016343794763088226, -0.09770872443914413, -0.007357718423008919, 0.10762514173984528, 0.010811585932970047, 0.03001830354332924, 0.10233184695243835, -0.1562175154685974, -0.07832954078912735, 0.03726474568247795, 0.06257344782352448, 0.08644146472215652, -0.024661585688591003, 0.014384827576577663, 0.07717499881982803, -0.0009638944757170975, -0.08136001974344254, 0.01795857772231102, 0.017695710062980652, 0.03206022083759308, -0.018958134576678276, -0.036764368414878845, -0.07412716001272202, -0.05959957838058472, -0.007754260674118996, 0.019993331283330917, 0.01360501628369093, -0.044112250208854675, 0.031320422887802124, 0.10659309476613998, 0.06565660983324051, 0.0341581329703331, -0.11193573474884033, 0.010817989706993103, -0.020931707695126534, 0.020585430786013603, 0.06748919934034348, -0.017031608149409294, 0.01657179929316044, 0.004389431793242693, 0.05083334073424339, -0.038495149463415146, -0.024972982704639435, 0.025490988045930862, 0.07379796355962753, 0.0238020159304142, 0.030595125630497932, 0.06678549945354462, 0.004504674579948187, -0.004932376090437174, -0.0008248542435467243, 0.010944468900561333, -0.01126733236014843, -0.003294308204203844, 0.00545001495629549, 0.003275831462815404, 0.06774565577507019, -0.0297547560185194, -0.03627614676952362, 0.017579076811671257, 0.038041215389966965, -0.005253050941973925, -0.027343740686774254, -0.07462833821773529, -0.09475219994783401, -0.06904987245798111, 0.0277349054813385, 0.03373288735747337, -0.0025824971962720156, -0.028066083788871765, 0.0022662952542304993, -0.0022298460826277733, 0.0786391943693161, -0.010368302464485168, -0.008419299498200417, -0.023662004619836807, 0.0013466119999065995, -0.04182636737823486, -0.019975677132606506, 0.006241625640541315, -0.028175411745905876, -0.03284221887588501, -0.03554503992199898, 0.022427985444664955, 0.008343014866113663, -0.03210749104619026, 0.0245808232575655, -0.032897766679525375, -0.01577235758304596, 0.0013436459703370929, 0.02823169343173504, 0.010318627581000328, -0.00266125681810081, -0.012290320359170437, 0.026839399710297585, 0.0031621423549950123, -0.0011852120514959097, 0.03809001296758652, 0.09575962275266647, 0.004756929352879524, -0.03804823011159897, -0.049992308020591736, -0.016929205507040024, 0.018907921388745308, 0.0500062070786953, 0.10287712514400482, -0.011982670053839684, -0.0641264095902443, 0.0366271436214447, 0.03109411522746086, 0.04170016199350357, -0.012311428785324097, -0.05223088338971138, -0.03928039222955704, 0.04713503271341324, 0.03180468827486038, 0.03957062587141991, -0.03272973746061325, -0.0918489545583725, -0.008812188170850277, 0.03170718997716904, 0.016460558399558067, 0.00037146563408896327, -0.04856308549642563, 0.01468775887042284, -0.03107081726193428, 0.14413517713546753, 0.13442717492580414, -0.010188992135226727, -0.00024012858921196312, 0.0792786180973053, -0.011626281775534153, -0.03666263818740845, -0.05000818893313408, -0.015272459015250206, -0.005313249304890633, -0.017655139788985252, 0.012342829257249832, 0.032099634408950806, -0.0348844900727272, -0.04389490559697151, -0.010854647494852543, -0.0031366331968456507, 0.03711743652820587, 0.09153221547603607, 0.009597770869731903, -0.004680016078054905, 0.04791813716292381, -0.03301163762807846, -0.00919013936072588, 0.02461218275129795, 0.05954909324645996, 0.021556459367275238, -0.01451290212571621, 0.0371750071644783, 0.10416468977928162, 0.08491498976945877, -0.038246989250183105, -0.026354240253567696, 0.03881014138460159, 0.019711032509803772, 0.12857863306999207, 0.12373940646648407, 0.03203834965825081, -0.04110713675618172, -0.10384401679039001, -0.04648398607969284, 0.032880719751119614, 0.08324269205331802, 0.11006943881511688, 0.03460517153143883, 0.047580286860466, -0.029483696445822716, -0.09423847496509552, -0.0014681033790111542, 0.11976367980241776, -0.005083971656858921, 0.03191162645816803, 0.027458155527710915, -0.0032473159953951836, 0.03579486161470413, -0.015967074781656265, 0.01122073270380497, -0.023188065737485886, 0.024190666154026985, 0.0051101078279316425, -0.004503497388213873, 0.07837755978107452, -0.0256239902228117, -0.016439205035567284, 0.03711283579468727, 0.041130099445581436, 0.028956765308976173, -0.08575037121772766, 0.04069123789668083, 0.031372033059597015, 0.023141425102949142, 0.0047650872729718685, 0.007250162772834301, 0.040719110518693924, 0.037193141877651215, -0.02261056751012802, 0.017246926203370094, -0.04724946245551109, -0.005030715838074684, 0.017968542873859406, 0.018823005259037018, 0.008558305911719799, -0.003719775239005685, 0.01916082203388214, -0.018275640904903412, -0.07615059614181519, -0.03707831725478172, -0.014299828559160233, 0.0514385886490345, -0.0012527154758572578, 0.005050287116318941, -0.06748796999454498, -0.059211842715740204, 0.011768990196287632, -0.0013299850979819894, -0.005119043402373791, -0.050188224762678146, 0.04123242199420929, -0.02649756707251072, -0.07926749438047409, -0.002800503047183156, 0.035239577293395996, -0.06439453363418579, -0.07081107050180435, -0.012338061816990376, 0.00836110021919012, -0.03243214264512062, 0.04455908015370369, 0.03081599622964859, -0.030717600136995316, -0.009722023271024227, -0.03686428442597389, -0.07239431142807007, -0.007146810181438923, 0.013567187823355198, 0.007712523452937603, 0.05382128804922104, 0.006867775693535805, -0.0025416919961571693, -0.012081221677362919, -0.0053434525616467, -0.0027314983308315277, 0.000703739991877228, 0.028453636914491653, -0.005353415384888649, 0.00014858911163173616, 0.010034476406872272, -0.010607630014419556, -0.020593225955963135, -0.01332189328968525, 0.003961983136832714, 0.0427606925368309, -0.015002957545220852, -0.036009933799505234, 0.003051287028938532, 0.02348119392991066, -0.014941193163394928, -0.005180101841688156, 0.03938519209623337, -0.00340457446873188, 0.02308669313788414, -0.020536083728075027, 0.03625224903225899, -0.009907194413244724, -0.0008350035059265792, -0.05770711228251457, 0.016989275813102722, 0.012503345496952534, -0.012341659516096115, -0.007966809906065464, 0.03623029217123985, 0.016997085884213448, -0.09527579694986343, 0.010826741345226765, 0.015203655697405338, 0.02374427393078804, 0.024473609402775764, 0.03393286094069481, 0.03929084166884422, 0.049316681921482086, 0.012550799176096916, 0.009195205755531788, -0.020071832463145256, -0.004239701200276613, 0.024655045941472054, 0.02503563091158867, -0.005393287166953087, 0.022763093933463097, 0.003960390109568834, 0.011925426311790943, 0.025782112032175064, 0.004283578135073185, 0.007514599245041609, -0.0012550379615277052, 0.0026906721759587526, -0.00919855572283268, 0.02244119718670845, 0.06764622032642365, 0.03845103457570076, 0.02575961872935295, 0.022702723741531372, 0.022401859983801842, 0.06646479666233063, -0.033291805535554886, 0.03641905635595322, 0.04673418402671814, 0.001271616667509079, 0.005514415446668863, -0.006834657397121191, -0.022207461297512054, -0.10469187051057816, -0.0217670239508152, 0.008495595306158066, -0.018181180581450462, -0.002000879729166627, 0.055660393089056015, -0.011641663499176502, -0.09997987002134323, -0.020447617396712303, 0.057733770459890366, 0.00828840583562851, 0.007744530215859413, 0.04441492259502411, 0.007200739346444607, 0.022135959938168526, 0.01335176918655634, 0.04912849888205528, -0.042314693331718445, 0.0064277504570782185, -0.019351519644260406, 0.02004951797425747, 0.051696840673685074, -0.00994772557169199, -0.03333936631679535, 0.012591363862156868, 0.008086588233709335, 0.029346074908971786, 0.013715023174881935, 0.020241878926753998, 0.023066217079758644, -0.02236083149909973, 0.004339754115790129, -0.0017706529470160604, -0.009563511237502098, 0.018378349021077156, 0.007767223287373781, -0.012290343642234802, -0.011406355537474155, -0.0059299650602042675, -0.02791561186313629, 0.00103806855622679, -0.02934369258582592, -0.06594943255186081, -0.014515182003378868, 0.03813525661826134, -0.0673103928565979, 0.11249080300331116, 0.02143160253763199, -0.0224747397005558, 0.02778073027729988, 0.04818492382764816, 0.02323123998939991, 0.0033511770889163017, -0.010057521052658558, 0.03263777866959572, -0.02020891010761261, -0.03948727250099182, 0.014528222382068634, 0.01800941675901413, 0.010461020283401012, -0.060824502259492874, 0.04937165975570679, -0.052557941526174545, -0.040197066962718964, -0.0432148315012455, -0.02591344527900219, 0.004427015781402588, 0.05474414303898811, 0.0031229397282004356, 0.008629567921161652, -0.0043591661378741264, 0.046672504395246506, 0.019060466438531876, -0.026592422276735306, 0.021647872403264046, 0.055384840816259384, 0.023304546251893044, 0.030839284881949425, 0.010778986848890781, 0.054613132029771805, -0.0005358461057767272, -0.004612172953784466, 0.061994124203920364, -0.026653748005628586, -0.03596710041165352, -0.00642172759398818, 0.1111358031630516, 0.11485570669174194, 0.021881606429815292, -0.002551520010456443, -0.04145042598247528, 0.08982332050800323, 0.06245069205760956, -0.032651565968990326, -0.012275008484721184, -0.021117502823472023, -0.049499835819005966, -0.10178875178098679, -0.10499247163534164, 0.02111770212650299, -0.03266153857111931, -0.007647250778973103, -0.0770791620016098, 0.04604820907115936, 0.2278287559747696, 0.09096341580152512, -0.04855305328965187, 0.01489923894405365, -0.09339266270399094, -0.08929729461669922, -0.00046846590703353286, 0.02097516693174839, 0.1571408212184906, -0.01854843460023403, -0.01252775825560093, -0.031293708831071854, 0.0053563532419502735, -0.0691225603222847, -0.023257603868842125, -0.019331177696585655, 0.08047562092542648, -0.04070419445633888, 0.007826847955584526, 0.05983901768922806, 0.03394737094640732, -0.012759055010974407, 0.015351026318967342, -0.004115804564207792, 0.04699958115816116, 0.017346123233437538, 0.023329684510827065, -0.006040537729859352, -0.06836872547864914, -0.06511501967906952, 0.06411150097846985, 0.13991554081439972, 0.09811744093894958, 0.009577220305800438, -0.062033627182245255, 0.030059531331062317, 0.08369206637144089, 0.09770912677049637, 0.005316347815096378, 0.04249840974807739, 0.037479303777217865, -0.03050585277378559, 0.04985976219177246, -0.02867276221513748, 0.04812130704522133, 0.006554340943694115, 0.010363095439970493, -0.019514016807079315, 0.05287671461701393, -0.003400420770049095, -0.10921536386013031, 0.09637106209993362, 0.005654261913150549, -0.05119214579463005, -0.06467925757169724, -0.0026881243102252483, 0.03591101989150047, 0.10526492446660995, -0.016706379130482674, 0.025507472455501556, -0.016191881150007248, 0.029463520273566246, 0.000353405368514359, -0.03565814346075058, 0.13244099915027618, 0.04191666468977928, 0.027967441827058792, -0.0038038846105337143, 0.057342708110809326, 0.018146267160773277, -0.004684869199991226, -0.003977149724960327, 0.016360772773623466, 0.008378819562494755, 0.025014184415340424, -0.003688104683533311, 0.021212521940469742, -0.016289710998535156, -0.004584231413900852, 0.0013181818649172783, 0.015256748534739017, 0.012458783574402332, 0.036932941526174545, -0.002358785830438137, 0.0007559008081443608, 0.010133150033652782, -0.008976798504590988, -0.021027883514761925, 0.0023585516028106213, -0.01636349968612194, 0.012291381135582924, -0.001651505590416491, 0.01882353611290455, 0.02037712000310421, -0.01157476007938385, -0.03112649917602539, -0.02162233740091324, 0.009021245874464512, -0.03752918913960457, -0.026478342711925507, 0.038531385362148285, 0.009662705473601818, -0.0002664783096406609, -0.013087138533592224, 0.001180511200800538, -0.006110040005296469, -0.0015168117824941874, -0.004018859937787056, -0.0162376519292593, 0.01598343253135681, 0.013866436667740345, 0.02622835338115692, 0.016224393621087074, 0.02380415052175522, 0.002613754477351904, -0.0016981582157313824, -0.004084321670234203, -0.00576841039583087, 0.03148368000984192, -0.046665292233228683, 0.02000342309474945, -0.050069548189640045, 0.05193342640995979, 0.10667293518781662, -0.013352824375033379, 0.00797487236559391, -0.03790492191910744, 0.10421647876501083, 0.10487616062164307, 0.1176118329167366, 0.018757930025458336, 0.0018201202619820833, 0.025005538016557693, 0.0021984081249684095, 0.12097163498401642, -0.007166972849518061, -0.04524582251906395, -0.024786626920104027, -0.008182343095541, -0.032309845089912415, -0.03051866590976715, 0.06876310706138611, 0.003957411739975214, 0.027140600606799126, 0.02984672226011753, -0.08619086444377899, -0.0339411161839962, -0.010760949924588203, 0.01658237725496292, 0.03995896503329277, -0.0013814102858304977, 0.0011661460157483816, -0.020947037264704704, -0.03471541032195091, -0.016888175159692764, -0.07421780377626419, 0.03121122531592846, 0.032957468181848526, 0.0066958218812942505, 0.02517886832356453, -0.0030547569040209055, -0.0007135576452128589, -0.04549480974674225, -0.0496479757130146, 0.08384411782026291, -0.018482325598597527, 0.023553328588604927, 0.0026826467365026474, -0.01869361288845539, -0.07103240489959717, 0.039228904992341995, 0.05513481795787811, 0.046486351639032364, 0.028361793607473373, -0.0037653776817023754, -0.06528575718402863, -0.058937229216098785, -0.023453261703252792, 0.02425559237599373, 0.06566645205020905, 0.0821947231888771, 0.042578909546136856, -0.07811048626899719, 0.0335891991853714, 0.06523075699806213, 0.03537016734480858, 0.07811640202999115, 0.05530555173754692, -0.030444128438830376, -0.1134951263666153, 0.022056883201003075, 0.0032335002906620502, -0.03874131664633751, -0.02522842213511467, -0.1008092612028122, -0.02505808137357235, -0.13170602917671204, -0.005952887237071991, -0.03155006468296051, -0.02301817014813423, -0.021694907918572426, 0.039122771471738815, -0.0644102469086647, -0.0002011314791161567, 0.04979463666677475, 0.04461768642067909, -0.07752115279436111, 0.020464766770601273, 0.016328921541571617, -0.017384719103574753, 0.029074527323246002, 0.06607558578252792, 0.08053317666053772, 0.06989052891731262, 0.06167242303490639, 0.01831868290901184, 0.001698993961326778, 0.0035123976413160563, -0.026617838069796562, -0.025875123217701912, 0.012025534175336361, 0.020863721147179604, 0.0063943942077457905, 0.018985936418175697, 0.04888652265071869, -0.008870881982147694, -0.009572084993124008, 0.005476804915815592, 0.05297071486711502, -0.016797807067632675, 0.020353471860289574, -0.02270492911338806, -0.03601067140698433, -0.055881112813949585, -0.024536008015275, 0.036838188767433167, 0.04534778371453285, -0.059453658759593964, -0.015458555892109871, 0.002005247864872217, 0.0574309378862381, 0.008949007838964462, 0.003978074062615633, -0.02918088436126709, 6.498722359538078e-05, 0.02665843442082405, 0.025442777201533318, 0.04476821795105934, 0.002079274272546172, 0.006342080421745777, -0.060677286237478256, 0.013154535554349422, 0.09324152022600174, 0.05854560062289238, 0.027702942490577698, 0.009188263677060604, 0.014808852225542068, 0.013292916119098663, 0.05187569186091423, 0.09540441632270813, 0.04180171713232994, -0.017896156758069992, -0.0014829247957095504, -0.06850990653038025, -0.05119383707642555, 0.016865117475390434, 0.03406219929456711, 0.012818981893360615, -0.022544097155332565, -0.0028919405303895473, -0.021120741963386536, 0.003463811706751585, 0.03397676348686218, 0.02542860060930252, -0.019008221104741096, -0.04531703516840935, 0.014788015745580196, 0.0015062802704051137, -0.010047540068626404, -0.03361121192574501, -0.09823644906282425, -0.11433795839548111, -0.047768183052539825, 0.038812391459941864, 0.03071465902030468, -0.01322568953037262, -0.01401605736464262, -0.05746878311038017, -0.028823547065258026, 0.016246411949396133, 0.002118356991559267, -0.012375906109809875, -0.03366444259881973, 0.07423332333564758, 0.14107026159763336, 0.11840835213661194, 0.011910619214177132, 0.059284571558237076, 0.047452960163354874, 0.01735561527311802, 0.0719170942902565, 0.24515557289123535, 0.04718484356999397, -0.03877988085150719, 0.0020155988167971373, -0.024903981015086174, 0.019388534128665924, 0.037145137786865234, 0.0004293391830287874, 0.052174150943756104, -0.00030885019805282354, -0.024258922785520554, -0.008839651942253113, 0.0010042341891676188, -0.0005061076954007149, -0.003313871333375573, -0.05133947357535362, 0.03063265234231949, 0.0245730672031641, 0.01519809104502201, 0.005871674977242947, 0.005209086928516626, -0.0059168958105146885, -0.017321769148111343, 0.03091798722743988, 0.08601874858140945, -0.004311015363782644, 0.022612353786826134, -0.002022061962634325, 0.04102381318807602, 0.07449547946453094, 0.06652624905109406, -0.0583246648311615, -0.047160614281892776, -0.017282580956816673, 0.04086769372224808, -0.04642665758728981, -0.024905987083911896, -0.021624639630317688, -0.012041200883686543, -0.11350230127573013, -0.04334789514541626, 0.007413018960505724, -0.07483235001564026, -0.034669000655412674, 0.064214788377285, 0.006939512677490711, 0.0007219245308078825, 0.004547320306301117, 0.013283595442771912, -0.01199025847017765, -0.03186313807964325, 0.04547303915023804, -0.01054528821259737, 0.08983781933784485, 0.0031826747581362724, 0.011566389352083206, 0.019878799095749855, 0.013539791107177734, -0.025340184569358826, -0.043676286935806274, 0.004164598882198334, 0.005033169407397509, 0.02908741496503353, -0.02749224565923214, -0.018625842407345772, -0.011481363326311111, -0.015564420260488987, 0.028479209169745445, -0.024820221588015556, 0.07853198796510696, -0.029294895008206367, -0.06633485108613968, -0.03439692407846451, -0.040734756737947464, 0.03674423694610596, 0.047397252172231674, -0.04936324432492256, -0.03256634995341301, 0.007659813389182091, 0.028303908184170723, -0.024160070344805717, 0.006407991982996464, -0.009139884263277054, -0.08952606469392776, -0.028699690476059914, -0.05951368436217308, 0.023669563233852386, -0.08464578539133072, 0.001141105662100017, 0.014244058169424534, 0.04809430614113808, 0.04674861207604408, 0.04479251429438591, -0.026401029899716377, -0.02331562340259552, -0.01688374951481819, 0.00017449865117669106, 0.008483770303428173, 0.10396460443735123, 0.2868952751159668, 0.05539783835411072, 0.018319474533200264, -0.01776919886469841, 0.0235592108219862, -0.07235779613256454, -0.003649616613984108, 0.014806751161813736, -0.0547444149851799, -0.0630856603384018, 0.04027245193719864, -0.0017626546323299408, 0.019473321735858917, 0.017745062708854675, -0.03809068724513054, -0.017529383301734924, -0.02053123712539673, -0.018975988030433655, 0.004654793068766594, 0.00784717220813036, -0.060282375663518906, -0.009525897912681103, 0.0674833208322525, 0.04010981693863869, 0.050364743918180466, -0.002996632130816579, 0.04917279630899429, 0.0472014918923378, 0.0019346725894138217, 0.004300364758819342, 0.11981336772441864, 0.041513435542583466, 0.03294171020388603, -0.03982708230614662, 0.014712361618876457, -0.03045092709362507, -0.028300691395998, 0.004998194519430399, 0.07208164036273956, 0.04497668892145157, -0.02092191018164158, 0.049797408282756805, 0.17952410876750946, 0.09487035125494003, 0.0798809602856636, 0.0029314688872545958, -0.008066976442933083, 0.00042869849130511284, 0.012307574972510338, 0.03111887164413929, 0.0049009136855602264, -0.015072477981448174, 0.03582717478275299, -0.00888054445385933, -0.0269707590341568, -0.029957111924886703, -0.00021651448332704604, 0.016854051500558853, -0.005721716675907373, 0.014355413615703583, 0.03721237555146217, 0.010210088454186916, -0.07216816395521164, 0.025067148730158806, 0.05589413642883301, 0.12971633672714233, -0.026212939992547035, 0.014474230818450451, -0.011247684247791767, -0.08922678977251053, -0.03595702350139618, 0.08060787618160248, 0.11649871617555618, 0.07605072110891342, 0.0598500519990921, -0.043275054544210434, 0.020106496289372444, 0.027995381504297256, 0.020888211205601692, -0.03583252429962158, 0.046170998364686966, -0.0015300310915336013, -0.08900900185108185, 0.017113832756876945, 0.0682782232761383, -0.013584405183792114, 0.05449570342898369, -0.13579417765140533, -0.05038902908563614, -0.0828675702214241, -0.05686638131737709, -0.053172994405031204, 0.011785218492150307, 0.05232325941324234, -0.015912484377622604, -0.006622325628995895, -0.008142444305121899, 0.037119366228580475, -0.040523696690797806, -0.07994838058948517, -0.024143151938915253, -0.03516717627644539, 0.06458080559968948, 0.027170129120349884, 0.003873594105243683, 0.07049622386693954, 0.018398048356175423, -0.014647268690168858, 0.019763877615332603, 0.0410788394510746, 0.003010723739862442, 0.00729770353063941, 0.010765137150883675, 0.0009276657947339118, 0.04351216182112694, 0.03343331813812256, 0.007623583078384399, 0.021144315600395203, 0.05161457136273384, 0.0016411894466727972, -0.02649541199207306, -0.014297312125563622, 0.005070099141448736, 0.013026753440499306, -0.04467582702636719, -0.03369920700788498, -0.06459922343492508, -0.034791696816682816, -0.013735164888203144, 0.0028181762900203466, 0.02186354622244835, -0.03782785311341286, -0.05881236493587494, -0.029670201241970062, 0.08025161921977997, 0.03347437083721161, 0.023391766473650932, -0.03344811871647835, 0.054884567856788635, 0.09676177054643631, 0.04876168072223663, 0.05081670731306076, -0.006812788546085358, 0.01634366810321808, 0.04279060289263725, 0.010091995820403099, 0.09752588719129562, 0.06266438215970993, 0.02088663913309574, 0.01456119492650032, 0.04310223087668419, 0.01801331900060177, -0.013357896357774734, 0.0007561768288724124, 0.05106912553310394, 0.06775164604187012, 0.05366894602775574, -0.03931286185979843, 0.006932942662388086, 0.006113036535680294, -0.03620053455233574, -0.0034442369360476732, 0.0017519011162221432, 0.018118076026439667, 0.03298206627368927, 0.022187067195773125, 0.007383068557828665, 0.04919293895363808, 0.024023383855819702, 0.006142890080809593, -0.07591438293457031, -0.02990623190999031, 0.008585021831095219, -0.03406992927193642, -0.004758426919579506, -0.024820460006594658, -0.026305068284273148, -0.023255450651049614, -0.011628570035099983, 0.041349999606609344, 0.03680417686700821, 0.007529818452894688, 0.03275694698095322, 0.024377768859267235, 0.051776234060525894, -0.019018972292542458, -0.007053981069475412, 0.037377916276454926, -0.007848856970667839, -0.035711098462343216, 0.011041484773159027, -0.012743143364787102, -0.004980648867785931, -0.012952286750078201, 0.025991076603531837, 0.00782926008105278, -0.014053679071366787, 0.012842712923884392, -0.0017337582539767027, 0.007597185205668211, 0.025201302021741867, 0.017329329624772072, -0.011195842176675797, 0.00593540957197547, -0.02122543752193451, -0.031682517379522324, -0.0037353262305259705, 0.013731415383517742, 0.01647994853556156, -0.0032358774915337563, -0.002583359368145466, -0.016691304743289948, 0.028756843879818916, 0.008205771446228027, -0.0009533895645290613, 0.023750627413392067, -0.036005858331918716, -0.01573067344725132, -0.0019890719559043646, 0.03512900322675705, 0.06072430685162544, 0.014329889789223671, 0.04230298474431038, 0.011042298749089241, 0.023306384682655334, -0.04973834380507469, -0.03136073425412178, 0.017708763480186462, 0.06743142008781433, -0.021196549758315086, -0.029593175277113914, 0.022305861115455627, 0.06414731591939926, 0.003276439383625984, -0.011964968405663967, -0.0003121929184999317, -0.0024105897173285484, -0.021199459210038185, 0.029275136068463326, 0.05567162111401558, -0.014933784492313862, -0.04838814213871956, -0.0313822403550148, -0.0513593964278698, 0.03468676656484604, 0.03211585804820061, 0.015622811391949654, -0.010301852598786354, 0.009272798895835876, -0.0010496315080672503, -0.004346547182649374, 0.016743555665016174, 0.020621290430426598, 0.018622038885951042, 0.012629181146621704, -0.010226981714367867, 0.007866396568715572, 0.07441367208957672, -0.02982737123966217, 0.004082070663571358, -0.0018376234220340848, 0.010946282185614109, 0.013533525168895721, -0.012502273544669151, 0.049013275653123856, 0.09712137281894684, 0.11489932984113693, -0.011451763100922108, -0.030909104272723198, -0.008860246278345585, 0.020634997636079788, 0.014516903087496758, 0.015494201332330704, -0.02228371798992157, -0.03051665611565113, 0.02395351231098175, -0.04528278857469559, 0.025848113000392914, 0.05590419843792915, -0.02543129213154316, 0.022823046892881393, 0.06157979741692543, 0.07555971294641495, 0.025046242401003838, 0.019926534965634346, 0.06017578765749931, -0.0431063137948513, -0.00594260124489665, 0.07943159341812134, 0.0287146158516407, -0.003434231039136648, 0.04967040196061134, 0.06835274398326874, -0.03398706391453743, -0.0417867936193943, -0.027917852625250816, -0.0004823440103791654, 0.04010898992419243, 0.06235774978995323, 0.016572970896959305, 0.0031134742312133312, 0.059440094977617264, -0.027196092531085014, -0.05375038459897041, -0.0835305005311966, 0.03365183249115944, 0.010907117277383804, -0.007185707800090313, -0.004033764358609915, 0.007198663894087076, 0.02509687840938568, -0.003928101621568203, 0.017389273270964622, 0.016459373757243156, -0.01638840325176716, -0.04204903915524483, -0.011349250562489033, 0.005325652658939362, -0.00978085771203041, -0.0217084139585495, 0.01714780554175377, 0.004353816621005535, -0.0004318221763242036, 0.00031287764431908727, -0.028947614133358, 0.020578214898705482, -0.006593041587620974, 0.008326728828251362, -0.015444483608007431, 0.011697252281010151, 0.03651966527104378, 0.025635382160544395, -0.05149953067302704, -0.013970576226711273, 0.01026685070246458, -0.010131520219147205, 0.04944783076643944, 0.03725524991750717, 0.025167228654026985, 0.0011433623731136322, -0.03956594318151474, 0.021026989445090294, 0.04006454348564148, -4.945838372805156e-05, 0.014696539379656315, 0.040835075080394745, -0.010685808956623077, -0.017483551055192947, 0.0056637185625731945, 0.02656763233244419, 0.019684821367263794, 0.0005627915379591286, 0.0010748134227469563, -0.026911748573184013, 0.026050826534628868, 0.022942187264561653, 0.039344873279333115, -0.017800243571400642, 0.049061745405197144, 0.020337501540780067, 0.051810286939144135, -0.012635289691388607, 0.035564810037612915, 0.03425327315926552, 0.16389848291873932, 0.14036376774311066, -0.0007614813512191176, -0.022441092878580093, 0.003054751781746745, -0.026187464594841003, 0.048553697764873505, 0.09379486739635468, 0.040209170430898666, 0.02643405646085739, -0.03289871662855148, -0.058281924575567245, 0.05465799197554588, 0.04427182674407959, 0.08192549645900726, -0.010924207046627998, 0.031511090695858, -0.027659665793180466, -0.0883348286151886, 0.014976154081523418, 0.06336069107055664, -0.009609664790332317, -0.028455620631575584, 0.031133271753787994, -0.015894761309027672, 0.020246202126145363, 0.005148501601070166, -0.016278713941574097, -0.049610383808612823, 0.005954566411674023, -0.03420109301805496, -0.024777820333838463, 0.030373230576515198, 0.020430034026503563, 0.03992907702922821, 0.03552145138382912, 0.046991489827632904, 0.011119317263364792, -0.024405911564826965, 0.013581187464296818, 0.0379934087395668, 0.045951761305332184, 0.001425114693120122, -0.007275950163602829, 0.0024845628067851067, 0.02427121438086033, -0.002605552552267909, 0.02664424665272236, -0.006130868103355169, -0.08344963937997818, -0.0426616370677948, -0.008626260794699192, 0.03793533891439438, 0.03986918926239014, -0.030869225040078163, -0.0609508641064167, 0.04702693596482277, 0.029402906075119972, -0.011775902472436428, 0.08100446313619614, 0.015506859868764877, 0.002234305255115032, -0.08392759412527084, -0.05293579027056694, 0.0055895233526825905, -0.07576682418584824, -0.03327801451086998, 0.038341082632541656, 0.00387634732760489, 0.024004263803362846, -0.005919531919062138, 0.02859356626868248, 0.007776198908686638, 0.005472676362842321, 0.021134624257683754, 0.030203666538000107, 0.1264289766550064, 0.12579834461212158, 0.017293792217969894, -0.043234121054410934, 0.007895863614976406, 0.025707105174660683, -0.07572041451931, -0.04202562943100929, 0.028028566390275955, 0.03482497110962868, 0.05859669670462608, 0.038673173636198044, 0.04520576074719429, 0.009440507739782333, -0.035805124789476395, 0.028599752113223076, 0.04420795291662216, 0.08276155591011047, 0.09021593630313873, -0.026958169415593147, 0.01889701746404171, -0.04369185492396355, 0.016033340245485306, 0.09247875958681107, 0.1286362260580063, 0.08960527926683426, 0.007842742837965488, -0.03360531106591225, -0.00013377508730627596, 0.02844800241291523, 0.03624403849244118, -0.028470609337091446, -0.009025085717439651, 1.6860911273397505e-05, -0.08752112835645676, 0.014544370584189892, 0.0771845355629921, 0.02744729444384575, 0.01187619473785162, -0.010761093348264694, -0.07147406041622162, -0.07055485248565674, -0.08789113163948059, 0.005954924505203962, 0.03667823225259781, 0.047450751066207886, -0.026048636063933372, -0.041948046535253525, -0.05066622048616409, -0.025124089792370796, -0.023036686703562737, 0.023629195988178253, 0.007215255871415138, 0.005385194905102253, 0.018470894545316696, -0.027994278818368912, 0.06053171679377556, 0.03623621538281441, 0.054024599492549896, 0.016808195039629936, -0.06049728766083717, 0.021545937284827232, 0.0056237042881548405, 0.03362594172358513, 0.019114429131150246, 0.03501412272453308, 0.02021598443388939, 0.06250259280204773, 0.02357315458357334, -0.0040819961577653885, -0.021529385820031166, -0.04821902513504028, -0.048487208783626556, 0.0399993360042572, 0.019878871738910675, 0.03403419628739357, -0.013179218396544456, -0.0855972021818161, -0.03003603033721447, 0.0012919364962726831, 0.06571948528289795, 0.03418242931365967, 0.014488856308162212, -0.0033132294192910194, -0.051451679319143295, -0.0491107814013958, 0.0555541105568409, -0.08168641477823257, -0.06190111115574837, -0.00037740866537205875, -0.031172852963209152, -0.02969660982489586, -0.045729756355285645, -0.06745294481515884, -0.09880179166793823, -0.0024546971544623375, -0.012888000346720219, 0.0005725192604586482, 0.015249869786202908, 0.041881825774908066, -0.0009305319981649518, 0.03805326297879219, 0.017727967351675034, 0.0034622412640601397, 0.01997486688196659, 0.015827680006623268, -0.026391884312033653, 0.03847189247608185, 0.0023228491190820932, -0.004646332003176212, 0.01920166425406933, -0.027826284989714622, -0.09174385666847229, -0.014163834042847157, -0.035175446420907974, 0.022508028894662857, -0.1535559892654419, -0.011175539344549179, 0.09065515547990799, 0.03659878298640251, 0.2477169781923294, 0.23539847135543823, 0.07983781397342682, 0.058493103832006454, 0.001221217680722475, -0.011835023760795593, -0.04681536927819252, 0.029873589053750038, 0.0792078971862793, -0.06372519582509995, -0.02165364660322666, 0.010510759428143501, -0.069106325507164, 0.009612289257347584, 0.050263941287994385, 0.02574749104678631, 0.15407267212867737, -0.05333687365055084, -0.07905878871679306, -0.07857821881771088, 0.009903322905302048, 0.04295491799712181, 0.09769764542579651, 0.062163181602954865, 0.09092022478580475, -0.06190840154886246, -0.06394840031862259, -0.06049425154924393, -0.10650074481964111, 0.028429299592971802, 0.08145668357610703, 0.07192613184452057, -0.049096107482910156, -0.011612855829298496, -0.012146374210715294, -0.018162991851568222, -0.05082094296813011, -0.006536849308758974, 0.12479889392852783, -0.07584772258996964, -0.012507790699601173, -0.005473705939948559, -0.006548477336764336, -0.014541362412273884, -0.008782067336142063, -0.005060578230768442, -0.020352205261588097, -0.0013343244791030884, 0.0018755365163087845, -0.009689746424555779, 0.013122962787747383, -0.009538557380437851, 0.006241131573915482, -0.012010174803435802, -0.008842489682137966, -0.009746862575411797, -0.013116049580276012, -0.0016466957749798894, 0.010126816108822823, 0.003237944096326828, 0.011162739247083664, -0.012913014739751816, 0.012254144996404648, 0.0026944130659103394, 0.0032223276793956757, 0.007638335227966309, 0.017730237916111946, -0.001171201467514038, 0.00046564824879169464, 0.006821954622864723, -0.015508444048464298, 0.009504800662398338, -0.009221535176038742, 0.017837585881352425, -0.011591185815632343, 0.01151788979768753, 0.009573264047503471, 0.005744919180870056, 0.013849159702658653, -0.007606029510498047, 0.008713625371456146, 0.01623574085533619, -0.005730309523642063, -0.014906764961779118, -0.011282496154308319, -0.008367061614990234, -0.00022347085177898407, -0.013898752629756927, 0.007527731359004974, -0.013726077042520046, -0.03316517919301987, -0.11567947268486023, 0.013549739494919777, 0.05308480188250542, -0.004980957135558128, 0.016426533460617065, 0.004170638043433428, 0.03702312335371971, 0.049586713314056396, 0.04173099994659424, 0.00601193867623806, -0.013847364112734795, -0.0059664444997906685, 0.00743892602622509, 0.06187865138053894, 0.04276973381638527, 0.014728227630257607, -0.003613546956330538, -0.03305208683013916, 0.014780215919017792, 0.04346297308802605, -0.019459212198853493, 0.027358243241906166, 0.0020144705194979906, 0.06632380932569504, -0.04842737317085266, -0.01031579915434122, 0.01434118952602148, -0.04446106404066086, -0.05987011268734932, 0.110470712184906, 0.056644536554813385, 0.01808079704642296, 0.029483795166015625, 0.04887164384126663, -0.04786266013979912, -0.09537042677402496, -0.01278309803456068, -0.0010335507104173303, 0.01269557699561119, 0.0146225830540061, 0.006870513781905174, 0.017697462812066078, -0.01676722802221775, -0.00039376295171678066, -0.07620039582252502, 0.00041044867248274386, -0.014068830758333206, 0.021142011508345604, 0.002861479762941599, 0.022944170981645584, 0.01715618371963501, -0.010702194646000862, -0.0027669440023601055, -0.013639470562338829, 0.014491989277303219, -0.01497267372906208, -0.004497700836509466, 0.007362713105976582, -0.01222698949277401, 0.051129601895809174, 0.033556755632162094, -0.04819653555750847, -0.060544826090335846, -0.01668875850737095, -0.05948455259203911, 0.11821561306715012, 0.03147519379854202, -0.0019954002927988768, -0.026758775115013123, -0.024202000349760056, 0.032007619738578796, -0.025465168058872223, 0.05802089348435402, -0.007221130654215813, -0.04429757222533226, -0.034444816410541534, -0.08158448338508606, -0.039411045610904694, 0.03746917098760605, 0.060025300830602646, 0.06126398965716362, 0.034952208399772644, -0.02959076315164566, 0.047746554017066956, -0.04992392286658287, -0.0519864484667778, -0.018817221745848656, 0.026054484769701958, 0.05146215483546257, -0.009753400459885597, -0.006850467529147863, 0.04790171980857849, -0.007861969992518425, -0.0053803324699401855, 0.01632891781628132, 0.031605370342731476, -0.013665798120200634, -0.014468977227807045, -0.010301440954208374, -0.01823585294187069, -0.009422882460057735, -0.010501623153686523, -0.011723317205905914, -0.012010687962174416, 0.0017982572317123413, 0.026560913771390915, -0.013621293939650059, 0.02036317251622677, -0.007864936254918575, 0.008124264888465405, 0.00989534705877304, -0.007240911014378071, 0.005667691119015217, -0.018551018089056015, 0.013989611528813839, 0.004755479749292135, -0.006925266236066818, -0.0067377351224422455, -0.01180506031960249, -0.00047328509390354156, -0.0012725116685032845, 0.006364022381603718, -0.022343115881085396, -0.0205525029450655, -0.015019089914858341, -0.00910814106464386, 0.0015344617422670126, 0.018820544704794884, 0.02047836035490036, 0.01581578142940998, -0.006341276690363884, 0.015321241691708565, -0.01032005250453949, -0.007412169128656387, -0.024028506129980087, -0.0017128954641520977, 0.0017816518666222692, -0.002912146970629692, 0.006781928241252899, 0.012406224384903908, -0.005497504957020283, -0.01227927953004837, -0.0006647016853094101, -0.01086919754743576, -0.00563752930611372, -0.003153946017846465, -0.05918533354997635, -0.012488418258726597, 0.016924375668168068, 0.01855403743684292, 0.027150554582476616, 0.021991543471813202, 0.0009416858083568513, -0.03225456550717354, 0.030811455100774765, -0.015381422825157642, -0.004204918164759874, 0.023053741082549095, -0.03528399392962456, -0.0070221805945038795, -0.04139283671975136, -0.026430703699588776, -0.0536317452788353, -0.04507426917552948, -0.00412808358669281, 0.028288770467042923, -0.028022946789860725, 0.03600692376494408, 0.04019926115870476, 0.056178025901317596, 0.010674103163182735, -0.03661442548036575, -0.0426798015832901, 0.010563243180513382, 0.07196568697690964, 0.07571157068014145, 0.003319519106298685, 0.008597123436629772, -0.010645845904946327, -0.024237612262368202, -0.02716892398893833, 0.036505576223134995, 0.007684551179409027, -0.01721472479403019, -0.015933670103549957, 0.011388791725039482, 0.009179072454571724, 0.01528157852590084, 0.033823881298303604, 0.042750705033540726, 0.015935765579342842, -0.008678455837070942, -0.05186812952160835, 0.012263067997992039, 0.0002280813205288723, -0.0462198331952095, -0.03983099386096001, 0.017839988693594933, -0.024436095729470253, -0.012188724242150784, 0.0017511274199932814, 0.08463802188634872, 0.03269530087709427, 0.0653655007481575, 0.04416870325803757, -0.06636474281549454, -0.07875106483697891, -0.007817071862518787, -0.027426375076174736, 0.0037701991386711597, -0.027294965460896492, -0.07161152362823486, -0.03824232146143913, 0.013753820210695267, 0.04779338091611862, 0.00023981549020390958, -0.00913885049521923, -0.002954961033537984, 0.008156408555805683, 0.04702896997332573, 0.021884843707084656, 0.05966890975832939, 0.08022988587617874, -0.019740069285035133, -0.006024534814059734, 0.06090419366955757, 0.036982323974370956, 0.01768462173640728, -0.04659738764166832, 0.026264701038599014, 0.020202016457915306, -0.002474527806043625, 0.004937536548823118, 0.005938731599599123, 0.01556466892361641, -0.020410673692822456, 0.03888612985610962, -0.02381902001798153, 0.003027369501069188, 0.01661282777786255, -0.06869002431631088, -0.00902765803039074, 0.046151913702487946, 0.020530205219984055, 0.030125834047794342, 0.06255672872066498, 0.04361118748784065, -8.668686496093869e-05, -0.03388729691505432, -0.026524512097239494, 0.041561998426914215, 0.07053179293870926, 0.11756350100040436, -0.01814091205596924, -0.012769089080393314, 0.029114490374922752, 0.00014941072731744498, 0.024280570447444916, -0.05558544024825096, -0.09303319454193115, -0.07322622835636139, 0.03865818679332733, -0.037982337176799774, 0.017966797575354576, 0.024826284497976303, 0.0990571528673172, 0.01150551438331604, 0.06800822168588638, -0.021543724462389946, -0.01551006082445383, -0.044845666736364365, 0.0909617617726326, 0.19702771306037903, 0.09099605679512024, -0.009819657541811466, -0.03614877164363861, 0.007575143128633499, 0.0376284196972847, 0.06156487762928009, 0.145063117146492, 0.03694731742143631, -0.004146241582930088, 0.016627268865704536, -0.010903858579695225, 0.050554417073726654, 0.003302765777334571, -0.07172674685716629, -0.02787204645574093, 0.028377296403050423, 0.0005072024068795145, -0.04080188274383545, 0.007101552560925484, 0.011830453760921955, -0.001783409039489925, -0.02358781360089779, -0.01659962721168995, 0.01832740195095539, 0.01111129205673933, 0.006927260663360357, 0.0017460105009377003, -0.005642267409712076, 0.009546217508614063, 0.04475326091051102, -0.02258218266069889, 0.014988293871283531, 0.013264655135571957, 0.014563738368451595, 0.025630833581089973, -0.020662352442741394, 0.014379988424479961, 0.016319215297698975, -0.018033644184470177, 0.016175197437405586, -0.0017368514090776443, -0.008951048366725445, -0.009564406238496304, 0.037239011377096176, 0.047625832259655, 0.01359759084880352, -0.014964655973017216, 0.02657908946275711, -0.036049772053956985, -0.04623151198029518, 0.013556540943682194, 0.017737872898578644, 0.006204746197909117, 0.0110433055087924, 0.019116776064038277, -0.019581248983740807, -0.00022426836949307472, -0.008708126842975616, 0.003595656482502818, -0.0037568986881524324, 0.011946914717555046, -0.016434321179986, 0.02629324048757553, -0.012203065678477287, -0.014844454824924469, 0.003777319798246026, 0.0030528311617672443, 0.006641004700213671, 0.003620364936068654, -0.003840793389827013, 0.006825926713645458, -0.025934861972928047, -0.0804358571767807, 0.013946915976703167, -0.013282210566103458, 0.01644298806786537, 0.006918241735547781, 0.03151866793632507, 0.06565270572900772, 0.008272609673440456, -0.011822561733424664, 0.009774706326425076, 0.02214670553803444, 0.034526947885751724, -0.019963715225458145, -0.09235332161188126, 0.020940154790878296, 0.08650902658700943, 0.041213300079107285, -0.027737710624933243, -0.040595222264528275, 0.012771360576152802, -0.000815996085293591, 0.05901893973350525, 0.040075965225696564, 0.04239095374941826, 0.0009360411204397678, 0.01778217777609825, 0.08653000742197037, 0.07521538436412811, 0.02403980866074562, -0.05211330205202103, -0.05393349751830101, -0.011436033062636852, 0.018319809809327126, -0.013835704885423183, 0.024348989129066467, -0.0025854548439383507, 0.007171680685132742, -0.013339928351342678, -0.007605342194437981, -0.008128495886921883, 0.00634612375870347, -0.006801825016736984, 0.007525969296693802, -0.020067505538463593, 0.0510704442858696, 0.030027473345398903, -0.0256807841360569, -0.006968393921852112, 0.06204530969262123, 0.04657910019159317, 0.02185276336967945, -0.007170389872044325, -0.03647857531905174, -0.05005419999361038, -0.003269640263170004, 0.07224351912736893, 0.1457412838935852, 0.026900585740804672, -0.004230342339724302, -0.034254804253578186, -0.023204974830150604, 0.048098426312208176, 0.06994360685348511, 0.08852198719978333, -0.03537601977586746, 0.006793058943003416, -0.0896451324224472, -0.03811967745423317, 0.06773974001407623, -0.003314679954200983, 0.05080817639827728, -0.011861906386911869, -0.0035495192278176546, -0.03782264515757561, -0.019226014614105225, -0.006216173525899649, 0.025994056835770607, -0.022726397961378098, 0.00988402497023344, -0.0391962043941021, -0.015000872313976288, -0.018171073868870735, -0.02920633926987648, 0.04960847273468971, -0.027766695246100426, 0.011437937617301941, 0.008057404309511185, -0.013107659295201302, 0.02418775111436844, 0.0018686432158574462, 0.028538832440972328, 0.024135645478963852, -0.03904389962553978, -0.00415236409753561, 0.028533369302749634, -0.00992813054472208, -0.0007154027698561549, 0.020421575754880905, 0.027190614491701126, 0.008198444731533527, 0.006838551256805658, 0.01618320494890213, -0.011325132101774216, 0.003319638082757592, 0.07124912738800049, 0.0785147100687027, 0.030594108626246452, -0.01176014356315136, 0.042161427438259125, -0.013325339183211327, 0.012491447851061821, 0.06524709612131119, 0.00022751442156732082, -0.008957436308264732, 0.023808352649211884, 0.03290070593357086, -0.007658044341951609, -0.0014032571343705058, -0.013092849403619766, -0.06600458174943924, -0.02490418590605259, -0.016433807089924812, -0.015805158764123917, -0.04900412634015083, -0.06297405809164047, 0.008419212885200977, 0.019401099532842636, 0.044958047568798065, 0.0035672769881784916, -0.01802930422127247, -0.04024221748113632, -0.062334880232810974, 0.005078947637230158, 0.026287563145160675, 0.03225093334913254, 0.014489598572254181, 0.013957265764474869, -0.01143083069473505, -0.007344949524849653, 0.012515663169324398, 0.0005574382375925779, 0.01413844246417284, -0.004347642883658409, 0.07086724042892456, -0.04908621311187744, -0.032873909920454025, -0.007949803955852985, 0.010378860868513584, -0.03213758394122124, 0.02238372340798378, 0.0592348650097847, 0.0738740935921669, 0.0582999512553215, 0.011199968867003918, -0.003956266678869724, 0.03445038944482803, -0.02066609635949135, -0.0021390763577073812, 0.009593282826244831, -0.008747179061174393, -0.11527379602193832, -0.057037271559238434, -0.007990711368620396, 0.023407334461808205, -0.039832424372434616, -0.0030167249497026205, -0.004912621807307005, 0.03356480598449707, 0.06187620759010315, 0.001293728593736887, -0.05490945652127266, 0.09588633477687836, 0.08909100294113159, 0.031050698831677437, 0.09446816891431808, 0.01916901022195816, 0.02619200013577938, 0.016099540516734123, 0.048196662217378616, 0.08670904487371445, 0.03406175225973129, -0.01706247217953205, -0.03163566812872887, 0.025179777294397354, 0.06432658433914185, 0.020865721628069878, -0.0007010719273239374, 0.12735655903816223, 0.11227500438690186, -0.05609382688999176, -0.06887157261371613, -0.013558685779571533, 0.006064796820282936, 0.007842086255550385, -0.01523603592067957, 0.008875099010765553, -0.027254758402705193, -0.019632510840892792, 0.019497139379382133, -0.00021753607143182307, 0.011156825348734856, -0.0040555656887590885, -0.0180392786860466, -0.024870090186595917, -0.011733519844710827, -0.02770434319972992, -0.04177311807870865, -0.02758486568927765, -0.0750206857919693, -0.05673065409064293, -0.01241319440305233, -0.0345894992351532, 0.028423473238945007, -0.006460180971771479, 0.0027170029934495687, 0.010289336554706097, 0.03468533605337143, -0.01054145023226738, -0.012596084736287594, -0.03292219713330269, 0.01587952859699726, 0.005179231055080891, 0.04006967693567276, 0.01012476533651352, 0.004256311804056168, 0.028661154210567474, -0.0297247227281332, 0.005698381457477808, -0.023633277043700218, 0.04080892354249954, -0.006811288185417652, 0.026564162224531174, -0.003818538971245289, 0.004179483279585838, 0.01222272589802742, 0.009659008122980595, 0.008788852952420712, 0.0058659096248447895, -0.01318059116601944, -0.058788299560546875, 0.02115229144692421, 0.0010545628610998392, 0.009200718253850937, 0.010732690803706646, 0.02225678227841854, 0.021930253133177757, 0.027566248551011086, 0.024914605543017387, 0.0023279099259525537, 0.02575535699725151, -0.10407852381467819, -0.05794651061296463, -0.038293372839689255, -0.01946059800684452, -0.002169900806620717, 0.08346020430326462, -0.11172187328338623, -0.0033391702454537153, -5.321676144376397e-05, 0.03991951420903206, 0.026851791888475418, -0.008784115314483643, -0.054889485239982605, -0.07840636372566223, 0.080720454454422, 0.10841996967792511, 0.046932026743888855, 0.017580252140760422, 0.005999925546348095, -0.04255072399973869, -0.14616180956363678, -0.07269703596830368, -0.07849274575710297, -0.05438961461186409, 0.007085372228175402, 0.006085425615310669, -0.0474068708717823, 0.02441214583814144, 0.08880653232336044, 0.08361764252185822, 0.006838041823357344, 0.01791933923959732, 0.003090775804594159, -0.028724564239382744, 0.06944490224123001, 0.11957533657550812, 0.1728910356760025, 0.1458435207605362, 0.10283411294221878, 0.019604772329330444, 0.026615476235747337, 0.022515611723065376, 0.015812577679753304, 0.0072967070154845715, 0.024679597467184067, 0.018341071903705597, 0.020988687872886658, 0.034579839557409286, -0.06829412281513214, -0.0415278896689415, -0.03797822445631027, -0.014618093147873878, 0.02285107970237732, 0.001078024972230196, 0.0034984182566404343, -0.02377898059785366, 0.0519779808819294, 0.011601614765822887, 0.10146548599004745, 0.023477986454963684, 0.007032985333353281, -0.03535282611846924, -0.06099419295787811, 0.001651271479204297, -0.039734356105327606, -0.07974833995103836, -0.01127130538225174, 0.01760317198932171, -0.03981688246130943, -0.030616482719779015, -0.005924839060753584, -0.009327607229351997, -0.04656245931982994, -0.013903364539146423, -0.02698291465640068, -0.006262322887778282, -0.017752572894096375, 0.05638867989182472, 0.03253025561571121, 0.02902861312031746, -0.0016707765171304345, -0.004874981939792633, -0.006567940581589937, 0.0047149029560387135, 0.020516924560070038, 0.05082269757986069, 0.014398627914488316, 0.01861550100147724, 0.0116256233304739, 0.025236137211322784, 0.009313289076089859, -0.01310705579817295, -0.01681605540215969, -0.008916107937693596, -0.0021217861212790012, -0.016345156356692314, 0.00013220477558206767, 0.025343937799334526, 0.011620747856795788, -0.011170890182256699, 0.01621568761765957, 0.022515758872032166, 0.008442720398306847, -0.02448645606637001, -0.049998924136161804, -0.05401088297367096, -0.028198886662721634, 0.018092725425958633, 0.03692871332168579, 0.055974312126636505, -0.009665686637163162, -0.009002829901874065, 0.03449251130223274, 0.004454212728887796, 0.04327060282230377, 0.02445930428802967, -0.04067904129624367, 0.01792765036225319, -0.046938419342041016, -0.04874510318040848, 0.056888647377491, 0.0017478580120950937, -0.05967239663004875, -0.009638980962336063, 0.013459160923957825, -0.009952674619853497, 0.02337334305047989, -0.004821408074349165, 0.00746318930760026, 0.018082547932863235, 0.013211586512625217, 0.0031830372754484415, 0.017715346068143845, 0.015141903422772884, 0.03782450035214424, 0.009810755960643291, 0.03714434802532196, 0.042389851063489914, 0.003653509309515357, -0.01604500412940979, -0.047839079052209854, 0.025941045954823494, -0.00794898346066475, 0.011794866994023323, 0.020401936024427414, 0.010173309594392776, 0.00902810599654913, 0.0026589592453092337, -0.011496751569211483, -0.0013253804063424468, -0.026994438841938972, -0.010231884196400642, -0.028650492429733276, -0.002065925858914852, -0.06419247388839722, -0.048721153289079666, -0.06014183908700943, -0.032818201929330826, 0.0919298604130745, -0.004458992276340723, 0.023292219266295433, 0.00025532650761306286, 0.022169681265950203, 0.047973837703466415, 5.30477955180686e-05, 0.014112446457147598, 0.01576637290418148, 0.04037744551897049, 0.010011354461312294, 0.04276224225759506, 0.015293130651116371, 0.029876016080379486, -0.006327881012111902, 0.014822726137936115, 0.007581053767353296, 0.02417508326470852, -0.02183368429541588, -0.006479102186858654, 0.04741993546485901, 0.004737218841910362, 0.024221356958150864, 0.012937063351273537, -0.016280202195048332, 0.019954882562160492, -0.03533579781651497, -0.03908058628439903, 0.021380381658673286, 0.00178182078525424, -0.01584777608513832, 0.005853523500263691, 0.004520474933087826, 0.08229131251573563, 0.03074810653924942, -0.02176326885819435, 0.003298115683719516, -0.004401095677167177, 0.017639895901083946, -0.07736096531152725, -0.02079676277935505, 0.0271113533526659, 0.006982087157666683, -0.013189184479415417, -0.020714469254016876, -0.06578672677278519, -0.0789739117026329, -0.018661901354789734, 0.01814146339893341, 0.0854949876666069, -0.06941389292478561, -0.05335202440619469, -0.034740131348371506, 0.04338790103793144, 0.019265806302428246, -0.02562045305967331, -0.04813285171985626, -0.0029711946845054626, -0.04331132024526596, -0.015024040825664997, 0.009111949242651463, -0.02052450366318226, -0.016107654199004173, -0.026479071006178856, -0.018486877903342247, -0.011728985235095024, 0.01431956235319376, 0.004644314758479595, -0.0049219620414078236, -0.014134683646261692, -0.021381055936217308, 0.01721908524632454, 0.008893999271094799, -0.0038093829061836004, -0.005402156617492437, 0.019652830436825752, 0.028221260756254196, 0.02584582380950451, -0.021048499271273613, -0.009875291027128696, 0.025077858939766884, -0.06446433812379837, -0.03737972304224968, -0.028093772009015083, -0.023475248366594315, 0.04045335203409195, -0.04312259331345558, -0.02955012023448944, 0.02982630394399166, 0.062280379235744476, 0.11236561089754105, 0.03194604814052582, 0.02737029828131199, 0.0025408784858882427, -0.01769675314426422, -0.07363969832658768, 0.004647352267056704, 0.06324754655361176, 0.07117880880832672, -0.06297259777784348, -0.045341264456510544, 0.042132310569286346, 0.000889972026925534, -0.006605522241443396, 0.0038393607828766108, -0.016675196588039398, 0.0071494970470666885, -0.02664353884756565, -0.004932669457048178, 0.058529533445835114, -0.051829226315021515, -0.07768767327070236, -0.05306073650717735, -0.044647786766290665, 0.016582749783992767, 0.018237801268696785, -0.007649551145732403, -0.003960513975471258, -0.004961669445037842, 0.03829263523221016, -0.04709167778491974, -0.026030097156763077, 0.03270301967859268, 0.03149198368191719, 0.0044638668186962605, 0.02755056507885456, 0.048183031380176544, 0.031138118356466293, -0.010120546445250511, -0.012878015637397766, 0.024832742288708687, 0.07643476128578186, 0.03097967803478241, 0.024092648178339005, 0.01787012815475464, -0.0021873058285564184, -0.02637164480984211, 0.005190002731978893, 0.04720696061849594, 0.03486628830432892, -0.007959912531077862, -0.005318386945873499, 0.012712687253952026, 0.026733387261629105, 0.02792803943157196, 0.02295598015189171, -0.052706774324178696, 0.016210883855819702, 0.04073483869433403, -0.028548933565616608, -0.0035668048076331615, -0.021529078483581543, 0.005956969689577818, -0.09151751548051834, -0.015155812725424767, 0.014198316261172295, -0.10880637168884277, -0.08651193231344223, 0.01737114228308201, 0.035502880811691284, 0.012392545118927956, 0.018371030688285828, -0.0018019317649304867, -0.039032936096191406, 0.0023859557695686817, 0.0401693731546402, 0.022696079686284065, 0.05674530938267708, 0.038663350045681, -0.004174468573182821, 0.00027075299294665456, 0.04656662791967392, 0.019177597016096115, 0.024987300857901573, -0.0030220686458051205, 0.007197750266641378, 0.030404044315218925, 0.050519369542598724, -0.05780841410160065, -0.015327000990509987, 0.2172749787569046, 0.03931427001953125, 0.04070892930030823, 0.015144827775657177, -0.000625882123131305, -0.03378293290734291, -0.013734335079789162, -0.0025772685185074806, 0.0854361355304718, 0.06496784090995789, 0.05421857163310051, -0.0589330717921257, 0.013449026271700859, 0.033618658781051636, -0.06728982925415039, 0.009233566001057625, 0.024448391050100327, 0.01965458132326603, -0.10414504259824753, 0.008065227419137955, 0.07291014492511749, -0.06188109517097473, -0.06077320873737335, -0.15411534905433655, -0.004442253615707159, -0.14322754740715027, -0.12443911284208298, -0.08672840893268585, -0.05837433040142059, -0.03536034747958183, -0.010030158795416355, -0.06621234118938446, 0.04432762414216995, 0.05377110466361046, 0.05290716513991356, 0.030083484947681427, 0.03526145964860916, 0.05806303769350052, -0.030514635145664215, 0.03637974336743355, 0.07041880488395691, 0.10151080787181854, -0.012614480219781399, 0.14919579029083252, 0.011998358182609081, 0.010081985034048557, 0.021410411223769188, -0.03216421231627464, -0.0013867354718968272, 0.04488202929496765, 0.028905721381306648, -0.0009445833857171237, 0.045166727155447006, 0.020959243178367615, -0.06648397445678711, -0.0005302426870912313, 0.08117418736219406, 0.0037633725441992283, 0.00860686507076025, 0.008407380431890488, -0.03470251336693764, -0.007628853432834148, 0.04324013367295265, 0.04635486379265785, -0.013693194836378098, -0.005712404847145081, 0.014989716000854969, 0.023541707545518875, 0.04990588128566742, 0.061562780290842056, -0.028468243777751923, 0.000770320650190115, 0.008585818111896515, 0.011700904928147793, -0.0666845291852951, -0.02692125178873539, -0.02141454629600048, 0.04277195408940315, 0.04197745397686958, 0.0010872390121221542, -0.011104841716587543, -0.040145616978406906, -0.04590437933802605, -0.04547547549009323, -0.06820084899663925, 0.028242895379662514, 0.007811165414750576, 0.0023700075689703226, -0.010992830619215965, 0.006611142307519913, -0.005997834261506796, -0.010952846147119999, -0.0041765691712498665, 0.022690659388899803, 0.04868951812386513, -0.08157728612422943, 0.07240374386310577, 0.008477525785565376, 0.05068916454911232, 0.01294519193470478, -0.0031953174620866776, 0.029882332310080528, -0.010234530083835125, 0.06293825060129166, 0.08764004707336426, 0.07189714163541794, 0.07526585459709167, -0.0003541985934134573, -0.01631293259561062, 0.005208210088312626, 0.042602065950632095, 0.03226017951965332, -0.04624998942017555, -0.058851320296525955, -0.010494937188923359, -0.04207450896501541, 0.0026841347571462393, 0.07243408262729645, -0.016598129644989967, -0.02438400872051716, -0.04632916674017906, -0.001076610409654677, -0.08405613899230957, -0.06148378551006317, -0.05193828418850899, 0.03999011218547821, 0.012900043278932571, 0.10028276592493057, -0.013018470257520676, -0.04028300568461418, -0.06476041674613953, -0.06922800093889236, 0.010804164223372936, 0.041280943900346756, 0.09660708159208298, -9.825052984524518e-05, -0.010295967571437359, -0.009243897162377834, -0.012785128317773342, -0.04066624119877815, 0.017842868342995644, 0.03674457222223282, 0.0091855488717556, 0.03615669533610344, 0.04894384369254112, 0.07200102508068085, -0.021848874166607857, -0.007161529269069433, 0.049879707396030426, 0.03378481790423393, 0.08488054573535919, 0.08886710554361343, 0.1119193509221077, 0.0206729955971241, -0.029850337654352188, -0.03258839249610901, -0.018468594178557396, -0.010475662536919117, -0.012971109710633755, 0.046630509197711945, -0.02818409353494644, -0.026879573240876198, 0.0703243836760521, 0.0006775771616958082, 0.03320072591304779, 0.040609631687402725, 0.11877130717039108, -0.02044130116701126, 0.0018459884449839592, 0.03752559423446655, 0.006776101887226105, -0.015143911354243755, 0.027246499434113503, 0.13544896245002747, 0.13917779922485352, -0.0300497617572546, -0.034841734915971756, 0.0658251941204071, -0.0426781103014946, -0.008491648361086845, -0.009354852139949799, -0.010156053118407726, -0.0016815457493066788, 0.02061336301267147, 0.021535582840442657, -0.006502038799226284, 0.03627004474401474, -0.05179056525230408, 0.0017768277321010828, 0.03939075767993927, -0.06141160428524017, 0.01673455722630024, 0.037438757717609406, -0.008879016153514385, -0.015054421499371529, 0.002426513936370611, -0.016588322818279266, -0.005764992907643318, -0.012091091834008694, 0.006964222528040409, 0.04548031836748123, 0.01810704730451107, -0.04608621820807457, -0.0857638269662857, -0.05499232932925224, 0.036349616944789886, -0.0004035868914797902, 0.010516216978430748, -0.0682431012392044, -0.053525395691394806, -0.02434488572180271, -0.03099527582526207, 0.01957332342863083, -0.014101088047027588, -0.07812190055847168, -0.05988716706633568, 0.004094164818525314, 0.04317256808280945, 0.04135134071111679, 0.002991007873788476, 0.035282742232084274, 0.002954659052193165, 0.05493859201669693, 0.0339433029294014, -0.019795630127191544, -0.00823869276791811, -0.06285157054662704, 0.007775663863867521, 0.04608689248561859, 0.0303421001881361, -0.0031925358343869448, 0.007045337930321693, 0.012827864848077297, 0.017518291249871254, 0.03980609402060509, 0.06617284566164017, 0.0697840228676796, 0.06449059396982193, -0.0035759382881224155, 0.03257928416132927, 0.042570389807224274, 0.0487024188041687, -0.08561002463102341, -0.05155424773693085, -0.10668208450078964, -0.05223177373409271, 0.03631646931171417, -0.007507775444537401, 0.08611401170492172, -0.009453585371375084, 0.06367205828428268, 0.024525851011276245, 0.02762768417596817, -0.007546555250883102, 0.02421712316572666, -6.057547579985112e-05, 0.0001871852291515097, -0.07384292036294937, -0.06563421338796616, 0.015132597647607327, 0.03575500473380089, 0.048942212015390396, -0.04480328410863876, 0.03304890915751457, 0.0944128930568695, 0.08511346578598022, -0.002919182414188981, -0.005383011419326067, 0.0011247112415730953, 0.011996721848845482, 0.050460025668144226, 0.056153327226638794, 0.04865125194191933, 0.015444695949554443, -0.01883857510983944, -0.06143627688288689, 0.04055449366569519, 0.024891944602131844, 0.02420169860124588, -0.037091679871082306, -0.03103076107800007, 0.006780732423067093, 0.03516613692045212, 0.05265996232628822, 0.09460243582725525, 0.046060722321271896, -0.03467901051044464, -0.05771973729133606, -0.044171128422021866, 0.06653417646884918, 0.0158345028758049, -0.01002895925194025, 0.01693417876958847, 0.016267431899905205, 0.023782361298799515, 0.02325357496738434, 0.006543454248458147, 0.037929125130176544, 0.018105443567037582, -0.045088447630405426, -0.014450198970735073, -0.0014846704434603453, -0.03104805201292038, 0.015683859586715698, -0.03299866244196892, -0.007159125059843063, -0.00386218773201108, 0.007900439202785492, -0.00572098046541214, 0.01756935939192772, 0.04368537664413452, -0.014182699844241142, 0.0069188810884952545, 0.009525598026812077, 0.05671203136444092, 0.05036179721355438, -0.02864559181034565, -0.0574437640607357, 0.04420539364218712, 0.012325451709330082, 0.04761100932955742, 0.035007040947675705, -0.00126524711959064, 0.004659758880734444, -0.003932811785489321, -0.02980811707675457, -0.018125269562005997, 0.028774073347449303, 0.02916240319609642, -0.02177056111395359, 0.021705353632569313, 0.041341524571180344, 0.001715699560008943, 0.0012253002496436238, 0.019564170390367508, 0.007273241877555847, 0.013281427323818207, 0.029697386547923088, 0.03335927426815033, -0.0028558482881635427, -0.012761522084474564, -0.027867214754223824, 0.011788833886384964, -0.010192768648266792, 0.025624074041843414, 0.005313183646649122, 0.042841553688049316, 0.004654868505895138, 0.014879477210342884, -0.009148834273219109, 0.023557201027870178, 0.00997251272201538, 0.0028153604362159967, 0.0012443586019799113, -0.016859643161296844, -0.018881451338529587, -0.014463973231613636, -0.004629459232091904, 0.00713915191590786, 0.011914748698472977, 0.015935279428958893, 0.029792528599500656, 0.03376828506588936, 0.04890987277030945, -0.0003967195807490498, 0.009178458712995052, -0.010711317881941795, 0.03639979287981987, 0.019256284460425377, 0.00816959235817194, -0.023457510396838188, 0.01321390736848116, -0.007890745997428894, -0.011792016215622425, -0.004742592107504606, 0.02634355239570141, -0.0034812127705663443, -0.000477651774417609, 0.040210604667663574, 0.03728871792554855, -0.012707412242889404, 0.022021625190973282, 0.039563003927469254, 0.03551096469163895, 0.03164966404438019, -0.034893665462732315, -0.03905636817216873, 0.03732505813241005, 0.014991112053394318, -0.0018521456513553858, -0.0008915309445001185, 0.01986498013138771, -0.003907111007720232, 0.005031465087085962, 0.015042952261865139, 0.013434197753667831, 0.03759660944342613, 0.006568859796971083, -0.01358210388571024, 0.009840375743806362, -0.013147206045687199, 0.01814267970621586, 0.02764136902987957, 0.001410537981428206, -0.10264138877391815, -0.014929989352822304, 0.12581880390644073, 0.05690736696124077, 0.024634450674057007, 0.0036968733184039593, -0.0027861115522682667, -0.005213136784732342, 0.050366710871458054, 0.0483100451529026, 0.03062736615538597, -0.018946124240756035, -0.001643397961743176, -0.14015071094036102, -0.13136602938175201, -0.030990399420261383, 0.01168754044920206, -0.007963864132761955, -0.0013504837406799197, -0.018556559458374977, -0.05084315314888954, -0.0032712528482079506, 0.015885621309280396, 0.052872393280267715, -0.010423949919641018, 0.0023255900014191866, 0.01221410557627678, 0.04076977074146271, -0.01424267515540123, 0.011391970328986645, 0.01392869558185339, 0.009040986187756062, 0.014355220831930637, 0.01951671950519085, 0.021589405834674835, 0.029875794425606728, 0.0007505647954531014, 0.016414912417531013, -0.005312725901603699, -0.008714313618838787, 0.0028506447561085224, 0.019100749865174294, 0.0362807922065258, -0.011609899811446667, 0.04544268175959587, 0.01795736514031887, -0.019379163160920143, -0.0005230418755672872, 0.007440687157213688, -0.10878944396972656, -0.034559883177280426, 0.05924621596932411, 0.0376005582511425, -0.014981107786297798, 0.008701923303306103, -0.056366100907325745, -0.07028628140687943, 0.0373857356607914, 0.04341321811079979, 0.03631147742271423, -0.013842322863638401, -0.014439612627029419, -0.11850100755691528, -0.0736033022403717, 0.016228165477514267, -0.01792687363922596, 0.0037637182977050543, 0.010675285942852497, 0.007933851331472397, -0.01210498996078968, 0.04748678207397461, 0.0050214496441185474, 0.03845299780368805, -0.009341783821582794, 0.010706123895943165, -0.02472303993999958, 0.009505393914878368, -0.03185471147298813, 0.010364241898059845, -0.05956215411424637, -0.016411099582910538, 0.017707545310258865, 0.0057807364501059055, -0.00913246814161539, -0.05610247328877449, 0.021714167669415474, 0.09822843223810196, -0.02064093016088009, -0.0024440379347652197, 0.004629611503332853, 0.00953013077378273, -0.05171285942196846, 0.041702721267938614, 0.0924951359629631, 0.05471357703208923, -0.007506633177399635, 0.005068356636911631, -0.05570859834551811, -0.004001685418188572, 0.06796038150787354, 0.07796569913625717, 0.07659419625997543, -0.01088794693350792, 0.006641730200499296, -0.04930310696363449, 0.042916156351566315, 0.02470632828772068, -0.09320133179426193, -0.04937228560447693, 0.0027623570058494806, -0.04695966839790344, -0.11097102612257004, -0.11756264418363571, -0.0452917255461216, -0.05371120944619179, -0.001808947417885065, 0.01294587180018425, -0.0030227908864617348, 0.005469499621540308, -0.018032388761639595, 0.038862988352775574, 0.017066294327378273, 0.02375037409365177, 0.011048679240047932, -0.011353903450071812, -0.010709814727306366, 0.05470992997288704, 0.030298247933387756, 0.07630935311317444, 0.01068200170993805, -0.012109591625630856, 0.04002617672085762, -0.06892649829387665, -0.00196278328076005, 0.018869245424866676, -0.0036088041961193085, 0.006678272504359484, 0.04522233456373215, 0.13634145259857178, 0.11465700715780258, 0.15706367790699005, 0.019581453874707222, 0.027952687814831734, -0.09503331035375595, -0.03749048709869385, -0.01583651639521122, 0.08142012357711792, -0.025910502299666405, -0.0761878490447998, -0.029562098905444145, -0.036022018641233444, 0.05957470461726189, -0.05080607905983925, -0.0155523382127285, 0.014629222452640533, 0.0354267880320549, 0.02618451416492462, 0.0538150891661644, 0.1393996626138687, 0.12571187317371368, -0.0019172336906194687, -0.014271673746407032, 0.08338204771280289, -0.038523342460393906, -0.00840496551245451, -0.03437013924121857, 0.05699587240815163, -0.026789216324687004, -0.03809921443462372, -0.0980091392993927, -0.005281561054289341, 0.03320225328207016, 0.04319295287132263, 0.002539032371714711, 0.01313292607665062, -0.006659252103418112, 0.017149778082966805, -0.05591409280896187, -0.04879399761557579, 0.02797204628586769], "bias": 0.018212301656603813}