{"layer": "fc1", "index": 29, "weights": [0.00972815789282322, 0.01147417165338993, -0.021458527073264122, -0.0038298349827528, -0.016665423288941383, 0.0021334178745746613, 0.002008272334933281, -0.017023678869009018, 0.00378250889480114, 0.010011682286858559, -0.007388393394649029, -0.007358021102845669, 0.008245561271905899, 0.008356206119060516, 0.0017178338021039963, 0.0011686421930789948, 0.002347103087231517, -0.015058879740536213, 0.006277088075876236, 0.009597400203347206, 0.009873194620013237, 0.011841973289847374, 0.003052639774978161, -0.02220592461526394, 0.015146290883421898, 0.011773372069001198, 0.004769785329699516, 0.0038112234324216843, 0.007371583953499794, 0.003020049538463354, -0.01233416423201561, 0.006205786019563675, 0.0014591999351978302, -0.01319613866508007, -0.0077584730461239815, -0.0024364041164517403, 0.003833852708339691, -0.022084224969148636, -0.021982921287417412, -0.01290208101272583, 0.007678333204239607, -0.017186984419822693, -0.014016194269061089, 0.0035835355520248413, 0.012628884986042976, -0.010877376422286034, -0.012444987893104553, -0.01477289479225874, -0.009434795938432217, 0.01755734346807003, 0.004044320434331894, 0.010319151915609837, 0.0006895207334309816, -0.004305526614189148, -0.0126809012144804, -0.009527460671961308, -0.01635873131453991, -0.011249212548136711, -8.50981887197122e-05, 0.009229871444404125, -0.003949182108044624, -0.007590490393340588, 0.007220548111945391, 0.0017551220953464508, -0.01729295216500759, 0.008581262081861496, -0.0027606114745140076, -0.015216629020869732, -0.01341298595070839, -0.00830740388482809, 0.017709938809275627, -0.0033396100625395775, 0.004634846467524767, -0.006634447257965803, 0.0068274675868451595, -0.007007688283920288, 0.013871090486645699, -0.0073518287390470505, 0.013935571536421776, -0.005241025239229202, -0.023676300421357155, -0.007347015663981438, 0.010643727146089077, -0.006638865917921066, 0.003923315554857254, 0.0013144072145223618, -0.016688233241438866, 0.009028329513967037, -0.01834777370095253, -0.003700914094224572, -0.011579316109418869, -0.020205779001116753, 0.011646121740341187, -0.0022578381467610598, 0.004408818203955889, -0.01834239438176155, 0.0039160363376140594, 0.008146327920258045, -0.011814986355602741, 0.011287183500826359, -0.01971173845231533, -0.01514822244644165, 0.009819252416491508, -0.010928292758762836, 0.005157804116606712, -0.016147566959261894, -0.0036777120549231768, 0.003043437609449029, -0.018539786338806152, -0.021869171410799026, 0.005965051706880331, -0.007102597039192915, 0.001557913376018405, 0.0006534014246426523, 0.010405853390693665, 0.008434661664068699, -0.004442538600414991, 0.004911588039249182, -0.011537428013980389, -0.020365487784147263, -0.004999332129955292, -0.009644930250942707, 0.010662203654646873, 0.00030532554956153035, -0.00044460027129389346, -0.0009338927920907736, -0.002035640412941575, 0.011310668662190437, -0.004636106081306934, 0.0006043877801857889, -0.0066572329960763454, -0.008744713850319386, 0.0033740198705345392, -0.009440643712878227, -0.010589508339762688, -0.01753709465265274, 0.0066836439073085785, 8.795254689175636e-05, -0.01096559688448906, 0.008180367760360241, 0.001813374226912856, -0.008804187178611755, -0.02266102097928524, -0.013540593907237053, -0.01825304888188839, -0.0015890048816800117, 0.002840435830876231, 0.007472841069102287, 0.015927864238619804, -0.0068752216175198555, 0.00016452744603157043, 0.0025815926492214203, 0.012004595249891281, 0.012991482391953468, -0.01149743888527155, 0.005267558619379997, 0.01494683139026165, -0.005684792995452881, -0.01763083040714264, 0.007275328040122986, 0.011483622714877129, 0.0080751096829772, -0.009814503602683544, 0.016922106966376305, -0.009330496191978455, 0.01708781160414219, 0.0023003574460744858, -0.0028333282098174095, 0.0034906850196421146, -0.0026583783328533173, 0.012583710253238678, -0.0050809066742658615, 0.0058358293026685715, 0.016559304669499397, 0.01331840455532074, 0.0010682533029466867, 0.012023137882351875, -0.003441350534558296, 0.004477992653846741, 0.011650800704956055, -0.014063593000173569, -0.0028423296753317118, 0.000655687996186316, 0.005029875785112381, -0.011605111882090569, -0.01386117935180664, 0.007570384070277214, 0.011201702058315277, -0.0024285512045025826, -0.012159180827438831, 0.003941604867577553, -0.007892755791544914, -0.013268155045807362, -0.02054513245820999, -0.02350963093340397, -0.021043602377176285, -0.0012771226465702057, 0.005602959543466568, -0.011232279241085052, -0.017395827919244766, -9.337943629361689e-05, 0.015218785032629967, -0.0009212074801325798, -0.013749536126852036, 0.014900406822562218, -0.021008962765336037, -0.013153203763067722, 0.003365676384419203, 0.010533275082707405, 0.006501208990812302, -0.009285573847591877, 0.016357338055968285, 0.0042158071883022785, -0.008361288346350193, -0.02378292754292488, 0.00074039027094841, 0.002510545775294304, 0.011465996503829956, 0.009159868583083153, -0.018431589007377625, -0.009409017860889435, 0.008740263059735298, -0.00320119084790349, -0.009090711362659931, 0.004952073097229004, 0.005027350038290024, 0.00765607412904501, 0.000844087335281074, -0.020743783563375473, 0.007063365541398525, 0.0014627613127231598, 0.004503408446907997, -0.009161094203591347, -0.00535788107663393, -0.005695197265595198, -0.022957853972911835, -0.010145445354282856, 0.011423951014876366, -0.00906324852257967, -0.00017355941236019135, -0.01766148768365383, -0.009248697198927402, 0.005173824727535248, 0.011072671040892601, -0.007240870036184788, 0.005269460380077362, -0.015214316546916962, -0.011983132921159267, -0.0078098648227751255, -0.001445240224711597, 0.0047452147118747234, 0.011281625367701054, -0.016051627695560455, -0.00039455242222175, 0.011430968530476093, -0.02129257656633854, 0.01060869824141264, -0.003414267674088478, -0.018794870004057884, -0.005975005682557821, 0.011706393212080002, -0.02298017032444477, 0.0032665454782545567, 0.00541726453229785, -0.023622382432222366, -0.02179139293730259, -0.017520375549793243, 0.009350014850497246, -0.0010789332445710897, -0.00572617631405592, -0.015045707114040852, -0.017424747347831726, -0.007528593763709068, -0.010330410674214363, 0.009245356544852257, -0.022741608321666718, -0.015942467376589775, -0.006604551337659359, -0.0018510767258703709, -0.0061281477101147175, -0.009632287546992302, -0.005568289197981358, 0.0013292556395754218, -0.01002495177090168, -0.007764748297631741, -0.016584070399403572, -0.01516720000654459, -0.00177317566704005, -0.009733481332659721, -0.014443476684391499, -0.012397408485412598, -0.02145048789680004, 0.003502490231767297, -0.023073766380548477, 0.0077286455780267715, 0.016925038769841194, -0.009979208000004292, -0.01310315728187561, -0.016706258058547974, -0.003031000727787614, -0.022977260872721672, 0.013345830142498016, 0.01270567812025547, 0.016377782449126244, -0.007074562832713127, -0.022982291877269745, -0.002271433360874653, -0.015484047122299671, -0.007916840724647045, 0.005016490817070007, -0.013802657835185528, 0.007208183407783508, -0.019664883613586426, -0.009269362315535545, -0.013570671901106834, 0.003766590729355812, 0.001004023477435112, -0.017868956550955772, 0.010477041825652122, 0.011674641631543636, 0.006226758006960154, -0.01912672631442547, -0.017586592584848404, -0.0022450238466262817, -0.02298579551279545, 0.00570584274828434, -0.02287229709327221, -0.011515764519572258, -0.015366928651928902, -0.0001278407871723175, 0.0026733707636594772, 0.006007470190525055, -0.009900006465613842, -0.00732703460380435, 0.015374964103102684, -0.008856985718011856, -0.02120354399085045, 0.015501933172345161, 0.017801912501454353, 0.014903927221894264, 0.017017493024468422, 0.001943456009030342, 0.002993539208546281, -0.014309433288872242, 0.007029146421700716, 0.0014909005258232355, -0.010044539347290993, -0.004676050506532192, -0.012984422035515308, -0.020922012627124786, -0.016981814056634903, -0.007920293137431145, 0.013014905154705048, -0.0203147791326046, -0.0170223880559206, -0.01325525064021349, -0.01438444759696722, -0.01143711805343628, -0.00860796868801117, 0.002642376348376274, 0.0016869030660018325, 0.0033233887515962124, -0.023733602836728096, -0.014753976836800575, 0.00613824836909771, -0.01201600581407547, -0.006608901545405388, -0.011363587342202663, -0.02179032377898693, -0.005045822821557522, 0.00048777859774418175, -0.010927585884928703, 0.005329810082912445, 0.002795964479446411, 0.0032585631124675274, 0.007123894523829222, -0.013280399143695831, 0.005339034367352724, 0.002093074843287468, 0.016027716919779778, -0.008756184950470924, -0.019903909415006638, -0.019215721637010574, -0.004693749826401472, -0.015452273190021515, 0.012580037117004395, 0.014748042449355125, -0.01761779561638832, 0.010825904086232185, -0.004742488265037537, -0.01652025617659092, 0.005219917744398117, 0.011821707710623741, 0.009510079398751259, 0.010971089825034142, 0.010177478194236755, -0.0026466762647032738, 0.016768449917435646, 0.006576661020517349, 0.0026880111545324326, 0.003905847668647766, -0.01678665354847908, -0.006540379486978054, 0.0014710240066051483, -0.009697046130895615, -0.0019430648535490036, -0.007028629072010517, -0.01213093101978302, 0.0014094952493906021, -0.011007750406861305, 0.010862963274121284, -0.00579656008630991, -0.004279709421098232, 0.000979442149400711, 0.014009961858391762, -0.02163693867623806, -0.013170696794986725, -0.0009647849947214127, -0.011097744107246399, 0.01645568571984768, 0.0027418583631515503, 0.015456577762961388, 0.012261999770998955, -0.003934141248464584, 0.0036001745611429214, -0.0018116887658834457, 0.012237297371029854, -0.005139289423823357, -0.01428341493010521, -0.006514996290206909, 0.009735779836773872, 0.012124558910727501, 0.015830663964152336, -0.016480613499879837, -0.003224087879061699, 0.0003975890576839447, -0.009710323065519333, -0.012121513485908508, -0.012414698489010334, -0.014744903892278671, -0.008552981540560722, 0.0021059128921478987, -0.016419701278209686, -0.010827520862221718, -0.005052787251770496, -0.0004112094466108829, -0.008149733766913414, -0.003880666336044669, 0.01143010426312685, 0.011208134703338146, -0.005482677835971117, -0.00873645767569542, 0.0015196778113022447, -0.0003297012881375849, -0.018838616088032722, -0.018459340557456017, 0.009687516838312149, 0.003615052904933691, 0.00426393561065197, -0.02255484089255333, 0.006606056820601225, -0.019553139805793762, -0.005798008758574724, 0.0009754092316143215, -0.009963606484234333, 0.006357358768582344, -0.019791189581155777, -0.0037537189200520515, 0.008046872913837433, -0.008547316305339336, 0.010014936327934265, 0.0069785709492862225, -0.005646365694701672, -0.00651973532512784, -0.008751535788178444, 0.007102740462869406, -0.00169318204279989, 0.003482712199911475, 0.009183458052575588, -0.00627049570903182, -0.015792347490787506, -0.006957690231502056, -0.0123002789914608, 0.0002770590072032064, 0.004350815434008837, -0.004300129134207964, -0.006788440048694611, 0.0064356219954788685, -0.00021082830789964646, -0.022510910406708717, -0.00909840501844883, 0.006071148440241814, -0.01824083738029003, -0.023100368678569794, -0.008265314623713493, -0.021542204543948174, -0.01709367334842682, -0.005736225284636021, -0.02038584277033806, -0.014957853592932224, -0.017250273376703262, -0.01902918331325054, -0.01648656278848648, -0.011671607382595539, 0.004765737801790237, -0.006762034259736538, -0.009482274763286114, -0.0037671055179089308, -0.021289855241775513, 0.001400873064994812, 0.002405015751719475, -0.005854594521224499, 0.0005093203508295119, -0.01160077378153801, -0.015442452393472195, 0.00028721458511427045, -0.013544898480176926, -0.016415640711784363, 0.00016743503510951996, -0.0006441459408961236, 0.00858304649591446, 0.010566641576588154, -0.018806712701916695, 0.01115826703608036, -0.01658138446509838, -0.004538155160844326, -0.022764844819903374, 0.009679795242846012, -0.0038987095467746258, 0.0037882677279412746, -0.01444285549223423, 0.0048044584691524506, -0.0039491550996899605, -0.00898076593875885, 7.416307926177979e-05, 0.007210979238152504, -0.0069009363651275635, 0.003354230895638466, -0.004749528132379055, -0.01598433032631874, 0.008049581199884415, -0.015462497249245644, -0.014889562502503395, -0.006720181554555893, -0.018098371103405952, 0.008953711949288845, -0.009911111555993557, 0.008133884519338608, -0.006914202589541674, 0.0026462494861334562, -0.019758252426981926, 0.01061597652733326, -0.01906958408653736, 0.011423724703490734, 0.003040379611775279, -0.006730412133038044, -0.014237196184694767, -0.009234251454472542, 0.0006379905971698463, -0.013539347797632217, -0.022994447499513626, -0.0021582115441560745, -0.021258462220430374, 0.008883622474968433, -0.017869718372821808, -0.0002513644576538354, 0.004053744021803141, -0.023376699537038803, 0.005660751834511757, 0.003588446881622076, 0.011460808105766773, -0.0034149365965276957, -0.02078278549015522, -0.012061087414622307, -0.015217064879834652, -0.009126688353717327, 0.0036934262607246637, -0.021468374878168106, -0.0029281810857355595, -0.016680564731359482, -0.0005093535874038935, -0.015143586322665215, -0.0073766703717410564, 0.008705963380634785, 0.0018304743571206927, -0.010474303737282753, -0.006999239791184664, -0.017086319625377655, 0.008463773876428604, -0.008667037822306156, -0.019479375332593918, -0.004900500178337097, 0.00729435496032238, -0.002079437021166086, -0.004727196414023638, -0.02007507160305977, -0.01530497521162033, -0.0048430669121444225, -0.006339171435683966, 0.0013634004862979054, -0.02384156733751297, 0.00470097828656435, 0.004924733657389879, 0.011024984531104565, -0.0014551184140145779, 0.004109993577003479, 0.016536211594939232, -0.02049221470952034, 0.010889505036175251, 0.003011563094332814, -0.01604212075471878, -0.00017909519374370575, 0.016238464042544365, 0.013152049854397774, 0.010757355019450188, 0.0036438480019569397, -0.011317119002342224, -0.007582996506243944, 0.012027455493807793, -0.0011554080992937088, 0.017055558040738106, -4.4822347263107076e-05, -0.017972784116864204, 0.007219432387501001, -0.010435768403112888, -0.0002602897584438324, -0.016166264191269875, -0.012926231138408184, -0.011937647126615047, -0.005220991093665361, 0.00518503924831748, -0.009647623635828495, -0.015637066215276718, -0.01030476950109005, -0.008923071436583996, -0.018563253805041313, -0.020416252315044403, -0.00806273054331541, 0.004921362269669771, 0.00876690074801445, 0.007576489355415106, -0.00011339311458868906, -0.02374887652695179, -0.0107844527810812, -0.02178078517317772, -0.009477533400058746, 0.004436779767274857, 0.002149708569049835, -0.013528755865991116, 0.0007678621914237738, 0.007750016637146473, 0.0014077272498980165, 0.0074463654309511185, 0.0005040018586441875, 0.0010423514759168029, -0.017471497878432274, -0.0163522157818079, -0.002503038849681616, -0.01094605028629303, -0.017248785123229027, -0.023803051561117172, -0.021809741854667664, -0.011871762573719025, 0.006142372265458107, 0.0034345975145697594, -0.00705029908567667, -0.020725948736071587, -0.0027972282841801643, -0.01566891185939312, -0.003788222325965762, -0.019391829147934914, -0.00017216209380421788, 0.0008998928242363036, 0.003636696143075824, -0.02067364938557148, -0.018873728811740875, -0.023549649864435196, -0.019570758566260338, -0.009945898316800594, 0.010304302908480167, 6.029856740497053e-05, -0.01438176166266203, -0.012873743660748005, 0.008340840227901936, 0.0025781053118407726, 0.0005023552803322673, -0.010329957120120525, -0.011772140860557556, -0.014118876308202744, -0.011965710669755936, -0.012476853094995022, -0.023344097658991814, 0.005530788563191891, -0.020871244370937347, -0.0012188995024189353, -0.019835758954286575, -0.012289352715015411, -0.012725704349577427, -0.010365169495344162, 6.986854714341462e-05, -0.010569972917437553, 0.004597787745296955, -0.016671614721417427, -0.0030074839014559984, -0.00895628146827221, -0.009922432713210583, 0.006700298748910427, -0.004767571110278368, 0.0023404178209602833, -0.017220312729477882, 0.009878229349851608, -0.023274613544344902, -0.00758432038128376, -0.023210112005472183, 0.008057808503508568, 0.008150849491357803, -0.018641628324985504, -0.0215286947786808, -0.0017335998127236962, 0.008029811084270477, 0.005687948781996965, -0.003984361421316862, -0.016851669177412987, 0.011505826376378536, -0.008260914124548435, 0.009597903117537498, -0.017456064000725746, -0.014922548085451126, -0.02116306871175766, 0.007667623460292816, -0.018426550552248955, -0.0030359020456671715, -0.01680917851626873, -0.0028390351217240095, 0.001241821562871337, 0.0023451484739780426, -0.007088970392942429, -0.0009761452674865723, -0.018800918012857437, 0.003147947136312723, -0.018156087026000023, -0.005328924395143986, -0.009325223974883556, 0.00514901801943779, -0.0009231843869201839, -0.017150692641735077, 0.004002891946583986, 0.0005888644373044372, -0.0018802729900926352, -0.009231648407876492, -0.012519869022071362, -0.014658666215837002, -0.011686358600854874, -0.010449736379086971, 0.0032296166755259037, 0.010582288727164268, -0.012626886367797852, 0.01340445689857006, 0.005660048685967922, 0.002027894137427211, -0.0040116398595273495, -0.007986413314938545, -0.01743158884346485, -0.008816838264465332, -0.023526620119810104, -0.009979103691875935, -0.0007854868308641016, -0.00645368080586195, 0.00917760469019413, -0.013301277533173561, 0.005961218848824501, -0.020582634955644608, -0.008545692078769207, -0.016237996518611908, -0.011900115758180618, -0.0017054080963134766, -0.023018918931484222, -0.008431334979832172, -0.0034144287928938866, -0.002772850450128317, -0.0021228305995464325, 0.0010104794055223465, 0.0046986304223537445, 0.009482080116868019, 0.009649096056818962, -0.020972931757569313, 0.007028014864772558, 0.0004900665953755379, -0.016161734238266945, 0.010646660812199116, 0.011538073420524597, 0.00024181405024137348, 0.00033607249497435987, 0.003966114018112421, -0.000858827552292496, -0.0027936433907598257, -0.020213071256875992, 0.007729700300842524, -0.007995251566171646, -0.02295014075934887, 0.008388981223106384, -0.015078969299793243, -0.023177441209554672, -0.011514893732964993, -3.172778815496713e-05, -0.009983892552554607, -0.00874272920191288, -0.017180364578962326, 0.008024518378078938, 0.0061097764410078526, 0.0015085176564753056, -0.023368561640381813, 0.008542116731405258, 0.0029376614838838577, -0.008374460972845554, -0.008469757623970509, -0.023795567452907562, 0.0014841550728306174, -0.016971010714769363, -0.013052942231297493, 0.005382873117923737, -0.004884373862296343, 0.010198094882071018, -0.015087731182575226, -0.0046882955357432365, -0.0032094845082610846, -0.02001797780394554, -0.011045639403164387, 0.005040408112108707, 0.011563724838197231, 0.006381375715136528, 0.00365769537165761, 0.011586226522922516, 0.009710049256682396, -0.006934099830687046, -0.012238222174346447, -0.011959237977862358, -0.0027048494666814804, -0.006868418306112289, 0.01032013539224863, -0.006954616867005825, -0.0011235512793064117, 0.004904152825474739, 0.00035814568400382996, -0.0037155181635171175, 0.006080568302422762, -0.016854768618941307, -0.014495382085442543, -0.016688037663698196, -0.0023062443360686302, -0.0050766346976161, 0.005130094010382891, -0.001564919133670628, 0.008813712745904922, 0.009834369644522667, -0.0070790695026516914, 0.010094141587615013, -0.01915990561246872, -0.013526150956749916, -0.014492408372461796, 0.007868721149861813, 0.013809485360980034, 0.00468632485717535, -0.010564040392637253, -0.003058874048292637, -0.012247291393578053, 0.007606811355799437, 0.006154217291623354, -0.0031064534559845924, 0.0018975026905536652, -0.007844003848731518, 0.001752631738781929, -0.012850872240960598, 0.0015492476522922516, -0.01670747809112072, 0.0029181295540183783, -0.02250295877456665, 0.006004396826028824, -0.011503078043460846, 0.00902903638780117, 0.0077421776950359344, -0.007902477867901325, 0.0033005792647600174, -0.01094468217343092, -0.01939423382282257, -0.004709743894636631, -0.00686238007619977, -0.007479069754481316, -0.014183956198394299, 0.007912088185548782, 0.003953302279114723, 0.010728462599217892, -0.001393849030137062, 0.007757861167192459, 0.013529060408473015, -0.0035760318860411644, 0.006391124799847603, -0.01558377593755722, 0.003245498053729534, -0.007710092235356569, 0.009573353454470634, -0.015711942687630653, 0.002667386084794998, -0.015788329765200615, -0.01485035102814436, -0.0023656298872083426, -0.0230253878980875, 0.014381328597664833, -0.010288037359714508, 0.011184869334101677, 0.00881447084248066, -0.006594916805624962, -0.00932337623089552, -0.014413916505873203, 0.0002396710478933528, 0.011355532333254814, -0.011469660326838493, -0.012469720095396042, -5.50048525838065e-07, 0.011259552091360092, -0.0232906062155962, 0.002188384532928467, -0.0011204034090042114, 0.0048832278698682785, -2.0973384380340576e-06, -0.0012903697788715363, 0.005362067837268114, -0.003393258200958371, -0.017347604036331177, -0.012917190790176392, 0.0031490810215473175, 0.00925014540553093, -0.005354565102607012, 0.003386974334716797, -0.01747247949242592, -0.021981751546263695, -0.016532322391867638, -0.008350133895874023, -0.0020463084802031517, 0.000203842791961506, 0.011142874136567116, -0.011334304697811604, -0.00194857781752944, 0.0004664031439460814, -0.023775441572070122, -0.014486327767372131, -0.016338061541318893, -0.008497616276144981, 0.002640905324369669, -0.0018608173122629523, 0.0006303889094851911, -0.004084556829184294, -0.023505978286266327, 0.009732251055538654, 0.0074119484052062035, -0.009044318459928036, 0.006527463905513287, 0.007833813317120075, 0.011202504858374596, -0.017871549353003502, -0.01802513189613819, 0.009278588928282261, 0.010680913925170898, 0.0034485841169953346, 0.0006611663848161697, -0.006105178035795689, 0.004740722477436066, 0.0003622396325226873, -0.009289323352277279, -0.009355208836495876, -0.022218363359570503, -0.01089799590408802, -0.004815329797565937, -0.012470567598938942, -0.00917665846645832, 0.0011128392070531845, -0.00972060952335596, 0.008200897835195065, -0.014279385097324848, 0.007193455006927252, -0.005467347800731659, -0.018552396446466446, 0.0013235533842816949, 0.008067045360803604, 0.011065403930842876, 0.00478278798982501, -0.009794867597520351, -0.005799935664981604, -0.00031561157084070146, -0.022180061787366867, -9.979539754567668e-05, -0.022416170686483383, 0.011431940831243992, -0.014355737715959549, -0.02060730941593647, -0.012284151278436184, -0.008503309451043606, -0.016181761398911476, -0.0031179324723780155, -0.011929045431315899, -0.023847291246056557, -0.022896338254213333, -0.020634455606341362, -0.008949518203735352, 0.016602756455540657, 0.0037202760577201843, 0.007139268796890974, 0.00684081157669425, -0.015387528575956821, 0.005951003637164831, -0.01700769178569317, 0.007186755537986755, 0.00023366831010207534, -0.010810540989041328, -0.01652914099395275, 0.0057931458577513695, 0.010640205815434456, -0.010295839980244637, -0.022314518690109253, 0.0033035012893378735, -0.0072916350327432156, 0.009248107671737671, -0.022909779101610184, -0.006484020035713911, 0.004524650052189827, -0.0015012560179457068, 0.004972295369952917, -0.00592240272089839, 0.010683487169444561, -0.011359107680618763, 0.0007682795403525233, -0.012233695946633816, 0.006122361868619919, 0.004235542379319668, -0.0005611053202301264, -0.022486668080091476, -0.005913940723985434, 0.009716502390801907, 0.008208591490983963, 0.00030054146191105247, -0.0028565910179167986, -0.01037671510130167, -0.0038150125183165073, -0.0141480453312397, -0.010092548094689846, -0.01728951372206211, -0.003925896715372801, 0.009902539663016796, -0.020675962790846825, -0.008965963497757912, 0.009791548363864422, -0.0039044860750436783, -0.008956033736467361, 0.00519477017223835, -0.02276010438799858, -0.021862396970391273, 0.004755782429128885, 0.0038254091050475836, -0.023395847529172897, 0.009070580825209618, -0.001576117007061839, -0.021794505417346954, 0.00032970684696920216, 0.007460493128746748, -0.015606830827891827, -0.020966028794646263, -0.012211672030389309, -0.0066010719165205956, -0.00874324981123209, 0.006287535186856985, 0.0033079192508012056, 0.006877497304230928, -0.011556933633983135, -0.006957470439374447, 0.007526784669607878, -0.012439562007784843, 0.008364606648683548, -0.012007570825517178, -0.010922390967607498, 0.007588155567646027, -0.01965794339776039, 0.0037267045117914677, 0.0090996278449893, 0.0005420559900812805, -0.013942302204668522, 0.006824907381087542, 0.006029659416526556, 0.0034459743183106184, -0.00808156467974186, -0.012086360715329647, 0.011720876209437847, -0.01962706632912159, -0.021265389397740364, -0.006825082935392857, -0.009472550824284554, -0.007272991817444563, -0.007643921300768852, 0.004332421813160181, -0.0012834627414122224, -0.02153983898460865, -0.012174692004919052, 0.00755041278898716, 0.0007711719954386353, -0.020304448902606964, -0.017290128394961357, -0.023813433945178986, 0.0062094577588140965, -0.013044499792158604, -0.0032598855905234814, -0.006225972436368465, 0.0065191444009542465, 0.002529602497816086, -0.01601327396929264, -0.00652044964954257, -0.023012083023786545, -0.015626678243279457, -0.014498979784548283, -0.023653460666537285, -0.014629978686571121, -0.01632431335747242, -0.009370540268719196, -0.013220692053437233, -0.016036730259656906, -0.01712057553231716, -0.007960214279592037, -0.007942168973386288, -0.007899954915046692, 0.0073980591259896755, -0.023666711524128914, -0.005487444344907999, -0.007897368632256985, -0.009470879100263119, -0.004824521951377392, 0.0040013473480939865, -0.01797390542924404, -0.013089779764413834, 0.0002503208233974874, -0.023772113025188446, 0.0013329909415915608, 0.001390313496813178, -0.022991295903921127, -0.004730259533971548, -0.0017781867645680904, -0.0005047419690527022, -0.022694410756230354, -4.0482835174771026e-05, -0.0067000677809119225, 0.009028027765452862, -0.023696960881352425, -0.00938269030302763, 0.0006618308834731579, -0.001568563748151064, 0.00823140423744917, -0.006453678477555513, -0.01162222120910883, -0.019326118752360344, 0.00653234776109457, -0.01804560236632824, -0.021980350837111473, -0.020001811906695366, 0.002382774604484439, -0.010047189891338348, -0.008126870729029179, -0.01941310055553913, -0.014822790399193764, 0.0077117448672652245, -0.013336674310266972, -0.016286348924040794, 5.98860569880344e-05, -0.021830635145306587, -4.945699038216844e-05, -0.023224923759698868, -0.011595667339861393, 0.0003624467644840479, 0.009392346255481243, -0.0037829834036529064, -0.015009015798568726, 0.00753814447671175, 0.001505760126747191, -0.019586898386478424, -0.018373414874076843, 0.007215447258204222, -0.008007734082639217, -0.010675077326595783, 0.007138300687074661, 0.007095362059772015, 0.004085417836904526, -0.0074949851259589195, 0.004461821634322405, 0.0013380582677200437, -0.02132011204957962, 0.002686816966161132, -0.001741674030199647, -0.021327391266822815, 0.0025591314770281315, -0.01408877968788147, 0.003636811161413789, -0.02327597141265869, -0.023038001731038094, 0.00985552929341793, -0.023172982037067413, -0.0021619396284222603, -0.0019459347240626812, 0.003424316644668579, 0.0021036129910498857, -0.013868993148207664, -0.02263987623155117, 0.008615953847765923, -0.004819481633603573, 0.0023794088046997786, 0.002831076504662633, 0.0038896529003977776, -0.020399291068315506, -0.02292439714074135, -0.013172006234526634, 3.79939483536873e-05, -0.010199918411672115, -0.01366884633898735, -0.019001217558979988, -0.02128264307975769, -0.020557401701807976, -0.008952328935265541, 0.011612382717430592, -0.018371276557445526, -0.01683116890490055, -0.012394845485687256, 0.010573074221611023, -0.017003348097205162, -0.0009939089650288224, -0.0005071889609098434, -0.01449644099920988, -0.00750497542321682, -0.00034492649137973785, -0.006690206937491894, -0.0033440669067204, -0.0192228015512228, -0.018368681892752647, 0.007485961075872183, -0.022931333631277084, -0.012792272493243217, 0.010520868003368378, -0.0022039427421987057, -0.012440506368875504, -0.008543794974684715, -0.011240795254707336, 0.006954530254006386, -0.01109893899410963, 0.016540614888072014, -0.01160229742527008, -0.002070548478513956, -0.00748820137232542, -0.002294825157150626, -0.017265118658542633, 0.0015560220927000046, -0.001348474994301796, -0.0057868799194693565, -0.021273382008075714, -0.00727926567196846, -0.01343921571969986, 0.012446606531739235, -0.006868135184049606, -0.00566684827208519, -0.011231270618736744, -0.00822240486741066, -0.021956775337457657, 0.011622531339526176, -0.011425849050283432, 0.015807127580046654, -0.014673259109258652, 0.006630763411521912, 0.0072915200144052505, -0.015873420983552933, 0.007155925035476685, 0.017039509490132332, 0.007805723696947098, -0.009024735540151596, -0.0015062048332765698, -0.010760810226202011, -0.01427221018821001, -0.015256085433065891, 0.01512681134045124, -0.007458562031388283, -0.010882149450480938, -0.01335729006677866, -0.02062535658478737, -5.951294951955788e-06, -0.0005447264993563294, -0.008561167865991592, -0.006027556024491787, -0.01733587682247162, -0.0016429999377578497, -0.01660577952861786, -0.015429874882102013, -0.01345965638756752, 0.0073390863835811615, -0.0034260451793670654, -0.006695945747196674, 0.0015080340672284365, 0.00013096680049784482, -0.010666321963071823, -0.02352455072104931, -0.013953447341918945, -0.01352408155798912, 0.00805951189249754, -0.02139735221862793, -0.004868068266659975, -0.023357324302196503, 0.000358211575075984, 0.0035955836065113544, 0.010170215740799904, -0.008101030252873898, -0.008032843470573425, -0.0022797181736677885, -0.011694853194057941, -0.002831095829606056, 0.016049375757575035, -0.01881890371441841, -0.007975811138749123, -0.015588628128170967, -0.015423093922436237, -0.01318901963531971, -0.012964118272066116, -0.01698511466383934, 0.00764370197430253, -0.0006700684898532927, -0.018926678225398064, 0.0012078400468453765, 0.010606279596686363, -0.016917837783694267, 0.0013210804900154471, 0.002512868493795395, -0.016129637137055397, -0.0033805526327341795, 0.0027495345566421747, -0.00037276672082953155, 0.011179021559655666, 0.005517084151506424, 0.00635062949731946, -0.01776699163019657, -0.008089783601462841, -0.005683606956154108, -0.005080396309494972, -0.0060696532018482685, -0.009853777475655079, -0.02237618900835514, -0.0006688010762445629, -0.01382768340408802, -0.017253324389457703, -0.01815555989742279, -0.011393644846975803, -0.008831379935145378, -0.022336840629577637, -0.019047720357775688, 0.0002703768259380013, 0.009791186079382896, -0.008675629273056984, -0.0010598457884043455, 0.0008456336800009012, 0.010269909165799618, -0.015491653233766556, 0.0014209081418812275, 0.007592517416924238, -0.008399263955652714, -0.009120289236307144, 0.0021760331001132727, 0.0032040432561188936, -0.007446635980159044, 0.00012530510139185935, -0.015436272136867046, -0.019326848909258842, -0.0007129049627110362, -0.008990965783596039, -0.015381135046482086, -0.0065544405952095985, 0.005361948627978563, -0.0033443174324929714, 0.010301094502210617, -0.02207416109740734, -0.01105732936412096, 0.009532901458442211, -0.004163033794611692, 0.005525180138647556, 0.011110902763903141, -0.007938866503536701, -0.0006369487382471561, 0.0029483691323548555, -0.02046075277030468, 0.002113716211169958, -0.01685815490782261, 0.004652736242860556, -0.012202518060803413, 0.008740469813346863, -0.0160510316491127, -0.01631946489214897, -0.004750335589051247, -0.0038156514056026936, -0.017447644844651222, 0.005033206660300493, -0.00014942580310162157, -0.010684183798730373, -0.0069414107128977776, -0.02033204399049282, -0.005834947805851698, -0.007817542180418968, -0.017213094979524612, -0.004294126760214567, -0.023026103153824806, -0.01415212731808424, -0.01828438602387905, 0.002499193651601672, -0.0014385246904566884, -0.02194616198539734, -0.019261525943875313, -0.01576567254960537, 0.006391952279955149, 0.008787088096141815, 0.00847725011408329, -0.02121267467737198, -0.003556474344804883, -0.002853554906323552, -0.016411954537034035, -0.009201391600072384, -0.0070896511897444725, -0.02077118121087551, -0.007310150656849146, -0.004644493572413921, 0.007759034633636475, 0.010925269685685635, -0.003230556845664978, 0.003958262503147125, 0.005102939438074827, 0.008931221440434456, -0.005714054685086012, -0.016294041648507118, 0.0003403550654184073, -0.0027962690219283104, -0.005046591628342867, -0.017702169716358185, -0.022773955017328262, 0.0019753240048885345, 0.0014317785389721394, -0.015802588313817978, 0.004401978105306625, -0.0014105208683758974, 0.010966427624225616, 0.006655052304267883, -0.01708412915468216, -0.011972733773291111, -0.007520643062889576, 0.0014227721840143204, -0.0018085649935528636, 0.0028250552713871002, -0.009591926820576191, -0.01560233999043703, 0.009183382615447044, -0.010388229973614216, -0.01174286287277937, 0.006407704204320908, -0.01640564575791359, 0.003690311685204506, -0.01793704368174076, -0.0011210059747099876, 0.001388916396535933, -0.004473790526390076, 0.0023044217377901077, 0.010785788297653198, -0.015195745043456554, -0.01667393557727337, -0.00892174243927002, -0.01010460127145052, -0.005721215158700943, -0.0004719000426121056, -0.0017195328837260604, -0.019066181033849716, -0.011091995052993298, 0.00836209487169981, -0.0010998271172866225, -0.02366654947400093, -0.003259049728512764, -0.02096468210220337, -0.009640785865485668, 0.011320448480546474, 0.007667242083698511, 0.006299352739006281, -0.007391675375401974, -0.022554483264684677, -0.006180500611662865, -0.005431985016912222, -0.006946892943233252, -0.018351159989833832, -0.0003569498367141932, 0.0007801680476404727, -0.022895826026797295, -0.0013617416843771935, 0.005797815974801779, -0.012562933377921581, 0.007711907848715782, 0.011587828397750854, -0.0032621019054204226, -0.005718439817428589, -0.014532119035720825, -0.008254902437329292, -0.02280014380812645, -0.015223010443150997, -0.013035094365477562, -0.012548504397273064, -0.021556859835982323, 0.0008563510491512716, 0.00211322377435863, -0.019324908033013344, -0.002097843447700143, -0.02214381843805313, -0.014782433398067951, -0.009231905452907085, -0.0011654853587970138, -0.01659703627228737, 0.008927905932068825, -0.01746993511915207, -0.0013290392234921455, -0.009509962052106857, 0.0057089366018772125, 0.014009913429617882, -0.004846468567848206, -0.004711266607046127, -0.001811506226658821, 0.00924091786146164, -0.007728328928351402, -0.013601075857877731, -0.014676149934530258, -0.001725703477859497, -0.0015119034796953201, -0.008486646227538586, -0.013571556657552719, -0.015342739410698414, -0.009195996448397636, -0.005164070054888725, -0.011363737285137177, 0.007218824699521065, -0.0008919425308704376, 0.012093598023056984, -0.021775322034955025, -0.01114421896636486, -0.016947736963629723, 0.009228983893990517, 0.017191292718052864, -0.014326159842312336, 0.005922224372625351, 0.005173206329345703, -0.013465764932334423, -0.00784571748226881, 0.0038698408752679825, 0.011490223929286003, 0.011841775849461555, 0.008268941193819046, 0.0019984927494078875, 0.010927972383797169, 0.004435937851667404, -0.006999460980296135, -0.000519605353474617, 0.016565700992941856, 0.005105175077915192, -0.008638002909719944, 0.007799636572599411, 0.01394265703856945, 0.0072110556066036224, 0.010011410340666771, 0.0036843810230493546, 0.008330505341291428, 0.003978831693530083, 0.0002583097666501999, -0.0007027741521596909, 0.005967942997813225, 0.003290630877017975, -0.012699726037681103, -0.002311477204784751, 0.012068426236510277, -0.013374033384025097, 0.01572241075336933, -0.01784421131014824, 0.008870625868439674, -0.002134626731276512, 0.01669398508965969, 0.0044129472225904465, 0.0049784500151872635, 0.014268280938267708, 0.00944523699581623, -0.008543368428945541, -0.011066863313317299, -0.004819020628929138, -0.015856493264436722, -0.008307021111249924, 0.01652599312365055, -0.0004764515906572342, 0.011271530762314796, -0.007524115964770317, 0.014743572100996971, -0.014464866369962692, 0.009271001443266869, 0.0003627687692642212, 0.0013689547777175903, -0.006611037068068981, -0.015713706612586975, -0.002161020413041115, 0.013171551749110222, 0.004889264702796936, -0.0031110476702451706, -0.01149972714483738, -0.01649809442460537, -0.015596238896250725, 0.012769661843776703, -0.012782230973243713, 0.017447372898459435, -0.010786555707454681, 0.01088637113571167, 0.012781130149960518, -0.0172748826444149, 0.0015138797461986542, -0.007826573215425014, -0.0030510444194078445, 0.007891196757555008, -0.015286067500710487, -0.015753382816910744, -0.02066281996667385, -0.014814479276537895, -0.006922517903149128, 0.005096184089779854, -0.0020034871995449066, -0.015523403882980347, -0.00156506709754467, -0.02140234410762787, 0.016028551384806633, -0.008913455531001091, -0.013946807011961937, -0.015577333979308605, -0.017255255952477455, -0.00854445993900299, -0.014496071264147758, 0.012074610218405724, 0.003197459504008293, -0.007997173815965652, -0.002478799782693386, -0.0022803358733654022, -0.004870331846177578, -0.007211023010313511, 0.00019023381173610687, 0.010745646432042122, -0.00877735111862421, -0.011932279914617538, 0.0013416848378255963, -0.014444002881646156, -0.004727466497570276, -0.003664483316242695, 0.004712359979748726, 0.009307093918323517, 0.0022297019604593515, 0.0020343023352324963, -0.006345832254737616, 0.0063562653958797455, -0.0030939988791942596, -0.0030784541741013527, 0.013209858909249306, -0.01647738367319107, -0.009418283589184284, -0.016612330451607704, -0.012670864351093769, -0.006036056205630302, -0.014277239330112934, -0.005006450228393078, 0.007180801127105951, 0.017286406829953194, -0.021280616521835327, 0.005433768033981323, -0.017046496272087097, -0.0060451459139585495, -0.008089299313724041, -0.017040355131030083, -0.009225985035300255, -0.00218990258872509, -0.0069643836468458176, -0.004429403226822615, -0.010071514174342155, -0.020306630060076714, 0.00943772867321968, -0.005613773129880428, -0.0008153663948178291, 0.005509223788976669, 0.012439535930752754, 0.0060425810515880585, 0.009759749285876751, 0.005109000951051712, 0.007941107265651226, 0.011249566450715065, -0.009996017441153526, 0.007215730845928192, -0.007130759768188, -0.021436551585793495, -0.0009687814163044095, 0.00706889433786273, -0.021871251985430717, 0.017099348828196526, 0.005149863660335541, -0.016158774495124817, -6.433089583879337e-05, 0.006182936951518059, -0.017501644790172577, -0.0007453504949808121, 0.008534330874681473, -0.013190219178795815, 0.01022416539490223, 0.010084740817546844, -0.0023683160543441772, -0.0028344723396003246, 0.0028301458805799484, 0.0015808064490556717, -0.0018952339887619019, 0.0056707728654146194, 0.009118421003222466, 0.01698373816907406, 0.007732609286904335, -0.011721812188625336, -0.002497358713299036, -0.009031486697494984, 0.015478817746043205, -0.011739048175513744, 0.011569762602448463, -0.02384178899228573, -0.0008523259311914444, 0.004110299050807953, -0.010026006028056145, 0.010377824306488037, -0.006790038198232651, -0.013736555352807045, -0.0016062073409557343, 0.000261157751083374, 0.006188884377479553, 0.006101647391915321, 0.007833536714315414, -0.00685329083353281, -0.0110287144780159, 0.0011357571929693222, -0.011395016685128212, -0.012369081377983093, -0.008502145297825336, 0.006201565265655518, -0.011351777240633965, -0.015528847463428974, -0.007514279335737228, -0.010636592283844948, -0.004776614718139172, 0.014314429834485054, -0.007620599120855331, -0.012698572129011154, 0.01215158961713314, -0.011366842314600945, -0.013885845430195332, 0.003992654383182526, 0.00596391037106514, 0.005589602515101433, 0.008142543956637383, -0.0032997215166687965, -0.007561177015304565, -0.0003260727971792221, -0.014075207524001598, -0.003788631409406662, -0.023666908964514732, 0.004781627561897039, -0.003574599511921406, 0.009658010676503181, -0.0056599583476781845, 0.0068500228226184845, -0.011096114292740822, 0.0066322810016572475, -0.015225149691104889, -0.007097551599144936, -0.005048852879554033, -0.005832814145833254, 0.008910383097827435, -0.020947091281414032, 0.010928196832537651, 0.0017692208057269454, 0.0009766058064997196, -0.016197241842746735, 0.006944131106138229, -0.007701846770942211, -0.0018375343643128872, 0.0004991101450286806, 0.0084579112008214, -0.0034040643367916346, -0.01657586544752121, -0.023279236629605293, 0.0023494393099099398, 0.003997834399342537, -0.009463459253311157, 0.003154916688799858, 0.011401880532503128, -0.02120838314294815, -0.008121953345835209, -0.023022238165140152, 0.004376139026135206, -0.020142970606684685, -0.022139128297567368, -0.01321225706487894, -0.02214241214096546, 0.0011243654880672693, 0.0019868887029588223, -0.013724202290177345, 0.006245679687708616, 0.007050809916108847, 0.006441286765038967, -0.004596821963787079, -0.023756517097353935, 0.00161627191118896, -0.023363320156931877, 0.01100351382046938, -0.0007131664315238595, -0.021347185596823692, -9.086391946766526e-05, -0.011877762153744698, 0.006062766537070274, 0.005655890796333551, -0.02112755738198757, -0.0167356189340353, -0.0209675133228302, 0.0005982873262837529, 0.011418145149946213, 0.004201228730380535, -0.020335955545306206, -0.020552534610033035, -0.014883482828736305, -0.015344217419624329, 0.000478893518447876, -0.01609312742948532, -0.001429688185453415, 0.007353367283940315, -0.006312426179647446, 0.00030409282771870494, 0.010473010130226612, 0.00613485649228096, -0.00043284823186695576, -0.014042516238987446, -0.009643821977078915, -0.011753776110708714, 0.004499518312513828, -0.008992749266326427, -0.005727272946387529, 0.00981641560792923, 0.0115126371383667, -0.02261464297771454, -0.0003021203156094998, -0.022218497470021248, -0.002288603922352195, 0.009107439778745174, -0.005530910566449165, -0.01527533307671547, -0.00858000572770834, -0.022866934537887573, -0.010666919872164726, 0.006393656134605408, -0.019106920808553696, -0.014116122387349606, 0.0013322437880560756, -0.003840063698589802, 0.004382955376058817, -0.018889009952545166, -0.0017985098529607058, -0.017740420997142792, -0.011998239904642105, -0.013523203320801258, -0.001045120065100491, -0.021358925849199295, -0.02158006653189659, 0.005103323142975569, -0.017827291041612625, 0.009282478131353855, 0.00852000992745161, -0.008467835374176502, 0.008216526359319687, -0.010066510178148746, -0.004173016641288996, -0.018535779789090157, -0.010267692618072033, -0.02033391036093235, 0.01173868402838707, 0.009791117161512375, 0.004462307784706354, -0.009716235101222992, -0.012639142572879791, -0.007310837972909212, -0.010926992632448673, 0.001432080753147602, -0.010487914085388184, -0.017176862806081772, 0.006450172979384661, -0.0026830395217984915, -0.00672234408557415, 0.009241439402103424, -0.0166668388992548, -0.012187359854578972, 0.0077367848716676235, -0.015331454575061798, -0.00996156595647335, 0.0035565532743930817, 0.004721103236079216, 0.0035842645447701216, -0.011657609604299068, 0.004629895091056824, 0.006194563116878271, 0.009137035347521305, 0.004175538197159767, -0.01496626902371645, -0.012220127508044243, 0.016799485310912132, -0.013514935970306396, -0.02325139194726944, -0.0032785970252007246, 0.002939799567684531, 0.011459358036518097, -0.017083095386624336, 0.0028089135885238647, -0.015548338182270527, -0.0017445535631850362, -0.020765498280525208, -0.012301013804972172, -0.01588461734354496, 0.009135022759437561, -0.004492368549108505, 0.002135278657078743, -0.015150820836424828, -0.022812170907855034, -0.003189313458278775, -0.02103225514292717, -0.01341342180967331, -0.0005670785903930664, -0.009614851325750351, -0.0211785938590765, 0.009877837263047695, -0.0016866279765963554, -0.019128546118736267, -0.0009771119803190231, 0.010163610801100731, -0.009101510047912598, -0.008672020398080349, 0.009452556259930134, -0.01980392262339592, -0.013437103480100632, 0.0038829296827316284, 0.015751099213957787, -0.015058760531246662, -0.011100875213742256, -0.023245856165885925, -0.0007887242245487869, -0.010942180640995502, 0.0030110441148281097, -0.014005983248353004, 0.009775524958968163, 0.014576820656657219, -0.019688667729496956, -0.006315689533948898, -0.011634379625320435, -0.005113068036735058, -0.010400086641311646, -0.006672851275652647, -0.01624050922691822, -0.012757312506437302, 0.004469119478017092, 0.00713842548429966, -0.021822746843099594, -0.0010711076902225614, -0.021387655287981033, -0.008911176584661007, -0.0006181296776048839, -0.01168392226099968, -0.00400121696293354, -0.021328547969460487, 0.0038701174780726433, -0.014594954438507557, 0.0027582976035773754, 0.0032689054496586323, -0.01907525025308132, 0.011114925146102905, -0.008165695704519749, 0.0029806406237185, -0.019638650119304657, -0.014675922691822052, -0.01309944223612547, -0.005068629048764706, -0.023536326363682747, -0.006670035887509584, -0.0027142076287418604, 0.006141678895801306, -0.006804490927606821, -0.02357160858809948, -0.009040836244821548, -0.022435052320361137, -0.002047857502475381, -0.00023485379642806947, -0.002976932330057025, -0.012024125084280968, -0.02008303441107273, -0.004834560677409172, 0.00718241510912776, -0.01118385512381792, 0.003705081297084689, -0.003305828431621194, -0.000649779278319329, -0.007320349104702473, 0.0073249451816082, -0.01991223357617855, 0.003206476802006364, -0.0005360431969165802, 0.009126698598265648, -0.005312091205269098, -0.009689529426395893, 0.01545279286801815, 0.001268262043595314, 0.008322738111019135, -0.01566205732524395, -0.012592386454343796, 0.0011537224054336548, -0.02203800342977047, 0.006494099274277687, -0.017621733248233795, -0.01198611967265606, 0.005738250911235809, 0.007469234988093376, -0.013856105506420135, -0.01825784146785736, 0.005657747387886047, -0.00200057215988636, 0.001884586876258254, 0.014078555628657341, 0.0064287083223462105, 0.01665559597313404, -0.009973196312785149, 0.0037922412157058716, -0.0028999298810958862, -0.019843440502882004, 0.014272646978497505, -0.007724016439169645, 0.006625870242714882, -0.010660570114850998, -0.016577223315835, -0.013917787000536919, -0.00496717868372798, 0.017352866008877754, -0.011527849361300468, -0.007938340306282043, -0.004397392272949219, -0.01614321582019329, 0.00504194526001811, -0.021085169166326523, -0.008599494583904743, 0.004986820742487907, 1.1069700121879578e-05, 0.0007628295570611954, -0.019864792004227638, -0.018761709332466125, -0.007575009949505329, -0.017859460785984993, -0.00011065164289902896, -0.00010443923383718356, -0.0128212571144104, -0.016436723992228508, -0.013306858949363232, 0.00720735639333725, -0.0015764553099870682, -0.007927756756544113, -0.016402501612901688, -0.00453195022419095, 0.004469998646527529, -0.0032017333433032036, 0.009383836761116982, 0.011531971395015717, -0.011219487525522709, -0.007722841575741768, -0.013150937855243683, 0.00016443512868136168, 0.010939077474176884, 0.0005002673715353012, 0.011612199246883392, -0.017171602696180344, 0.00476858438923955, -0.01647994853556156, -0.020140690729022026, 0.0012970604002475739, 0.004571227822452784, -0.006131317466497421, 0.002149370964616537, 0.00729928445070982, -0.010312736965715885, 0.0023615071550011635, -0.0175490602850914, 0.014579733833670616, 0.002597922459244728, -0.021664634346961975, -0.012210545130074024, -0.005039786919951439, -0.007641234900802374, 0.0022402964532375336, 0.017127489671111107, -0.013913455419242382, -0.008221886120736599, 0.009525022469460964, 0.001734433462843299, -0.011245083063840866, 0.009281719103455544, -0.011352892965078354, -8.475035429000854e-07, -0.01775895059108734, -0.005616586655378342, -0.014796413481235504, -0.016866933554410934, 0.007379590999335051, 0.002790648490190506, 0.004382627084851265, -0.01228959672152996, 0.01647121272981167, -0.011275196447968483, 0.010401343926787376, 0.01595926843583584, -0.01497475616633892, -0.0022733174264431, -0.002440071664750576, -0.01112135499715805, 0.015570556744933128, 0.0012587737292051315, -0.014008344151079655, -0.010803231969475746, -0.008116590790450573, -0.01150926947593689, -0.015566136687994003, -0.011989660561084747, 0.003371838480234146, 0.017338575795292854, -0.012575430795550346, 0.012877784669399261, -0.01157478615641594, 0.004712758585810661, 0.002804284915328026, 0.016703078523278236, 0.00999605841934681, -0.009877245873212814, 0.0023008398711681366, 0.008191553875803947, -0.0018901396542787552, -0.00802813470363617, -0.011869607493281364, -0.007082339376211166, 0.015820225700736046, -0.01919648051261902, -0.023464147001504898, -0.004068247973918915, -0.0036773704923689365, -0.003206022549420595, 0.002130606211721897, -0.012954331934452057, -0.00046016834676265717, -0.014366278424859047, 0.006435627117753029, -0.0013123267563059926, -0.0038265478797256947, -0.023000173270702362, -0.005512904841452837, 0.0039046723395586014, 0.003591526299715042, 0.01032296847552061, 0.005979201756417751, -0.0017677485011518002, -0.006963323336094618, -0.008442875929176807, 0.0070103369653224945, -0.02047942765057087, -0.018391482532024384, -0.011552573181688786, -0.01585829071700573, -0.003984224516898394, -0.0046516722068190575, -0.007720947265625, -0.013431809842586517, -0.008372603915631771, -0.02244710922241211, 0.0023379544727504253, 0.001819317345507443, -0.011917423456907272, 0.00957566313445568, -0.013956105336546898, 0.003122786059975624, -0.0031233869958668947, -0.004947596229612827, 0.009605953469872475, -0.01538139209151268, -0.001916736364364624, -0.02099584974348545, -0.004609715659171343, -9.22677427297458e-05, -0.006256275810301304, -0.017177347093820572, -0.006683298386633396, 0.005416996777057648, -0.00878175813704729, -0.007246769033372402, -0.0041779219172894955, -0.019233493134379387, -0.015574894845485687, -0.015706373378634453, 0.008989631198346615, -0.008452489972114563, -0.00047492876183241606, -0.008602580055594444, -0.012580976821482182, 0.005594233516603708, 0.00549913989380002, -0.019199006259441376, -0.0011475597275421023, -0.0004410992260091007, -0.00873964000493288, 0.000151431915583089, -0.015667449682950974, -0.009186401963233948, 0.010293739847838879, 0.00929346028715372, -0.017435694113373756, 0.010434667579829693, -0.008672350086271763, -0.015352023765444756, 0.007143912836909294, 0.006101460661739111, -0.01267608255147934, -0.019008712843060493, -0.015582236461341381, -0.0018905613105744123, -0.012921113520860672, -0.021249089390039444, 0.005986629985272884, 0.0057754674926400185, -0.021987054497003555, 0.004338422324508429, 0.0015192570863291621, -0.022175921127200127, 0.009030193090438843, -0.006822798866778612, -0.0002644903725013137, -0.0058228312991559505, -0.00881141982972622, -0.00020188196504022926, -0.016265882179141045, -0.018197687342762947, -0.020877184346318245, -0.01804664358496666, -0.0013588210567831993, -0.015635419636964798, -0.011800496838986874, -0.016216939315199852, -0.009428315795958042, 0.0050144679844379425, 0.0004791188985109329, -0.00328669766895473, -0.00984041579067707, 0.007694818079471588, 0.0026870823930948973, -0.00914525892585516, -0.002736615017056465, -0.012814173474907875, -0.010780426673591137, -0.004219790454953909, 0.01170493196696043, -0.012220610864460468, -0.003089700825512409, -0.01755785197019577, -0.018313022330403328, -0.012280740775167942, 0.00021885721071157604, 0.007364137563854456, -0.011206278577446938, 0.014572395011782646, 0.01735028810799122, 0.006159552372992039, 0.0028833956457674503, -0.004978588782250881, 0.00665426068007946, -0.020514000207185745, 0.008909336291253567, -0.010259841568768024, 0.009616734459996223, 0.010704061947762966, 0.003492499701678753, -0.001365605858154595, -0.013383414596319199, 0.005900053307414055, 0.006966732442378998, -0.01755823940038681, 0.005897365976125002, 0.012570306658744812, 0.013033060356974602, 0.016520893201231956, 0.01309036836028099, -0.008276354521512985, -0.008132201619446278, -0.014234967529773712, 0.008694246411323547, 4.796311259269714e-06, -0.013150403276085854, 0.004269640892744064, 0.00041238777339458466, -0.0018519964069128036, 0.0027901530265808105, -0.01932637020945549, -0.003643212839961052, -0.011887803673744202, -0.008410443551838398, 0.013948632404208183, -0.002166908234357834, 0.009049927815794945, -0.021614504978060722, 0.0010561528615653515, 0.00869942270219326, -0.02199604921042919, -0.0047119855880737305, -0.0036062411963939667, -0.003397551132366061, 0.005009958520531654, -0.007932540029287338, 0.009321954101324081, 0.0006387121975421906, -0.010719570331275463, 0.007881538942456245, -0.0066278474405407906, 0.00027063439483754337, -0.011785075068473816, 0.00559589359909296, 0.0013627130538225174, -0.010471467860043049, -0.006398352794349194, -0.022762170061469078, -0.021208271384239197, -0.00444807531312108, -0.023042142391204834, -0.011595463380217552, -0.0049111079424619675, 0.0009291861206293106, -0.014869374223053455, -0.018090374767780304, -0.0015564690111204982, 0.008242519572377205, -0.017817383632063866, 0.013154568150639534, -0.01596670411527157, -0.017329763621091843, -0.016925906762480736, 0.0038733193650841713, -0.00686985906213522, -0.003827356733381748, 0.0004827285301871598, 0.0023695833515375853, 0.003372201230376959, 0.008066512644290924, -0.020361604169011116, 0.009711957536637783, -0.014027413912117481, -0.010916090570390224, -0.01792033016681671, -0.002275648759678006, -0.006025511305779219, -0.023403014987707138, 0.007680180482566357, 0.009171297773718834, -0.010060393251478672, 0.011584293097257614, -0.02000872790813446, -0.006858993787318468, -0.01562475971877575, -0.018784871324896812, -0.016170848160982132, 0.003577061928808689, -0.010962388478219509, -0.00940596405416727, -0.011856881901621819, -0.007242710795253515, 7.719986024312675e-05, 0.009398390538990498, 0.007305813487619162, -0.00884829368442297, -0.0073711443692445755, -0.010828675702214241, -0.005747136659920216, -0.008293628692626953, -0.002247790340334177, 0.004107953980565071, 0.006093909963965416, 0.00601468188688159, -0.020222265273332596, -0.021487368270754814, -0.011626324616372585, -0.018335163593292236, -0.010494468733668327, -0.0014206698397174478, 0.0014643741305917501, -0.014306509867310524, -0.018641075119376183, -0.018846213817596436, -0.012298006564378738, -0.004126202315092087, 0.004628009628504515, -0.018792646005749702, -0.013571633026003838, 0.004845419432967901, 0.009180103428661823, -0.010427866131067276, -0.006695262156426907, -0.0005291597335599363, 0.001466748770326376, 0.010803471319377422, 0.011601843871176243, -0.020926784723997116, -0.006547500845044851, 0.005435250699520111, 0.005941204261034727, -0.0034267965238541365, -0.021734844893217087, 0.004947541281580925, -0.01612328551709652, -0.007326794788241386, 0.008146258071064949, 0.008900076150894165, -0.022678788751363754, -0.0048354435712099075, 0.0006721187965013087, -0.009118089452385902, 0.009778844192624092, 0.0023413170129060745, -0.013042162172496319, 0.01002355944365263, -0.003210725961253047, -0.015807980671525, -0.004873652942478657, -0.013894744217395782, 0.010456258431077003, -0.02029406651854515, 0.009217597544193268, -0.020833874121308327, -0.010542202740907669, -0.017414094880223274, -0.008221445605158806, 0.014994366094470024, 0.009550032205879688, 0.009678652510046959, -0.005697940476238728, -0.0030529815703630447, -0.007387363351881504, 0.0038137082010507584, 0.006267298012971878, -0.016833478584885597, 0.006863905116915703, 0.010948708280920982, 0.00203043594956398, 0.011099608615040779, -0.01225051749497652, -0.0007881186902523041, 0.002705942839384079, -0.015279042534530163, 0.0017861523665487766, -0.0010683834552764893, -0.0065840305760502815, -0.006080707535147667, -0.015851212665438652, 0.013741565868258476, -0.013243419118225574, 0.013096882030367851, 0.012031259015202522, -0.017855588346719742, -0.007692752406001091, 0.01567441038787365, -0.00142742320895195, -0.0036947475746273994, 0.004928635433316231, -0.012585651129484177, -0.0009161923080682755, -0.002452305518090725, -0.017710890620946884, -0.016837069764733315, -0.00034360907739028335, -0.01061650738120079, 0.001043159980326891, 0.006031259428709745, -0.01218460127711296, -0.007597482763230801, 0.017751915380358696, 0.017793478444218636, 0.005028008949011564, -0.006586173549294472, -0.02374294027686119, -0.006554909981787205, -0.01774534396827221, 0.016923783347010612, -0.00838721264153719, -0.005138269625604153, -0.013222645968198776, 0.0027149487286806107, 0.011163366958498955, 0.000771589286159724, 0.005498029757291079, -0.0018540651071816683, -0.016544856131076813, -0.013289254158735275, -0.02013501152396202, 0.003770938841626048, -0.012319503352046013, 0.009320080280303955, 0.0012504529440775514, -0.0018792407354339957, -0.017429664731025696, -0.018909968435764313, -0.00884406641125679, -0.019002212211489677, 0.0011225859634578228, -0.022604744881391525, -0.008529010228812695, 0.005701578687876463, 0.009698084555566311, 0.011007522232830524, -0.015683503821492195, 0.00833946093916893, -0.0195572841912508, -0.011676491238176823, 0.008505424484610558, -0.006429493427276611, -0.005458456929773092, 0.009036953561007977, 0.006205390673130751, -0.007669175509363413, -0.019169239327311516, 0.002156514674425125, -0.015533871948719025, -0.011694662272930145, -0.006110149435698986, 0.011831220239400864, -0.021303676068782806, -0.008685074746608734, -0.01145330723375082, 0.009287193417549133, 0.007912379689514637, -0.011819872073829174, -0.0079993586987257, 0.010865403339266777, -0.0004895962774753571, 0.010717378929257393, 0.005345331504940987, -0.010001084767282009, -0.019253568723797798, 0.011035112664103508, 0.006544081959873438, 0.003087358782067895, -0.009973229840397835, -0.005567081738263369, 0.010104991495609283, -0.021044936031103134, -0.005076854024082422, 0.011428093537688255, -0.016363462433218956, -0.015179256908595562, -0.022279009222984314, -0.001944230985827744, -0.01409884262830019, 0.0034480211324989796, -0.008881701156497002, 0.0026140075642615557, -0.00021612094133161008, -0.01195359043776989, 0.0007902327342890203, 0.004578587133437395, -0.0034975206945091486, -0.011750330217182636, -0.008935605175793171, -0.00638074753805995, -4.0126127714756876e-05, 0.0020903197582811117, -0.019442783668637276, 0.009847545996308327, -0.01434612087905407, -0.005710959900170565, -0.02166612818837166, 0.010595892556011677, 0.01309259794652462, 0.010983139276504517, -0.00128156878054142, 0.004153867717832327, 0.0006924280896782875, 0.0038588240277022123, -0.02359708771109581, -0.013547327369451523, 0.0052454364486038685, -0.009829174727201462, -0.0043404605239629745, 0.0014870547456666827, 0.006357160862535238, 0.007611414417624474, 0.004014208912849426, 0.011219730600714684, 0.0022145304828882217, -0.008225545287132263, -0.007828401401638985, -0.011473618447780609, 0.008329130709171295, 0.01153700053691864, 0.008934261277318, 0.0011491163168102503, -0.009743459522724152, -0.012138106860220432, -0.0002877775696106255, -0.007864587008953094, -0.013618470169603825, 0.004770796746015549, -0.01406302023679018, -0.011881566606462002, 0.010313237085938454, -0.022612163797020912, 0.010438024997711182, 0.009223253466188908, -0.003963281400501728, 0.00952233001589775, -0.009123798459768295, -0.012025469914078712, 0.0009452425292693079, -0.007817545905709267, 0.009269059635698795, 0.010284056887030602, 0.010308387689292431, -0.0017825444228947163, -0.00439869100227952, 0.006327969022095203, 0.0039883023127913475, -0.01971813477575779, 0.014137787744402885, -0.02219705656170845, -0.021821683272719383, -0.01130954921245575, -0.011432897299528122, 0.0077580735087394714, -0.020367953926324844, 0.001647191122174263, -0.005569013766944408, 0.0023306943476200104, 0.015942050144076347, -0.0002695862203836441, -0.0009589027613401413, 0.002269614255055785, -0.013773828744888306, 0.015460444614291191, -0.016223590821027756, -0.008846438489854336, -0.014336595311760902, 0.011320866644382477, -0.01119242887943983, 0.003095671534538269, 0.010861696675419807, -0.00021469593048095703, 0.002813449129462242, -0.016989579424262047, 0.014158638194203377, -0.010910995304584503, -0.001430172473192215, -0.0057699065655469894, 0.015988292172551155, -0.006239169277250767, 0.0029371343553066254, 0.0033460482954978943, -0.013433573767542839, 0.00038886256515979767, -0.023081643506884575, -0.00201374851167202, -0.002934155985713005, 0.01360861025750637, -0.01669623889029026, 0.008107110857963562, -0.006637826561927795, 0.008028385229408741, 0.0157115887850523, 0.010423144325613976, 0.008716888725757599, 0.002494797110557556, -0.010092996060848236, 0.012387683615088463, -0.022989634424448013, 0.008130718022584915, -0.0036867456510663033, -0.0029294388368725777, -0.01423639990389347, 0.011323558166623116, -0.006209718994796276, 0.017007125541567802, -0.006840717047452927, 0.001337265595793724, -0.002695479430258274, 0.00043588876724243164, -0.0066347550600767136, -0.00904866773635149, 0.011140948161482811, -0.017212992534041405, 0.002964611630886793, -0.009919860400259495, -0.0026732953265309334, -0.023800520226359367, -0.02012067474424839, -0.0026379036717116833, 0.008919754065573215, -0.004646270535886288, -0.007186781149357557, 0.00913708284497261, 0.006935918238013983, -0.017243076115846634, -0.009911464527249336, 0.004170033615082502, 0.00799343828111887, 0.005717542953789234, -0.015510146506130695, 0.005698361434042454, -0.022102616727352142, 0.006941611412912607, -0.004782185889780521, -0.01710047386586666, 0.0029025988187640905, 0.011069840751588345, 0.005748594645410776, -0.0004364053311292082, -0.01924346201121807, -0.002915153279900551, -0.011829132214188576, 0.010048942640423775, -0.004654122982174158, -0.005904004909098148, -0.014847991988062859, 0.010216014459729195, 0.009063060395419598, -0.018812384456396103, -0.000647159933578223, 0.009289882145822048, 0.011317407712340355, -0.0036570781376212835, -0.007070350926369429, -0.0069642458111047745, 0.006816855166107416, 0.001987459836527705, -0.005027250852435827, 0.011575148440897465, -0.0024880915880203247, 0.013386731967329979, -0.021143659949302673, -0.02266375906765461, 0.011087531223893166, 0.0052298083901405334, 0.005217652302235365, 0.008702639490365982, 0.004954626318067312, -0.003265740117058158, -0.0017139827832579613, -0.01358674094080925, 0.009363983757793903, 0.007248632609844208, 0.009084077551960945, -0.013313774019479752, -0.010220559313893318, -0.012162918224930763, 0.00148400804027915, -0.0005102008581161499, -0.014441329054534435, -0.005187392234802246, 0.00550446892157197, 0.0029942451510578394, -0.00012678482744377106, -0.0027504651807248592, 0.01006686594337225, 0.0017472896724939346, 0.017593489959836006, -0.012367963790893555, -0.005876426585018635, -0.012865640223026276, 0.009508317336440086, -0.0029551731422543526, -0.015834249556064606, 0.013348367065191269, -0.0032877326011657715, 0.011011569760739803, -0.014298489317297935, -0.00010036490857601166, -0.01708548702299595, -0.006795896217226982, -0.007796327117830515, -0.007047657854855061, -0.005232207011431456, -0.019183190539479256, -0.019739221781492233, -0.021149052307009697, 0.005680077709257603, -0.015329425223171711, -0.008452690206468105, -0.0229777954518795, -0.0158969908952713, -0.0018619466572999954, -0.017395731061697006, 0.0015383047284558415, -0.010148495435714722, -0.005687507800757885, -0.004858021624386311, -0.02317977510392666, 0.015813617035746574, 0.0032854974269866943, -0.020947137847542763, 0.00309845432639122, -0.009401153773069382, -0.020119743421673775, -0.019811710342764854, 0.009972969070076942, 0.00252685509622097, -0.02114791050553322, -0.01700860820710659, 0.011630221270024776, -0.002768523758277297, -0.002975140931084752, 0.003191704396158457, 0.0009270544396713376, 0.004317069426178932, 0.016696030274033546, -0.010621296241879463, -0.017788322642445564, -0.002110730390995741, -0.0094060730189085, -0.005638036411255598, -0.0039112381637096405, 0.015649637207388878, -0.010464562103152275, -0.01796170510351658, 0.0032098537776619196, -0.005983254872262478, -0.0024009114131331444, 0.0008928161114454269, -0.005832755006849766, -0.0007465984672307968, -0.016223937273025513, -0.011746562086045742, -0.012377222068607807, -0.011809282004833221, -0.00039254315197467804, -0.0067113954573869705, 0.008907688781619072, -0.0004357928119134158, -0.019073018804192543, 0.0030137926805764437, -0.016259847208857536, 0.00984832365065813, -0.017041459679603577, 0.0077901724725961685, -0.020435620099306107, -0.012444998137652874, -0.007166165858507156, -0.002500215545296669, 0.0031277441885322332, -4.54094260931015e-05, -0.015695318579673767, -0.022617338225245476, 0.009485702961683273, -0.003816158277913928, -0.011607320979237556, 0.00012945335765834898, -0.015589357353746891, 0.009312422946095467, 0.0008984904852695763, -0.0015073316171765327, 0.008389810100197792, -0.014854276552796364, -0.007734597660601139, 0.007755471393465996, -0.021587463095784187, 0.011274647898972034, 0.00490337610244751, -0.004404367413371801, -0.007075542118400335, -0.00449200626462698, 0.0041567981243133545, -0.022068794816732407, 0.009897768497467041, -0.00910940021276474, 0.003963534254580736, -0.021064531058073044, -0.00958864577114582, 0.0046838801354169846, -0.008756072260439396, 0.0002922000421676785, -0.01919243298470974, 0.0006558354943990707, 0.0019913334399461746, -0.017725784331560135, 0.0024297256022691727, -0.004650282673537731, -0.011585742235183716, -0.015392887406051159, -0.00781904999166727, -0.01481238566339016, 0.008212280459702015, 0.003707127645611763, -0.011947877705097198, -0.015549757517874241, -0.019742758944630623, -0.0196718517690897, -0.004209746140986681, -0.009452952072024345, -0.011851783841848373, 0.00690435990691185, -0.010449613444507122, -0.022190526127815247, -0.0016279618721455336, 0.0010408662492409348, 0.01614048145711422, 0.015700416639447212, 0.003920841030776501, 0.00446025375276804, 0.006856163498014212, -0.00668687280267477, -0.0022015846334397793, -0.007345282472670078, -0.017371132969856262, -0.00019051357230637223, -0.0008103790460154414, 0.005572495050728321, -0.0032549439929425716, -0.0027535592671483755, -0.023074980825185776, -0.014525320380926132, 0.007691459264606237, 0.006611532531678677, -0.0009382449206896126, -0.0171965342015028, -0.022731943055987358, -0.010807250626385212, 0.005343599244952202, -0.002386384643614292, 0.007359817624092102, -0.015017152763903141, -0.009643208235502243, -0.013411778025329113, -0.007039356045424938, 0.001749953255057335, -0.02134016528725624, 0.011458051390945911, 0.0006762018310837448, 0.011586299166083336, 0.007786700502038002, 0.0025900022592395544, -0.02009917050600052, 0.011203777976334095, -0.011187066324055195, -0.014598960988223553, -0.0006205174722708762, -0.0013838112354278564, -0.02131846360862255, -0.02339307777583599, 0.0001349880767520517, 0.0077946544624865055, 0.008317967876791954, 0.010071208700537682, 0.011801067739725113, -0.02384878508746624, -0.012377511709928513, -0.002568840980529785, -0.0020504349377006292, 0.011311512440443039, -0.010465750470757484, 0.0015346129657700658, -0.003300073556602001, -0.0024192382115870714, -0.008538031950592995, -0.020487740635871887, -0.01229463517665863, -0.011495224200189114, -0.00817551277577877, -0.01831059530377388, -0.020928209647536278, -0.007452111225575209, -0.011597651988267899, -0.00814224686473608, -0.009761459194123745, -0.0022540134377777576, -0.00899665616452694, -0.014370129443705082, -0.018259523436427116, 0.0017837613122537732, -0.010620669461786747, 0.004977734759449959, 0.004923922475427389, -0.015497630462050438, -0.011003820225596428, 0.009090187959372997, -0.005463155917823315, -0.014495295472443104, 8.15696912468411e-05, -0.019255654886364937, 0.009695127606391907, 0.005947017576545477, -0.0020841839723289013, 0.0064549692906439304, -0.009003622457385063, -0.020837372168898582, -0.01311646867543459, -0.004717000760138035, -0.017835179343819618, 0.0037479796446859837, -0.021598635241389275, -0.023019960150122643, -0.008268308825790882, -0.012428819201886654, -0.013087047263979912, 0.0029815840534865856, -0.01738843321800232, 0.009801615960896015, -0.0103107038885355, -0.009469063021242619, -0.019213294610381126, -0.01778401806950569, 0.007261567283421755, -0.013069167733192444, 0.0015557100996375084, -0.01564219780266285, 0.0076271467842161655, -0.005508746486157179, -0.005165383219718933, -0.021286826580762863, -0.014273853041231632, 0.008849019184708595, -0.0030379730742424726, -0.018879443407058716, -0.011682006530463696, 0.008841977454721928, 0.006195817608386278, -0.0009447737247683108, -0.004452334251254797, -0.007308116648346186, 0.011798638850450516, -0.005329451523721218, -0.014899150468409061, -0.008254630491137505, -0.005748999770730734, -0.017155783250927925, -0.020350473001599312, 0.006102702114731073, -0.008290198631584644, -0.01679138094186783, -0.015448711812496185, -0.0015529684023931623, -0.005423492286354303, -0.004384074825793505, 0.0007055792375467718, -0.019462771713733673, -0.018717564642429352, 0.004908319562673569, 0.0034622440580278635, 0.011262514628469944, 0.0005121632711961865, -0.009540436789393425, -0.01760069653391838, -0.004787031095474958, -0.023101236671209335, -0.005749177187681198, 0.010382573120296001, -0.0009651382570154965, -0.002514408901333809, -0.011145819909870625, 0.011765689589083195, 4.6223620302043855e-05, -0.02059507742524147, 0.007445486728101969, 0.014362288638949394, -0.020750097930431366, -0.009879195131361485, -0.013469529338181019, 0.0005120234563946724, -0.014511622488498688, 0.010958409868180752, -0.006895352620631456, 0.007427433505654335, 0.006837546359747648, -0.00479664234444499, -0.016707779839634895, 0.005029426421970129, -0.0020583574660122395, 0.008726327680051327, -0.00099531514570117, -0.02374860644340515, -0.021182648837566376, -0.016932623460888863, 0.008115893229842186, 0.006728975102305412, 0.0056662182323634624, -0.017809681594371796, -0.013736044056713581, -0.008100166916847229, 0.009905826300382614, -0.0041715470142662525, 0.008169913664460182, -0.0236820001155138, 0.0046895830892026424, -0.01796015538275242, -0.02011096104979515, 0.0020675030536949635, 0.007426840253174305, 0.0003720326640177518, 0.007003425620496273, -0.0009621464996598661, -0.009636576287448406, -0.0014864332042634487, -0.00978563167154789, -0.002496523316949606, 0.006296572275459766, -0.01685633510351181, 0.002131878165528178, -0.019157372415065765, -0.015957580879330635, 0.002932066097855568, -0.006939876824617386, 0.010328726842999458, -0.007276233751326799, -0.005319465883076191, -0.011744847521185875, -0.004461846314370632, -0.00526875676587224, 0.0006918656872585416, -0.018445778638124466, -0.006120884325355291, 0.011929254978895187, 0.004147485829889774, -0.019334038719534874, -0.018720071762800217, -8.253865416918416e-06, 0.006303723901510239, -0.010831860825419426, -0.023519333451986313, -0.002042869571596384, 0.005063490476459265], "bias": -0.0007347695645876229}