{"layer": "fc1", "index": 28, "weights": [-0.003239184385165572, -0.0337635837495327, -0.09263692796230316, -0.11934548616409302, -0.0037009825464338064, 0.09446936100721359, 0.03131750226020813, -0.026161624118685722, 0.005034389439970255, -0.02894611284136772, -0.016472071409225464, -0.08031158149242401, -0.049934022128582, -0.018846923485398293, -0.05546225979924202, -0.011900223791599274, 0.07861796766519547, 0.07233806699514389, -0.06234488636255264, 0.057099223136901855, 0.03997321054339409, -0.02912233956158161, -0.06991181522607803, 0.03082587756216526, -0.023657307028770447, 0.031043818220496178, 0.08111420273780823, 0.016557766124606133, 0.01762893609702587, -0.031249187886714935, 0.05551615729928017, -0.011711930856108665, -0.0024945707991719246, -0.03088851273059845, -0.01952589489519596, 0.004230288323014975, 0.00882682017982006, 0.0313754677772522, -0.04259303957223892, 0.0415513776242733, 0.011260473169386387, 0.016533328220248222, 0.00017961670528165996, -0.023260364308953285, 0.06578238308429718, 0.02916460856795311, -0.007847764529287815, 0.030272221192717552, 0.03469524905085564, -0.007146631367504597, 0.005079422611743212, -0.011736666783690453, -0.006909896619617939, -0.024341978132724762, -0.037607405334711075, 0.004371266812086105, -0.00890439748764038, 0.022878548130393028, -0.03863341733813286, -0.025856824591755867, 0.0025072975549846888, 0.0017744540236890316, -0.0010867014061659575, 0.024075398221611977, 0.04083182290196419, 0.028936831280589104, 0.020247211679816246, -0.03260942921042442, 0.004555531777441502, 0.013654818758368492, 0.02335803024470806, -0.01785225234925747, -0.002750963671132922, -0.030238227918744087, -0.03490827605128288, -0.001588475308381021, 0.01033088006079197, 0.012019671499729156, -0.024748103693127632, -0.02419821359217167, -0.007138143293559551, -0.006998162716627121, 0.0020800698548555374, 0.0034049642272293568, 0.02194223180413246, 0.05189409852027893, 0.010309142991900444, 0.03925523906946182, 0.010534911416471004, -0.020168256014585495, 0.024299833923578262, -0.011338384822010994, 0.011436957865953445, -0.002676628762856126, 0.02541588619351387, -0.0050058006308972836, 0.01108335331082344, -0.009370534680783749, 0.004547784570604563, 0.04008042812347412, -0.03426993265748024, -0.03582770749926567, -0.056621208786964417, -0.018537800759077072, -0.013024027459323406, 0.039001885801553726, 0.05307714268565178, 0.0851600244641304, 0.05196595937013626, -0.0255401860922575, 0.014101852662861347, -0.0068783811293542385, -0.030677281320095062, 0.04538485035300255, -0.04539835825562477, -0.02779356949031353, -0.09749847650527954, -0.020707733929157257, 0.032372791320085526, 0.036595020443201065, 0.04839916527271271, 0.011284823529422283, 0.01379169337451458, -0.08768504112958908, 0.010199571028351784, -0.03886910155415535, -0.033022452145814896, 0.019030986353754997, 0.0673980861902237, -0.10403034836053848, 0.05417613312602043, 0.017862673848867416, 0.022296935319900513, 0.018928367644548416, -0.10371143370866776, 0.0002170592633774504, 0.0355570986866951, 0.00026797360624186695, -0.012183071114122868, 0.01033313013613224, 0.027584630995988846, -0.028126416727900505, 0.10100261121988297, 0.0003120252804365009, -0.07114728540182114, -0.01328401267528534, -0.02006867341697216, -0.00397263141348958, -0.018905876204371452, -0.043564338237047195, -0.07108364254236221, -0.005099124275147915, -0.0379456952214241, -0.01796608790755272, -0.012415659613907337, 0.07916098088026047, -0.028486689552664757, -0.07168271392583847, -0.09120701253414154, 0.07221584022045135, 0.05301672965288162, -0.08506380021572113, 0.0046678404323756695, 0.05481436848640442, -0.013551664538681507, 0.06882168352603912, 0.046550825238227844, 0.012560735456645489, -0.012510036118328571, 0.16732580959796906, 0.14578108489513397, 0.11422985792160034, -0.012369915843009949, -0.04116949066519737, 0.05203704163432121, -0.027025748044252396, 0.09198219329118729, 0.041237667202949524, -0.06389490514993668, -0.045433174818754196, 0.023968378081917763, 0.009798849001526833, 0.004670759662985802, -0.03218066692352295, -0.04982304573059082, -0.001616941997781396, -0.044929537922143936, -0.07243094593286514, -0.0477449931204319, -0.04276200383901596, -0.08522601425647736, 0.018236126750707626, -0.01962427981197834, -0.05954499915242195, -0.07493741810321808, 0.009599858894944191, -0.008004323579370975, -0.009573196992278099, -0.014150497503578663, -0.01117759570479393, -0.0026723830960690975, -0.021889321506023407, -0.013060642406344414, 0.008348621428012848, -0.004110414534807205, 0.009823989123106003, -0.00866415724158287, 0.01544593833386898, -0.02501397207379341, -0.00945338699966669, 0.02064833976328373, 0.09381981194019318, 0.06417907774448395, 0.03204711899161339, 0.010327248834073544, 0.04523676261305809, 0.02603699266910553, 0.012014530599117279, 0.007175131235271692, 0.01620454341173172, -0.04390311241149902, -0.025186454877257347, -0.005665569566190243, -0.00518408976495266, -0.014378007501363754, -0.009807957336306572, -0.012139474973082542, -0.061643585562705994, 0.00968960952013731, 0.0135143231600523, 0.03395053744316101, 0.003347027814015746, 0.06616632640361786, -0.010710136964917183, 0.004325078800320625, 0.04193853214383125, -0.03271679952740669, 0.0003661076771095395, -0.0012175397714599967, 0.021166395395994186, -0.003953089471906424, 0.022821106016635895, 0.009881462901830673, 0.009333479218184948, -0.02263026311993599, 0.000657313852570951, -0.047808654606342316, -0.021350432187318802, -0.04165500029921532, 0.0095682293176651, -0.06385450065135956, -0.01709219068288803, 0.054295144975185394, 0.02521032653748989, 0.035500600934028625, 0.04343761131167412, -0.047307755798101425, 0.002040461404249072, 0.08620062470436096, 0.07969902455806732, -0.04358229786157608, -0.04167282581329346, -0.02082465961575508, -0.06069942191243172, -0.07426510751247406, -0.0055354260839521885, -0.022300932556390762, 0.08613139390945435, 0.031684357672929764, 0.01925833337008953, -0.029868680983781815, -0.02476033940911293, -0.07460849732160568, -0.0245502982288599, -0.01701545901596546, 0.09058773517608643, 0.03782821074128151, -0.021287620067596436, -0.026419684290885925, 0.04896438121795654, -0.009972814470529556, 0.016867000609636307, -0.029719430953264236, -0.06954240798950195, -0.009965134784579277, -0.048022784292697906, 0.007610070984810591, 0.01299379114061594, -0.01860181987285614, 0.006163724232465029, -0.05973191186785698, 0.016620974987745285, 0.01268034242093563, -0.021213069558143616, -0.00249523320235312, 0.002665891544893384, -0.025936290621757507, 0.005923622287809849, -0.02719266526401043, -0.020173298195004463, -0.005150808021426201, -0.0024163490161299706, 0.028971655294299126, 0.02836824394762516, 0.0011214406695216894, 0.031215155497193336, 0.0010318455751985312, 0.01853856071829796, 0.004796759225428104, -0.0015895033720880747, -0.04309641942381859, -0.04533333703875542, -0.012943168170750141, 0.014486250467598438, 0.020821310579776764, -0.006637664046138525, -0.053130511194467545, 0.024480685591697693, 0.03472770377993584, -0.0013735033571720123, -0.050098955631256104, 0.05625174567103386, -0.002215954475104809, -0.018227634951472282, -0.011162233538925648, 0.03131059557199478, 0.041102878749370575, -0.059928178787231445, 0.03670047968626022, -0.005546054802834988, 0.033070169389247894, -0.015774758532643318, 0.032272856682538986, 0.039815615862607956, -0.02505584992468357, 0.02783757820725441, -0.014681657776236534, 0.014968596398830414, -0.011611930094659328, 0.025580551475286484, -0.025466952472925186, 0.019561847671866417, -0.017663292586803436, -0.00464229378849268, 0.008315951563417912, 0.0019932249560952187, -0.03194795176386833, -0.03568243235349655, -0.029545553028583527, 0.004046304151415825, -0.011827784590423107, 0.033986110240221024, -0.035516731441020966, 0.002403632504865527, -0.05153171718120575, 0.0076453797519207, 0.003711824305355549, 0.00461950758472085, 0.0006942430045455694, 0.10501591861248016, 0.06606203317642212, -0.01251834724098444, 0.012710724957287312, -0.0077309804037213326, -0.041463062167167664, -0.0008175659459084272, 0.0628310889005661, 0.012393948622047901, 0.04048352316021919, 0.015838995575904846, 0.04003380984067917, -0.023423781618475914, 0.007120560389012098, -0.030489817261695862, -0.04343592748045921, -0.06344244629144669, -0.034250207245349884, 0.04038364440202713, 0.033255867660045624, -0.007334572728723288, -0.03817588463425636, -0.04061812907457352, 0.0010026106610894203, -0.01929636485874653, -0.017398690804839134, 0.006081009283661842, 0.0005650859675370157, -0.053094565868377686, -0.002737731207162142, 0.009279422461986542, -0.03422713652253151, -0.009991521947085857, 0.001431465381756425, -0.009380731731653214, -0.013835806399583817, -0.011952015571296215, 0.028634263202548027, 0.0064302305690944195, 0.00682606128975749, -0.0013323253951966763, -0.006993894465267658, 0.049693524837493896, 0.011130697093904018, 0.011424441821873188, 0.01824992150068283, -0.032568879425525665, 0.015798794105648994, 0.016887865960597992, 0.0013756973203271627, -0.02763182297348976, 0.0177778173238039, 0.06336939334869385, 0.04474174231290817, 0.0015450320206582546, 0.000783866154961288, -0.012200403027236462, -0.01031202357262373, -0.03225548192858696, -0.10080395638942719, 0.039289429783821106, 0.027546435594558716, -0.03498328477144241, -0.0060857436619699, 0.03452500328421593, -0.03803237900137901, -0.02651437744498253, 0.04623771086335182, 0.04509744048118591, 0.016827767714858055, 0.009543386287987232, 0.03830469399690628, -0.018572647124528885, -0.09449537843465805, 0.02359929122030735, 0.006672402378171682, -0.0009391378262080252, 0.019640035927295685, 0.043549370020627975, -4.76528330182191e-05, 0.012849347665905952, 0.04887036606669426, 0.018553124740719795, 0.009696509689092636, -0.012602602131664753, -0.008045908994972706, -0.027456197887659073, -0.022324029356241226, -0.016582779586315155, -0.0008156465482898057, -0.0051871477626264095, -0.06571643054485321, -0.06517455726861954, -0.0295010544359684, 0.014195006340742111, 0.01856587454676628, -0.002020422834903002, -0.021148914471268654, 0.06237512826919556, 0.034618303179740906, -0.024750428274273872, 0.018141668289899826, 0.0314200259745121, 0.02029789425432682, 0.010487101040780544, 0.1042478084564209, 0.09654024243354797, -0.017825020477175713, 0.006695223972201347, 0.020984448492527008, -0.0004515803884714842, -0.01064078789204359, -0.01097802072763443, -0.03247740492224693, -0.013841607607901096, -0.03991193324327469, 0.03526537865400314, -0.0028192363679409027, -0.013549053110182285, -0.0565328523516655, -0.011493675410747528, -0.021677512675523758, 0.028248798102140427, 6.737559306202456e-05, -0.0073423972353339195, -0.03256163373589516, -0.019149266183376312, 0.024137867614626884, 0.024671826511621475, -0.00855979137122631, 0.007316436618566513, -0.005302082747220993, -0.010539216920733452, 0.005913534667342901, -0.03754940629005432, -0.00337937381118536, -0.013921870850026608, -0.004504197742789984, 0.027261383831501007, -0.008952436037361622, 0.03737262636423111, 0.07360604405403137, 0.04865128919482231, 0.044124454259872437, -0.0034992420114576817, -0.00048642768524587154, -0.04066179320216179, 0.003339500166475773, -0.00912900548428297, 0.03324434533715248, -0.007522281724959612, 0.09989089518785477, -0.013217858970165253, -0.06415670365095139, -0.012238063849508762, -0.010965325869619846, -0.03115740790963173, 0.03432783484458923, -0.007503223139792681, 0.03458234667778015, -0.033952746540308, 0.02268730103969574, 0.006768051069229841, 0.005765625741332769, -0.0623105950653553, 0.03365321084856987, 0.02545217052102089, -0.00988282635807991, 0.049788881093263626, 0.022765688598155975, 0.03013480268418789, -0.04731743782758713, 0.021729666739702225, -0.010793190449476242, 0.020199749618768692, -0.01431274227797985, 0.0034256421495229006, 0.07189767807722092, 0.05987563356757164, -0.0031107778195291758, 0.011273311451077461, 0.08007464557886124, -0.07852230221033096, -0.054406680166721344, -0.009076747111976147, 0.03406534716486931, 0.019965192303061485, 0.06710906326770782, 0.021409763023257256, 0.06077446788549423, -0.01660831831395626, -0.13182824850082397, 0.005776616279035807, 0.03285225108265877, -0.07828755676746368, -0.024041658267378807, -0.05993201956152916, -0.06815049052238464, -0.07305455207824707, 0.06234503537416458, 0.03826906532049179, 0.017807696014642715, 0.1657073199748993, 0.02121911197900772, 0.04796705022454262, 0.057334333658218384, 0.002197605324909091, 0.02410995028913021, -0.06060224398970604, 0.029266897588968277, 0.11276593804359436, -0.008142618462443352, 0.03181952238082886, -0.009487571194767952, 0.04941916838288307, -0.05473883077502251, -0.05370745435357094, -0.02004263363778591, -0.012898117303848267, 0.05289816856384277, -0.04134266451001167, -0.0754501223564148, 0.04907091334462166, -0.040473371744155884, -0.05310054495930672, -0.01400025188922882, 0.03686932101845741, 0.020934175699949265, 0.004330791998654604, -0.0009351474582217634, -0.007046539336442947, -0.01619383506476879, 0.0006104786298237741, -0.018716935068368912, -0.02489083632826805, 0.022022854536771774, 0.0448022224009037, 0.015100013464689255, 0.014458389021456242, -0.1740243285894394, -0.16912557184696198, 0.024972662329673767, 0.04144692048430443, -0.04579964652657509, -0.052625760436058044, -0.054663293063640594, -0.10066664963960648, -0.010399156250059605, 0.013508487492799759, 0.04583610221743584, -0.01765277422964573, 0.0032539423555135727, 0.13832999765872955, 0.10210785269737244, 0.039668988436460495, -0.05062087997794151, -0.007472740486264229, 0.0026834842283278704, 0.08301898837089539, 0.17043614387512207, 0.0350022055208683, 0.03108774684369564, -0.025501858443021774, -0.0005429402808658779, 0.00468834675848484, -0.009554651565849781, 0.04027105122804642, 0.003769088536500931, 0.035118404775857925, -0.05414529889822006, -0.016986915841698647, -0.0029558162204921246, 0.04649170860648155, -0.14794503152370453, 0.01757129468023777, 0.03517558425664902, -0.00037668351433239877, -0.044604744762182236, -0.008748386055231094, -0.012224019505083561, -0.018956173211336136, -0.023598717525601387, -0.02194925956428051, -0.009962628595530987, -0.0014762745704501867, -0.0009970760438591242, 0.028584599494934082, -0.004404472187161446, -0.023844823241233826, 0.02493760921061039, 0.0031492765992879868, -0.030154133215546608, 0.041236355900764465, -0.012525969184935093, -0.004278583452105522, 0.01499975472688675, 0.01908072456717491, 0.01970948465168476, 0.032804347574710846, -0.02856035903096199, -0.02316976524889469, -0.0019378913566470146, 0.004193700850009918, -0.048807963728904724, -0.024112435057759285, 0.003705032169818878, 0.025158440694212914, -0.019605999812483788, -0.013729571364820004, -0.025670651346445084, 0.007690993137657642, -0.0028656437061727047, 0.005405081436038017, 0.0024769282899796963, 0.047703374177217484, 0.006668334361165762, -0.006570226512849331, 0.018931500613689423, 0.0007089730352163315, 0.02271876111626625, 0.0065265558660030365, -0.010557952336966991, 0.002440884942188859, 0.0241585373878479, 0.004187253303825855, 0.011783823370933533, -0.00693150982260704, -0.015207312069833279, -0.00805552490055561, -0.00937353353947401, -0.07148613035678864, -0.05330600589513779, -0.06659410893917084, 0.06441797316074371, 0.03231004998087883, 0.06481453031301498, -0.027072932571172714, -0.15030156075954437, -0.16142508387565613, 0.03642641380429268, 0.05718044191598892, -0.011765844188630581, 0.05533371865749359, -0.011749646626412868, 0.028295326977968216, -0.07273616641759872, 0.04013240709900856, -0.008081743493676186, -0.021086709573864937, 0.03376694768667221, 0.020846495404839516, 0.023934215307235718, -0.043250955641269684, -0.06627306342124939, -0.018983954563736916, -0.008313395082950592, -0.004899958148598671, 0.03312377631664276, 0.001970927929505706, 0.021279137581586838, 0.02799173630774021, 0.014793469570577145, 0.037314847111701965, 0.015174425207078457, 0.04562946408987045, 0.06762903183698654, 0.0707307681441307, 0.0051880800165236, -0.07072486728429794, 0.00015602070197928697, 0.030593937262892723, 0.042801786214113235, 0.0075909895822405815, -0.02456717938184738, 0.010157138109207153, 0.011906258761882782, 0.0025227877777069807, 0.012848186306655407, -0.000634262221865356, -0.0643150582909584, -0.03997497260570526, -0.022210106253623962, 0.008396818302571774, 0.0120987044647336, 0.05466035380959511, -0.006776873022317886, -0.09660232067108154, 0.0267878957092762, 0.0830276682972908, 0.016599414870142937, -0.03871595486998558, -0.03212828189134598, 0.030287807807326317, -0.08522003889083862, 0.001341325812973082, 0.04478253796696663, 0.09126471728086472, 0.001634981599636376, -0.02048853226006031, -0.0641748234629631, 0.02529626339673996, 0.022174015641212463, 0.0429343618452549, 0.04070122539997101, -0.023168491199612617, 0.003113228129222989, -0.05816242843866348, 0.04833534359931946, 0.007426809053868055, 0.003887282684445381, 0.01969410851597786, 0.04010787978768349, -0.009016050957143307, -0.05810899659991264, 0.04813605919480324, -7.572754111606628e-05, -0.027090072631835938, -0.012360744178295135, -0.040589697659015656, -0.05771428719162941, 0.015898514539003372, -0.00595950148999691, -0.009996592067182064, 0.0030582910403609276, -0.018170883879065514, -0.007178645581007004, -0.0028500426560640335, 0.01222363393753767, 0.011765803210437298, -0.00692403269931674, -0.014205971732735634, -0.013653130270540714, -0.013567411340773106, 0.030034814029932022, 0.09589462727308273, 0.10599489510059357, 0.00455792061984539, -0.026790225878357887, 0.010245954617857933, 0.060143448412418365, 0.1070270910859108, 0.049527741968631744, 0.07891005277633667, 0.07512044161558151, 0.06276477128267288, 0.05248808115720749, -0.04986880347132683, -0.04331861808896065, -0.04533778876066208, -0.08798211812973022, -0.06809449940919876, -0.03957785665988922, -0.03409631550312042, 0.006283045280724764, -0.024725139141082764, -0.03786410763859749, -0.02261512540280819, -0.036049142479896545, -0.026911593973636627, 6.401629070751369e-05, 0.010688451118767262, -0.061276696622371674, 0.0006945524364709854, -0.0004318406863603741, -0.05252907797694206, -0.043693654239177704, 0.0009140160982497036, -0.013510672375559807, -0.02242320589721203, -0.009085419587790966, 0.03462318331003189, 0.012171792797744274, 0.06312957406044006, -0.014167692512273788, -0.016899030655622482, -0.012498327530920506, -0.024539867416024208, -0.05150973051786423, -0.02769564650952816, -0.04958605766296387, 0.01168706826865673, 0.06501424312591553, 0.07016467303037643, 0.078884057700634, 0.09900159388780594, 0.04748454689979553, 0.021455075591802597, 0.06864769011735916, -0.011357397772371769, 0.02629692666232586, 0.021564047783613205, 0.04449240863323212, 0.007566698826849461, -0.005472792312502861, 0.03756088390946388, 0.02164432965219021, 0.05797094851732254, -0.031454380601644516, -0.01918858103454113, -0.017653921619057655, -0.05391499772667885, -0.014594277366995811, -0.021725311875343323, 0.017769955098628998, 0.006889805663377047, 0.044129569083452225, 0.01703765243291855, -0.005203259643167257, -0.048942599445581436, 0.009999783709645271, -0.17902185022830963, -0.017629578709602356, 0.0319303460419178, -0.0037333567161113024, 0.03435349091887474, 0.01615765690803528, -0.0035574641078710556, -0.01723412610590458, 0.019069330766797066, -0.1593862920999527, -0.004764273762702942, 0.04215025156736374, -0.022925181314349174, 0.0036202990449965, -0.017314312979578972, -0.014997106976807117, -0.03249150142073631, -0.03518674522638321, 0.0057187769562006, 0.0043775723315775394, -0.003443014109507203, 0.028953492641448975, -0.007588042877614498, 0.009865284897387028, -0.058050788938999176, -0.03182722255587578, 0.021585213020443916, -0.027274256572127342, 0.028132714331150055, 0.0028667557053267956, 0.03101719729602337, -0.05237123742699623, 0.0623084157705307, -0.004689183551818132, -0.03394034877419472, -0.009060116484761238, 0.024443689733743668, 0.0058502801693975925, 0.009482275694608688, 0.020205529406666756, 0.0818304494023323, 0.010568268597126007, -0.023641983047127724, 0.03022122010588646, 0.005762046203017235, -0.03704115003347397, -0.055786725133657455, -0.02343294955790043, 0.03716529905796051, 0.0065197874791920185, 0.015932798385620117, 0.007088546175509691, -0.08022638410329819, 0.003267828607931733, 0.01768266223371029, -0.005896608345210552, 0.003844094229862094, 0.026645991951227188, 0.010950366035103798, -0.012857945635914803, 0.009531665593385696, 0.0028641337994486094, -0.02458244375884533, -0.004323262721300125, -0.06371099501848221, -0.04433593526482582, 0.013184267096221447, 0.002189822494983673, -0.023480989038944244, 0.046436112374067307, 0.10358422249555588, 0.01863536424934864, 0.003871848341077566, 0.046996597200632095, 0.03230411186814308, -0.0032612779177725315, -0.07390055805444717, -0.03554842993617058, 0.01951451785862446, -0.02983037196099758, -0.023891955614089966, 0.023679219186306, 0.005347015336155891, 0.009099254384636879, -0.0337335430085659, 0.045188840478658676, -0.05684228986501694, -0.0678962841629982, 0.05401414632797241, 0.024052275344729424, -0.0198497474193573, 0.03356262296438217, -0.01856699027121067, -0.07295721024274826, 0.058490339666604996, 0.00020044721895828843, 0.005902676843106747, -0.0061426726169884205, -0.12394494563341141, 0.031174851581454277, -0.011622670106589794, 0.032072026282548904, 0.029437033459544182, -0.02090146392583847, -0.10290218889713287, -0.008041998371481895, 0.025161614641547203, 0.025198694318532944, -0.04422252997756004, 0.006241568364202976, 0.006070578470826149, 0.009017819538712502, -0.003426439594477415, -0.0006606485112570226, -0.008266175165772438, 0.00873017217963934, -0.01300198957324028, -0.013688824139535427, 0.011705752462148666, 0.030171941965818405, -0.04369300603866577, -0.04147641733288765, 0.029739463701844215, -0.003601185278967023, 0.0005480627878569067, 0.004810825921595097, 0.09645587205886841, 0.05705862119793892, 0.00447734072804451, 0.01890525408089161, -0.06039037927985191, 0.02675601653754711, 0.016675207763910294, 0.09905353933572769, 0.11110582947731018, -0.0001712697558104992, 0.036237072199583054, -0.002065830398350954, 0.07501006871461868, -0.0511179193854332, -0.03816494345664978, -0.015180431306362152, -0.1669199913740158, -0.1136617362499237, -0.03305009379982948, -0.0023952126502990723, -0.01625802554190159, -0.06436679512262344, -0.019169101491570473, 0.001658322406001389, -0.03629045560956001, -0.03791496530175209, -0.004319150932133198, 0.027933889999985695, -0.04734061658382416, 0.02479354478418827, 0.013140659779310226, -0.0285960603505373, -0.05205307900905609, 0.024987343698740005, -0.005459827370941639, -0.006995316594839096, -0.077123261988163, -0.07887500524520874, -0.0305684395134449, -0.02617982216179371, 0.002377597615122795, 0.036294322460889816, 0.02272454835474491, -0.004507455043494701, -0.02725761942565441, -0.06271307170391083, -0.0029292553663253784, -0.01005152054131031, -0.024390265345573425, 0.00579450000077486, 0.046355292201042175, -0.035611700266599655, 0.021744346246123314, -0.013553932309150696, 0.12506185472011566, -3.0287299523479305e-05, -0.0511627160012722, 0.026019804179668427, 0.06885944306850433, -0.002691487083211541, 0.013307728804647923, 0.028208760544657707, 0.03634018078446388, 0.004845828283578157, -0.04263465106487274, 0.04169634357094765, 0.00761233689263463, -0.05483202636241913, -0.009142450988292694, -0.006014162674546242, -0.014767141081392765, 0.042487870901823044, 0.05463758111000061, 0.06919489055871964, 0.01189118530601263, 0.002995336428284645, 0.00504313362762332, 0.026434248313307762, -0.052000850439071655, 0.04265502095222473, -0.042348332703113556, 0.028056425973773003, 0.0077145821414887905, -0.012140893377363682, -0.005855319555848837, -0.023457899689674377, -0.022736510261893272, -0.010101016610860825, 0.003941607661545277, 0.031692828983068466, 0.06271325796842575, 0.05123606324195862, 0.08259718120098114, 0.04136166721582413, 0.0063180080614984035, 0.031855423003435135, 0.021907906979322433, 0.033109281212091446, 0.011430014856159687, 0.029339231550693512, 0.04948217049241066, 0.006426022853702307, 0.017514599487185478, 0.07204528898000717, -0.03799731656908989, -0.00016373115067835897, -0.04295811429619789, -0.1256323605775833, -0.08070134371519089, -0.013616356067359447, -0.015839597210288048, 0.0074802422896027565, 0.01934417523443699, -0.005975065752863884, -0.009442983195185661, -0.00561002641916275, -0.03378831222653389, -0.0462128110229969, 0.0219572801142931, -0.10222959518432617, -0.08418895304203033, -0.06924597918987274, -0.04372747987508774, -0.014561527408659458, 0.0300759244710207, -0.02840244024991989, -0.04943608120083809, 0.004250785335898399, 0.015146305784583092, -0.03869395703077316, 0.08133962750434875, 0.0012362961424514651, -0.03035028837621212, -0.02180018462240696, 0.0019047122914344072, -0.03614652529358864, -0.0232216939330101, -0.02289166860282421, 0.009165468625724316, 0.00576502550393343, 0.023088129237294197, -0.009953227825462818, 0.027538670226931572, 0.02301657572388649, 0.010814833454787731, -0.02756217122077942, 0.009238102473318577, -0.00017472764011472464, -0.05540067330002785, 0.06662526726722717, 0.005522534251213074, 0.010197391733527184, 0.017415370792150497, 7.046239625196904e-05, -0.05336844176054001, -0.04394826665520668, 0.008344724774360657, -0.005464278627187014, 0.007527837995439768, -0.007912984117865562, 0.028404636308550835, -0.0760297104716301, -0.043588705360889435, -0.011618861928582191, -0.02687707543373108, -0.0022111607249826193, 0.029239017516374588, 0.0073815807700157166, -0.02416696399450302, 0.05814472213387489, -0.040893130004405975, 0.014209441840648651, -0.04075797647237778, -0.010947204194962978, -0.002531900769099593, -0.002435930771753192, 0.026424910873174667, 0.042533617466688156, 0.020080100744962692, -0.0011306919623166323, -0.01648315042257309, 0.009588890708982944, 0.010857914574444294, 0.01642528362572193, -0.013736685737967491, 0.019666725769639015, -0.008198105730116367, -0.009998665191233158, -0.0009411267819814384, 0.07465995848178864, 0.17103220522403717, 0.10483168810606003, 0.026052027940750122, -0.04805586487054825, -0.0066452729515731335, 0.008036183193325996, 0.09207447618246078, 0.02760583907365799, 0.02468314953148365, 0.04677453264594078, 0.009755515493452549, 0.053327880799770355, 0.012776590883731842, -0.017058825120329857, 0.027617404237389565, -0.07366864383220673, -0.016975129023194313, -0.006284539587795734, -0.006845414638519287, 0.005621765274554491, -0.020867690443992615, -0.04473331198096275, -0.029439527541399002, -0.02989700622856617, 0.011253327131271362, -0.0005551259964704514, 0.034532174468040466, -0.04566274955868721, -0.08115003257989883, 0.016561856493353844, -0.03974677249789238, -0.06275249272584915, -0.011016017757356167, -0.022686956450343132, -0.01299457810819149, 0.008226168341934681, 0.025320151820778847, 0.01929965242743492, 0.033744581043720245, -0.0035786188673228025, -0.029501527547836304, -0.10732904821634293, 0.009957307949662209, -0.027664989233016968, -0.03628493472933769, 0.0005736129241995513, -0.02004275843501091, 0.050576042383909225, 0.01749507151544094, -0.009603381156921387, 0.044300176203250885, 0.02981950342655182, -0.010617154650390148, 0.007849392481148243, 0.0012195222079753876, -0.020748890936374664, -0.05482378229498863, 0.015930775552988052, 0.03022504411637783, -0.01678345911204815, 0.049683958292007446, -0.025466950610280037, -0.037194814532995224, 0.044755928218364716, 0.045193735510110855, -0.039593081921339035, -0.014865788631141186, 0.01634110137820244, 0.03751804307103157, -0.018198946490883827, 0.023031743243336678, 0.008269226178526878, 0.008810803294181824, -0.07383661717176437, -0.034678488969802856, -0.017212970182299614, -0.013284307904541492, 0.0698806643486023, -0.030588340014219284, 0.07806849479675293, -0.03200433403253555, -0.016124164685606956, -0.008464916609227657, -0.036868780851364136, -0.04684719443321228, 0.013488592579960823, 0.06594185531139374, 0.008377978578209877, 0.04155822470784187, 0.002070015762001276, -0.005890980828553438, -0.00015844788867980242, -0.014143086038529873, 0.013174065388739109, -0.009714721702039242, -0.007021975237876177, 0.01308412291109562, 0.026066116988658905, 0.05705694109201431, 0.04812968522310257, 0.025391453877091408, 0.02674807608127594, 0.004864964634180069, 0.009212560951709747, 0.02325175516307354, -0.00047913557500578463, 0.0013501886278390884, 0.04015227407217026, 0.036709610372781754, 0.061089854687452316, 0.009619491174817085, 0.00830090418457985, -0.022691035643219948, -0.027647878974676132, -0.05497263744473457, -0.011217428371310234, -0.016849223524332047, 0.008979149162769318, -0.034113477915525436, -0.06220759451389313, -0.03160552680492401, -0.007463377434760332, 0.022075936198234558, 0.012227918952703476, 0.010033958591520786, -0.007962695322930813, -0.023853875696659088, 0.004354516044259071, -0.04719553515315056, -0.015165791846811771, -0.0011628036154434085, -0.020406031981110573, -0.0038592179771512747, 0.009339220821857452, 0.018179284408688545, 0.021494675427675247, 0.028463086113333702, 0.0029345694929361343, 0.008248967118561268, -0.028104733675718307, -0.06974387913942337, -0.019064148887991905, -0.06342755258083344, -0.029109494760632515, -0.031781330704689026, -0.0051443553529679775, -0.01842624880373478, -0.07757867127656937, -0.09586916118860245, -0.04046386852860451, -0.014312759973108768, 0.07215917855501175, -0.022972138598561287, -0.028357384726405144, -0.03894062340259552, -0.007871859706938267, -0.04195069894194603, -0.03369836136698723, 0.06987558305263519, -0.05288923904299736, -0.05571337416768074, -0.010371475480496883, 0.07457529008388519, 0.016812652349472046, -0.007715410087257624, 0.04630978778004646, 1.0947478585876524e-06, 0.008764649741351604, -0.03542464226484299, 0.06252492964267731, 0.008521677926182747, -0.03283369168639183, -0.007499907165765762, 0.047221723943948746, 0.01462466362863779, 0.010625721886754036, 0.03994127735495567, 0.047773368656635284, -0.002883065491914749, -0.004247959237545729, -0.0004957332275807858, 0.017295457422733307, 0.01777036115527153, 0.0071948920376598835, -0.0161438025534153, 0.054740097373723984, -0.0058049773797392845, -0.017966188490390778, 0.0074625397101044655, -0.025606611743569374, -0.02213151939213276, -0.01639455556869507, -0.017583156004548073, -0.0017237510764971375, -0.007039266638457775, 0.06954274326562881, 0.048469334840774536, 0.024801703169941902, 0.047004584223032, 0.025920270010828972, 0.0466642901301384, -0.029161011800169945, -0.03605364263057709, 0.011519032530486584, -0.039743199944496155, -0.03008110821247101, -0.11904874444007874, -0.017623938620090485, 0.013910758309066296, 0.0043325782753527164, 0.009166976436972618, 0.006535936146974564, -0.0411873459815979, -0.012598894536495209, 0.030445339158177376, 0.018850112333893776, 0.03804260864853859, 0.030374277383089066, 0.020271707326173782, -0.05973684787750244, -0.045772191137075424, -0.004589364863932133, -0.05049541965126991, -0.1253872960805893, -0.05138726904988289, -0.008533837273716927, 0.02481485903263092, -0.011378353461623192, -0.004749788902699947, -0.05155295506119728, -0.02057815156877041, -0.05897584185004234, 0.0214141346514225, -0.03885825350880623, -0.03518626466393471, 0.01863829419016838, 0.0030159803573042154, 0.009755781851708889, -0.035411667078733444, -0.05904250964522362, -0.043245699256658554, -0.08780794590711594, 0.05337459221482277, 0.08236465603113174, 0.017615171149373055, -0.007102310657501221, -0.08419734984636307, -0.13161484897136688, 0.018303222954273224, 0.07439205795526505, -0.0015582566848024726, 0.037836454808712006, 0.004228684119880199, -0.025708064436912537, -0.028439611196517944, -0.007199915591627359, -0.010588251054286957, -0.029803147539496422, -0.007777589838951826, 0.03617781773209572, 0.026847533881664276, -0.003937713801860809, -0.0552171990275383, -0.01631448231637478, 0.023410441353917122, 0.006870867684483528, -0.0032784021459519863, 0.052409861236810684, 0.002531337784603238, 0.014493263326585293, -0.003310286207124591, 0.03693445399403572, -0.020347602665424347, 0.051324404776096344, 0.005869119428098202, 0.0695648118853569, 0.0010090450523421168, -0.07221947610378265, -0.007713011931627989, -0.028988339006900787, -0.05630548670887947, -0.0014564541634172201, 0.056731048971414566, 0.048344869166612625, -0.018563395366072655, -0.006946647074073553, -0.019463956356048584, -0.026321591809391975, -0.019256385043263435, -0.04020395129919052, 0.010846332646906376, -0.018943428993225098, 0.009550152346491814, 0.07542425394058228, 0.005319907329976559, 0.0461263470351696, 0.056757695972919464, 0.0883868932723999, 0.03876194357872009, -0.02289932407438755, -0.015902426093816757, -0.02083531580865383, 0.03511340171098709, -0.01807728223502636, 0.003330554813146591, 0.012531819753348827, 0.00599976722151041, -0.08275976777076721, -0.0576338991522789, -0.07199198007583618, -0.030477846041321754, 0.07374314218759537, -0.012240992859005928, 0.010864145122468472, 0.02682364173233509, -0.02675054594874382, -0.08352921158075333, 0.056717414408922195, 0.017381854355335236, -0.013068283908069134, -0.0008263344643637538, -0.0015083611942827702, -0.03213861957192421, -0.00869000144302845, 0.01147383637726307, -0.012745390646159649, -0.021377956494688988, -0.02914530411362648, -0.006289275363087654, 0.0071140797808766365, 0.006975926458835602, 0.009135186672210693, 0.0009424162562936544, 0.005574321374297142, 0.004912212956696749, -0.06821543723344803, -0.009156577289104462, -0.06727480888366699, -0.049969661980867386, 0.027137955650687218, 0.07241697609424591, 0.07455753535032272, -0.03137453272938728, -0.21287941932678223, -0.1698143631219864, -0.11494312435388565, 0.012644500471651554, 0.0276094451546669, 0.09213895350694656, 0.05805215612053871, -0.02572708949446678, -0.03949543833732605, -0.029552580788731575, -0.010427039116621017, -0.1927439421415329, -0.04804820567369461, 0.09202249348163605, 0.041244443506002426, -0.013703947886824608, -0.02651170641183853, 0.06676153093576431, 0.12463819980621338, -0.029798058792948723, 0.02137921378016472, 0.02889542654156685, -0.0755789577960968, -0.055337902158498764, -0.03432773798704147, 0.03682050481438637, 0.09106600284576416, -0.025919754058122635, 0.05032151937484741, 0.02304455079138279, -0.0512731708586216, 0.04841470718383789, 0.018402568995952606, -0.01433852594345808, -0.033764809370040894, 0.048554498702287674, -0.015091878361999989, 0.008313906379044056, 0.010142271406948566, -0.044423457235097885, -0.01707848720252514, -0.010233581066131592, 0.012319447472691536, -0.00035050883889198303, -0.011765209957957268, 0.009227106347680092, 0.019785040989518166, 0.01511332206428051, -0.009059527888894081, -0.004488794133067131, 0.014310004189610481, -0.004176863469183445, 0.00872119516134262, -0.013164341449737549, 0.014831839129328728, 0.008773814886808395, -0.005825549364089966, -0.0025039082393050194, 0.010984834283590317, 0.013551684096455574, -0.014258451759815216, -0.0004114694893360138, 0.021313071250915527, 0.010320808738470078, -0.014577113091945648, 0.01366644911468029, -0.010881726630032063, -0.0008984450250864029, -0.017741942778229713, -0.01102903950959444, -0.012464180588722229, 0.003735031932592392, -0.005386292934417725, 0.0118638277053833, 0.017004357650876045, 0.0066388919949531555, -0.009608086198568344, -0.006431302987039089, -0.013036902993917465, 0.012016665190458298, 0.00042575225234031677, -0.006011598743498325, -0.01383022777736187, 0.0015400778502225876, -0.016998358070850372, 0.004767175763845444, 0.012747880071401596, -0.005391734652221203, -0.004358230158686638, 0.005519394297152758, -0.02975420467555523, 0.026705125346779823, -0.04370274767279625, -0.022563228383660316, -0.020500989630818367, -0.018752334639430046, 0.02650504931807518, 0.0326923243701458, -0.017189351841807365, 0.02277739904820919, -0.02442278154194355, 0.015451556071639061, 0.03872732073068619, -0.006940798833966255, -0.011305105872452259, -0.02975538559257984, -0.025277381762862206, 0.01274857483804226, -0.018880389630794525, 0.013235045596957207, -0.008905735798180103, 0.022218935191631317, 0.05292597413063049, 0.018102066591382027, -0.014536573551595211, 0.02132475934922695, 0.017849741503596306, 0.039203036576509476, -0.02960905432701111, 0.037405043840408325, 0.0003440225264057517, -0.03548929840326309, -0.04729246348142624, 0.00557355722412467, 0.023549223318696022, 0.04252123460173607, 0.07597614824771881, 0.03522689640522003, 0.007296307478100061, -0.0742189884185791, -0.026319939643144608, 0.004533674567937851, 0.0016353511018678546, 0.03617957606911659, -0.023608798161149025, 0.016106313094496727, 0.011663844808936119, 0.05328098312020302, -0.009462441317737103, -0.015410457737743855, -0.022675318643450737, -0.011438204906880856, -0.042159270495176315, 0.004859011620283127, 0.0033148829825222492, 0.011808213777840137, 0.03040424734354019, 0.030158041045069695, 0.03406985104084015, 0.04972397908568382, 0.018597133457660675, -0.018613692373037338, 0.01629980280995369, 0.017260827124118805, -0.0016423329943791032, -0.03718052804470062, 0.032507337629795074, 0.011074517853558064, 0.06859990209341049, -0.022492211312055588, -0.06266030669212341, -0.00960073247551918, 0.029422959312796593, -0.017329266294836998, 0.05296759307384491, 0.0027671032585203648, 0.015103667974472046, 0.005868240259587765, -0.05997878685593605, 0.07415780425071716, -0.01087082177400589, -0.03977453336119652, -0.03426418825984001, 0.036177027970552444, -0.03219445422291756, 0.03376311808824539, 0.05690079927444458, 0.019966600462794304, -0.024585919454693794, 0.010885910131037235, -0.01743260957300663, 0.01992419920861721, -0.015270128846168518, -0.00639681052416563, -0.05150770768523216, 0.04977947473526001, 0.02613983117043972, 0.011273037642240524, 0.015509454533457756, -0.008357936516404152, 0.016178371384739876, -0.01258284505456686, 0.008973969146609306, 0.0014398039784282446, -0.004516288638114929, -0.005494627170264721, 0.005309858359396458, 0.011209226213395596, 0.023703569546341896, 0.0004848157986998558, -0.007958421483635902, 0.004525966942310333, -0.01687712036073208, 0.004455499816685915, 0.014119022525846958, -0.005402262322604656, 0.00033453686046414077, 0.0010333657264709473, 0.006877664476633072, 0.016014069318771362, -0.006411588750779629, -0.017906315624713898, -0.001228053355589509, -0.02165188454091549, -0.0063816579058766365, 0.014453178271651268, 0.014288479462265968, 0.022015152499079704, 0.006068000569939613, -0.019933948293328285, 0.02064494602382183, 0.004022637382149696, 0.004675950855016708, 0.0022608228027820587, -0.00012876528489869088, 0.017151448875665665, 0.013052898459136486, -0.007666978985071182, -0.011212977580726147, -0.016118401661515236, -0.017546096816658974, -0.0033100545406341553, -0.002422882243990898, 0.01662101410329342, -0.010460890829563141, 0.004867423325777054, 0.011548344977200031, 0.007571762893348932, -0.03204932436347008, -0.04318873956799507, 0.05986472964286804, 0.05341285094618797, -0.0157967209815979, 0.03207322210073471, 0.14829348027706146, 0.09487076103687286, 0.07897844165563583, 0.0528518371284008, 0.0035919668152928352, -0.0038110967725515366, 0.04096302390098572, 0.05023914575576782, -0.01424685213714838, 0.019898930564522743, 0.057678621262311935, 0.046542804688215256, 0.10305013507604599, -0.0887305811047554, -0.04787503927946091, -0.013846502639353275, -0.05185799300670624, -0.041567523032426834, 0.027611922472715378, -0.030899444594979286, -0.017585158348083496, -0.09500633180141449, -0.07705370336771011, -0.029306549578905106, -0.006823258008807898, -0.020041296258568764, -0.007289992179721594, 0.03207703307271004, -0.04524996131658554, -0.008280741050839424, -0.0011101322015747428, -0.029409538954496384, -0.030245058238506317, 0.03454594686627388, -0.004466404672712088, 0.002456260146573186, 0.04684269800782204, 0.025081949308514595, 0.024832939729094505, 0.04443388432264328, -0.009837618097662926, -2.6107174562639557e-05, -0.015549693256616592, -0.0019206941360607743, -0.0406046099960804, -0.011985374614596367, 0.008790639229118824, 0.011604721657931805, 0.006823779083788395, -0.02036750502884388, -0.05501314252614975, -0.021066918969154358, -0.014028606005012989, 0.013464056886732578, 0.029243357479572296, 0.051479872316122055, 9.197616600431502e-05, 0.0007243073196150362, 0.09734121710062027, 0.06712415814399719, 0.0787968784570694, 0.02850060723721981, -0.05602366477251053, -0.01814032346010208, 0.0011494184145703912, -0.004548332653939724, 0.0026419672649353743, 0.020623138174414635, 0.03960006311535835, -0.01181242149323225, -0.045409999787807465, -0.029690101742744446, -0.0382651686668396, -0.07384999096393585, -0.006984776351600885, 0.027828259393572807, 0.02885488234460354, -0.03550860658288002, -0.029079243540763855, -0.023234272375702858, -0.03818267956376076, -0.050506699830293655, -0.029656466096639633, -0.03267250582575798, 0.03378751873970032, 0.016590220853686333, 0.03346332162618637, 0.017352337017655373, -0.04388285055756569, -0.006463025696575642, 0.007565416395664215, 0.04332730174064636, -0.08899573236703873, -0.10900155454874039, -0.060125190764665604, 0.02592957764863968, -0.006109150126576424, 0.034160442650318146, 0.028609981760382652, 0.10812923312187195, 0.06824195384979248, -0.006198210176080465, -0.0410107858479023, -0.003277846844866872, -0.03145992383360863, 0.041188206523656845, 0.09364955872297287, 0.022696485742926598, -0.030350932851433754, -0.04612988606095314, 0.11931852996349335, 0.017167633399367332, 0.06519574671983719, 0.03546948730945587, 0.10474313795566559, -0.0617031492292881, -0.02999570406973362, -0.02220618911087513, -0.040875207632780075, 0.06774955987930298, 0.07828294485807419, 0.034217022359371185, 0.060540370643138885, -0.07142102718353271, -0.027662068605422974, -0.01399084459990263, -0.13583064079284668, -0.002219163114205003, -0.02378014288842678, 0.09404455125331879, 0.006770941894501448, -0.019147835671901703, -0.08058392256498337, -0.0034251424949616194, 0.012133803218603134, -0.05148613452911377, -0.00857829861342907, 0.012374104000627995, -0.06419619172811508, -0.009418514557182789, 0.010208782739937305, -0.00363988452591002, 0.0012034412939101458, -0.006822224240750074, -0.011154204607009888, -0.0036102759186178446, 0.008497241884469986, 0.050258535891771317, -0.008534207008779049, -0.008263126015663147, 0.01555411983281374, 0.008751899003982544, 0.0016504129162058234, 0.012967251241207123, 0.03730547055602074, -0.009715498425066471, -0.03673035278916359, 0.002221682108938694, -0.00892295315861702, 0.001015444635413587, 0.0036378062795847654, -0.03669881075620651, -0.016912002116441727, -0.016795475035905838, -0.0331561304628849, -0.006504514254629612, 0.010101492516696453, 0.024744585156440735, -0.014936312101781368, -0.015340988524258137, 0.00043640172225423157, 0.015705864876508713, 0.003281314391642809, -0.006371817085891962, 0.004090373869985342, 0.028791258111596107, 0.026341615244746208, 0.03354661166667938, 0.046578533947467804, -0.04318535327911377, 0.036531589925289154, -0.010519182309508324, -0.009433687664568424, 0.02074269764125347, 0.02647293172776699, 0.013802646659314632, -0.00811691116541624, 0.0015191512648016214, -0.00577556574717164, -0.0005769061390310526, -0.034344129264354706, 0.014032511971890926, -0.004654819145798683, -0.0339578278362751, -0.01738734543323517, -0.011565888300538063, 0.04394339397549629, 0.04132428765296936, 0.02401263825595379, -0.051961127668619156, -0.053658489137887955, 0.020282955840229988, 0.017305180430412292, 0.08445847779512405, 0.04988143593072891, 0.061537209898233414, 0.05696111544966698, 0.05058402940630913, 0.07117339968681335, -0.02970360964536667, 0.05635940656065941, 0.05207659304141998, -0.018661268055438995, -0.009358903393149376, -0.013875365257263184, -0.017122507095336914, -0.01741846464574337, -0.09025715291500092, -0.07435978949069977, -0.10388586670160294, -0.0587068535387516, -0.04321105778217316, -0.024404896423220634, 0.006868327967822552, -0.05098482966423035, -0.014260957948863506, -0.0243007130920887, -0.040560390800237656, -0.00976711604744196, 0.008226120844483376, -0.01173507608473301, -0.04626205936074257, 0.009727822616696358, 0.05103606730699539, -0.05885928124189377, -0.0243709497153759, 0.00279423245228827, -0.007321769837290049, 0.009058915078639984, -0.024441825225949287, -0.011791948229074478, 0.01672615297138691, -0.020770741626620293, 0.0028817409183830023, 0.06103839725255966, 0.02948453649878502, -0.00018171404371969402, -0.05261145904660225, -0.1642337441444397, -0.008914109319448471, 0.07255449891090393, 0.007543436251580715, 0.014879121445119381, 0.06033285707235336, -0.07708831876516342, -0.10522452741861343, 0.07041674107313156, -0.03879295289516449, -0.003212152048945427, -0.004980182275176048, 0.03295096755027771, 0.06352188438177109, 0.009844767861068249, -0.01135674212127924, -0.10490112006664276, 0.010152065195143223, 0.00814402662217617, 0.004559419583529234, 0.035674214363098145, 0.0458788201212883, 0.01046157255768776, 0.01612469181418419, 0.025213681161403656, 0.010901733301579952, 0.055731236934661865, -0.0018607815727591515, 0.037358030676841736, 0.03259522467851639, -0.03487749397754669, 0.01913517154753208, 0.002329082228243351, -0.0021322574466466904, 0.0027772127650678158, 0.018076002597808838, 0.04811787232756615, -0.025048140436410904, 0.009543586522340775, -0.0060972729697823524, 0.002765243873000145, -0.02785481885075569, -0.017497053369879723, -0.018410975113511086, 0.005838257726281881, 0.018348580226302147, -0.005334746558219194, -0.033929236233234406, -0.019671594724059105, -0.03582938387989998, -0.016646340489387512, 0.03859952464699745, -0.019373226910829544, -0.03894183039665222, 0.049035802483558655, 0.012449556961655617, -0.01603616029024124, 0.015136729925870895, -0.008766134269535542, -0.03540218248963356, -0.054920345544815063, 0.043056514114141464, -0.040308162569999695, 0.051824528723955154, 0.06125225871801376, 0.03453275188803673, 0.01194092445075512, -0.050652921199798584, 0.027775248512625694, 0.005034581758081913, 0.01533056702464819, -0.028217673301696777, -0.004066721070557833, 0.03455229476094246, 0.03795498237013817, 0.016902131959795952, 0.0023063267581164837, 0.022842738777399063, 0.020631419494748116, 0.02162644825875759, 0.017569363117218018, -0.00317725189961493, 0.043600570410490036, -0.039798613637685776, -0.002504525473341346, 0.011485736817121506, 0.015434576198458672, -0.024039477109909058, 0.020960643887519836, -0.011923817917704582, -0.03867790102958679, -0.04034433141350746, 0.007275199517607689, -0.0011619526194408536, 0.0377570204436779, 0.09123583883047104, 0.07833229750394821, 0.02603262849152088, 0.04207965359091759, -0.06396880745887756, -0.060814399272203445, 0.022566568106412888, 0.03132323548197746, -0.06615406274795532, 0.08554482460021973, 0.05195742845535278, 0.04238925874233246, 0.12290100753307343, 0.006086990237236023, 0.009745490737259388, -0.04765862599015236, -0.031919464468955994, -0.05581851676106453, -0.02405439503490925, 0.02418753132224083, -0.040971554815769196, 0.011841855943202972, 0.005496653262525797, 0.029986480250954628, 0.04879912734031677, -0.020106688141822815, -0.026383843272924423, -0.024634821340441704, -0.11742682009935379, 0.025477461516857147, 0.03841707482933998, 0.03293066844344139, 0.003981881774961948, 0.04583802446722984, -0.09972009807825089, -0.07751954346895218, -0.024769019335508347, -0.014272710308432579, 0.038667161017656326, 0.07469990849494934, 0.007978441193699837, -0.02225765399634838, -0.02244897559285164, 0.03422221168875694, -0.034162092953920364, -0.02798488922417164, 0.015387135557830334, -0.009172552265226841, 0.020237062126398087, 0.0495801605284214, 0.059792280197143555, 0.0335676334798336, 0.04176240786910057, 0.053799018263816833, -0.009973342530429363, 0.038341037929058075, -0.004637805745005608, -0.014273613691329956, 0.04823611304163933, 0.024681469425559044, -0.0007833674899302423, 0.08021021634340286, -0.006235118024051189, -0.08017204701900482, -0.06129645183682442, -0.018586520105600357, -0.05234355852007866, -0.011280803009867668, -0.00281144748441875, 0.02453211508691311, -0.03854517638683319, -0.021518196910619736, -0.00981720257550478, 0.025485798716545105, -0.04788973927497864, 0.01863611489534378, 0.023993920534849167, -0.001504116109572351, 0.0038745009806007147, 0.02021104097366333, -0.004460134077817202, -0.002776562003418803, 0.007824326865375042, 0.0032891351729631424, -0.013452364131808281, 0.006925943307578564, 0.047285858541727066, 0.032880764454603195, 0.038225624710321426, 0.004977405071258545, 0.003792957868427038, -0.0103581752628088, -0.02338012121617794, -0.018538525328040123, -0.009946750476956367, -0.00790475308895111, -0.004886573646217585, 0.008209604769945145, -0.06582213938236237, -0.0025261184200644493, -0.034704357385635376, 0.05353594571352005, 0.06383999437093735, 0.006940097082406282, -0.03417402133345604, 0.0033287780825048685, -0.0017811838770285249, -0.02139933593571186, -0.03647634759545326, -0.012302856892347336, 0.006348814815282822, -0.06594035029411316, 0.008677092380821705, -0.021684106439352036, -0.030028769746422768, -0.050987016409635544, 0.09143891930580139, -0.001630114042200148, -0.018812494352459908, -0.011340301483869553, 0.043025605380535126, -0.02099105902016163, 0.06514113396406174, 0.025324327871203423, -0.007279383484274149, 0.012381221167743206, -0.017295286059379578, -0.007688524201512337, -0.023396262899041176, 0.07389847934246063, 0.020785031840205193, -0.00027800758834928274, -0.017428237944841385, -0.10496968775987625, -0.01586099900305271, -0.026018954813480377, -0.040424853563308716, 0.020498590543866158, -0.018554750829935074, -0.02325570397078991, -0.029601946473121643, -0.021222449839115143, -0.03542930632829666, 0.01845170371234417, -0.02183772437274456, -0.018318869173526764, -0.014426504261791706, 0.05883026495575905, 0.020148256793618202, -0.027035726234316826, 0.0824040099978447, 0.019038351252675056, 0.020257046446204185, -0.008020224049687386, -0.0640391856431961, 0.005946596153080463, 0.013661135919392109, -0.06301689893007278, 0.017031876370310783, -0.010844401083886623, -0.0065237232483923435, -0.06499447673559189, -0.017429402098059654, -0.04437364637851715, 0.01169553492218256, 0.06299274414777756, 0.015621376223862171, 0.03531891107559204, 0.005028603132814169, -0.004738088697195053, 0.027128169313073158, 0.025410491973161697, 0.008142112754285336, 0.04246017709374428, 0.0008076908416114748, -0.010304925963282585, -0.03314584493637085, 0.033019181340932846, -0.036273110657930374, 0.02865881659090519, -0.020038651302456856, -0.017320511862635612, 0.012890886515378952, -0.015044569969177246, 0.019595259800553322, -0.0020667510107159615, -0.009952089749276638, 0.011175870895385742, 0.0053212824277579784, -0.01377019565552473, -0.016382621601223946, 0.004897378850728273, -0.017044413834810257, -0.004873912315815687, -0.0015785029390826821, 0.02160741575062275, -0.02035835199058056, 0.028689436614513397, -0.0039281114004552364, -0.024386761710047722, 0.007265191990882158, -0.000698490533977747, 0.020010653883218765, 0.0031222777906805277, 0.0167232695966959, -0.0072583663277328014, 0.03571131452918053, 0.00831625610589981, 0.020087672397494316, 0.024002637714147568, -0.06960926204919815, -0.0552525669336319, 0.015582874417304993, 0.006516566034406424, 0.02184995450079441, -0.0031963675282895565, -0.031007397919893265, 0.016062412410974503, -0.008085091598331928, -0.014743414707481861, 0.024709373712539673, 0.014565744437277317, 0.0074395048432052135, 0.01345822773873806, 0.004962137900292873, -0.008625753223896027, 0.008450066670775414, 0.01061931625008583, -0.007172801997512579, -0.019248472526669502, 0.004508942365646362, -0.04469618573784828, 0.00019099655037280172, 0.015140339732170105, 0.02615969441831112, -0.014426790177822113, -0.020287295803427696, -0.010353813879191875, -0.026603732258081436, 0.015785012394189835, -0.019615208730101585, -0.014206412248313427, -0.00834112148731947, -0.002214848529547453, 0.0035042252857238054, 0.01685675047338009, 0.01104054506868124, 0.0037450117524713278, 0.04662136733531952, -0.018883975222706795, -0.006461921148002148, 0.007130525540560484, 0.01884133368730545, 0.049501482397317886, 0.04040227830410004, 0.0989588275551796, -0.0031543332152068615, 0.06331103295087814, -0.0007769778603687882, -0.06049061939120293, -0.07346818596124649, -0.043214350938797, 0.01608879491686821, -0.0030928878113627434, 0.06440333276987076, 0.018775921314954758, -0.008878867141902447, -0.015498144552111626, 0.012152335606515408, 0.005324082914739847, -0.042243000119924545, -0.0007446237723343074, -0.0015065615298226476, -0.012278716079890728, 0.004015965387225151, -0.024653932079672813, 0.046000394970178604, 0.0013217547675594687, 0.0819537341594696, -0.008744880557060242, -0.008160370402038097, 0.001858485396951437, 0.0018060676520690322, 0.046702031046152115, 0.027680274099111557, 0.03367612883448601, -0.012785419821739197, -0.006501461379230022, -0.006103733088821173, -0.020997345447540283, -0.012925250455737114, 0.005109026096761227, 0.004999262280762196, -0.0026854723691940308, 0.03092101402580738, 0.050707343965768814, -0.0053211236372590065, -0.0014092846540734172, 0.0023645833134651184, -0.0013658382231369615, 0.014168539084494114, -0.020798027515411377, 0.01661575585603714, 0.047261908650398254, 0.012771742418408394, -0.0053916010074317455, 0.016665510833263397, 0.04262826219201088, -0.011494978331029415, 0.03953840583562851, 0.03169357776641846, -0.06294861435890198, -0.010889394208788872, 0.00913149118423462, -0.004656709264963865, 0.006547969300299883, -0.017621148377656937, -0.03844314441084862, -0.03640159219503403, 0.02092813141644001, 0.01678769290447235, 0.030175480991601944, 0.002887376816943288, -0.02023210935294628, -0.014186053536832333, 0.03524858132004738, -0.03823484107851982, 0.02061678096652031, -0.023178130388259888, -0.03242146596312523, -0.005534340627491474, 0.005281900521367788, 0.008333633653819561, 0.007180799730122089, 0.006426671054214239, -0.020610224455595016, -0.011859312653541565, -0.03369785472750664, -0.04224413260817528, 0.010982668958604336, -0.06907933950424194, -0.0006795072695240378, -0.02414291352033615, 0.05224112048745155, 0.10614525526762009, -0.01166872400790453, -0.05346103757619858, -0.028118770569562912, 0.011246484704315662, -0.021689793094992638, 0.11063894629478455, 0.054186731576919556, 0.03750445321202278, 0.07274165749549866, 0.05945899337530136, 0.03018191270530224, 0.038184504956007004, 0.11675611138343811, 0.09963646531105042, 0.027412395924329758, -0.01759669929742813, -0.06017579510807991, -0.03744446486234665, -0.03705630451440811, 0.044687338173389435, 0.008681592531502247, -0.0321555957198143, -0.016489623114466667, 0.021143939346075058, 0.005179694853723049, 0.01577155850827694, -0.022561201825737953, -0.06717712432146072, 0.0009858637349680066, -0.015689244493842125, -0.09153928607702255, -0.016035091131925583, -0.014714882709085941, -0.05075826868414879, -0.05414651706814766, 0.07538510113954544, 0.04470719024538994, -0.02098425291478634, -0.0033175675198435783, -0.011292996816337109, -0.00683298334479332, -0.008033460937440395, -0.013215919025242329, -0.03428390249609947, -0.003872622037306428, 0.0036655764561146498, 0.033996060490608215, -0.009146543219685555, -0.011102641001343727, -0.00784505344927311, 0.012698903679847717, 0.001433099154382944, 0.02947351336479187, -0.002474528504535556, -0.0011585934553295374, -0.009205207228660583, 0.006570923142135143, 0.016789421439170837, 0.017066096886992455, 0.02219359576702118, -0.03427106514573097, -0.020341666415333748, 0.025881215929985046, 0.026404904201626778, -0.01807396113872528, 0.04025871679186821, 0.024687442928552628, 0.03142249956727028, -0.04185154661536217, 0.00676342798396945, -0.0006338926032185555, 0.02185933105647564, 0.0010620387038215995, 0.011874315328896046, 0.03871535509824753, -0.005992455407977104, 0.0050642164424061775, -0.006527477875351906, -0.027776367962360382, -0.03393108770251274, 0.006633908953517675, 0.041077908128499985, 0.0007979538640938699, -0.005159987602382898, 0.01660502888262272, -0.05961206555366516, 0.009559495374560356, 0.001163651468232274, 0.005607122555375099, 0.013337169773876667, -0.04150191694498062, -0.1266346126794815, -0.11013121157884598, -0.00990971177816391, 0.08622774481773376, 0.020510096102952957, 0.012103239074349403, 0.01822003349661827, -0.04748617485165596, -0.04604695364832878, 0.02121126279234886, 0.0501546673476696, 0.012686009518802166, -0.004259294364601374, -0.009131035767495632, -0.006650944240391254, 0.058737386018037796, 0.027660032734274864, 0.02745858021080494, -0.00952988862991333, -0.003472208743914962, -0.006544523872435093, -0.014832483604550362, 0.027190063148736954, -0.04158193618059158, 0.04008684307336807, 0.003208906389772892, -0.0030658014584332705, 0.01700463332235813, 0.00474683428183198, -0.0004754531546495855, -0.02648262120783329, 0.0014256479917094111, 0.03314398229122162, 0.005054743029177189, -0.0811549574136734, -0.015967469662427902, -0.004591481760144234, -0.06140037998557091, 0.08292826265096664, -0.03354258835315704, -0.06043984740972519, -0.053947269916534424, 0.03534562885761261, 0.0829043909907341, 0.02806856669485569, 0.031289298087358475, -0.017473682761192322, -0.01694798655807972, 0.019124284386634827, 0.006479878444224596, -0.021399591118097305, -0.03759649023413658, -0.015257271938025951, -0.002662759507074952, -0.01827182248234749, -0.01860005408525467, 0.017605217173695564, -0.0023492281325161457, -0.014142785221338272, 0.01714707911014557, 0.002692874986678362, 0.014740862883627415, -0.0015100814634934068, -0.007066447287797928, -0.04095147177577019, -0.009137303568422794, 0.04890470206737518, -0.0636780858039856, -0.006697317585349083, 0.016082026064395905, 0.013838877901434898, 0.0253298319876194, 0.054557111114263535, -0.014108685776591301, 0.002218464156612754, 0.003737391671165824, 0.017924444749951363, 0.03878791257739067, 0.036935459822416306, -0.006613795645534992, 0.010699983686208725, 0.010619517415761948, 0.0167099516838789, 0.04159444943070412, 0.03280135244131088, 0.017913011834025383, -0.03323832526803017, -0.008130392991006374, -0.007554852869361639, 0.010417298413813114, 0.02037874609231949, -0.010929912328720093, -0.0008998391567729414, 0.012575322762131691, -0.017682841047644615, -0.013747611083090305, 0.021718308329582214, -0.09101284295320511, -0.03695348650217056, -0.03419308364391327, -0.028037047013640404, 0.0033232583664357662, 0.03713654726743698, 0.0094930250197649, -0.0305754654109478, -0.05490914732217789, -0.05160816013813019, -0.04104871302843094, 0.005433014128357172, -0.023484911769628525, -0.005954092834144831, -0.0009098149021156132, -0.0054315803572535515, -0.02555246651172638, 0.09296458214521408, 0.028572512790560722, -0.05134870111942291, -0.0359627865254879, 0.012956994585692883, 0.02610187791287899, 0.054874539375305176, 0.01409617718309164, 0.015286989510059357, -0.010281703434884548, 0.008513044565916061, 0.040179040282964706, 0.012958408333361149, -0.008198589086532593, -0.04060259833931923, 0.016761040315032005, 0.06578510999679565, 0.028193321079015732, 0.04543347656726837, -0.02089546248316765, -0.007480008061975241, -0.009062363766133785, -0.00012765845167450607, 0.00015631939459126443, 0.009160231798887253, 0.015442260541021824, -0.05076512694358826, 0.008680261671543121, -0.0037079208996146917, 0.013725410215556622, -0.012152843177318573, -0.012860897928476334, -0.03611142560839653, -0.06054624915122986, -0.01601758785545826, -0.06354314088821411, -0.003196381963789463, -0.015732737258076668, -0.008756713941693306, 0.014813737012445927, -0.004852470941841602, 0.05043911561369896, -0.040161438286304474, 0.11766640841960907, 0.047697652131319046, -0.0023279348388314247, -0.03862232342362404, 0.0765126496553421, -0.08292072266340256, -0.06515273451805115, 0.008619182743132114, 0.005553231108933687, 0.11991939693689346, 0.041978638619184494, 0.05742698535323143, 0.09410255402326584, -0.03233396261930466, -0.0032857044134289026, -0.014115636236965656, 0.07424786686897278, -0.04825906082987785, 0.0192586537450552, 0.0750422403216362, 0.019867081195116043, -0.061264071613550186, 0.053810518234968185, 0.009453187696635723, -0.04094550386071205, 0.01629353128373623, 0.06362367421388626, 0.1260828822851181, -0.00758168613538146, 0.031956735998392105, -0.07330075651407242, 0.0395391546189785, 0.02338021621108055, -0.10785823315382004, 0.07500545680522919, -0.009777471423149109, -0.009788105264306068, -0.015264091081917286, -0.005231066141277552, -0.043640948832035065, -0.04251961037516594, -0.00021484059107024223, -0.01158966589719057, -0.0032397371251136065, 0.026986151933670044, 0.023688944056630135, 0.09784779697656631, 0.02852814458310604, 0.007544538006186485, -0.057995524257421494, 0.01475242618471384, -0.03579980880022049, 0.016747701913118362, 0.11598768830299377, 0.08371055126190186, 0.09099852293729782, 0.1030178815126419, -0.01831325702369213, -0.07119641453027725, -0.052492640912532806, -0.014848523773252964, -0.038203608244657516, -0.0337136834859848, 0.050697024911642075, 0.01733136922121048, -0.06578602641820908, -0.05664124712347984, -0.042976733297109604, -0.020911473780870438, -0.006178402807563543, 0.0030513564124703407, 0.04293866455554962, -0.10090211033821106, -0.0146391112357378, -0.060796741396188736, 0.010054502636194229, 0.02974163368344307, -0.009444980882108212, -0.009915093891322613, -0.05509122088551521, -0.018842652440071106, 0.03912053257226944, 0.004854078870266676, -0.01858394779264927, 0.03198244795203209, -0.08474714308977127, 0.011555593460798264, -0.04111797362565994, 0.044401347637176514, 0.024070145562291145, -0.07907671481370926, -0.0537165030837059, 0.02001187577843666, 0.11936761438846588, 0.017245765775442123, 0.061161238700151443, 0.02960125170648098, -0.042358458042144775, -0.028479361906647682, 0.10783588886260986, 0.08374036103487015, 0.03291580080986023, 0.11835536360740662, 0.048865798860788345, 0.023873982951045036, 0.11387237906455994, -0.16389580070972443, -0.029392721131443977, -0.06622883677482605, -0.13607682287693024, -0.03256401792168617, -0.026652058586478233, -0.0051850988529622555, -0.07228320091962814, -0.050845932215452194, -0.01789584755897522, -0.007657578215003014, -0.032689500600099564, 0.019228817895054817, -0.012383918277919292, -0.015896746888756752, -0.05235881358385086, 0.016483688727021217, -0.03022012859582901, -0.08971292525529861, -0.04043371230363846, 0.005106393713504076, -0.038167085498571396, -0.031027063727378845, -0.013293933123350143, 0.05456818640232086, 0.02666459232568741, 0.022776329889893532, 0.00867204088717699, -0.019014650955796242, 0.0011544248554855585, -0.05238465592265129, -0.04523630067706108, 0.021266501396894455, 0.06345833837985992, 0.03797908127307892, -0.04437776282429695, 0.06198309361934662, 0.11061787605285645, 0.07017512619495392, 0.04240422323346138, 0.04518170654773712, -0.039879366755485535, 0.05092451721429825, 0.02433122508227825, -0.031249186024069786, 0.014185773208737373, 0.020396744832396507, 0.010590794496238232, 0.04870545119047165, -0.032478444278240204, -0.03331448510289192, 0.009925760328769684, -0.011916011571884155, 0.005544625222682953, -0.0061608292162418365, 0.020122535526752472, -0.02937137521803379, -0.0693054348230362, -0.057087477296590805, -0.025543339550495148, -0.014386594295501709, -0.04342298582196236, -0.05819915607571602, 0.03734219819307327, -0.0009136066073551774, -0.019338157027959824, -0.01632104255259037, -0.023708773776888847, -0.04815404489636421, 0.03788645938038826, -0.0645008534193039, 0.014245491474866867, 0.004443064797669649, 0.021967001259326935, 0.036045219749212265, 0.06793536245822906, 0.007152762729674578, 0.011576845310628414, 0.004263337701559067, 0.005458768457174301, -0.022729557007551193, -0.006452331319451332, -0.02594210021197796, -0.02828373573720455, -0.02541794627904892, 0.03711927682161331, 0.015872469171881676, 0.016186349093914032, -0.005552535876631737, -0.005814140662550926, 0.014282944612205029, 0.05889052152633667, 0.04043256491422653, 0.025389695540070534, 0.04297703132033348, 0.02846679836511612, 0.041390448808670044, 0.02868066541850567, -0.016469111666083336, -0.011826173402369022, -0.012222438119351864, -0.016788439825177193, -0.014626271091401577, 0.026122506707906723, 0.009003398939967155, -0.002058441285043955, -0.010846029967069626, -0.026244983077049255, -0.01912291720509529, -0.010206223465502262, 0.012114293873310089, 0.02093420922756195, -0.006488304119557142, -0.002392709953710437, -0.008525957353413105, 0.011103570461273193, -0.04218234494328499, -0.012849151156842709, 0.013885085470974445, -0.008689617738127708, 0.01616564765572548, 0.031897272914648056, 0.00276636122725904, 0.05160237103700638, 0.02419605851173401, 0.016306275501847267, -0.013555423356592655, 0.002047374378889799, 0.004994462709873915, -0.009807555936276913, 0.008436443284153938, 0.019226035103201866, -0.015871506184339523, 0.009002113714814186, -0.05971768498420715, -0.04123489931225777, -0.01834380254149437, 0.03707479313015938, 0.019185340031981468, 0.0030584167689085007, -0.027774954214692116, -0.017167648300528526, 0.04166577756404877, -0.0058273873291909695, -0.060231175273656845, -0.00576207647100091, 0.014040092006325722, -0.038650017231702805, -0.0385015569627285, 0.05489088594913483, -0.027696002274751663, -0.028941303491592407, 0.05013510212302208, 0.013258026912808418, 0.05351414158940315, -0.07333049178123474, 0.01200336217880249, -0.01641629822552204, -0.021096868440508842, 0.05532563105225563, 0.02544383518397808, 0.009250777773559093, 0.012274985201656818, 0.04624459892511368, 0.003014509566128254, 0.01718023419380188, -0.040089648216962814, 0.02192939817905426, -0.01113166194409132, -0.03377449885010719, 0.04186069592833519, 0.00985121913254261, -0.011594579555094242, 0.007903304882347584, -0.007906137965619564, -0.011029761284589767, -0.0004527811543084681, -0.014387103728950024, -0.021308567374944687, -0.04346286132931709, -0.008128439076244831, 0.0026566735468804836, -0.00912825670093298, 0.01893712766468525, -0.0726301297545433, -0.038434360176324844, -0.05210467427968979, 0.006576277781277895, -0.0036233665887266397, 0.029217667877674103, -0.007931825704872608, 0.07480958849191666, 0.021198712289333344, -0.019421009346842766, 0.016577886417508125, 0.002068155212327838, 0.003313862718641758, -0.03754225745797157, 0.034090425819158554, 0.010752547532320023, -0.0382714718580246, -0.035921815782785416, 0.022609923034906387, 0.004519492853432894, 0.021191440522670746, -0.014898551627993584, -0.0702623724937439, -0.03824600577354431, 0.03141849488019943, 0.02153206430375576, 0.03863544017076492, 0.04951763525605202, -0.04956934228539467, -0.0472230538725853, -0.0015488110948354006, 0.02394959144294262, 0.012076018378138542, 0.0168053787201643, -0.013303158804774284, 0.04683558642864227, -0.03001832403242588, 0.035305269062519073, 0.01668865978717804, 0.006286135409027338, -0.010135564021766186, 0.01634032092988491, -0.045757368206977844, -0.048823386430740356, -0.04806821793317795, 0.08867029845714569, -0.008510162122547626, -0.016837764531373978, 0.05685299262404442, 0.00583781348541379, 0.021095888689160347, -0.03390961512923241, -0.010333238169550896, 0.03359375149011612, -0.05266468971967697, -0.007636257912963629, 0.03746311366558075, -0.03884031996130943, -0.16325107216835022, 0.009458941407501698, 0.030641749501228333, -0.04862941801548004, -0.08323023468255997, 0.03127206489443779, 0.002505367621779442, 0.006924844346940517, 0.08406977355480194, -0.012484312057495117, 0.03800949081778526, 0.009164567105472088, 0.06114719808101654, -0.013110008090734482, 0.07386719435453415, -0.03893090784549713, -0.0031356860417872667, -0.02516224980354309, -0.030442411080002785, 0.0022998664062470198, 0.01767817698419094, -0.037810180336236954, -0.012425127439200878, 0.0039949421770870686, -0.032101135700941086, -0.012540292926132679, 0.021769007667899132, 0.009518817998468876, -0.003118722466751933, 0.019893191754817963, 0.017243528738617897, -0.03358663618564606, -0.014573214575648308, -0.01961066573858261, -0.030240222811698914, -0.040881574153900146, -0.018095120787620544, 0.02340608648955822, 0.08856063336133957, 0.056627560406923294, -0.00012693174357991666, 0.03471476957201958, 0.00782059971243143, -0.013953257352113724, 0.046015094965696335, 0.04157762974500656, -0.06000065430998802, -0.06483741104602814, 0.08430619537830353, 0.0515560545027256, 0.058223310858011246, 0.0763993039727211, -0.07395059615373611, -0.024459969252347946, -0.03024652600288391, 0.01433531753718853, 0.021209418773651123, -0.010649416595697403, 0.09376964718103409, -0.0009566578664816916, -0.0043186042457818985, 0.04482821002602577, 0.06590564548969269, -0.06466761231422424, -0.04290173947811127, -0.0019209404708817601, -0.007125107571482658, -0.012945550493896008, 0.06583505868911743, -0.009496054612100124, 0.04002946615219116, -0.06425008922815323, -0.03957351669669151, -0.10021302103996277, 0.032519079744815826, 0.044863779097795486, 0.023264683783054352, 0.05552259460091591, -0.06813371181488037, 0.05267368629574776], "bias": 0.009103898890316486}