{"layer": "fc1", "index": 119, "weights": [-0.008061944507062435, -0.0753527358174324, 0.03209283575415611, 0.11348366737365723, 0.05639249458909035, 0.06961947679519653, -0.004126967862248421, -0.10473804175853729, -0.05101984366774559, -0.021256325766444206, -0.005390200298279524, -0.02392052300274372, -0.0887046679854393, -0.030434001237154007, -0.038164276629686356, -0.006086790468543768, -0.008815499022603035, 0.00968638900667429, -0.05172938480973244, -0.049522221088409424, -0.034722764045000076, 0.02240246720612049, -0.042180780321359634, 0.058784257620573044, 0.01441800594329834, 0.008343393914401531, -0.008142868056893349, -0.028065597638487816, 0.033953629434108734, -0.09245926141738892, -0.06282544881105423, -0.041245851665735245, 0.005823488347232342, -0.012062754482030869, -0.025627681985497475, -0.020959898829460144, -0.04040047898888588, -0.09857708215713501, -0.013326488435268402, 0.04520484432578087, -0.0003401209833100438, -0.003934152889996767, -0.02053838223218918, 0.006709052715450525, -0.009507163427770138, 0.027161257341504097, 0.035368576645851135, 0.016304435208439827, 0.017668038606643677, 0.0002398547512711957, -0.004194254986941814, -0.014094339683651924, 0.02260669693350792, -8.639309817226604e-05, -0.016676565632224083, 0.005613982677459717, -0.007071710657328367, -0.011465497314929962, -0.01193722989410162, 0.004015293437987566, 0.03967231884598732, -0.015485734678804874, -0.0032131855841726065, 0.0045637707225978374, -0.01738087646663189, 0.02824399434030056, 0.009524271823465824, 0.01764489710330963, 0.009664654731750488, 0.002459605224430561, -0.011240982450544834, 0.015349905006587505, 0.006786079611629248, -0.03377532586455345, 0.0011668436927720904, -0.01401736680418253, 0.012996469624340534, -0.010772699490189552, -0.029211414977908134, -0.06127404794096947, -0.007305782288312912, 0.07406339049339294, 0.027500394731760025, -0.001998133258894086, -0.015027541667222977, -0.019509928300976753, -0.050524692982435226, -0.010987396351993084, 0.05024341493844986, -0.0201899204403162, -0.0002649794041644782, 0.011898075230419636, -0.0115657988935709, 0.0033832755871117115, 0.030345380306243896, 0.007602267898619175, 0.015078066848218441, 0.02311127632856369, -0.018936708569526672, -0.06562546640634537, -0.01254263799637556, -0.010141344740986824, -0.04096345603466034, -0.012802528217434883, 0.043132323771715164, 0.004275194834917784, -0.04526302590966225, -0.015467707067728043, -0.06326710432767868, -0.023318134248256683, -0.00025335312238894403, 0.08555571734905243, -0.0032223439775407314, -0.1045360416173935, -0.07434551417827606, -0.046271275728940964, 0.04662686213850975, -0.017778178676962852, 0.05068464204668999, -0.03296550735831261, -0.006700476165860891, 0.0008162776357494295, -0.0075712064281105995, 0.08808872848749161, 0.0017983161378651857, 0.003972886595875025, -0.028038477525115013, -0.003059868700802326, 0.07951757311820984, 0.10660461336374283, 0.04806545749306679, 0.0688638910651207, 0.0301909651607275, 0.012119838036596775, 0.04748893529176712, 0.10215573012828827, 0.011196198873221874, 0.03140183910727501, -0.04520449787378311, 0.007329918909817934, -0.02488071471452713, -0.008064228110015392, 0.023437220603227615, 0.02708398550748825, -0.028452735394239426, -0.044589679688215256, -0.0030397665686905384, 0.033893682062625885, -0.15195715427398682, -0.03965229541063309, -0.11772827059030533, 0.12805184721946716, 0.03942682594060898, 0.02353743650019169, -0.06694823503494263, -0.016286185011267662, -0.12247484922409058, 0.05872386693954468, 0.005736017599701881, 0.07124587148427963, 0.06849846988916397, -0.042515143752098083, -0.04372057318687439, -0.06560034304857254, -0.00014038823428563774, 0.016351353377103806, -0.06752751022577286, 0.013635997660458088, -0.003205598797649145, -0.08208157122135162, -0.0005806279368698597, -0.010562131181359291, -0.08429232239723206, -0.08498790115118027, 0.03641831502318382, -0.0020815569441765547, -0.022734155878424644, -0.0244294423609972, -0.05474891513586044, -0.10738690942525864, -0.07029847055673599, -0.01716363988816738, 0.02044879086315632, -0.01269927155226469, 0.06452863663434982, -0.009910693392157555, -0.010359578765928745, 0.03329404070973396, 0.05751355364918709, -0.005171332508325577, -0.06872344762086868, -0.04959947615861893, 0.011645025573670864, 0.07012837380170822, 0.00608072429895401, 0.043403077870607376, 0.0058618043549358845, 0.0087050199508667, 0.016851995140314102, -0.004296455532312393, -0.0019322226289659739, -0.005740477237850428, 0.017564354464411736, -0.02245873399078846, 0.011811417527496815, 0.02187371999025345, -0.006719829048961401, 0.07544153183698654, 0.014533155597746372, 0.009717952460050583, -0.020984983071684837, -0.06202958524227142, -0.0011668276274576783, -0.0038517930079251528, 0.026561737060546875, 0.038816988468170166, 0.010754493065178394, 0.017867086455225945, -0.007552929222583771, -0.007814855314791203, -0.02085930109024048, -0.039301030337810516, -0.018519097939133644, -0.005925224628299475, -0.01776832342147827, 0.013467106968164444, 0.024731924757361412, 0.008673065342009068, 0.014441142790019512, -0.015392683446407318, -0.006847769487649202, 0.0035830847918987274, -0.006322610192000866, -0.009256904944777489, 0.010190421715378761, -0.011698220856487751, -0.010701590217649937, 0.010586287826299667, 0.008495582267642021, 0.015966609120368958, -0.009008441120386124, -0.012111000716686249, 0.018014920875430107, 0.01567019149661064, 0.023171694949269295, 0.011621599085628986, -0.08696060627698898, -0.05851338803768158, -0.04516153782606125, -0.024107685312628746, -0.04078167304396629, 0.05391176417469978, -0.03458360210061073, 0.014252121560275555, -0.0989777073264122, -0.058383867144584656, -0.0481293648481369, -0.045827463269233704, 0.08378858864307404, -0.14648357033729553, 0.0111501794308424, -0.08456503599882126, -0.002840219996869564, 0.013040272518992424, -0.068834088742733, 0.016967715695500374, -0.09540853649377823, 0.04914050176739693, 0.07073328644037247, 0.0887477919459343, 0.05465460941195488, -0.013574409298598766, 0.026644645258784294, -0.02034420147538185, 0.02731877937912941, 0.1762978732585907, 0.09036429971456528, 0.05235852301120758, 0.03741680085659027, 0.0652221292257309, -0.031244060024619102, 0.04921523109078407, 0.00568778719753027, -0.04715649411082268, -0.012905310839414597, -0.0031997195910662413, -0.008786718361079693, -0.07220443338155746, -0.06663816422224045, 0.006738462019711733, 0.0010594511404633522, 0.013708211481571198, 0.0439261868596077, -0.008222286589443684, -0.005245996173471212, 0.01784321293234825, -0.06305339932441711, 0.0802064761519432, -0.024306045845150948, 0.014135116711258888, -0.0014074683422222733, 0.005065219942480326, -0.10929493606090546, -0.05527099594473839, -0.01828633062541485, 0.012107383459806442, 0.014140981249511242, -0.025652406737208366, 0.013296103104948997, -0.06518804281949997, 0.10460803657770157, 0.016918424516916275, -0.016301896423101425, -0.10992676764726639, -0.03164249286055565, -0.006966103333979845, -0.008903250098228455, 0.18234668672084808, 0.08686599880456924, 0.12290707975625992, 0.012257090769708157, 0.020649123936891556, -0.0012179291807115078, 0.023405851796269417, 0.06257229298353195, 0.1298941820859909, 0.10289831459522247, 0.011452354490756989, 0.044084399938583374, 0.0001316034613410011, -0.01040781382471323, -0.020400991663336754, 0.10158129781484604, 0.005533440038561821, -0.06895916908979416, 0.10440408438444138, 0.0039282431825995445, -0.003495343029499054, 0.01890641450881958, 0.07535629719495773, 0.012623314745724201, 0.06727563589811325, 0.040558651089668274, 0.0028690246399492025, 0.0030037020333111286, 0.01257677935063839, 0.0016922203358262777, 0.051682427525520325, 0.05247567221522331, -0.017974024638533592, 0.006508111022412777, -0.02608463168144226, 0.016975009813904762, 0.07004007697105408, -0.007422320079058409, 0.04494459182024002, 0.00890310201793909, -0.03938298299908638, -0.05696284398436546, 0.03508849814534187, 0.08059251308441162, -0.07053260505199432, 0.010791362263262272, -0.010959338396787643, -0.014016819186508656, 0.054409101605415344, 0.017838573083281517, 0.027508314698934555, -0.13545860350131989, -0.07646001130342484, 0.005237030331045389, 0.0026690878439694643, 0.05384958162903786, -0.09195049852132797, -0.0426696352660656, -0.06493150442838669, -0.019240913912653923, 0.012064380571246147, 0.017027897760272026, -0.0003248963621445, -0.03485437110066414, 0.0034550861455500126, 0.0017228239448741078, 0.0275555532425642, 0.004865473136305809, -0.006473985034972429, -0.032501470297575, 0.02482839860022068, 0.005346184596419334, 0.016275864094495773, 0.018673380836844444, 0.047609370201826096, -0.011369950138032436, -0.0218049343675375, 0.005602721124887466, 0.00025189397274516523, -0.017521586269140244, 0.01107928529381752, 0.024035168811678886, -0.0035718483850359917, 0.0008905667928047478, -0.000267225579591468, 0.04889965057373047, 0.015246989205479622, 0.02224317193031311, 0.04995030537247658, -0.00507536344230175, 0.02358916401863098, 0.00023395929019898176, 0.040126603096723557, -0.030275458469986916, -0.017315838485956192, 0.008715244010090828, 0.010836966335773468, 0.04234909266233444, -0.02411729097366333, 0.01564238965511322, -0.009956874884665012, -0.06936030089855194, -0.018161702901124954, -0.006996264215558767, 0.012659399770200253, -0.023561861366033554, -0.04643576964735985, -0.05264875292778015, 0.033690646290779114, -0.04172791168093681, -0.027936093509197235, 0.005359549541026354, 0.022174712270498276, -0.028345273807644844, -0.0023729372769594193, 0.019428618252277374, 0.08481798321008682, -0.003513764124363661, -0.011810076422989368, -0.010913070291280746, -0.00951351784169674, 0.0023986496962606907, -0.002143694320693612, -0.01035928912460804, 0.01817166619002819, 0.016779404133558273, 0.003045588033273816, -0.003389660967513919, 0.01184074580669403, 0.012857935391366482, 0.017424793913960457, 0.011091124266386032, -0.004731923807412386, -0.04228838533163071, 0.06652306020259857, 0.08525653928518295, 0.004709278699010611, 0.0041364990174770355, -0.011548522859811783, -0.10541212558746338, 0.062093187123537064, 0.0698690339922905, 0.011035754345357418, -0.027366818860173225, -0.009078389964997768, -0.014581005088984966, -0.027432387694716454, 0.036391764879226685, -0.049412861466407776, -0.0015356410294771194, -0.01994728296995163, 0.007109938655048609, -0.006144331768155098, -0.03765956312417984, -0.10714210569858551, -0.07782676815986633, 0.0808493122458458, -0.015599897131323814, 0.02572617679834366, 0.001866777427494526, 0.007351302076131105, -0.03161030635237694, -0.03956310451030731, 0.06911266595125198, 0.00587243540212512, 0.03394431248307228, 0.006719993893057108, -0.01074991561472416, 0.006091977469623089, -0.0022096119355410337, -0.00622091768309474, 0.012236559763550758, 0.03441988676786423, 0.005935476161539555, -0.039089929312467575, -0.021926207467913628, -0.01317533664405346, -0.020570192486047745, -0.039775509387254715, -0.002628492657095194, -0.041862569749355316, -0.046536169946193695, -0.016431696712970734, -0.004966492764651775, -0.020969882607460022, 0.0077645787969231606, -0.012077436782419682, -0.004920405335724354, -0.018856199458241463, 0.021835584193468094, 0.01640583761036396, -0.01889823004603386, 0.01373759750276804, 0.1443370282649994, 0.008404822088778019, -0.011662277393043041, -0.0029282798059284687, 0.01889771595597267, -0.030581975355744362, -0.04020944982767105, -0.06450971961021423, -0.00557906785979867, -0.029117846861481667, -0.0001681539579294622, -0.0325772687792778, -0.021614063531160355, -0.015850018709897995, -0.017301714047789574, -0.018812889233231544, -0.044332098215818405, 0.013199022971093655, -0.0061240908689796925, -0.015390695072710514, 0.018382485955953598, 0.026729047298431396, 0.02618861012160778, 0.003704304341226816, 0.012576824054121971, 0.019672535359859467, 0.061933767050504684, 0.08513796329498291, 0.03675783425569534, -0.03619330748915672, -0.024708526208996773, 0.014874096028506756, 0.011870970949530602, 0.09417765587568283, 0.05013028532266617, 0.013629072345793247, -0.0025466769002377987, 0.029853053390979767, 0.05574355646967888, 0.013796743005514145, 0.06677909195423126, 0.12177678197622299, -0.0044603608548641205, -0.07185647636651993, -0.11108385026454926, -0.11391786485910416, 0.016051609069108963, -0.19526074826717377, -0.066104955971241, -0.045923322439193726, -0.02878822572529316, 0.07223764806985855, -0.03412037715315819, -0.018007900565862656, -0.1892392337322235, -0.11983253806829453, -0.09629005193710327, -0.008595529943704605, 0.1353042870759964, 0.13361157476902008, -0.1078626736998558, -0.054577309638261795, -0.1088777631521225, -0.028138834983110428, 0.03928345814347267, 0.038507942110300064, 0.06402065604925156, -0.032794613391160965, -0.010188848711550236, 0.03719480335712433, 0.02324223890900612, -0.03790561109781265, -0.03763212263584137, -0.07419025897979736, 0.0716027095913887, 0.03182053938508034, 0.05431253835558891, -0.00554674444720149, 0.003949168603867292, -0.015328090637922287, -0.007032177411019802, -0.016230978071689606, 0.03126983344554901, 0.0270849522203207, 0.0035737603902816772, -0.034192897379398346, -0.01168888807296753, -0.11845269799232483, -0.0051936074160039425, 0.13279053568840027, 0.10361050814390182, 0.0429462268948555, 0.001062659895978868, -0.06199856102466583, -0.06323962658643723, -0.07277538627386093, -0.04710467532277107, -0.05024025961756706, -0.052267253398895264, 0.029340893030166626, -0.06963086128234863, -0.022391391918063164, 0.08288270980119705, -0.06682545691728592, -0.11994495242834091, -0.10743161290884018, 0.006226818542927504, -0.012361640110611916, -0.08777925372123718, -0.034965869039297104, -0.03543073311448097, -0.03374617174267769, -0.03358815610408783, 0.022057361900806427, 0.03175237774848938, 0.0556550957262516, -0.03621961548924446, 0.038578443229198456, -0.0024944257456809282, 0.018997477367520332, 0.020090589299798012, 0.0008323602960444987, -0.026732062920928, -0.014995208941400051, 0.08393850922584534, 0.008093305863440037, 0.005414382088929415, 0.002272987738251686, 0.011466260999441147, -0.020188476890325546, 0.020052598789334297, -0.009657901711761951, 0.01293143630027771, 0.005210528150200844, -0.034873224794864655, -0.017643678933382034, -0.0020753610879182816, -0.012578465975821018, 0.03280823305249214, -0.0016162951942533255, 0.010426159016788006, -0.007672138977795839, -0.0009113200358115137, 0.027255738154053688, 0.02643248438835144, 0.000694484740961343, -3.615396053646691e-05, 0.049582552164793015, -0.0016852234257385135, 0.006964316125959158, 0.00858023390173912, -0.03596717491745949, -0.009004244580864906, -0.008778829127550125, -0.006451561581343412, 0.018809525296092033, 6.776253576390445e-05, 0.005886460188776255, 0.01375911757349968, -0.005252680741250515, 0.00959453359246254, -0.023675158619880676, -0.020261742174625397, -0.022049935534596443, -0.0017102513229474425, 0.010183519683778286, -0.017392458394169807, 0.0021900825668126345, 0.029326237738132477, -0.006639532744884491, -0.008269507437944412, 0.016898980364203453, -0.01074488740414381, 0.021585186943411827, 0.018754854798316956, 0.02578163519501686, -0.009600692428648472, -0.011245787143707275, 0.0039764102548360825, -0.034280333667993546, 0.11365348845720291, 0.11382506042718887, 0.021985003724694252, -0.026317372918128967, 0.005865773651748896, 0.07144643366336823, -0.09896297752857208, 0.03593438118696213, 0.05680786818265915, -0.03144412115216255, -0.0013804232003167272, 0.048336051404476166, 0.10363560914993286, -0.029088804498314857, -0.040942613035440445, -0.020376916974782944, -0.11126428842544556, -0.01008923165500164, 0.043081074953079224, 0.0882149264216423, 0.08030763268470764, 0.044093865901231766, 0.03411180153489113, -0.06836383044719696, -0.005733283702284098, 0.023802734911441803, -0.040723469108343124, 0.13434380292892456, 0.0291739534586668, 0.05152619630098343, 0.05759464204311371, 0.008972753770649433, -0.028699900954961777, -0.09447392076253891, 0.01796533353626728, 0.083993099629879, 0.0467754527926445, 0.04344575107097626, -0.014116590842604637, -0.014332909137010574, -0.019834140315651894, -0.0009654716704972088, 0.16335050761699677, 0.03235355764627457, 0.008118328638374805, -0.017019134014844894, -0.0010214074281975627, -0.018654020503163338, 0.06362688541412354, 0.01322081033140421, 0.06329900771379471, 0.09963849931955338, -0.01723988726735115, -0.07184209674596786, -0.020226074382662773, -0.023286975920200348, -0.00552224600687623, 0.11455632001161575, 0.13579235970973969, -0.0005197491263970733, -0.05988035351037979, 0.011103886179625988, -0.02465033158659935, -0.11708982288837433, -0.0980541929602623, 0.01762610487639904, 0.08254607021808624, -0.050820913165807724, -0.018015533685684204, -0.14796385169029236, -0.16643360257148743, -0.053387753665447235, -0.061000168323516846, 0.031159736216068268, 0.0002918879908975214, -0.06400646269321442, -0.1141316369175911, -0.03641747683286667, 0.018470676615834236, 0.07381539791822433, -0.023241251707077026, -0.017362840473651886, -0.010460383258759975, -0.0016026499215513468, 0.0277851689606905, -0.025109995156526566, 0.017860783264040947, 0.004674270283430815, 0.010252397507429123, -0.031640369445085526, 0.09191170334815979, 0.06590224802494049, 0.01888347789645195, -0.0025459376629441977, 0.00598972337320447, -0.0031165098771452904, -0.01644115149974823, -0.03259693458676338, 0.022982316091656685, 0.009543205611407757, 0.0011498553212732077, -0.030167613178491592, -0.05072785168886185, -0.048012834042310715, 0.028244154527783394, 0.0351770855486393, 0.02313333936035633, -0.003927414771169424, 0.006920525338500738, -0.05826888233423233, 0.00321688549593091, -0.030714670196175575, 0.02310594916343689, 0.06054718792438507, 0.0679820328950882, 0.00042680423939600587, 0.01927272044122219, -0.0017981514101848006, 0.035944461822509766, -0.01854623667895794, 0.029024295508861542, -0.039986833930015564, 0.013792327605187893, 0.003386552445590496, 0.01433910895138979, 0.06267361342906952, -0.02771296165883541, -0.027602668851614, -0.07862057536840439, -0.04903896898031235, 0.0271922517567873, 0.06761275231838226, 0.0449364148080349, 0.013323629274964333, -0.01667235791683197, 0.0167093388736248, 0.029652919620275497, -0.02143876440823078, -0.041747353971004486, -0.04398281127214432, -0.039039865136146545, 0.029855802655220032, 0.033488716930150986, -0.031043697148561478, -0.05936490371823311, -0.034579090774059296, -0.0019007869996130466, 0.044885147362947464, -0.011413338594138622, 0.05714976787567139, -0.01410482544451952, -0.05523092672228813, -0.029386598616838455, -0.04630408063530922, -0.04780348762869835, -0.02230968326330185, 0.0103981401771307, -0.08756990730762482, -0.12564224004745483, -0.08977670967578888, -0.05001486837863922, -0.02444370836019516, -0.03907371684908867, 0.01709759794175625, -0.012979590333998203, -0.00975966826081276, -0.0027098481077700853, 0.031090939417481422, 0.003337122965604067, -0.021274063736200333, -0.04045296087861061, 0.0035092716570943594, 0.03663193807005882, 0.14362742006778717, 0.07303404808044434, 0.03244330734014511, 0.008991745300590992, 0.01441969908773899, 0.026456501334905624, 0.013976172544062138, 0.037924300879240036, 0.02878827229142189, 0.0317586287856102, -0.022600209340453148, 0.01682000607252121, -0.030996499583125114, 0.011306819505989552, 0.015890471637248993, -0.000594192068092525, -0.004581862594932318, 0.027424339205026627, 0.0009816273814067245, 0.005072264466434717, 0.006864598020911217, -0.036011286079883575, -0.004611308220773935, 0.04697573184967041, 0.0169612355530262, 0.021514931693673134, -0.05947105213999748, -0.00534618366509676, 0.00487892422825098, 0.025365937501192093, -0.00771983852609992, -0.040979620069265366, 0.027770087122917175, -0.023120861500501633, 0.05900363624095917, 0.04962565004825592, -0.03237652778625488, -0.06506459414958954, -0.08633560687303543, 0.014059525914490223, 0.014516602270305157, 0.03308068960905075, -0.01779015362262726, -0.017530733719468117, -0.04367077350616455, -0.020664125680923462, 0.0017176993424072862, -0.005451819393783808, -0.03797832876443863, -0.06431329995393753, -0.024191200733184814, 0.0588843934237957, 0.023300252854824066, -0.003970171324908733, -0.0019728816114366055, -0.008842099457979202, -0.019352443516254425, 0.04033471271395683, 0.08347660303115845, 0.019754301756620407, -0.028181366622447968, -0.0018505615880712867, -0.02059992589056492, 0.010226820595562458, 0.04231186956167221, 0.08223952353000641, -0.006698080338537693, 0.006737689487636089, -0.03137721121311188, -0.06901229172945023, 0.028028454631567, 0.032852571457624435, -0.006396911107003689, 0.056259654462337494, 0.04889073222875595, -0.10566934198141098, 0.037408627569675446, -0.026528995484113693, 0.0008885482675395906, 0.01725519262254238, 0.061439402401447296, 0.025063075125217438, -0.017374292016029358, -0.10703045129776001, -0.030722206458449364, 0.0024986248463392258, -0.09307774901390076, -0.05887053534388542, 0.0015332396142184734, -0.009352203458547592, -0.05390879884362221, -0.08683513849973679, -0.05371006950736046, -0.062083519995212555, 0.018521027639508247, 0.01201088447123766, -0.002087338361889124, 0.05082619935274124, 0.06050562858581543, -0.028068754822015762, 0.014977260492742062, 0.01244109682738781, -0.0023884684778749943, -0.09242287278175354, 0.10567524284124374, 0.135809063911438, -0.0015350658213719726, -0.05182292312383652, -0.05411817505955696, 0.01847282238304615, -0.05710605904459953, -0.04246882349252701, 0.04514014348387718, 0.01130023505538702, -0.02423573099076748, -0.03216194361448288, -0.003546076826751232, 0.004043795168399811, -0.028889169916510582, 0.00481201009824872, -0.0270464476197958, -0.03529437258839607, 0.011246352456510067, 0.013894375413656235, -0.010564965195953846, -0.061290860176086426, -0.08668271452188492, 0.0700623095035553, 0.10655427724123001, 0.07295423746109009, 0.023284638300538063, -0.08550389856100082, -0.066545270383358, 0.0020176987163722515, 0.06907632201910019, 0.11858738958835602, 0.03586847707629204, 0.056692447513341904, -0.07135002315044403, -0.055454105138778687, 0.09439423680305481, 0.06442977488040924, 0.06482705473899841, 0.1058247983455658, 0.11940070241689682, 0.008709833025932312, -0.025397442281246185, 0.059817396104335785, 0.01325114443898201, -0.09844879060983658, -0.019036006182432175, -0.008861244656145573, -0.022948307916522026, 0.07624521106481552, 0.09943412989377975, -0.027635756880044937, -0.009453728795051575, 0.018347615376114845, -0.03402450308203697, -0.024835219606757164, -0.06677750498056412, -0.027221830561757088, -0.0031085254158824682, 0.004036789294332266, -0.020226217806339264, 0.06429543346166611, 0.009702064096927643, -0.0358123742043972, 0.06047280505299568, 0.057121820747852325, 0.041561875492334366, 0.008383083157241344, 0.031280819326639175, -0.09733527153730392, -0.05177796632051468, 0.00257038208656013, -0.018815696239471436, -0.0247783325612545, 0.012511511333286762, 0.02992657758295536, 0.006251628044992685, -0.004368694499135017, -0.006182467099279165, -0.07750111073255539, -0.061278086155653, -0.056623004376888275, -0.007188912946730852, 0.003787853755056858, -0.014329900033771992, -0.05487147718667984, 0.020998723804950714, -0.050011053681373596, -0.0682048350572586, -0.036011047661304474, -0.03298797085881233, -0.05106820911169052, -0.1133485659956932, -0.1005556583404541, 0.012321327812969685, -0.02100376971065998, 0.004898099694401026, -0.01910771057009697, -0.054873451590538025, -0.05080863833427429, -0.048441510647535324, 0.07378210872411728, -0.00344413286074996, -0.03062630444765091, 0.009238624013960361, 0.006612867116928101, 0.004787851125001907, 0.07543253153562546, 0.12003611773252487, -0.01845555007457733, 0.04784749075770378, -0.001330805360339582, -0.01523290853947401, -0.02600080706179142, 0.0038329812232404947, 0.012261233292520046, -0.010491382330656052, 0.010729514993727207, -0.06707648187875748, -0.030886968597769737, -0.009246724657714367, -0.00165207136888057, -0.007908239960670471, 0.004865007009357214, 0.06455635279417038, -0.019796596840023994, -0.06678435206413269, -0.0023581739515066147, -0.0013792046811431646, 0.017556510865688324, -0.018053384497761726, 0.046454984694719315, -0.0012033454841002822, -0.04205373302102089, -0.08701515197753906, -0.029494065791368484, -0.05976308882236481, -0.05401924252510071, -0.10058522969484329, -0.018095960840582848, 0.023830292746424675, 0.03962570056319237, 0.04729228839278221, 0.01819065399467945, 0.02056073769927025, 0.042946312576532364, -0.05634617060422897, 0.017536528408527374, 0.08968870341777802, 0.06177623197436333, 0.00592562323436141, -0.023141931742429733, -0.03239424154162407, -0.01840309426188469, -0.07499483972787857, 0.00581662543118, 0.06364145874977112, 0.028457704931497574, 0.02039576880633831, -0.008458592928946018, 0.011730886995792389, -0.04310298338532448, -0.037011124193668365, -0.02152726985514164, 0.01051437295973301, 0.014039685018360615, -0.00922504160553217, -0.04563791677355766, -0.04331381246447563, 0.01579061895608902, 0.007691932842135429, -0.017966972663998604, -0.023698749020695686, -0.0045785196125507355, -0.0016694556688889861, 0.00848217960447073, -0.005214204546064138, 0.021316923201084137, 0.011184698902070522, 0.03568238392472267, 0.031355999410152435, 0.01514630950987339, 0.026733428239822388, 0.06775159388780594, -0.013551582582294941, 0.03771583363413811, -0.002449545543640852, 0.005608497653156519, 0.018813416361808777, -0.031374573707580566, -0.005202709697186947, -0.0459875650703907, -0.013440079055726528, -0.00726497545838356, -0.005746975541114807, -0.01866845041513443, -0.0448342002928257, 0.0016972434241324663, -0.008564368821680546, -0.01807289756834507, -0.019061824306845665, 0.003208909882232547, 0.011456675827503204, -0.014332151040434837, 0.00787598080933094, 0.011873108334839344, 0.0313756950199604, 0.01160834077745676, 0.025574760511517525, -0.005258779972791672, 0.00655937846750021, -0.009085536934435368, 0.004099294543266296, 0.05151359364390373, -0.0141214020550251, 0.011872591450810432, 0.026137107983231544, -0.09618652611970901, -0.010414978489279747, 0.05047566443681717, 0.10005444288253784, 0.0475441999733448, 0.06691764295101166, -0.0411151722073555, -0.08219130337238312, 0.05805211141705513, 0.04598960652947426, 0.03512533754110336, 0.004261299502104521, 0.08986721187829971, -0.03053026832640171, 0.0073027098551392555, 0.029698321595788002, 0.05316632241010666, -0.0501781702041626, -0.07404080033302307, -0.012175501324236393, 0.017084401100873947, 0.007052579894661903, 0.05347035080194473, 0.0803346335887909, -0.06412401795387268, 0.006782888900488615, -0.02834118716418743, -0.03323676809668541, -0.00843882653862238, 0.005784158129245043, -0.014806097373366356, -0.028681807219982147, -0.00837891735136509, -0.007046776358038187, 0.00932394526898861, -0.0516531728208065, -0.042625267058610916, 0.00051070936024189, -0.009113975800573826, -0.035694435238838196, 0.029277732595801353, 0.005333489738404751, -0.12217241525650024, -0.03575438633561134, -0.008642468601465225, -0.014487771317362785, 0.0036559724248945713, 0.010490667074918747, -0.0953785702586174, -0.06791579723358154, 0.03795390948653221, -0.07485997676849365, -0.06611179560422897, -0.07054481655359268, -0.0259139072149992, -0.041605979204177856, -0.027035007253289223, 0.061200667172670364, 0.04399476945400238, -0.01351238414645195, -0.04532754793763161, 0.03053371235728264, -0.01328230369836092, 0.04401380941271782, 0.07835027575492859, 0.031260401010513306, 0.04453536495566368, 0.006818935740739107, 0.02395063452422619, 0.04508175328373909, -0.05873532220721245, 0.0096136424690485, -0.038324687629938126, 0.019970351830124855, 0.01937267556786537, 0.04496223106980324, -0.07918429374694824, -0.07853814214468002, -0.0032485760748386383, -0.07111689448356628, -9.038620919454843e-05, 0.0123855359852314, 0.07111258059740067, 0.019525351002812386, -0.011256810277700424, 0.03956398740410805, 0.050175152719020844, 0.034893494099378586, 0.10593054443597794, 0.059668414294719696, -0.012802728451788425, -0.015366563573479652, 0.00897987186908722, 0.005640087183564901, 0.02741708792746067, -0.007937277667224407, 0.013979051262140274, -0.07870268076658249, -0.05617871508002281, -0.008369277231395245, 0.006784752011299133, 0.030388783663511276, 0.029670245945453644, 0.018058182671666145, -0.009348270483314991, -0.0019548533018678427, 0.049227628856897354, 0.024916036054491997, -0.0031343873124569654, 0.03309250995516777, 0.012920531444251537, 0.007231269497424364, 0.0025228504091501236, -0.006626448594033718, -0.018683969974517822, -0.01563817635178566, -0.03682742640376091, -0.024207109585404396, 0.007617749739438295, 0.01747455634176731, 0.03646274656057358, 0.02764287032186985, -0.007101837545633316, 0.025114532560110092, 0.000356518808985129, -0.004883026238530874, 0.007151693571358919, -0.009082944132387638, -0.013069315813481808, 0.003553043119609356, -0.006771580316126347, 0.013462601229548454, 0.0019400578457862139, -0.008181373588740826, -0.006567780394107103, -0.015562338754534721, 0.0027163312770426273, 0.03754812479019165, 0.029564082622528076, -0.01064740214496851, -0.040948688983917236, -0.03913695737719536, 0.07834388315677643, 0.06720470637083054, 0.08890700340270996, -0.06423591077327728, -0.08618529886007309, -0.09678030759096146, -0.09611804038286209, -0.04413425922393799, 0.05332126468420029, -0.006204256787896156, -0.043196845799684525, -0.06235402822494507, 0.02322331815958023, 0.07804427295923233, 0.046171750873327255, -0.01180711854249239, -0.0641380101442337, -0.0455557182431221, 0.04164222255349159, 0.05192282795906067, 0.17475160956382751, 0.06778356432914734, 0.06584585458040237, -0.010807517915964127, 0.017334097996354103, 0.052073825150728226, 0.059370022267103195, 0.035521529614925385, 0.015203036367893219, 0.05794157460331917, -0.021651018410921097, 0.005618292838335037, 0.03387107327580452, -0.015148835256695747, -0.020612100139260292, 0.03980468213558197, 0.02779921516776085, -0.017552733421325684, -0.007731983438134193, 0.017746537923812866, 0.00949537567794323, 0.014627447351813316, 0.04532782360911369, 0.0691257044672966, 0.002940716687589884, 0.01851772889494896, 0.0069744521751999855, -0.009071427397429943, 0.012194106355309486, 0.03390299528837204, 0.010066916234791279, 0.03325260803103447, 0.03780784830451012, -0.03592028468847275, 0.009704421274363995, -0.005506634712219238, 0.005412422586232424, 0.014812855049967766, 0.049403417855501175, 0.060266897082328796, 0.01737036183476448, -0.044781990349292755, 0.04150425270199776, -0.04080777242779732, -0.038285862654447556, 0.010038875974714756, 0.035977330058813095, -0.03016420267522335, -0.09903468191623688, -0.010031855665147305, 0.00912695936858654, -0.10782872140407562, -0.023921696469187737, 0.034535154700279236, 0.010060979053378105, -0.0047515989281237125, 0.05667632445693016, 0.04105006158351898, -0.029144693166017532, 0.008294436149299145, 0.06594051420688629, -0.019099155440926552, 0.06578440964221954, 0.10185105353593826, -0.0189990121871233, -0.05874529480934143, -0.020113583654165268, -0.011631056666374207, 0.0022126331459730864, -0.036079004406929016, -0.008268075063824654, 0.007499002385884523, 0.04840433597564697, 0.021087486296892166, 0.00855669192969799, -0.003805273212492466, -0.06635204702615738, 0.05831599235534668, 0.04216863960027695, 0.08916434645652771, 0.14058737456798553, 0.040741369128227234, -0.0931503102183342, 0.012310128659009933, -0.00724341906607151, -0.026892270892858505, -0.01889744959771633, 0.08115620166063309, -0.026135070249438286, -0.03842105716466904, 0.040946800261735916, 0.006879878230392933, -0.04896117001771927, -0.08681712299585342, -0.034232571721076965, -0.07810389995574951, 0.030640466138720512, 0.03726496919989586, 0.05006338655948639, 0.09532413631677628, -0.035628460347652435, -0.021693162620067596, -0.07563692331314087, -0.009248794056475163, -0.04997444525361061, -0.08277413994073868, 0.1008835881948471, 0.021063171327114105, -0.007369200699031353, 0.01894424483180046, -0.047485560178756714, -0.08653087168931961, -0.12885142862796783, 0.03368685021996498, 0.06868446618318558, 0.0650857612490654, 0.014484268613159657, 0.01766328513622284, -0.017116552218794823, 0.0382528156042099, 0.02786809392273426, 0.07079356163740158, -0.018712399527430534, -0.014208351261913776, 0.018463313579559326, 0.036677658557891846, 0.00902216974645853, 0.011646133847534657, 0.037347231060266495, 0.0605568028986454, 0.03447621688246727, -0.01796041987836361, -0.06301108747720718, -0.003560486249625683, 0.003593136789277196, 0.03374161943793297, 0.05179630219936371, 0.04602695256471634, 0.07188129425048828, 0.01631665788590908, -0.03411093354225159, 0.028776325285434723, -0.02405691146850586, -0.03301135078072548, 0.01731090620160103, 0.018099326640367508, -0.04373621568083763, -0.07978513091802597, -0.05396508798003197, -0.11455902457237244, -0.05842742323875427, -0.024232394993305206, 0.039386093616485596, -0.027092712000012398, -0.12149561196565628, -0.09805526584386826, 0.0018731134478002787, 0.06825369596481323, -0.018851321190595627, -0.023557092994451523, -0.06963968276977539, -0.05954771488904953, -0.02369542419910431, 0.07705199718475342, -0.030583251267671585, -0.01247812993824482, 0.021362576633691788, 0.022302106022834778, 0.018841572105884552, 0.010382345877587795, 0.025583932176232338, 0.017999742180109024, 0.012228940613567829, -0.07624100893735886, -0.08588429540395737, -0.010104844346642494, -0.05414249375462532, 0.031631652265787125, -0.06531038135290146, 0.050442054867744446, -0.06610510498285294, 0.06804228574037552, 0.11039143800735474, 0.03523191437125206, -0.06818149983882904, -0.0012700220104306936, -0.1124349907040596, -0.011986310593783855, 0.05433586239814758, 0.07479625195264816, 0.02324463054537773, -0.12289033085107803, -0.03402290493249893, -0.10110265761613846, -0.03443542867898941, 0.06783194094896317, 0.07038366049528122, 0.13116785883903503, 0.13939251005649567, 0.06352336704730988, -0.10419657081365585, -0.009004814550280571, 0.008883036673069, 0.006655137985944748, 0.16685038805007935, 0.045673634856939316, 0.15064391493797302, -0.018497580662369728, -0.07079566270112991, -0.09363747388124466, -0.14122498035430908, 0.055486880242824554, 0.06738428771495819, 0.08844385296106339, 0.055697906762361526, -0.029924815520644188, -0.10580699890851974, -0.02006574347615242, 0.01964600197970867, 0.1222824826836586, 0.09327946603298187, 0.006001323461532593, 0.008921146392822266, -0.0020494405180215836, 0.012325309216976166, -0.01227599661797285, -0.013695725239813328, -0.0037029001396149397, -0.020878881216049194, 0.006645407527685165, 0.0030447468161582947, -0.009463059715926647, 0.002320738509297371, -0.0033729271963238716, -0.003808945417404175, 0.015056481584906578, -0.007526751607656479, 0.011233421042561531, -0.004426381550729275, 0.0010967067210003734, 0.008291061036288738, -0.002523571252822876, -0.00510634109377861, 0.006355371326208115, 0.011027060449123383, -0.011809870600700378, -0.01776014268398285, 0.00045348331332206726, 0.010083021596074104, 0.0061705950647592545, -0.006270749494433403, -0.013406911864876747, -0.0029499130323529243, 0.0009799301624298096, -0.00014549866318702698, -0.00921650230884552, -0.0012890119105577469, -0.0013025272637605667, 0.012196727097034454, 0.011629899963736534, -0.004221171140670776, -0.011756688356399536, -0.0017620474100112915, 0.004038028419017792, 0.015796596184372902, -0.010202553123235703, 0.00964694656431675, 0.016037525609135628, 0.015097538009285927, -0.014512198977172375, -0.0007566493004560471, -0.007392762694507837, -0.08560866117477417, -0.10159167647361755, 0.03701920807361603, 0.02572251856327057, -0.015661977231502533, -0.016695398837327957, -0.0510384775698185, -0.0485239140689373, 0.053521718829870224, 0.0003010467626154423, -0.01140746008604765, 0.005025267135351896, 0.021325238049030304, -0.02891811914741993, -0.01237353216856718, 0.10448774695396423, 0.05695376172661781, -0.05510576069355011, -0.03009488619863987, 0.009676597081124783, -0.00526835210621357, 0.017477789893746376, 0.08076731115579605, 0.09568709880113602, 0.046686917543411255, -0.017197811976075172, 0.008200141601264477, 0.036831118166446686, -0.09061249345541, 0.028751475736498833, 0.08117858320474625, 0.04358086362481117, 0.047424882650375366, -0.00220502563752234, -0.0010955173056572676, -0.06689361482858658, -0.032634105533361435, -0.056582558900117874, 0.040080007165670395, 0.04793960973620415, 0.011113708838820457, -0.019275713711977005, -0.013355618342757225, 0.012073406018316746, 0.06562963873147964, 0.03185503929853439, 0.06670862436294556, -0.01264869887381792, -0.003491907147690654, 0.0018376536900177598, -0.0004391936236061156, -0.018175994977355003, 0.030572721734642982, -0.028590170666575432, -0.02790459245443344, -0.017833352088928223, 0.017474452033638954, 0.011038343422114849, 0.0006686527631245553, -0.025070013478398323, 0.007798428181558847, 0.004542571026831865, -0.06464413553476334, -0.006181100383400917, -0.0751127377152443, -0.03854900971055031, -0.00216800719499588, -0.0035018695052713156, 0.05374777317047119, -0.004887783899903297, -0.04672631993889809, 0.022970644757151604, -0.05156869441270828, -0.06793195009231567, -0.053910091519355774, -0.03950312361121178, -0.007591860368847847, -0.033199165016412735, 0.011330769397318363, -0.04433249682188034, 0.006831920240074396, 0.0030850626062601805, 0.0647837370634079, 0.0035174605436623096, -0.004568764939904213, 0.03956926241517067, -0.007328834850341082, -0.047499530017375946, 0.022355632856488228, 0.049477994441986084, 0.028717774897813797, 0.013551625423133373, 0.03270804509520531, 0.20127639174461365, 0.025898639112710953, 0.1053718850016594, 0.01342626754194498, 0.0019051525741815567, -0.010857020504772663, 0.007002208381891251, -0.00922046322375536, -0.007567700929939747, -0.003168341238051653, -0.00433000922203064, -0.0052461205050349236, -0.014310978353023529, 0.0042162686586380005, 0.009151929058134556, 0.006093785632401705, 0.006771084386855364, 0.009683995507657528, 0.016521861776709557, -0.0030438750982284546, -0.004204525146633387, 0.012742297723889351, 0.020572401583194733, -0.022183701395988464, 0.0030630845576524734, 0.016941851004958153, -0.011627917177975178, -0.0019512068247422576, -0.011344042606651783, 0.013707115314900875, -0.01595446839928627, 0.006223755422979593, 0.008550496771931648, 0.0018335860222578049, 0.006992526352405548, 0.014714363031089306, -0.008640007115900517, -0.01562268752604723, -0.005179328843951225, -0.002277352847158909, -0.0117996446788311, 0.010512782260775566, -0.00523986853659153, -0.014645003713667393, -0.02304280549287796, 0.003927137702703476, 0.011211376637220383, -0.013829323463141918, -0.004226286895573139, -0.0004100557416677475, -0.006097031757235527, 0.016149992123246193, 0.0052220504730939865, -0.013425725512206554, -0.026826290413737297, -0.037650346755981445, -0.010792923159897327, 0.05968786031007767, 0.036842335015535355, 0.005851461552083492, -0.087172731757164, -0.06210402771830559, 0.0244764257222414, -0.003348185447975993, 0.03258712962269783, 0.05903053656220436, -0.009410372003912926, -0.04429084435105324, -0.06809962540864944, 0.04658902809023857, 0.07410505414009094, 0.03488209471106529, 0.036866843700408936, 0.04239051416516304, -0.031072469428181648, -0.011695540510118008, -0.023588156327605247, -0.016867760568857193, -0.03242459148168564, -0.0444265641272068, -0.025013068690896034, 0.021106980741024017, 0.05918718874454498, 0.10972101241350174, 0.007847903296351433, 0.0018096616258844733, 0.0024491336662322283, -0.010373305529356003, -0.072056345641613, -0.01847263053059578, 0.026218857616186142, 0.0026803496293723583, -0.0018835453083738685, -0.02631433866918087, 0.0014610594371333718, 0.004890558775514364, -0.036827292293310165, 0.00032138137612491846, -0.0005107828183099627, -0.01305481605231762, 0.06535425782203674, 0.0203305184841156, 0.0045681968331336975, -0.05534081533551216, -0.016734572127461433, -0.02343556471168995, -0.024659249931573868, 0.010418031364679337, 0.007333341054618359, -0.0199272558093071, 0.08215311914682388, -0.012065576389431953, -0.04720849171280861, -0.0141603359952569, -0.022751808166503906, -0.003978393040597439, -0.017120447009801865, -0.010487191379070282, -0.04424012824892998, -0.0624854601919651, -0.017833711579442024, 0.07214945554733276, 0.0918789803981781, 0.0031408334616571665, 0.03090820275247097, 0.019216714426875114, 0.037981681525707245, 0.026191432029008865, 0.08561524748802185, 0.06556074321269989, 0.022898904979228973, 0.009331447072327137, -0.010334341786801815, 0.006720326375216246, 0.046800754964351654, -0.03891322389245033, -0.04746284335851669, 0.0029667827766388655, -0.006685179192572832, 0.009984230622649193, -0.003869849955663085, -0.027392959222197533, 0.001984040718525648, 0.013990607112646103, 0.010431506671011448, -0.07398166507482529, -0.023724988102912903, 0.009783709421753883, 0.028493085876107216, 0.018846703693270683, 0.05537359043955803, -0.015541941858828068, -0.06407307088375092, -0.02658309042453766, -0.011468909680843353, -0.028124315664172173, -0.018418706953525543, 0.01928403042256832, -0.012447805143892765, -0.044085998088121414, -0.034430768340826035, -0.056164808571338654, -0.058615732938051224, -0.04845689982175827, 0.042423710227012634, -0.01679617539048195, -0.11796693503856659, 0.04864158108830452, -0.01547638326883316, -0.03802000358700752, -0.07656281441450119, 0.09905079007148743, 0.003434767248108983, 0.09440866857767105, 0.1434127688407898, 0.028187960386276245, 0.002831962425261736, -0.0405125766992569, -0.04259851947426796, 0.023489564657211304, 0.08731638640165329, 0.13621100783348083, 0.07436094433069229, -0.07298535853624344, -0.02347426302731037, 0.024519631639122963, 0.024033596739172935, 0.0073159681633114815, 0.0168965682387352, 0.07723693549633026, 0.003776234807446599, 0.012146652676165104, 0.041968442499637604, -0.01851499453186989, 0.009740911424160004, -0.012156997807323933, 0.014202015474438667, 0.022216254845261574, -0.0033515002578496933, -0.00876998994499445, -0.0040922146290540695, -0.034568410366773605, -0.014470343478024006, -0.014746714383363724, -0.01229978259652853, 0.017955102026462555, 0.008267052471637726, -0.028833625838160515, -0.030278727412223816, 0.002851557917892933, 0.026052558794617653, 0.030176961794495583, 0.004334163852035999, 0.0011175506515428424, 0.017104651778936386, 0.015010176226496696, 0.025732599198818207, 0.032351408153772354, -0.01533862017095089, -0.032954808324575424, 0.010641111060976982, -0.0031427801586687565, 0.022363774478435516, 0.02243013307452202, -0.011375696398317814, 0.059388600289821625, 0.024026228114962578, -0.016681140288710594, -0.0011315683368593454, -0.04363062232732773, 0.00047739414731040597, 0.009278761222958565, 0.009499356150627136, 0.03966112434864044, -0.008531940169632435, -0.03317120671272278, -0.0014910358004271984, -0.018275370821356773, -0.006965049542486668, -0.006354041863232851, -0.03265019506216049, 0.01616913080215454, -0.003021112410351634, 0.01452373806387186, 0.0176341962069273, -0.0010781802702695131, 0.0017979367403313518, -0.01463877409696579, 0.0027985661290585995, 0.006498923525214195, -0.02367945946753025, -0.03955560177564621, -0.06294085830450058, -0.07691531628370285, -0.0038155559450387955, -0.014507869258522987, -0.012200582772493362, -0.04085874557495117, 0.02729167602956295, 0.06352529674768448, 0.015818264335393906, 0.05090450868010521, 0.07578093558549881, -0.04670896753668785, -0.08257239311933517, -0.010453999042510986, 0.048516955226659775, 0.10640481859445572, 0.05000901222229004, 0.05152052640914917, -0.05062186345458031, -0.012318003922700882, 0.07665970921516418, 0.08647485822439194, 0.013239921070635319, -0.017860418185591698, 0.024626079946756363, 0.0316360704600811, -0.02617107518017292, 0.008825491182506084, 0.012371490709483624, -0.027992062270641327, -0.0664435625076294, -0.09079509228467941, -0.036549389362335205, 0.046828195452690125, 0.057660315185785294, -0.0038185506127774715, -0.00670465175062418, -0.007422463968396187, -0.02287638746201992, 0.0013638342497870326, -0.08856887370347977, -0.039093464612960815, -0.01645418256521225, -0.0087923314422369, -0.05714787542819977, 0.020435553044080734, 0.011988956481218338, -0.007115310523658991, 0.04992645978927612, 0.09795840829610825, 0.07281780987977982, 0.011031538248062134, 0.0057389819994568825, -0.057047780603170395, -0.027500765398144722, -0.0043419464491307735, 0.01405971497297287, 0.11481121182441711, 0.011063111014664173, -0.012917917221784592, -0.016689671203494072, -0.011734330095350742, 0.01962694153189659, -0.05705670267343521, 0.006218364462256432, -0.007724751718342304, -0.08389690518379211, 0.011267411522567272, -0.009665326215326786, -0.024013623595237732, 0.013790853321552277, 0.07272376120090485, -0.05643221363425255, -0.10869009047746658, 0.01800956390798092, -0.021830683574080467, -0.14422322809696198, 0.02645687758922577, 0.03623976930975914, -0.020080482587218285, 0.0511450469493866, 0.005002896301448345, -0.04691459983587265, -0.13836106657981873, 0.02589457668364048, 0.06763432174921036, 0.004665134474635124, 0.04519594833254814, 0.0037445356138050556, -0.007570858113467693, 0.013699812814593315, 0.0033790618181228638, 0.09815944731235504, -0.018678409978747368, -0.006556597072631121, -0.008747163228690624, -0.016794273629784584, -0.02304241806268692, 0.018908042460680008, 0.015947170555591583, -0.008115402422845364, 0.023562338203191757, -0.04332245513796806, -0.007393090520054102, 0.003922417759895325, 0.015366734005510807, -0.009250635281205177, -0.008454754948616028, -0.00020144118752796203, -0.001428063027560711, 0.02796698361635208, 0.026689594611525536, 0.03929721936583519, -0.03595302253961563, -0.03916861116886139, 0.007545799482613802, 0.06038670986890793, -0.007791035808622837, 0.012612758204340935, -0.025572706013917923, -0.04237651452422142, 0.03792261704802513, -0.02133939042687416, 0.0016574072651565075, -0.05521266534924507, -0.10794541239738464, -0.03295641392469406, -0.0034146085381507874, 0.07896117120981216, -0.01974606141448021, -0.016094408929347992, -0.03623013198375702, -0.07108309119939804, 0.01057322695851326, 0.035906169563531876, 0.015944335609674454, 0.004291337449103594, 0.002554565668106079, -0.0019129887223243713, 0.00928274542093277, 0.03913990035653114, 0.031289976090192795, 0.024334073066711426, 0.017318399623036385, 0.03682280331850052, -0.10266173630952835, -0.0771818682551384, 0.01390744373202324, -0.015541305765509605, -0.03356229513883591, 0.0009634520974941552, -0.08966989815235138, 0.05748188868165016, -0.02661830745637417, -0.04089513421058655, -0.04093560203909874, -0.012049514800310135, -0.04454369843006134, -0.056461088359355927, -0.06872794032096863, -0.015435502864420414, 0.009648933075368404, -0.046807993203401566, -0.04827320575714111, 0.09475474804639816, -0.014192449860274792, -0.0776626318693161, -0.04635527357459068, -0.05864361673593521, -0.01265249028801918, -0.007134108804166317, 0.014441120438277721, 0.01715177670121193, 0.10495100170373917, 0.10343646258115768, 0.016963059082627296, -0.0525616779923439, -0.03610221669077873, -0.014048242941498756, -0.05236427113413811, 0.04209340363740921, 0.04494217783212662, -0.022186771035194397, -0.04702478274703026, -0.051199644804000854, 0.0534917376935482, 0.032780107110738754, -0.07165814936161041, 0.04319935292005539, 0.08334322273731232, -0.008831147104501724, 0.06697707623243332, 0.03241707384586334, -0.0117412731051445, -0.03365866094827652, -0.046889159828424454, -0.014897466637194157, -0.019583065062761307, -0.034328341484069824, 0.013721488416194916, -0.017352517694234848, -0.058787714689970016, -0.05138508602976799, -0.00220618792809546, 0.003976921550929546, -0.012898960150778294, -0.018335912376642227, 0.00882135983556509, 0.012959039770066738, -0.04469285160303116, -0.030032938346266747, -0.03430364280939102, -0.009690217673778534, 0.08523500710725784, 0.01381862536072731, -0.03454168140888214, -0.012146956287324429, -0.038661375641822815, -0.024780921638011932, 0.01103566586971283, -0.016251470893621445, -0.002431744011119008, 0.006721136625856161, 0.03593074530363083, -0.036014508455991745, -0.02615484967827797, -0.04192263260483742, 0.018536990508437157, -0.019831998273730278, 0.012980043888092041, 0.01619035005569458, 0.02160896174609661, 0.006593037862330675, 0.010649953968822956, 0.004202861804515123, 0.0018931194208562374, 0.019704965874552727, -0.015520423650741577, 0.029769180342555046, 0.005007565952837467, 0.0733397975564003, 0.048102378845214844, 0.002283122856169939, 0.0027171599213033915, -0.011324361898005009, 0.04071894288063049, 0.005369751714169979, -0.008386396802961826, 0.006289383862167597, -0.03590800240635872, -0.01856115274131298, 0.03127117455005646, -0.01683160476386547, -0.04629221186041832, 0.042056672275066376, 0.03459286689758301, -0.013132763095200062, -0.07520193606615067, -0.015432105399668217, -0.030472097918391228, 0.02237965352833271, -0.018833905458450317, 0.04046071320772171, -0.01972091570496559, -0.046427465975284576, -0.038937389850616455, -0.07764510810375214, -0.06210934370756149, -0.016486650332808495, 0.007088040933012962, 0.029741769656538963, -0.005513337440788746, -0.0956873744726181, -0.11161018162965775, -0.031431589275598526, 0.037437789142131805, -0.016425149515271187, -0.048013970255851746, 0.043872274458408356, -0.03613504394888878, 0.005921024829149246, 0.06086215376853943, 0.004154965281486511, -0.0061960075981915, -0.06670616567134857, -0.09266506135463715, 0.01056259498000145, 0.07995430380105972, 0.11569002270698547, 0.05843156576156616, 0.01703362725675106, -0.0068517886102199554, -0.01976434700191021, 0.06725236773490906, 0.014411302283406258, 0.016135040670633316, 0.0007221587584353983, -0.013271402567625046, -0.03421258553862572, -0.058474648743867874, -0.023562930524349213, 0.012549862265586853, -0.012873929925262928, 0.020392922684550285, 0.02439105696976185, 0.016010230407118797, -0.0025631790049374104, -0.00259110308252275, -0.006568882614374161, -0.05866805464029312, -0.004891295917332172, 0.017114071175456047, 0.036461327224969864, -0.051266565918922424, -0.09126731008291245, -0.09602773934602737, -0.08282819390296936, -0.00909220427274704, -0.03176019340753555, 0.0006024865433573723, -0.07136838883161545, -0.06860130280256271, 0.01686202734708786, 0.010314160026609898, 0.026876887306571007, -0.00602993369102478, -0.013986065983772278, -0.03320012241601944, -0.01841990277171135, 0.03504641726613045, 0.06486604362726212, -0.017660461366176605, -0.005206983536481857, 0.01971273124217987, 0.013625077903270721, 0.017064936459064484, 0.06013944372534752, 0.04010259360074997, 0.008745275437831879, 0.015444410964846611, 0.0021632846910506487, 0.017081579193472862, -0.01610826700925827, -0.016553759574890137, 0.0032070553861558437, 0.006546793971210718, 0.013689491897821426, -0.01435291487723589, -0.05449824407696724, 0.005719991400837898, 0.04385313391685486, 0.05120944231748581, 0.054501913487911224, 0.0368427038192749, -0.04970782995223999, -0.024328794330358505, -0.051263757050037384, 0.0052767409943044186, 0.024245601147413254, 0.009736563079059124, -0.012650569900870323, -0.02192385122179985, 0.030367396771907806, -0.022441808134317398, -0.025319859385490417, -0.04312669113278389, -0.05715690553188324, 0.021783094853162766, 0.02391117438673973, -0.023294255137443542, -0.01877063512802124, 0.011932668276131153, -0.057219840586185455, -0.021252021193504333, -0.0002603368484415114, 0.005775046534836292, -0.0274977944791317, -0.006314889993518591, -0.016127485781908035, -0.0176834799349308, 0.04211194068193436, 0.0026897666975855827, -0.015635300427675247, 0.004947218578308821, 0.016426336020231247, -0.023486170917749405, -0.01531155314296484, 0.009576237760484219, 0.03204145282506943, 0.013376355171203613, -0.028407137840986252, -0.06906498968601227, 0.006899969186633825, -0.023499920964241028, -0.0012081890599802136, 0.0010851427214220166, 0.003739662002772093, -0.06993178278207779, -0.01941392384469509, -0.0674157366156578, -0.04360536113381386, -0.06046704947948456, 0.014611402526497841, 0.008977728895843029, -0.016820022836327553, -0.018353261053562164, 0.022120414301753044, -0.023503903299570084, -0.030062183737754822, 0.08641047775745392, 0.0031153373420238495, -0.024193648248910904, -0.03971220552921295, -0.04709963873028755, 0.02584259584546089, 0.04025096818804741, 0.07793493568897247, -0.017676206305623055, -0.012700363993644714, -0.007447028998285532, -0.07089390605688095, -0.056384872645139694, -0.01666768081486225, 0.03893355652689934, -0.004659218713641167, -0.020583797246217728, 0.022737964987754822, 0.006139880046248436, -0.07958603650331497, -0.0030424061696976423, 0.06325849890708923, 0.015930047258734703, -0.003367702942341566, -0.00905715860426426, 0.018431980162858963, 0.004888712894171476, 0.07715209573507309, 0.050613950937986374, 0.014573778957128525, -0.009552736766636372, -0.008094459772109985, 0.00705344881862402, 0.05429436266422272, 0.009631074033677578, 0.0014800571370869875, -0.007975331507623196, -0.058042753487825394, 0.03782243654131889, 0.007335408125072718, 0.020291896536946297, -0.002774618798866868, 0.0208283681422472, -0.028079580515623093, -0.011929802596569061, 0.0020526910666376352, 0.010699180886149406, -0.0006820870330557227, 0.017275681719183922, 0.02979195863008499, 0.0027430460322648287, -0.007056722417473793, -0.036483198404312134, -0.023121917620301247, -0.03703088313341141, -0.03248130902647972, 0.0027152900584042072, 0.007578389719128609, -0.011343221180140972, -0.035471104085445404, -0.02407042495906353, -0.011790908873081207, -0.012698063626885414, 0.008677607402205467, -0.02800145372748375, -0.007837469689548016, -0.013776962645351887, -0.03345298394560814, 0.032563723623752594, 0.022500641644001007, -0.006509427446871996, -0.00268445978872478, -0.024811601266264915, 0.002640367252752185, 0.02542763762176037, 0.04582494869828224, -0.01440457720309496, 0.022889230400323868, -0.02961880899965763, -0.029008137062191963, -0.06824822723865509, -0.055076826363801956, 0.013820962980389595, -0.07219097018241882, -0.005961955524981022, 0.01671515591442585, -0.06802193075418472, 0.03644173592329025, 0.14594946801662445, 0.08600989729166031, 0.11101318150758743, 0.07000302523374557, -0.06323280930519104, -0.14545941352844238, 0.04892135411500931, -0.0013356523122638464, 0.06750290840864182, 0.00957910344004631, 0.07351550459861755, -0.01592591032385826, -0.00389974401332438, 0.06701331585645676, 0.05036119744181633, -0.1490790992975235, -0.15917210280895233, -0.04998127743601799, -0.00864362996071577, 0.009533948265016079, -0.024055123329162598, 0.017799047753214836, -0.12329091131687164, -0.05333052575588226, -0.04047447070479393, -0.045329466462135315, 0.0010917066829279065, 0.008863369934260845, -0.017667056992650032, -0.013446783646941185, -0.019893884658813477, 0.03559812158346176, -0.007448349613696337, -0.042666878551244736, -0.06348402798175812, 0.0039771138690412045, -0.005865650251507759, -0.053062621504068375, 0.043028272688388824, 0.013250499963760376, -0.027434200048446655, -0.015355692245066166, 0.010291559621691704, 0.04687736555933952, 0.0013284834567457438, 0.004609475377947092, -0.05043350160121918, -0.017158130183815956, -0.009679291397333145, 0.010090677067637444, 0.0007337011629715562, 0.01018355693668127, 0.02553478069603443, -0.0008064182475209236, 0.011212052777409554, -0.008885428309440613, 0.015753982588648796, -0.059085335582494736, -0.06327182799577713, 0.02090495079755783, 0.03349939361214638, 0.010139315389096737, -0.03563902527093887, -0.026041565462946892, -0.0484214685857296, -0.044592857360839844, -0.013619880191981792, -0.004646799061447382, -0.05557024106383324, -0.08631407469511032, -0.052157238125801086, -0.008726563304662704, 0.04224187135696411, -0.021469293162226677, -0.03295659273862839, -0.0235298965126276, -0.04510336369276047, 0.017757553607225418, 0.10656435787677765, 0.06227996200323105, 0.02682146430015564, -0.004795754794031382, 0.0011457963846623898, -8.592617814429104e-05, 0.0878635048866272, 0.06977184861898422, 0.02913731522858143, 0.006403465289622545, 0.023497337475419044, -0.015336775220930576, -0.08136282861232758, 0.03772515058517456, 0.16617494821548462, 0.13136209547519684, 0.10616375505924225, 0.0003669751458801329, -0.033314384520053864, 0.0026134296786040068, -0.011761078611016273, -0.03256415203213692, 0.07222127169370651, 0.054510802030563354, 0.008065796457231045, -0.022567585110664368, -0.03908549249172211, -0.05779740959405899, -0.1322052776813507, -0.12104663997888565, -0.07084715366363525, 0.05779719725251198, 0.05111127719283104, -0.044245194643735886, -0.058089930564165115, -0.16881129145622253, -0.16455230116844177, -0.07588432729244232, -0.00023187420447357, -0.009369928389787674, 0.00929307471960783, -0.07346108555793762, -0.17103660106658936, 0.014088881202042103, 0.03910209983587265, -0.04861533269286156, 0.009798058308660984, -0.04470609873533249, -0.07536192983388901, 0.011212232522666454, 0.03751677647233009, 0.058679934591054916, 0.03198176249861717, -0.038370829075574875, 0.005459132604300976, 0.03771002218127251, 0.08361276239156723, 0.08117540180683136, 0.022110646590590477, -0.020680105313658714, -0.022483961656689644, -0.041331697255373, -0.041510846465826035, 0.036519963294267654, -0.00728978356346488, -0.00588865764439106, -0.021605759859085083, -0.01855091191828251, -0.001430194708518684, 0.04716208949685097, 0.038010552525520325, -0.011488113552331924, 0.015127195976674557, -0.033492449671030045, -0.0053336238488554955, 0.048859450966119766, 0.007571664173156023, 0.0335686020553112, -0.04609758406877518, -0.00017283759370911866, 0.0096040153875947, 0.02683395706117153, 0.013881923630833626, -0.04387331008911133, -0.04481258615851402, 0.0013939604396000504, 0.0030982494354248047, -0.02007843367755413, -0.050509918481111526, -0.07689403742551804, -0.0920456051826477, -0.01998203620314598, -0.004287074785679579, -0.014608437195420265, -0.03196218982338905, -0.026384711265563965, -0.032255079597234726, -0.04789867624640465, 0.07498763501644135, 0.03923090174794197, 0.016520369797945023, -0.024213111028075218, -0.006382330786436796, 0.02132270485162735, -0.021362626925110817, 0.034817591309547424, 0.03477676585316658, -0.006349930539727211, -0.036978863179683685, -0.07909426093101501, 0.07497153431177139, 0.05460060387849808, 0.015727536752820015, -0.005805937107652426, -0.006113209296017885, -0.05796551704406738, -0.004619687795639038, 0.06994757056236267, 0.008889240212738514, -0.01600298471748829, -0.038406409323215485, 0.00993614736944437, -0.006338563282042742, 0.02654401771724224, 0.05280341953039169, -0.010688621550798416, -0.06794402748346329, -0.030949890613555908, -0.004324393346905708, 0.018607843667268753, 0.02623247168958187, 0.0811559185385704, 0.06117379292845726, 0.02461850456893444, 0.03537077084183693, 0.0029303934425115585, -0.002628156915307045, -0.03772183135151863, -0.10480432957410812, 0.02150433510541916, 0.008146303705871105, 0.08582803606987, 0.012640891596674919, -0.006689854431897402, -0.0555872842669487, -0.0704481229186058, -0.0009462452144362032, 0.05319767817854881, 0.070674829185009, 0.010649341158568859, 0.0022586507257074118, -0.018886500969529152, 0.002097556833177805, 0.05346398428082466, 0.026166129857301712, 0.013823870569467545, -0.011651312001049519, 0.023077871650457382, 0.015864042565226555, -0.01282297819852829, -0.0218927264213562, 0.012408901005983353, 0.038006529211997986, 0.007682333700358868, -0.012730080634355545, 0.01269818376749754, -0.04953187704086304, -0.05376046895980835, -0.044579777866601944, -0.10006881505250931, -0.00228993222117424, -0.006526772864162922, 0.01334130298346281, -0.0119203832000494, -0.0013986394042149186, -0.023529231548309326, -0.020643312484025955, -0.00024256842152681202, 0.059314459562301636, 0.06607242673635483, 0.15459701418876648, 0.07348265498876572, 0.021567780524492264, 0.02295099012553692, -0.030070755630731583, 0.03724760189652443, 0.030498089268803596, 0.040792420506477356, 0.12690146267414093, -0.07627718150615692, -0.04306960105895996, -0.014501595869660378, 0.004907539114356041, 0.004331338685005903, -0.017299989238381386, 0.008569397032260895, 0.012055514380335808, -0.006103032734245062, -0.0037561520002782345, -0.05317366123199463, -0.03255310282111168, -0.04830100014805794, 0.007469830568879843, 0.06202651932835579, 0.049622178077697754, 0.040788114070892334, -0.004559842869639397, -0.017925404012203217, -0.03625059500336647, 0.010548318736255169, -0.0071749212220311165, -0.020592136308550835, -0.02959750033915043, -0.043303098529577255, -0.02349712885916233, -0.004299914464354515, -0.009978595189750195, -0.04934629425406456, -0.022156618535518646, 0.04473016411066055, 0.008631081320345402, -0.035314373672008514, 0.011775164864957333, 0.025186903774738312, 0.010607699863612652, 0.09414900094270706, 0.04556015133857727, 0.011164902709424496, 0.003445360576733947, -0.034027475863695145, 0.006758415140211582, 0.014170425944030285, 0.03557289019227028, 0.04061482474207878, 0.000794972584117204, -0.027490822598338127, -0.006372510921210051, -0.07409157603979111, -0.05180554464459419, -0.06479755789041519, -0.02872716262936592, -0.04199779033660889, 0.0183701291680336, 0.06656091660261154, 0.025235362350940704, -0.03129516914486885, -0.023277129977941513, 0.05809700861573219, 0.029416523873806, -0.09638739377260208, -0.03302387148141861, -0.0017531024059280753, -0.03107665292918682, 0.0423501655459404, 0.05384369567036629, 0.051266860216856, -0.08590064942836761, -0.1393985152244568, -0.10661113262176514, -0.04929422587156296, 0.015003890730440617, -0.030029764398932457, -0.0888877660036087, -0.058281224220991135, -0.038514964282512665, 0.027454419061541557, 0.0310994703322649, -0.003911874257028103, 0.07805124670267105, -0.12104024738073349, -0.05705076828598976, -0.03583496809005737, -0.018696490675210953, 0.018488822504878044, 0.049155235290527344, 0.06981106847524643, -0.032639045268297195, -0.0463976226747036, -0.013986390084028244, 0.06007362902164459, -0.02315860241651535, 0.029283802956342697, 0.058792803436517715, 0.06438083946704865, 0.04130690544843674, 0.08353561908006668, -0.00010494995512999594, -0.00336231617256999, -0.021779373288154602, -0.08398520201444626, -0.07332662492990494, 0.037200164049863815, 0.051814526319503784, 0.008475796319544315, -0.05136584863066673, -0.025233183056116104, 0.063036248087883, -0.016875913366675377, -0.08445388078689575, -0.03098137117922306, -0.0046166046522557735, -0.038238007575273514, 0.027449581772089005, 0.03624855726957321, 0.023707643151283264, -0.009152153506875038, -0.028461089357733727, 0.024466393515467644, 0.04265832155942917, 0.04479774832725525, 0.04554303362965584, -0.10645989328622818, -0.06374447047710419, -0.0013605905696749687, 0.002732602646574378, 0.031119760125875473, 0.0017898755613714457, 0.04789604991674423, -0.04369885101914406, -0.03391983360052109, 0.030953770503401756, 0.02083349972963333, -0.009554639458656311, -0.02257145754992962, 0.03883719444274902, 0.03506647050380707, -0.023522714152932167, 0.013110996223986149, 0.0233467910438776, -0.05220947414636612, -0.08807510882616043, -0.09068816900253296, 0.030871964991092682, 0.030491875484585762, 0.01800483465194702, 0.01906539686024189, -0.023710930719971657, 0.0024541367311030626, 0.04188469797372818, -0.03156951814889908, -0.009562535211443901, 0.02920394204556942, 0.008535603061318398, -0.016148345544934273, -0.04887627810239792, -0.009254404343664646, -0.022593798115849495, -0.006070666015148163, 0.009503382258117199, 0.047564826905727386, -0.02334975264966488, 0.0712798535823822, 0.011660181917250156, 0.007641286589205265, 0.009154107421636581, -0.014234300702810287, -0.0032061287201941013, 0.009934092871844769, -0.011568465270102024, 0.0018701576627790928, -0.0048337094485759735, -0.07871051132678986, 0.017115220427513123, 0.0038139077369123697, 0.03285127133131027, -0.0019009611569344997, -0.004664856009185314, -0.0608881376683712, -0.06234549731016159, 0.026279214769601822, 0.021511409431695938, 0.01487813051789999, 0.029870832338929176, 0.010806160978972912, 0.0045797573402523994, 0.004531509708613157, 0.008674710988998413, 0.023339565843343735, 0.0024629791732877493, 0.02082376927137375, 0.0024358625523746014, -0.015859214588999748, 0.026997501030564308, 0.009646674618124962, -0.0033701793290674686, -0.006660941056907177, -0.009014454670250416, -0.01788520999252796, 0.01237455103546381, 0.010984590277075768, 0.010345745831727982, -0.0007408514502458274, -0.008112420327961445, -0.011407699435949326, 0.00849195383489132, 0.01122591458261013, 0.0013459938345476985, -0.008223873563110828, 0.002023127628490329, 0.04906242713332176, 0.03365298733115196, 0.0029960167594254017, -0.003808361478149891, 0.0028201634995639324, -0.018530748784542084, -0.01869836263358593, -0.021411797031760216, -0.008621270768344402, 0.009256591089069843, -0.042595025151968, -0.010782969184219837, 0.022752033546566963, -1.322199750575237e-05, 0.026172781363129616, 0.03238747641444206, -0.0009433474042452872, -0.004174189642071724, -0.0064054629765450954, 0.007761821616441011, 0.008497984148561954, 0.05192650854587555, -0.022112810984253883, 0.013293529860675335, 0.05770333856344223, 0.02484871633350849, 0.010303034447133541, -0.038084935396909714, -0.07567927241325378, -0.013535812497138977, -0.015575412660837173, -0.005189931485801935, -0.1194978803396225, -0.12314256280660629, -0.13085955381393433, -0.027603015303611755, 0.012213973328471184, 0.0058581531047821045, -0.02596980519592762, -0.020809346809983253, -0.061287034302949905, -0.023406827822327614, 0.03338635712862015, 0.051941752433776855, 0.023148074746131897, 0.02638782002031803, 0.046196259558200836, 0.029676269739866257, 0.021007928997278214, 0.04148665815591812, -0.011395338922739029, 0.00872750673443079, -0.0015093954280018806, 0.008393139578402042, -0.01574406772851944, -0.0034383470192551613, 0.030354294925928116, -0.002671448979526758, -0.0028457657899707556, -0.014718416146934032, -0.033514026552438736, 0.03185219690203667, 0.06163965165615082, 0.015623882412910461, -0.047700561583042145, -0.015208878554403782, -0.03708025813102722, -0.09778871387243271, 0.025987669825553894, 0.007251008413732052, -0.06006713584065437, -0.05904371663928032, 0.0327027328312397, 0.003756894264370203, 0.0037937371525913477, -0.0821419209241867, -0.10327030718326569, -0.023124657571315765, -0.07681909203529358, 0.002334949793294072, 0.020050428807735443, -0.030630020424723625, -0.05829588323831558, -0.09019751846790314, 0.01883154921233654, -0.030720021575689316, -0.014523292891681194, -0.017303654924035072, -0.006139492150396109, -0.04026659205555916, -0.05844355374574661, 0.0669427365064621, 0.1193491667509079, 0.041092198342084885, -0.01790817268192768, -0.01727304421365261, -0.0064465636387467384, 0.008097203448414803, 0.0018155657453462481, 0.027202559635043144, 0.0009504349436610937, 0.019178682938218117, -0.029779275879263878, -0.08806207031011581, 0.06558489054441452, 0.09596119821071625, 0.04307027906179428, 0.005335239693522453, -0.03352103382349014, -0.05195204168558121, 0.04364289343357086, 0.01734696514904499, 0.0430513359606266, -0.008898640051484108, -0.004591531120240688, 0.0035958716180175543, -0.0264928936958313, 0.013029828667640686, 0.018047073855996132, -0.02366282418370247, -0.08854048699140549, -0.018215196207165718, 0.03815213218331337, -0.04454577714204788, -0.041737113147974014, -0.032860178500413895, -0.047996584326028824, -0.02227480337023735, 0.009830184280872345, 0.021513544023036957, -0.08864665776491165, -0.14581544697284698, -0.13851898908615112, -0.03591180965304375, 0.059855252504348755, -0.0120767243206501, -0.009228344075381756, -0.07975637912750244, -0.14828108251094818, -0.06421297043561935, 0.05376943573355675, 0.04860629141330719, 0.009590845555067062, 0.010701391845941544, 0.018513189628720284, -0.006393770221620798, 0.010093764401972294, 0.04255296662449837, 0.02194388397037983, 0.00870438851416111, -0.016951944679021835, -0.04171419143676758, -0.044737353920936584, -0.006996524054557085, -0.03388527035713196, 0.027318740263581276, 0.04256931692361832, -0.08093369007110596, 0.08407250046730042, 0.0621865876019001, -0.12184373289346695, 0.021832188591361046, -0.09460214525461197, -0.026506664231419563, -0.06928524374961853, -0.015880100429058075, 0.05537622421979904, -0.046627748757600784, -0.048964694142341614, 0.009594785049557686, 0.06440378725528717, -0.026993954554200172, 0.0026802481152117252, 0.023762039840221405, -0.003344304161146283, -0.007106395438313484, 0.09061352163553238, 0.19530077278614044, 0.022952500730752945, -0.023698175325989723, 0.06850423663854599, -0.07961401343345642, 0.038417741656303406, -0.04112178087234497, -0.008532851003110409, 0.007466643117368221, -0.036990225315093994, 0.004346179775893688, -0.0823223814368248, -0.02224748581647873, -0.01903715543448925, 0.08799993246793747, -0.06716486066579819, -0.027527352795004845, 0.016920549795031548, 0.02431262657046318, 0.030271941795945168, 0.06949130445718765, 0.09650354087352753], "bias": 0.004269803874194622}