{"layer": "fc1", "index": 36, "weights": [-0.038571733981370926, -0.0680888444185257, 0.03799838945269585, -0.026184407994151115, 0.01011184137314558, 0.04677228629589081, 0.01643933728337288, 0.0011424078838899732, -0.07341849058866501, 0.012445803731679916, 0.06061917915940285, 0.061258211731910706, 0.027861280366778374, -0.0283669363707304, 0.026791686192154884, -0.009650948457419872, 0.10518539696931839, 0.0038610268384218216, 0.06321743875741959, 0.0223765280097723, -0.02855251543223858, -0.07305388152599335, 0.054549556225538254, 0.050758522003889084, -0.055345918983221054, 0.03983771428465843, 0.013038157485425472, -0.012788845226168633, 0.005501140840351582, 0.0342562198638916, -0.018604084849357605, 0.005099892616271973, -0.04879554361104965, -0.039582353085279465, -0.04858409985899925, -0.009991819970309734, 0.0035579735413193703, -0.10287334024906158, -0.0914774239063263, 0.02897072210907936, -0.009832355193793774, -0.013696841895580292, -0.041821494698524475, -0.017828380689024925, -0.012327774427831173, -0.023019136860966682, -0.016309479251503944, 0.0031214416958391666, 0.0018459889106452465, -0.0034013339318335056, -0.028865957632660866, 0.0008600687142461538, -0.01935531198978424, 0.02501768060028553, 0.025304708629846573, -0.007977883331477642, -0.0009818701073527336, 0.04862364009022713, -0.0005416747881099582, 0.03181188553571701, -0.0021596290171146393, -0.02542143315076828, 0.018994811922311783, -0.028611240908503532, 0.042438097298145294, 0.026189882308244705, -0.027393382042646408, -0.05866074934601784, -0.0208872202783823, 0.029583141207695007, -0.05432964861392975, -0.02587762661278248, 0.03804966062307358, -0.020377645269036293, -0.021095028147101402, 0.005936549510806799, 0.01680769957602024, -0.022140102460980415, -1.9782455638051033e-05, 0.01752994954586029, -0.023897260427474976, -0.0357644259929657, 0.017424970865249634, -0.005387270823121071, 0.0076814815402030945, 0.02284090407192707, -0.04275674372911453, -0.07235466688871384, 0.00023294263519346714, 0.02618241123855114, 0.009402584284543991, -0.013964176177978516, 8.07589094620198e-05, 0.011629784479737282, 0.0027723340317606926, 0.018239911645650864, -0.012114747427403927, 0.011550438590347767, -0.009332561865448952, -0.023582497611641884, -0.004785327240824699, -0.03356301411986351, 0.009654568508267403, -0.014825689606368542, 0.03771350905299187, 0.003323465818539262, -0.0744905099272728, 0.010900886729359627, -0.04518580064177513, -0.016554413363337517, 0.014001501724123955, 0.08524994552135468, -0.019773880019783974, -0.05393673852086067, -0.006125202868133783, -0.11228502541780472, -0.01420129556208849, -0.054581549018621445, -0.04044293612241745, 0.03681784123182297, 0.057313524186611176, -0.03229802846908569, -0.013341113924980164, 0.09926746785640717, -0.023137420415878296, -0.04684934392571449, 0.04190121218562126, 0.04038865119218826, 0.024154093116521835, -0.03389046713709831, 0.13277184963226318, 0.084744393825531, -0.02086278423666954, 0.02888299524784088, 0.00835543405264616, 0.04950936138629913, 0.030785802751779556, 0.01858854852616787, 0.07604112476110458, -0.017460212111473083, 0.03457813337445259, 0.030418895184993744, 0.005030869506299496, 0.011110218241810799, -0.015333891846239567, 0.012216058559715748, 0.0024072586093097925, 0.05212682485580444, 0.04201135039329529, -0.008510789833962917, -0.025572994723916054, 0.019356289878487587, -0.0002532329235691577, 0.028974274173378944, 0.0023292694240808487, -0.032378651201725006, 0.00817328505218029, 0.0470966175198555, -0.0886990949511528, 0.08060697466135025, 0.06516113877296448, 0.008882323279976845, -0.22277776896953583, -0.15586338937282562, 0.06307398527860641, 0.09646051377058029, -0.0015760317910462618, 0.06407865136861801, 0.041654400527477264, -0.09655842930078506, -0.09046889841556549, 0.03664416819810867, -0.06667790561914444, 0.013325338251888752, 0.031806979328393936, -0.06085856631398201, -0.021854110062122345, -0.03166387230157852, -0.03553551807999611, -0.017190324142575264, 0.034703291952610016, -0.0176377035677433, -0.04087714105844498, 0.02807779610157013, 0.0001381776382913813, 0.13798168301582336, 0.015980124473571777, 0.017765475437045097, -0.023579038679599762, 0.058000728487968445, 0.043674904853105545, 0.04404838755726814, -0.07671273499727249, -0.03548499569296837, -0.04212752357125282, 0.056364111602306366, -0.006004735361784697, -0.018952958285808563, -0.007032250054180622, -0.03147530183196068, 0.009669022634625435, -0.005269422195851803, -0.014254367910325527, -0.0008414401090703905, -1.343471376458183e-05, -0.014373444020748138, 0.048903435468673706, 0.0304556917399168, 0.008375252597033978, 0.03188372775912285, -0.03112136386334896, -0.02679130993783474, -0.012415057048201561, -0.018912270665168762, -0.037752147763967514, 0.044961076229810715, 0.03384482488036156, -0.025088835507631302, 0.037834394723176956, -0.020123489201068878, -0.073641337454319, -0.07881607860326767, 0.010998492129147053, 0.04174081236124039, -0.013428687117993832, 0.004766552709043026, -0.024929091334342957, -0.1172422468662262, -0.01196865364909172, 0.003624016186222434, 0.007486225571483374, -0.01898106560111046, 0.024353258311748505, 0.06758299469947815, 0.03349624201655388, 0.03706943616271019, 0.052049629390239716, 0.037948183715343475, -0.02781124971807003, -0.004961471538990736, -8.63772293087095e-05, -0.0014509015018120408, -0.003574495669454336, -0.013535347767174244, 0.011588828638195992, -0.039965976029634476, -0.07947687804698944, -0.004986537154763937, -0.054599255323410034, 0.03156614303588867, -0.03309066966176033, 0.08764107525348663, -0.011343606747686863, -0.0457778126001358, -0.037837136536836624, 0.011343800462782383, -0.05687040090560913, -0.006362134590744972, 0.11906521767377853, -0.12409171462059021, -0.17648814618587494, -0.025689374655485153, 0.03361068665981293, 0.022629935294389725, -0.009887448512017727, 0.05186944082379341, 0.017164040356874466, 0.004617214202880859, 0.043417736887931824, -0.04694719612598419, 0.1309063732624054, -0.010769074782729149, -0.005647607613354921, 0.11212728917598724, 0.05505775660276413, -0.0653829351067543, 0.019926870241761208, 0.1019991934299469, 0.011904041282832623, 0.013701535761356354, 0.03686628118157387, 0.0655679926276207, 0.02211383916437626, -0.008017975836992264, -0.051181893795728683, -0.021213581785559654, -0.006678806617856026, 0.04685680940747261, 0.035168349742889404, -0.0471528023481369, -0.10072999447584152, -0.03594575822353363, 0.04403224214911461, -0.008590316399931908, -0.007060512434691191, 0.022234421223402023, -0.016640646383166313, -0.019384458661079407, -0.007135950028896332, -0.0377657450735569, 0.028213419020175934, -0.026224594563245773, -0.04488048702478409, -0.07452031224966049, -0.11276362836360931, 0.013559938408434391, 0.00882974173873663, 0.027641069144010544, -0.006965413689613342, -0.08633069694042206, 0.09078989177942276, -0.027202777564525604, 0.00963516253978014, -0.034317322075366974, -0.01204215083271265, -0.010895376093685627, -0.037207089364528656, 0.13705287873744965, 0.0524156428873539, 0.03292597457766533, 0.01368164923042059, 0.01378274243324995, -0.03721988946199417, -0.023028315976262093, -0.023145830258727074, 0.0102306567132473, -0.002038047183305025, 0.05345988646149635, 0.0027915926184505224, -0.001603156328201294, 0.027537645772099495, 0.020058395341038704, -0.015837926417589188, -0.0037634060718119144, -0.030207231640815735, 0.05231928080320358, 0.02460092306137085, -0.018035516142845154, -0.02628345787525177, -0.02937096171081066, -0.030020201578736305, -0.08323021978139877, 0.011851088143885136, -0.011538838967680931, -0.01579296588897705, -0.00499366270378232, -0.021581796929240227, -0.014847522601485252, 0.02452768012881279, -0.034353964030742645, 0.005414276849478483, -0.024476615712046623, 0.04861636832356453, 0.08602120727300644, -0.00823068618774414, 0.050803665071725845, 0.012639920227229595, -0.05031820759177208, -0.005602134391665459, -0.042017679661512375, 0.048748280853033066, -0.014828762970864773, -0.0013169189915060997, 0.04025842994451523, -0.005672403145581484, 4.751295637106523e-05, -0.03674204647541046, 0.01491210050880909, -0.07932306826114655, -0.052660632878541946, -0.00898313894867897, -0.04381352663040161, 0.015374734997749329, 0.06483761221170425, 0.022535214200615883, -0.009498875588178635, -0.02039700374007225, -0.028750181198120117, 0.050160862505435944, 0.040763795375823975, 0.05333206057548523, 0.026935260742902756, 0.013377751223742962, -0.006699829362332821, 0.0162538792937994, 0.01678980328142643, 0.012492445297539234, 0.03210664168000221, 0.002153718611225486, -0.023386573418974876, 0.008670984767377377, 0.014078768901526928, -0.007327440660446882, 0.00986078567802906, 0.00015258755593094975, 0.023877982050180435, 0.005747953429818153, 0.011483835987746716, -0.0010595963103696704, -0.011780474334955215, -0.009995704516768456, -0.07009787857532501, 0.0025618113577365875, 0.01593506895005703, 0.03776537626981735, 0.06387419998645782, -0.018458843231201172, 0.005517097655683756, -0.05360310897231102, -0.0068598780781030655, -0.0033341902308166027, -0.04607958346605301, 0.02677891217172146, -0.01870177872478962, 0.024153131991624832, 0.054212674498558044, -0.011403251439332962, -0.04525153338909149, -0.04762949049472809, 0.04547145217657089, -0.007315567694604397, 0.013480599038302898, -0.024189230054616928, 0.036137551069259644, -0.0557071827352047, 0.005469392519444227, 0.07129812240600586, -0.012608195655047894, 0.04749968275427818, 0.07500340044498444, 0.05217975378036499, -0.015142006799578667, 0.04623723030090332, 0.06772945821285248, -0.014900356531143188, -0.025505177676677704, -0.006138988304883242, -0.022965244948863983, 0.01040225476026535, -0.027138900011777878, 0.02293316088616848, -0.0015201619826257229, -0.0019345056498423219, -0.01833946257829666, -0.02817482501268387, -0.02153192088007927, 0.010506193153560162, 0.007259553764015436, 0.013086247257888317, -0.002676313742995262, 0.006698201410472393, -0.0003917139838449657, -0.02214829996228218, -0.023397602140903473, -0.003362574614584446, 0.011091315187513828, -0.02596506103873253, 0.0496816486120224, 0.0231322031468153, 0.006664426997303963, -0.07519502937793732, 0.011249685660004616, 0.009895235300064087, -0.09815064817667007, -0.041568830609321594, -0.0290360227227211, -0.016366021707654, -0.03798232227563858, 0.0024830575566738844, -0.026145514100790024, -0.07800275832414627, 0.00440199812874198, -0.02604377456009388, -0.017100824043154716, -0.01937977410852909, 0.0002731805725488812, -0.02881775051355362, 0.03181526064872742, 0.015186677686870098, -0.0017001520609483123, -0.021603139117360115, 0.002151633845642209, 0.015424641780555248, 0.0325978547334671, 0.013081912882626057, -0.012150446884334087, -0.02319369837641716, -0.009380675852298737, -0.006879357621073723, 0.004748806823045015, -0.03560822457075119, -0.05261000618338585, -0.03152802586555481, -0.02264298126101494, 0.008305974304676056, -0.005686262156814337, 0.030628610402345657, -0.044356632977724075, -0.0463571734726429, -0.012921281158924103, -0.026311960071325302, 0.004051468335092068, 0.029493404552340508, 0.028581028804183006, -0.049138832837343216, 0.03250672668218613, 0.030596120283007622, -0.04636632651090622, 0.005427481606602669, 0.0406077578663826, 0.14846906065940857, 0.0309506393969059, 0.0923706516623497, 0.09692593663930893, 0.009711596183478832, 0.00745074637234211, -0.008686363697052002, 0.031163370236754417, -0.01665327697992325, 0.02933477610349655, 0.0820414274930954, 0.006248570512980223, 0.01597762107849121, -0.017383672297000885, -0.010585254989564419, -0.030857114121317863, 0.0014690482057631016, 0.018389083445072174, -0.0188786331564188, -0.045311376452445984, -0.011798946186900139, -0.026362234726548195, -0.01921597495675087, -0.01738063432276249, -0.04385094717144966, -0.03295934572815895, -0.07594060897827148, -0.04846080765128136, -0.006539871916174889, -0.03739088401198387, 0.02972361072897911, 0.007460659369826317, -0.027624303475022316, 0.054365336894989014, 0.044110968708992004, 0.020385054871439934, 0.031367938965559006, -0.043661508709192276, 0.07724237442016602, 0.1200990304350853, 0.020955786108970642, 0.02261473424732685, 0.006911857053637505, -0.050012554973363876, -0.15980178117752075, -0.1261947900056839, -0.06073283776640892, -0.09432635456323624, -0.07282797992229462, -0.058483801782131195, 0.04577197879552841, 0.028800126165151596, -0.04846765100955963, 0.11087779700756073, -0.06099333241581917, -0.05517396330833435, -0.016838684678077698, -0.004036996979266405, -0.02570262923836708, 0.06338365375995636, 0.01317380741238594, 0.07246357947587967, -0.05634905770421028, -0.010404478758573532, 0.058633044362068176, 0.06189775466918945, 0.023996464908123016, 0.06271716952323914, 0.10070942342281342, 0.013910049572587013, 0.037017546594142914, 0.08886752277612686, 0.01510126143693924, -0.048965636640787125, -0.0022739286068826914, -0.00988095160573721, 0.028122931718826294, 0.04957851022481918, 0.038011033087968826, 0.002368297427892685, -0.03873896971344948, 0.0015541099710389972, -0.05314572900533676, -0.00574904028326273, -0.009859278798103333, 0.0337296724319458, -0.010303119197487831, 0.034965597093105316, 0.029564283788204193, 0.032349199056625366, -0.012260514311492443, 0.03223206847906113, 0.015197191387414932, 0.01848691515624523, 0.048868369311094284, -0.10836312174797058, -0.0858125388622284, -0.06692081689834595, 0.004531933460384607, 0.07207067310810089, 0.04847852140665054, -0.2075881063938141, -0.09623657166957855, 0.023426823318004608, -0.03787167742848396, -0.010416251607239246, 0.01016111671924591, -0.14535319805145264, -0.1956077516078949, -0.04715315252542496, 0.08118605613708496, -0.04351043701171875, 0.011593786999583244, -0.0060837967321276665, 0.05396558716893196, -0.08902735263109207, 0.046366170048713684, 0.04231745004653931, -0.005409191828221083, -0.00534225394949317, 0.014976627193391323, -0.005858629010617733, -0.11998888105154037, -0.012545991688966751, -0.04750443622469902, -0.03203416243195534, 0.047908082604408264, 0.00938270054757595, -0.018094483762979507, -0.0036180184688419104, -0.026372959837317467, 0.022310394793748856, 0.01880217157304287, -0.014443911612033844, -0.019066061824560165, -0.024113498628139496, -0.006705532781779766, 0.013937273062765598, 0.035918939858675, -0.0014508494641631842, 0.013242524117231369, -0.029344957321882248, -0.038374751806259155, 0.012812955304980278, 0.03245414048433304, -0.012993386015295982, 0.0048043266870081425, 0.05708848685026169, -0.011432983912527561, -0.0005909817409701645, 0.03525789827108383, -0.01657612808048725, -0.018213698640465736, 0.028108108788728714, 0.05907528102397919, 0.024821436032652855, 0.044360313564538956, 0.0063489521853625774, -0.02465566247701645, -0.004448700696229935, -0.026173673570156097, 0.033410150557756424, -0.01522084791213274, 0.011723373085260391, 0.07607408612966537, 0.05086231604218483, 0.030145514756441116, 0.01996013894677162, 0.04314654320478439, -0.019325079396367073, -0.025803664699196815, -0.008995802141726017, 0.010735544376075268, -0.0183190256357193, 0.009761196561157703, -0.021817181259393692, -0.0036172200925648212, -0.018772272393107414, -0.048877425491809845, -0.04372570663690567, -0.029007671400904655, -0.03395868465304375, 0.0029145709704607725, 0.0005695559084415436, 0.01728527620434761, -0.00360305979847908, 0.004742332734167576, -0.09655631333589554, 0.015157042071223259, -0.013913887552917004, 0.035632357001304626, 0.06804202497005463, 0.04876120388507843, 0.08841347694396973, -0.04824785143136978, -0.04116825759410858, -0.0755484402179718, 0.014901909977197647, 0.052329301834106445, 0.003956369590014219, 0.13309411704540253, -0.00577445887029171, 0.0070971096865832806, 0.003907167352735996, 0.032510124146938324, 0.015796588733792305, -0.021706294268369675, 0.030683238059282303, 0.02034362219274044, 0.026376960799098015, 0.03064475953578949, 0.05007288232445717, 0.010998484678566456, 0.011083301156759262, -0.09487482160329819, 0.048060204833745956, 0.028570322319865227, 0.06925798207521439, 0.026589805260300636, 0.013819613493978977, 0.0004138912772759795, -0.049621663987636566, -0.07850396633148193, -0.024375582113862038, 0.0007027119863778353, -0.007298336364328861, 0.008769708685576916, -0.00468414556235075, 0.0545911006629467, -0.05470907315611839, -0.009387693367898464, 0.08520908653736115, -0.013227052986621857, 0.024544423446059227, -0.07591622322797775, -0.03238396346569061, -0.023536892607808113, 0.11413537710905075, 0.17502152919769287, -0.018041659146547318, 0.027321796864271164, -0.041178442537784576, 0.012786833569407463, -0.08012033998966217, 0.01485142670571804, 0.0009491678210906684, -0.0648992508649826, -0.012180179357528687, 0.059094879776239395, -0.019782654941082, 7.315116818062961e-06, 0.01912434957921505, 0.004954076837748289, -0.006122128572314978, 0.16592271625995636, 0.0817185789346695, 0.13363434374332428, 0.035546090453863144, -0.03609566390514374, 0.006012348923832178, 0.05663254112005234, -0.010354900732636452, 0.06483648717403412, 0.049049343913793564, 0.01268045324832201, 0.028533561155200005, 0.014870510436594486, -0.0485759973526001, -0.009538139216601849, -0.11194519698619843, -0.019246753305196762, 0.0363255999982357, 0.045244280248880386, 0.00309041072614491, -0.011536164209246635, -0.02001691795885563, 0.00308503326959908, 0.015732599422335625, 0.0017499263631179929, 0.01585908979177475, -0.0037951089907437563, -0.03005680814385414, -0.0728742852807045, -0.052089858800172806, -0.043753430247306824, -0.010569131001830101, 0.017296086996793747, 0.03082983009517193, 0.003286209423094988, -0.011142878793179989, -0.06669460982084274, -0.043877363204956055, 0.01082445029169321, 0.09117250144481659, 0.03059435449540615, -0.01494677271693945, 0.007642355747520924, 0.04026375710964203, 0.003553234739229083, -0.025594882667064667, 0.05467425659298897, 0.014487693086266518, 0.03498944267630577, 0.014248787425458431, 0.10182304680347443, 0.07034175843000412, -0.0355105996131897, -0.0581633597612381, 8.445694402325898e-05, -0.008196866139769554, -0.009311022236943245, 0.007643085904419422, 0.01742645725607872, 0.028274288401007652, -0.005130247678607702, 0.027585536241531372, -0.04499507322907448, -0.009761488065123558, 0.03861162066459656, -0.01690107211470604, -0.07398112863302231, -0.04139121249318123, -0.04132821410894394, -0.026322515681385994, -0.03631950169801712, -0.04256465658545494, -0.026249373331665993, 0.01937577687203884, 0.012079715728759766, 0.051565591245889664, -0.05852128937840462, -0.12374565005302429, -0.06164488196372986, -0.06222015991806984, -0.04068516939878464, 0.020588034763932228, 0.025402966886758804, -0.03419346362352371, -0.08956852555274963, -0.01757325790822506, -0.0498376302421093, -0.030440788716077805, -0.0007608575979247689, -0.0022655539214611053, -0.009053081274032593, -0.021895144134759903, 0.060454223304986954, 0.16827982664108276, 0.0674242451786995, -0.016787933185696602, -0.005796921905130148, 0.036067113280296326, 0.004647401161491871, 0.010630089789628983, 0.08007869124412537, 0.021441582590341568, -0.028658658266067505, 0.017307400703430176, -0.007746031507849693, -0.08387690782546997, -0.022855492308735847, -0.015537994913756847, -0.0271062683314085, -0.027526356279850006, 0.00931603740900755, 0.0044950880110263824, 0.034907516092061996, -0.07003935426473618, -0.07366058975458145, 0.03535827621817589, -0.022820154204964638, 0.009755806066095829, 0.0011245933128520846, -0.024102086201310158, -0.049487583339214325, -0.03238599747419357, -0.007959890179336071, 0.024503089487552643, 0.001787371002137661, -0.03927931189537048, 0.043046917766332626, 0.0056888749822974205, 0.009532192721962929, -0.05359397828578949, 0.03904648870229721, 0.02408583089709282, -0.0013347191270440817, 0.04123687371611595, 0.0545630045235157, -0.01909550279378891, -0.09816106408834457, -0.050838276743888855, 0.05243091657757759, -0.01085503026843071, -0.012075157836079597, 0.06856855750083923, -0.046425770968198776, 0.05592023581266403, 0.07960029691457748, -0.02512740157544613, -0.04952848702669144, 0.025829631835222244, 0.010330773890018463, -0.006775195710361004, 0.014813208021223545, -0.01542301382869482, 0.012853292748332024, -0.0009391956846229732, 0.02552179805934429, -0.04849494248628616, -0.03602050244808197, -0.0077190822921693325, 0.013163028284907341, -0.03839515149593353, -0.043701909482479095, -0.005838833749294281, 0.010378585197031498, -0.04680260270833969, -0.008579244837164879, -0.031563661992549896, 0.004296888131648302, -0.054823197424411774, 0.004435072187334299, 0.011769594624638557, 0.006684089545160532, 3.2681855373084545e-05, 0.048977192491292953, 0.022277317941188812, -0.08895925432443619, -0.01817505434155464, -0.04055095836520195, -0.021802449598908424, 0.07370143383741379, 0.08025773614645004, 0.0673624724149704, 0.04924445226788521, -0.10938217490911484, -0.00665469141677022, -0.06440478563308716, -0.13093605637550354, -0.055857863277196884, -0.003973525948822498, 2.3228138161357492e-05, 0.09830298274755478, -0.09336075186729431, 0.008928164839744568, -0.012452795170247555, -0.03276462107896805, -0.006580163724720478, 0.07487356662750244, 0.01724349521100521, 0.006393973249942064, -0.062227874994277954, 0.08715365827083588, -0.0026240546721965075, 0.019821584224700928, -0.04552912339568138, 0.015679270029067993, -0.02550347149372101, -0.009687991812825203, -0.06215173006057739, 0.1293420046567917, 0.0007838507881388068, 0.05525682121515274, -0.01568984054028988, -0.016844145953655243, 0.035560861229896545, 0.03369814530014992, 0.07432009279727936, 0.002365265740081668, 0.00635276036337018, -0.019523708149790764, 0.01313291396945715, -0.0029275291599333286, -0.07980337738990784, -0.020759208127856255, -0.010135446675121784, -0.0011537115788087249, -5.035027425037697e-05, -0.040318094193935394, -0.07863131910562515, 0.05103596672415733, 0.1178266853094101, 0.019961416721343994, -0.024288220331072807, -0.15694870054721832, -0.145518958568573, 0.04466431960463524, 0.13340003788471222, 0.0757080614566803, 0.05402354151010513, -0.0444171242415905, -0.04188648611307144, -0.01332461554557085, 0.030308831483125687, 0.045803096145391464, 0.01896873116493225, 0.04887266457080841, 0.013650426641106606, -0.006624347530305386, 0.01092125941067934, -0.01212273444980383, -0.035760097205638885, 0.051563810557127, 0.016348637640476227, -0.014202168211340904, -0.003982157912105322, 0.00550322700291872, 0.06642229855060577, -0.010877363383769989, -0.061252061277627945, -0.01887013576924801, 0.032181426882743835, 0.07578170299530029, 0.033322982490062714, -0.0023878877982497215, 0.007220038678497076, 0.009274762123823166, 0.030356766656041145, -0.0013345349580049515, 0.03570117801427841, -0.008843161165714264, -0.01875350810587406, -0.0527912899851799, 0.0757206380367279, -0.023566754534840584, 0.0019770388025790453, 0.00033287881524302065, 0.03665533661842346, 0.07879165560007095, 0.05815770849585533, -0.07750846445560455, 0.02991878241300583, 0.0030884933657944202, 0.013841583393514156, 0.028037739917635918, 0.0017371759749948978, -0.007165043614804745, -0.09943967312574387, 0.0040498594753444195, 0.026263907551765442, 0.10627871006727219, -0.1460658460855484, 0.01160514634102583, 0.01585175096988678, 0.018052058294415474, -0.011135728098452091, 0.05186242237687111, 0.006457369774580002, -0.03888745978474617, 0.003996752668172121, 0.05971416085958481, -0.07247234135866165, -0.006485006306320429, 0.012315846979618073, -0.03869979456067085, -0.0789346694946289, -0.00325998617336154, 0.07659535855054855, 0.03225992992520332, 0.030632751062512398, -0.013003439642488956, -0.007822316139936447, -0.029958128929138184, -0.01639813743531704, -0.01873128116130829, -0.004882427863776684, 0.04116286709904671, -0.012778230011463165, -0.02160703018307686, -0.003310037776827812, 0.005067240446805954, 0.02160964347422123, 0.035568177700042725, 0.0334879532456398, -0.05424656346440315, -0.04629584401845932, -0.019949903711676598, -0.054247498512268066, 0.021873677149415016, 0.05209249630570412, 0.09521345049142838, 0.02656579203903675, -0.05550769343972206, -0.09510556608438492, -0.007999864406883717, -0.02005758509039879, 0.03136815130710602, 0.04857102781534195, -0.04364250600337982, -0.07460522651672363, 0.05761876702308655, 0.07891172915697098, 0.04010343551635742, -0.02131481282413006, -0.01752389781177044, -0.002786331344395876, -0.04403603449463844, -0.015213568694889545, 0.04712272435426712, 0.027461443096399307, -0.06132134422659874, -0.019510354846715927, 0.016401996836066246, 0.02709551714360714, 0.020949356257915497, 0.016487909480929375, -0.010490301065146923, -0.018495341762900352, 0.0752217248082161, -0.015013824217021465, -0.08517201989889145, -0.01876293681561947, 0.009722835384309292, 0.03126563876867294, 0.010549354366958141, 0.005994792096316814, -0.014740226790308952, -0.04142351821064949, -0.019071679562330246, -0.04887042194604874, -0.01573268510401249, 0.0093150669708848, 0.014325453899800777, -0.04385214298963547, -0.06435576826334, -0.010326842777431011, -0.010151135735213757, 0.029848730191588402, 0.006212151143699884, 0.03570300340652466, -0.03691306710243225, 0.016158686950802803, 0.06145556643605232, -0.01681290753185749, 0.006990133784711361, 0.030104132369160652, 0.033934224396944046, 0.024080350995063782, 0.09249427169561386, 0.11567283421754837, -0.0013272531796246767, -0.03404422849416733, 0.012780198827385902, 0.008108542300760746, -0.01757165975868702, -0.027367467060685158, 0.04124217852950096, -0.020951826125383377, -0.03386031091213226, 0.030875496566295624, 0.016906119883060455, -0.05233281850814819, 0.002121003344655037, 0.004693738184869289, -0.08042234927415848, -0.022301828488707542, 0.012296819128096104, 0.0069609289057552814, 0.0011413993779569864, -0.037086665630340576, -0.010897696018218994, -0.025730960071086884, -0.016866816207766533, -0.006696724332869053, -0.0014794045127928257, 0.005092454608529806, -0.019960645586252213, 0.00012630900891963392, -0.004778727889060974, 0.11054360866546631, -0.005636473186314106, -0.01049044169485569, -0.020782040432095528, -0.10378769785165787, -0.022952314466238022, 0.029639458283782005, 0.050246529281139374, 0.07212212681770325, 0.13679327070713043, -0.054061174392700195, -0.06511396914720535, -0.047431498765945435, 0.05266467109322548, 0.06882645189762115, 0.05406815931200981, 0.06797748059034348, -0.047175146639347076, 0.009435547515749931, -0.03481491655111313, -0.0018320463132113218, -0.053508512675762177, 0.03578926995396614, 0.05487737059593201, -0.01364201307296753, 0.03325377777218819, 0.04183702543377876, 0.02361086569726467, -0.013594809919595718, -0.0365215539932251, -0.020866133272647858, 0.026326660066843033, 0.005407580640166998, 0.0407797247171402, 0.03257785737514496, 0.004375191405415535, -0.03964199125766754, -0.021094754338264465, -0.05085734277963638, -0.021803317591547966, -0.004468462895601988, -0.0010916013270616531, -0.029340816661715508, -0.00978719349950552, 0.021275974810123444, -0.04581959918141365, -0.12383627891540527, -0.04097413271665573, -0.020378440618515015, 0.02493165247142315, -0.022465799003839493, -0.02048061601817608, -0.013599678874015808, -0.129701167345047, -0.04860888794064522, 0.051811475306749344, -0.008113864809274673, -0.03816664218902588, 0.015969572588801384, -0.03483390063047409, 0.010660848580300808, 0.051113374531269073, 0.029940761625766754, -0.0030792157631367445, 0.004308051895350218, 0.059904128313064575, -0.0002538826665841043, 0.1044495552778244, 0.11306721717119217, -0.06573547422885895, -0.07739157974720001, 0.02700095623731613, 0.057384781539440155, 0.0275928545743227, 0.022962726652622223, 0.05790603160858154, -0.015133013017475605, -0.01857013814151287, 0.03704552352428436, 0.0057051214389503, -0.0830000638961792, 0.01545750442892313, 0.024149827659130096, -0.08513710647821426, -0.033905692398548126, -0.01284818071871996, 0.01624169759452343, 0.020294472575187683, 0.011691233143210411, -0.04562710225582123, -0.08746825903654099, -0.030522022396326065, -0.08048006892204285, 0.045312363654375076, 0.006378005724400282, 0.00916627049446106, 0.0013488039840012789, -0.008522328920662403, 0.05892946571111679, 0.0072687240317463875, 0.012750402092933655, -0.01352080050855875, -0.038455311208963394, -0.022244621068239212, -0.0031422364991158247, 0.040572389960289, 0.07391469180583954, 0.018613025546073914, -0.023073693737387657, 0.006198510993272066, -0.01895338110625744, 0.02001354470849037, -0.0035496572963893414, 0.005037733819335699, 0.022125091403722763, -0.007737006060779095, 0.017207184806466103, 0.06123394891619682, 0.0038859082851558924, -0.06697473675012589, -0.023747382685542107, -0.06296484172344208, 0.041020676493644714, -0.0061403908766806126, 0.009579276666045189, -0.0035316329449415207, -0.002357476856559515, -0.06761415302753448, -0.03323367238044739, -0.0007053330773487687, 0.00864344835281372, -0.005061688832938671, -0.015116221271455288, -0.008400483056902885, 0.005816923454403877, 0.03116639517247677, -0.034131970256567, -0.034918736666440964, 0.004942268133163452, -0.006282839458435774, -0.015721656382083893, 0.012345477007329464, 0.00405076751485467, -0.001439085346646607, -0.03831930086016655, -0.07210075855255127, -0.09099163860082626, 0.023786421865224838, -0.030177341774106026, -0.02391302026808262, -0.04284239560365677, -0.0021624749060720205, -0.0764036625623703, -0.15136118233203888, -0.033011578023433685, 0.01569601148366928, 0.017970452085137367, 0.02108650654554367, -0.014202645979821682, 0.15241684019565582, 0.051891859620809555, -0.0443938709795475, 0.003209150629118085, -0.023118777200579643, 0.005331868305802345, -0.021299628540873528, 0.0367056280374527, 0.14462041854858398, 0.0013944741804152727, -0.03956804424524307, 0.0165660809725523, -0.009464350529015064, 0.018548190593719482, -0.019641930237412453, 0.10320068895816803, -0.004133119713515043, -0.003487070556730032, -0.019739622250199318, 0.08122389018535614, -0.015524585731327534, 0.08724787086248398, -0.039459094405174255, 0.02780810184776783, -0.03539762273430824, 0.023581482470035553, -0.007507005240768194, -0.03036689944565296, -0.04004981368780136, -0.014086296781897545, -0.018479324877262115, -0.02074713259935379, 0.010355777107179165, 0.01075803954154253, -0.004534326959401369, 0.026235006749629974, 0.008989079855382442, -0.012947410345077515, 0.007079487666487694, 0.03671111539006233, -0.04365541785955429, -0.010833109728991985, -0.0606192983686924, -0.03437449783086777, 0.03712523728609085, 0.0750683918595314, 0.07330157607793808, 0.02473326213657856, -0.05485941469669342, 0.0046317363157868385, -0.04398896545171738, -0.044099751859903336, 0.033212367445230484, 0.02022082731127739, -0.006152505520731211, 0.07496166974306107, 0.0379161462187767, 0.10096397995948792, -0.019357871264219284, -0.0718202292919159, -0.018342889845371246, 0.043877191841602325, 0.01534936111420393, 0.03807777166366577, 0.009413150139153004, 0.002542851958423853, -0.025083912536501884, -0.0037070869002491236, -0.05382471904158592, 0.0023192712105810642, 0.04693856090307236, 0.026618273928761482, 0.045356206595897675, -0.0018188898684456944, -0.06118714436888695, 0.11131469905376434, 0.06173444911837578, -0.027685176581144333, 0.045186325907707214, -0.0002837686624843627, 0.07305095344781876, 0.04767191410064697, -0.00906637217849493, -0.03810380771756172, -0.0010625725844874978, -0.02172199822962284, -0.0479932576417923, -0.008507712744176388, -0.0009907797211781144, -0.014238842763006687, -0.029030580073595047, 0.04449508339166641, 0.05857067182660103, -0.05019839107990265, -0.009748437441885471, -0.008614452555775642, 0.022922731935977936, 0.05775047093629837, 0.013630609959363937, 0.05353353172540665, -0.07839862257242203, -0.06858906149864197, -0.059055548161268234, 0.05413755401968956, 0.09078924357891083, -0.0817047506570816, 0.06600077450275421, 0.007255140226334333, -0.014632964506745338, -0.0034615187905728817, 0.04832283407449722, 0.022542661055922508, -0.035226862877607346, 0.02489931508898735, 0.08421893417835236, -0.03218439593911171, 0.020383963361382484, 0.05310741066932678, -0.0765644982457161, -0.05700085684657097, 0.03380358964204788, 0.06041267141699791, 0.005759443622082472, 0.03235480189323425, 0.009167221374809742, -0.09188148379325867, -0.06408699601888657, -0.02737930230796337, -0.047502174973487854, -0.04349127039313316, 0.046808913350105286, 0.007948774844408035, 0.0095283268019557, -0.0025567749980837107, -0.0021847672760486603, -0.0403444841504097, -0.023109987378120422, 0.01112830825150013, -0.03442509472370148, -0.057030752301216125, -0.07231438905000687, -0.021205712109804153, 0.04157394543290138, 0.08895104378461838, 0.022086016833782196, 0.01369241252541542, -0.005702846683561802, -0.00440234923735261, 0.03204987198114395, -0.042627524584531784, -0.04070841148495674, 0.019520806148648262, -0.007373616099357605, 0.05068104341626167, 0.046309344470500946, -0.07920870184898376, -0.105179063975811, -0.03411828354001045, 0.010572200641036034, 0.031092537567019463, 0.04460901767015457, 0.031071946024894714, 0.034370601177215576, 0.08653239160776138, 0.041596002876758575, 0.012484211474657059, 0.018653109669685364, -0.001268224325031042, 0.037606798112392426, 0.018826011568307877, 0.012168070301413536, -0.022626793012022972, -0.0013510690769180655, -0.01728738285601139, 0.011202968657016754, -0.07649899274110794, -0.015707936137914658, 0.0014679983723908663, -0.013568134047091007, 0.014011724852025509, -0.11864732205867767, 0.018801797181367874, -0.053246088325977325, 0.054984673857688904, -0.02435351349413395, 0.09511647373437881, 0.018911946564912796, 0.02158963680267334, 0.0013755107065662742, 0.0005878436495549977, 0.07590746134519577, 0.0024005905725061893, -0.017708556726574898, -0.08884534984827042, 0.09200327843427658, -0.02698252908885479, 0.11193040013313293, 0.11427833139896393, -0.03466483950614929, -0.07625938206911087, -0.06857683509588242, 0.03997458890080452, 0.0917779728770256, 0.01841786690056324, 0.029795819893479347, 0.08089421689510345, 0.03319961205124855, 0.04030543193221092, 0.07661847025156021, 0.02541072480380535, -0.006173195783048868, -0.15492267906665802, -0.044179096817970276, 0.0800309106707573, 0.056364793330430984, 0.062430039048194885, 0.014736008830368519, -0.05307162180542946, -0.07940860092639923, -0.03510715067386627, -0.004784764721989632, 0.04027731716632843, 0.05423736572265625, 0.022527314722537994, -0.1490420550107956, -0.11119867116212845, -0.16979378461837769, 0.03997253626585007, -0.01241601537913084, 0.008015194907784462, 0.00018504634499549866, 0.010375050827860832, -0.002127271145582199, 0.024041425436735153, -0.02001051977276802, -0.0031448795925825834, -0.0007181912660598755, -0.015850074589252472, -0.016103524714708328, 0.0026974808424711227, 0.002907354384660721, 0.008417844772338867, 0.014382170513272285, 0.017625367268919945, -0.009397019632160664, -0.007486043497920036, 0.02034737542271614, -0.019895240664482117, 0.01740792579948902, -0.014948543161153793, -0.008680437691509724, 0.0005099788540974259, -0.003061107359826565, 0.011061884462833405, -0.0038549797609448433, 0.006783518940210342, -0.015464072115719318, 0.012718027457594872, -0.017607105895876884, -0.006385263055562973, -0.00024618394672870636, -0.01674935594201088, 0.014528324827551842, 0.002028563991189003, -0.013011817820370197, 0.015806006267666817, 0.0048238057643175125, 0.012702357023954391, -0.011552087962627411, -0.013748690485954285, 0.0027138199657201767, 0.014297613874077797, -0.016323259100317955, -0.013142906129360199, 0.005596010014414787, 0.015055796131491661, 0.009815171360969543, -0.016757329925894737, 0.011787431314587593, -0.05536117032170296, 0.03911910578608513, -0.026330802589654922, -0.012202226556837559, -0.03498920053243637, -0.008136529475450516, -0.01918903738260269, -0.03181843459606171, 0.08554726839065552, -0.009783278219401836, 0.0036405930295586586, -0.009679972194135189, 0.0039365943521261215, -0.012492162175476551, 0.028418494388461113, 0.0963914766907692, 0.04632237181067467, -0.07459045201539993, -0.010228784754872322, 0.02477799542248249, -0.0026664026081562042, 0.060625988990068436, 0.06658739596605301, -0.0063013979233801365, -0.027850903570652008, 0.02427002415060997, 0.014639783650636673, -0.017485151067376137, -0.040080517530441284, 0.04406058043241501, -0.03967544436454773, 0.0008823105599731207, 0.037459682673215866, 0.003902560332790017, -0.031053470447659492, 0.03691139072179794, 0.04408382624387741, -0.02188926562666893, -0.02436893992125988, 0.041124604642391205, -0.02093365229666233, -0.035467151552438736, -0.014355338178575039, -0.00760598573833704, -0.04731457307934761, -0.09103275090456009, -0.04934896156191826, 0.06452439725399017, -0.015182258561253548, 0.008312253281474113, -0.03323813155293465, -0.009688169695436954, -0.008547000586986542, 0.011839129962027073, -0.0019141092197969556, 0.001727033988572657, 0.013473868370056152, -0.016401221975684166, -0.018770141527056694, -0.048384811729192734, -0.019311100244522095, 0.05125404894351959, -0.005939058028161526, -0.0036411734763532877, -0.005075185559689999, -0.035263560712337494, 0.03508824110031128, -0.00750123942270875, 0.0469186007976532, -0.011502542532980442, 0.09455543011426926, 0.028439201414585114, 0.14886163175106049, -0.04873866215348244, -0.033951085060834885, -0.01310991495847702, -0.0006317493971437216, -0.01866939291357994, -0.020890381187200546, 0.09671379625797272, -0.006367086432874203, -0.0023112983908504248, 0.021023811772465706, -0.020614858716726303, -0.019002389162778854, 0.04877495393157005, -0.06767746061086655, -0.022247042506933212, -0.040880169719457626, -0.00041637345566414297, -0.01317554246634245, -0.046190373599529266, -0.06954988837242126, -0.0860615074634552, -0.06963206082582474, -0.06392821669578552, 0.01699511893093586, 0.017275141552090645, -0.004396804608404636, -0.017223013564944267, 0.01764426752924919, -0.016115743666887283, -0.007406800985336304, -0.011412717401981354, -0.0040396880358457565, 0.012569209560751915, -0.011241246946156025, 0.025445472449064255, 0.02555924467742443, 0.0062652695924043655, -0.009253337979316711, -0.003619530238211155, -0.00499314721673727, -0.008334626443684101, -0.01498437114059925, 0.010242614895105362, 0.006700460333377123, 0.003572620451450348, 0.014335451647639275, -0.010394306853413582, 0.011865410953760147, 0.02406071126461029, -0.023421382531523705, 0.018786733970046043, -0.0010290154023095965, -0.004631891846656799, -0.013600477948784828, 0.024026980623602867, -0.006223779171705246, -0.001637593493796885, -0.023064184933900833, -0.011259946040809155, -0.014825863763689995, -0.017270192503929138, 0.0013873270945623517, 0.008977226912975311, 0.021590495482087135, -0.008882691152393818, -0.00838136300444603, -0.009677414782345295, 0.0011941548436880112, -0.008168733678758144, -0.0021500475704669952, 0.01250840537250042, -0.016742151230573654, -0.015695443376898766, -0.02318897843360901, 0.028791217133402824, -0.02313995733857155, -0.02608536370098591, 0.07492265105247498, 0.04971308261156082, 0.0015443949960172176, -0.06262964755296707, -0.09157858788967133, -0.07196862250566483, 0.010021230205893517, 0.05321662127971649, 0.09648603200912476, 0.05054944381117821, 0.005962861701846123, -0.060194797813892365, -0.048646703362464905, 0.05657065287232399, 0.029703829437494278, 0.0751950815320015, 0.09995783865451813, 0.0007080610375851393, 0.040448226034641266, 0.0877586230635643, 0.019331617280840874, -0.0553361140191555, -0.0010670190677046776, 0.043721865862607956, 0.012858728878200054, -0.01021827757358551, 0.024080801755189896, 0.04180993512272835, -0.009705026634037495, -0.04429694265127182, 0.02687855437397957, 0.0378328301012516, 0.03597021847963333, 0.043219711631536484, -0.021170446649193764, -0.03709094971418381, 0.011253315024077892, 0.05566144734621048, -0.05769733712077141, -0.059334687888622284, 0.014469042420387268, -0.007970262318849564, -0.014331363141536713, -0.020113827660679817, 0.0062433527782559395, 0.00916776992380619, -0.02034761570394039, -0.009636904112994671, 0.0039396206848323345, -0.01749284565448761, 0.009032622911036015, -0.02169937640428543, -0.007009787950664759, -0.07909156382083893, -0.018486129119992256, -0.039264123886823654, -0.018507109954953194, 0.02292603813111782, -0.0024458239786326885, -0.041679155081510544, -0.050450410693883896, -0.006983612198382616, -0.002855822443962097, 0.04313164949417114, 0.13838091492652893, 0.11917596310377121, -0.05011620745062828, 0.022983368486166, 0.006570969708263874, -0.04708544537425041, -0.01519587729126215, 0.08237292617559433, 0.07654774934053421, -0.036282602697610855, 0.046700987964868546, 0.033559296280145645, 0.005817459896206856, 0.032639238983392715, 0.026199068874120712, -0.00023421779042109847, 0.0004691131180152297, 0.01103193685412407, 0.0031257332302629948, -0.014592827297747135, -0.030378248542547226, -0.026025965809822083, -0.01962246559560299, 0.007429965306073427, 0.010570592246949673, -0.014554943889379501, -0.03072136826813221, -0.027388446033000946, 0.018866725265979767, -0.0013370172819122672, -0.004428094252943993, -0.040632106363773346, -0.01934625394642353, -0.05123516172170639, 0.016602812334895134, -0.02422395721077919, -0.0038393307477235794, 0.0022499719634652138, -0.11524206399917603, -0.02247946709394455, -0.04055160656571388, -0.026671135798096657, -0.03743278980255127, 0.07651886343955994, 0.004008457995951176, -0.14807850122451782, 0.08330530673265457, -0.060764770954847336, -0.051142409443855286, -0.009964684955775738, 0.06140654534101486, -0.039648689329624176, 0.02818937785923481, 0.16358084976673126, 0.12212251871824265, 0.019448451697826385, -0.005440147127956152, -0.030893072485923767, 0.018443690612912178, -0.01600654609501362, 0.03506062924861908, 0.11574713885784149, 0.03125346079468727, -0.018541183322668076, -0.010437117889523506, 0.060687337070703506, -0.024769818410277367, 0.022839229553937912, -0.016690893098711967, -0.05585391819477081, -0.0019970457069575787, 0.0027322026435285807, 0.030275780707597733, 0.12006526440382004, -0.027854010462760925, -0.014844235964119434, -0.007938066497445107, -0.05745990574359894, -0.00229725893586874, -0.022568004205822945, 0.002682877704501152, 0.010939713567495346, -0.022512122988700867, 0.026383398100733757, 0.004186156205832958, 0.03611203283071518, -0.00953668262809515, -0.003590969368815422, 0.003563118167221546, 0.015304283238947392, 0.0006788202445022762, -0.013239441439509392, 0.03284551203250885, -0.03986867517232895, 0.03301437571644783, 0.04453102499246597, -0.01758604496717453, -0.046129010617733, 0.01163304690271616, 0.02694590575993061, -0.008831676095724106, -0.023115698248147964, 0.029315507039427757, 0.008937206119298935, -0.0029850841965526342, 0.06588150560855865, 0.010119862854480743, -0.025006206706166267, -0.007909446023404598, 0.0014249192317947745, -0.037856895476579666, 0.016086911782622337, 0.05804712697863579, 0.003373560728505254, -0.008910223841667175, 0.037439338862895966, -0.03027748130261898, -0.053097862750291824, -0.0008553824736736715, 0.026564380154013634, 0.02976013347506523, -0.02277829311788082, -0.026611601933836937, -0.001940544112585485, 0.007187664043158293, -0.01267289463430643, -0.00987803004682064, 0.00805489532649517, 0.01057684700936079, -0.02151336334645748, -0.024790756404399872, -0.02133224904537201, -0.06589524447917938, -0.04281679168343544, 0.0009009115165099502, -0.017015065997838974, -0.04215611144900322, -0.030878998339176178, -0.023468997329473495, 0.043250467628240585, 0.06602951139211655, 0.08491436392068863, -0.04795974865555763, -0.14428381621837616, -0.060955990105867386, 0.11102074384689331, 0.1555149257183075, 0.11837811768054962, 0.08378775417804718, -0.03805213049054146, 0.014080577529966831, -0.01183902658522129, 0.031104441732168198, -0.010328571312129498, 0.01440953928977251, 0.036777179688215256, 0.011526653543114662, 0.03604616969823837, 0.07749800384044647, 0.028809502720832825, -0.04718061909079552, -0.02459927648305893, -0.0018473609816282988, 0.018664995208382607, 0.018566010519862175, 0.04442310333251953, 0.035298679023981094, -0.0005142356385476887, -0.015723207965493202, -0.037996649742126465, -0.0008493327186442912, 0.046609047800302505, 0.026811586692929268, -0.009363031014800072, -0.02464142255485058, -0.0012906126212328672, 0.08020778745412827, 0.007298201322555542, -0.01928437501192093, -0.005194920115172863, 0.04049661383032799, -0.020557785406708717, -0.016657432541251183, -0.01724104955792427, 0.048592764884233475, 0.002202735049650073, 0.013836783356964588, 0.04455897584557533, -0.03396478667855263, -0.03514799103140831, -0.029136324301362038, 0.049875255674123764, 0.02123122289776802, 0.08465389162302017, 0.015753047540783882, -0.02793111652135849, -0.01079570408910513, -0.0942324846982956, 0.04667492210865021, 0.07061482965946198, -0.022772975265979767, -0.013655091635882854, -0.03873584419488907, 0.013770811259746552, -0.018002497032284737, 0.03456251695752144, -0.0010002445196732879, -0.04938758909702301, -0.06443100422620773, -0.02453380636870861, -0.009632110595703125, 0.015398082323372364, 0.03210474178195, -0.021878832951188087, -0.07313283532857895, -0.09350458532571793, 0.05561850592494011, 0.0425579808652401, 0.0317980982363224, 0.004734288435429335, 0.012707330286502838, -0.029536277055740356, -0.04595361277461052, 0.013527868315577507, -0.01573214679956436, 0.03316182643175125, 0.007205088622868061, -0.0038119549863040447, 0.007540267426520586, -0.0026643923483788967, 0.0034211138263344765, 0.009852049872279167, -0.0038261706940829754, -0.0349561832845211, 0.03650642931461334, 0.02237093821167946, -0.015158800408244133, -0.04775280877947807, 0.01477443054318428, 0.024179523810744286, 0.004245441872626543, 0.07184844464063644, 0.04240410402417183, -0.005032361019402742, -0.09775257855653763, -0.005550644360482693, 0.011287379078567028, -0.043108370155096054, 0.0668036937713623, 0.019072292372584343, -0.038520146161317825, 0.053040485829114914, 0.01988142356276512, 0.022223765030503273, -0.02948915772140026, 0.024034053087234497, 0.009623288176953793, -0.038147684186697006, -0.016115501523017883, 0.015565874986350536, -0.004027555231004953, 0.008056452497839928, 0.010826287791132927, -0.06771155446767807, -0.06045343726873398, -0.03541635721921921, 0.02917833998799324, 0.0017038764199241996, -0.025624969974160194, -0.0033773668110370636, -0.011847889050841331, -0.039967719465494156, -0.05244702100753784, 0.01006582472473383, -0.0011402670061215758, -0.08536463230848312, 0.012561237439513206, -0.04528779536485672, 0.015211151912808418, 0.054472923278808594, 0.0060506705194711685, 0.019261525943875313, -0.07841064780950546, -0.08308062702417374, -0.07505589723587036, -0.051642246544361115, -0.00899284053593874, -0.006545876618474722, -0.009073926135897636, -0.003144800430163741, -0.13110719621181488, -0.07734351605176926, 0.026476310566067696, -0.028688490390777588, 0.006969017442315817, 0.12191266566514969, -0.08416147530078888, -0.04598136246204376, 0.06043209135532379, 0.005585398990660906, -0.01597083918750286, 0.060817066580057144, 0.05908719450235367, -0.010997099801898003, 0.030391130596399307, 0.08051424473524094, 0.1571420282125473, 0.02306082285940647, -0.02970173954963684, 0.030845364555716515, 0.0017539133550599217, 0.045982033014297485, 0.046661291271448135, 0.02794382907450199, -0.011412291787564754, -0.023469706997275352, 0.009026586078107357, 0.06267207860946655, -0.08768665790557861, -0.049470338970422745, -0.05756678804755211, -0.044069573283195496, -0.04622991010546684, 0.009753183461725712, -0.01507086306810379, -0.02069239504635334, -0.030549373477697372, -0.05869448184967041, -0.033193279057741165, 0.020033353939652443, 0.006197057664394379, -0.02153448387980461, -0.015015806071460247, -0.0033618465531617403, -0.0054818205535411835, -0.00022960404749028385, 0.04380808770656586, 0.04394374042749405, -0.0408802255988121, 0.010026113130152225, -0.010489270091056824, -0.09084388613700867, -0.013353881426155567, 0.03972465917468071, 0.07549450546503067, 0.011016893200576305, 0.05357227846980095, 0.040306456387043, 0.05170256644487381, -0.013663597404956818, 0.033715784549713135, 0.04704458639025688, -0.0021425916347652674, 0.00930762942880392, 0.05554050952196121, 0.06611081957817078, 0.0288996659219265, 0.014147186651825905, 0.007051883731037378, 0.008781997486948967, 0.0365561917424202, -0.00410310598090291, 0.00958882924169302, -0.026095394045114517, -0.01577373594045639, 0.02647494710981846, -0.015145916491746902, -0.013614336960017681, -0.0034503398928791285, -0.027859359979629517, -0.00869053415954113, -0.0029228362254798412, 0.012951713055372238, -0.004237541928887367, 0.011167939752340317, -0.0014823006931692362, 0.002125233644619584, -0.007704285439103842, 9.297702490584925e-05, 0.040565188974142075, -0.0036224264185875654, -0.010177813470363617, -0.03140445053577423, -0.01743147522211075, -0.041523516178131104, 0.0560172013938427, 0.04271053150296211, -0.05202954635024071, 0.020556339994072914, -0.04293432831764221, 0.02752942591905594, 0.007569619920104742, 0.014074232429265976, 0.03469576686620712, -0.020265644416213036, -0.003587540937587619, 0.0628119558095932, -0.0697932168841362, -0.03244463726878166, 0.05540536716580391, 0.001719354884698987, 0.0024407552555203438, 0.1617768257856369, 0.01565992645919323, 0.05820811539888382, -0.02467549592256546, -0.04184873402118683, 0.02658483013510704, 0.07965487241744995, 0.03965074568986893, 0.0018057497218251228, -0.03784744441509247, -0.02416539005935192, 0.029658831655979156, 0.015177116729319096, -0.115818090736866, -0.014878833666443825, -0.2015909105539322, -0.05311588570475578, 0.076970674097538, 0.05401942878961563, 0.008895051665604115, -0.008884778246283531, -0.02850404940545559, 0.009536598809063435, -0.03328387439250946, -0.027262495830655098, 0.01869725063443184, 0.01912003755569458, -0.03764920309185982, -0.068641297519207, -0.05626320093870163, 0.019293611869215965, -3.293684858363122e-05, 0.029470650479197502, 0.024908695369958878, 0.030697721987962723, 0.010335378348827362, 0.0351046584546566, -0.010301817208528519, -0.08384416252374649, -0.030401762574911118, 0.042042020708322525, -0.04566304013133049, 0.09547244012355804, -0.0048851617611944675, -0.022728707641363144, -0.07499776780605316, -0.021424612030386925, 0.024055704474449158, 0.028633704409003258, -0.01593530736863613, -0.032959531992673874, 0.021743634715676308, 0.03574551269412041, 0.024490630254149437, 0.00710949907079339, -0.02736123651266098, -0.03871174901723862, -0.037570446729660034, 0.000458413822343573, -0.0030650217086076736, 0.023318275809288025, -0.0002477174566593021, -0.012294795364141464, -0.00086460035527125, -0.017878657206892967, -0.03667854517698288, -0.018049323931336403, 0.006340350490063429, 0.011393134482204914, -0.02307724393904209, -0.011739029549062252, -0.02508361078798771, 0.0008999138372018933, 0.004583400208503008, 0.03427041694521904, -0.008548050187528133, -0.008857213892042637, -0.0044678994454443455, 0.009849588386714458, 0.01912662759423256, 0.02817954495549202, 0.024167848750948906, 0.035395003855228424, -0.02460591122508049, 0.02043095976114273, -0.045376088470220566, -0.0015118876472115517, 0.014459386467933655, 0.04222114011645317, 0.016783693805336952, -0.039053112268447876, 0.07997310161590576, 0.06101527437567711, 0.0042672292329370975, -0.059430401772260666, -0.007497113663703203, 0.002501151291653514, -0.02004498429596424, 0.03514205664396286, 0.08595074713230133, 0.023314213380217552, 0.03393033519387245, -0.009070249274373055, -0.02504616416990757, 0.005352959502488375, -0.029348062351346016, -0.012294506654143333, 0.011682924814522266, -0.0063825990073382854, 0.013102483935654163, -0.016466187313199043, -0.022088827565312386, 0.016445476561784744, 0.025552045553922653, 0.008014563471078873, -0.04406155273318291, -0.024031758308410645, 0.014527934603393078, -0.014920612797141075, -0.015434459783136845, -0.02805137075483799, -0.026713727042078972, 0.02095690742135048, -0.002617791760712862, 0.02745586633682251, -0.02718275412917137, -0.04061552509665489, 0.00610567070543766, 0.019813518971204758, -0.058469198644161224, -0.046954311430454254, 0.059702031314373016, -0.008483505807816982, -0.007370068226009607, 0.01559242233633995, 0.012635041028261185, -0.04509415850043297, 0.015775684267282486, 0.14329323172569275, 0.006803827825933695, 0.05040593817830086, 0.0371946282684803, -0.03205162286758423, -0.019745515659451485, 0.05932881310582161, 0.07793276011943817, -0.005967127159237862, 0.013554783537983894, 0.03625204786658287, 0.04838629066944122, 0.04474608227610588, 0.007045179605484009, 0.017590122297406197, -0.021535348147153854, 0.03129430115222931, 0.06069087237119675, -0.00340247992426157, -0.018346810713410378, 0.013280658982694149, 0.015959372743964195, -0.01335065346211195, -0.015069188550114632, -0.002655124757438898, -0.02842320129275322, -0.0074647641740739346, -0.023396281525492668, 0.08465519547462463, -0.024173574522137642, 0.0005991461221128702, 0.010677970945835114, -0.013026432134211063, -0.03621276468038559, 0.033542439341545105, -0.007722622249275446, -0.010961957275867462, -0.02886759303510189, 0.004152182023972273, 0.017556266859173775, 0.02470453642308712, -0.003996622283011675, 0.050628162920475006, -0.02309909090399742, -0.01140911690890789, -0.0023806774988770485, -0.03610303997993469, -0.024645093828439713, 0.004130415618419647, 0.08388637006282806, -0.05238495394587517, 0.004426547326147556, -0.02631569094955921, -0.04010578617453575, -0.083625428378582, -0.02311186119914055, 0.023370105773210526, -0.036748699843883514, 0.05922231823205948, 0.06141243875026703, -0.011806047521531582, -0.021403981372714043, 0.009663240984082222, 0.009946022182703018, 0.023097379133105278, 0.01125791110098362, 0.03689102828502655, 0.028766019269824028, 0.030578676611185074, 0.021124597638845444, 0.011057820171117783, -0.05347330868244171, -0.03598941117525101, -0.0152207026258111, 0.00015320708916988224, -0.024209240451455116, 0.028403449803590775, 0.012788788415491581, 0.004616330377757549, 0.02508341148495674, 0.0371551476418972, 0.023639025166630745, 0.049530934542417526, -0.053518474102020264, -0.009522419422864914, -0.03508641570806503, -0.07893166691064835, 0.00969463400542736, 0.052654825150966644, -0.0008767100516706705, 0.06035735458135605, 0.12444095313549042, -0.055415600538253784, -0.1390843540430069, -0.06687656044960022, 0.0500449500977993, 0.07007936388254166, 0.07513784617185593, 0.1051691547036171, -0.04125066474080086, -0.030600102618336678, -0.053378764539957047, 0.013476304709911346, -0.11016388237476349, 0.003763763001188636, 0.0641854777932167, -0.046980589628219604, 0.031078040599822998, 0.061441052705049515, 0.07059688121080399, 0.005771264433860779, -0.06504929065704346, -0.04890139773488045, 0.02305702120065689, -0.03318305313587189, 0.03486061468720436, 0.05709412693977356, 0.020836390554904938, 0.0180595051497221, -0.019502881914377213, -0.006415736395865679, 0.004993622191250324, -0.0019725938327610493, -0.002029316732659936, -0.03541896119713783, -0.053948480635881424, 0.037453677505254745, -0.011785079725086689, -0.04156069830060005, -0.041557807475328445, -0.030536137521266937, -0.0031153818126767874, -0.00045974337263032794, -0.00953949335962534, -0.023628735914826393, 0.02875588648021221, 0.036779437214136124, 0.0052896603010594845, 0.02354905754327774, 0.03824911639094353, 0.03619847074151039, 0.028142008930444717, 0.07111868262290955, 0.02987215667963028, -0.011750839650630951, -0.07155526429414749, -0.030338577926158905, 0.03557834029197693, 0.01542495284229517, 0.018162965774536133, 0.12543992698192596, -0.04348910599946976, 0.021433299407362938, -0.0035849071573466063, 0.012087429873645306, -0.058293506503105164, 0.056870490312576294, 0.06845089048147202, 0.011892803013324738, -0.05424507334828377, 0.04241104796528816, -0.008254336193203926, 0.003508809022605419, 0.0724358782172203, -0.0033028018660843372, -0.03778829798102379, -0.055471599102020264, 0.027982549741864204, 0.0044418033212423325, -0.021727552637457848, -0.01789475418627262, -0.07306303828954697, -0.08979100733995438, 0.0008257823646999896, -0.03911289945244789, -0.008215955458581448, -0.004263177048414946, -0.03253014013171196, -0.00648919865489006, 0.031836703419685364, 0.014216839335858822, 0.04119347780942917, 0.09423762559890747, -0.003103839233517647, -0.022190658375620842, -0.07463773339986801, -0.016621433198451996, 0.010633112862706184, 0.05038349702954292, 0.0727786049246788, 0.008297137916088104, 0.07191293686628342, -0.010862456634640694, -0.011314261704683304, -0.046556174755096436, -0.06768983602523804, 0.01563294418156147, -0.010385610163211823, 0.03168670833110809, -0.005338502582162619, 0.0672566145658493, 0.017204519361257553, -0.09282809495925903, -0.025936560705304146, 0.02273334190249443, 0.09988117963075638, 0.06774932891130447, 0.06685585528612137, 0.029030149802565575, -0.03715067356824875, -0.0175836943089962, 0.05747561901807785, -0.028501814231276512, 0.04401417076587677, 0.0464487187564373, 0.008331088349223137, 0.015225773677229881, 0.012440044432878494, -0.013482915237545967, -0.060923926532268524, -0.09099207073450089, -0.09325116127729416, -0.03549927473068237, 0.07325968146324158, 0.08461599051952362, -0.014587653800845146, -0.02837514691054821, 0.0055283126421272755, -0.02530137449502945, 0.044159576296806335, -0.009239145554602146, -0.02242538146674633, -0.01994594931602478, 0.014718493446707726, 0.04499252140522003, 0.0007205838919617236, 0.06364527344703674, 0.013083131052553654, 0.00022479200561065227, -0.0045090848580002785, 0.08706739544868469, 0.039619773626327515, 0.013212488032877445, 0.00244312547147274, 0.004471139051020145, -0.008321675471961498, 0.07909251749515533, 0.03964580222964287, 0.04930134117603302, -0.040562231093645096, 0.0576007217168808, -0.01158817671239376, 0.002647563349455595, -0.08676774054765701, 0.015503535978496075, 0.004446160048246384, -0.018449384719133377, -0.0014504444552585483, -0.016106989234685898, 0.004610511939972639, 0.019024161621928215, -0.022418450564146042, -0.0456002876162529, -0.04439269006252289, -0.09722939133644104, 0.008884844370186329, 0.011863358318805695, -0.02303093671798706, -0.018888048827648163, -0.0024532198440283537, -0.045282311737537384, -0.05716937407851219, -0.01779811829328537, -0.017216484993696213, -0.04683713614940643, -0.04433956742286682, -0.024048995226621628, 0.031080016866326332, -0.04537416249513626, -0.004711515735834837, 0.0037028829101473093, 0.007195543963462114, 0.02431498095393181, -0.005049344152212143, 0.049151211977005005, -0.022268736734986305, -0.021395007148385048, -0.010132098570466042, 0.021812424063682556, 0.07229062169790268, 0.0834822729229927, 0.015286711044609547, -0.0027964666951447725, 0.04890834912657738, 0.009867524728178978, -0.0036810545716434717, 0.07238400727510452, 0.0027249339036643505, -0.025970738381147385, 0.06520140171051025, 0.023002060130238533, -0.006167661398649216, 0.03769436478614807, 0.007386890240013599, 0.011332993395626545, -0.05495918542146683, -0.001461314270272851, 0.009411217644810677, 0.007346287835389376, 0.0569479763507843, -0.011037982068955898, -0.0753881111741066, -0.09436145424842834, -0.023899219930171967, 0.023627737537026405, 0.0023526905570179224, -0.01741081476211548, -0.008927524089813232, 0.004632132593542337, -0.062164146453142166, -0.08262071758508682, -0.004866092000156641, -0.006210369523614645, -0.014507163316011429, -0.002911789808422327, -0.03535511717200279, -0.03591007739305496, 0.040181662887334824, -0.024507297202944756, 0.01714763045310974, 0.02659575082361698, -0.004588926676660776, 0.001749316114000976, -0.0040331087075173855, -0.07256494462490082, -0.01981492154300213, 0.016177117824554443, 0.08799505233764648, -0.03042426146566868, 0.051611416041851044, 0.09637807309627533, -0.011678074486553669, 0.018841437995433807, 0.04979773610830307, 0.04887429252266884, 0.053988054394721985, -0.006168995052576065, 0.11907969415187836, 0.06047734618186951, -0.025248656049370766, 0.030047843232750893, 0.04637379199266434, 0.060502998530864716, -0.02413431741297245, 0.04244344308972359, 0.077489472925663, 0.005374052096158266, -0.051443926990032196, 0.05906127393245697, -0.029323749244213104, 0.01990671269595623, -0.07338444143533707, -0.09807924926280975, -0.09599030762910843, 0.026783181354403496, 0.05107157304883003, -0.05396374687552452, -0.08264555037021637, -0.05418643727898598, -0.05949894338846207, 0.021701186895370483, 0.005044499412178993, -0.015771549195051193, -0.0367528535425663, -0.024325838312506676, 0.03577086329460144, -0.01938619278371334, 0.048570744693279266, -0.06783242523670197, -0.04930800944566727, -0.06946874409914017, -0.013618387281894684, -0.07539994269609451, -0.008239229209721088, 0.048639558255672455, 0.007020201534032822, 0.005799019243568182, 0.009091727435588837, -0.049452755600214005, 0.04441022127866745, 0.0814685970544815, 0.14884570240974426, 0.09117700904607773, -0.013732168823480606, 0.05072870850563049, 0.05793514847755432, 0.005444866605103016, -0.016103137284517288, 0.08851222693920135, 0.011086872778832912, 0.031813427805900574, 0.05345654487609863, 0.12214535474777222, 0.01571470871567726, 0.0014584840973839164, -0.010512798093259335, 0.055515941232442856, 0.03961345553398132, -0.005612798035144806, -0.008331595920026302, -0.01619841530919075, -0.026153912767767906, -0.02899635024368763, 0.024084458127617836, -0.007991252467036247, -0.011592906899750233, -0.01617974229156971, -0.04665244743227959, -0.0033963886089622974, -0.019648166373372078, 0.060114629566669464, -0.03171498700976372, 0.04401582106947899, -0.06336408853530884, 0.0574662871658802, 0.08400343358516693, -0.002550044795498252, 0.005938087590038776, -0.1258537322282791, -0.15304452180862427, -0.09489541500806808, -0.040261611342430115, -0.006146600935608149, 0.06648650765419006, 0.08082785457372665, -0.02763025090098381, -0.08080330491065979, -0.09137284010648727, 0.02674022503197193, 0.08239055424928665, 0.11306366324424744, 0.12931624054908752, -0.030523551627993584, 0.009561574086546898, -0.03727126494050026, -0.03452049568295479, 0.013655392453074455, 0.133601576089859, 0.06598566472530365, 0.029697531834244728, 0.05959860235452652, 0.09693335741758347, 0.07107269763946533, 0.007460705004632473, -0.026203211396932602, 0.03659414127469063, -0.02542831189930439, 0.037718161940574646, 0.03167589381337166, -0.024296438321471214, 0.0060010189190506935, -0.014585892669856548, -0.005870766472071409, -0.1224951520562172, -0.0457376167178154, -0.009093676693737507, -0.022208627313375473, -0.08657050877809525, -0.03007882833480835, 0.05128733441233635, -0.03894251957535744, -0.021751919761300087, -0.029839882627129555, 0.03923715278506279, 0.039445165544748306, 0.055302973836660385, 0.0381343774497509, -0.02741372585296631, -0.02044195868074894, -0.02997053973376751, -0.03183894604444504, 0.045741502195596695, 0.07611165940761566, 0.14786671102046967, -0.009381153620779514, 0.009646744467318058, -0.0278359092772007, 0.0012626645620912313, 0.03098156861960888, 0.02466791681945324, 0.02863992005586624, 6.935707006050507e-06, 0.010908995755016804, 0.07322235405445099, 0.03575096279382706, -0.013441845774650574, 0.007582402788102627, 0.0009259172948077321, -0.02330385148525238, -0.02913258783519268, -0.001118223648518324, -0.02205009013414383, -0.021279292181134224, -0.03180093690752983, -0.020794125273823738, 0.010088728740811348, 0.012169615365564823, 0.0005333340959623456, 0.008723112754523754, -0.032291144132614136, 0.023640187457203865, 0.030327893793582916, -0.03869224712252617, -0.023300962522625923, -0.025625962764024734, -0.024943601340055466, -0.03831525519490242, 0.03121793456375599, 0.02396526001393795, -0.00421441625803709, -0.006978615652769804, 0.013632207177579403, -0.021330958232283592, 0.017952511087059975, 0.003775478107854724, 0.0007517134654335678, -0.07868138700723648, -0.06443046778440475, -0.001288173720240593, 0.013226822018623352, 0.009090336970984936, 0.03331485390663147, 0.00827559269964695, -0.0605088509619236, -0.03765806928277016, 0.018682554364204407, 0.014569208957254887, -0.023350533097982407, 0.05753389373421669, 0.018857769668102264, -0.012981035746634007, 0.008940005674958229, 0.05469771847128868, -0.011055548675358295, -0.04134346544742584, 0.014233733527362347, 0.031566936522722244, 0.015067875385284424, 0.015347110107541084, 0.02734968438744545, 0.054261863231658936, -0.009675087407231331, 0.020328518003225327, 0.030141834169626236, 0.027469929307699203, -0.005481003783643246, 0.0051526594907045364, 0.00011983751028310508, -0.022046813741326332, -0.02404794469475746, 0.04574282467365265, -0.036288175731897354, -0.03296665847301483, 0.0050326185300946236, -0.023721594363451004, 0.023180821910500526, -0.012167331762611866, 0.019104178994894028, 0.010611754842102528, -0.002980635268613696, -0.0007596678915433586, -0.05474318191409111, 0.019197195768356323, 0.01370822824537754, -0.00436214217916131, -0.04301869496703148, 0.016265496611595154, 0.02244354784488678, -0.017777569591999054, 0.0465862862765789, -0.007099177222698927, 0.0237253550440073, 0.014511097222566605, 0.09440655261278152, 0.023300938308238983, 0.025278110057115555, -0.03614580258727074, -0.04639652371406555, 0.04106085002422333, 0.0027099919971078634, 0.008981289342045784, 0.08231110125780106, -0.04867599904537201, -0.1612699031829834, -0.0811336562037468, 0.016876736655831337, -0.040292512625455856, 0.03741338476538658, 0.025390369817614555, 0.006494211498647928, -0.05930313095450401, 0.07154258340597153, -0.00019514533050823957, -0.030376946553587914, 0.05181792005896568, -0.028119603171944618, 0.04571772366762161, 0.004277858417481184, 0.02811496891081333, 0.02414526790380478, -0.0026413125451654196, -0.0224061980843544, -0.028622901067137718, -0.07403115183115005, 0.0022964896634221077, -0.03149735927581787, -0.0018679470522329211, -0.007309986278414726, -0.02342512644827366, -0.03503312170505524, -0.046757135540246964, -0.03475694730877876, -0.013556398451328278, -0.002483794931322336, 0.005938508547842503, -0.011067920364439487, 0.10482043027877808, 0.0789012461900711, 0.03452861309051514, -0.05879111960530281, 0.029569575563073158, -0.02432754822075367, -0.004614684265106916, 0.051410648971796036, -0.030703654512763023, -0.015188785269856453, -0.09250224381685257, 0.04443274065852165, 0.0012322195107117295, -0.026978302747011185, -0.07146156579256058, -0.08538781851530075, -0.07817909121513367, -0.027795784175395966, 0.002684767125174403, 0.037475548684597015, 0.035658035427331924, 0.04672002047300339, -0.06438329815864563, -0.048257146030664444, -0.009052418172359467, 0.025357561185956, 0.003882970428094268, 0.024576231837272644, -0.03980012238025665, -0.00867731124162674, -0.011035598814487457, 0.06419625878334045, 0.0311919916421175, 0.020465372130274773, 0.00822411198168993, -0.01984298788011074, -0.0013267147587612271, -0.058558378368616104, 0.021835122257471085, 0.0025075143203139305, -0.009842628613114357, -0.012997346930205822, -0.027593005448579788, -0.03094499371945858, -0.009468760341405869, 0.05007477104663849, -0.01453493908047676, -0.0007075542816892266, -0.0016606524586677551, -0.005865043494850397, 0.029084837064146996, 0.03781096264719963, 0.03703048825263977, 0.01737174205482006, 0.03354749456048012, -0.024446511641144753, 0.07997403293848038, 0.06015767529606819, -0.06661643832921982, -0.0472857765853405, 0.008675053715705872, -0.05558105185627937, 0.012781650759279728, 0.01228016521781683, -0.15014304220676422, 0.0715426579117775, 0.0808793157339096, -0.004210927989333868, -0.007132282480597496, 0.003013217356055975, -0.007944831624627113, -0.027104338631033897, -0.03611059859395027, -0.015600709244608879, -0.024770494550466537, 0.007567693945020437, 0.005168546456843615, -0.06236717849969864, -0.11188096553087234, -0.09866879135370255, 0.0017800696659833193, 0.007083658594638109, 0.010875804349780083, 0.00709791062399745, -0.08292913436889648, -0.08478082716464996, -0.028983525931835175, -0.013067458756268024, 0.013387378305196762, -0.057762887328863144, -0.05171068757772446, -0.09680750966072083, 0.01404967438429594, -0.007370948325842619, 0.017819220200181007, -0.032975442707538605, -0.07602055370807648, -0.0332149975001812, -0.03532273322343826, -0.05395013466477394, -0.028961414471268654, -0.04751560091972351, 0.012484150938689709, 0.03794689103960991, -0.04950662702322006, 0.010014520026743412, 0.0683559700846672, -0.014080188237130642, 0.04168970510363579, 0.09273973107337952, 0.01376983243972063, 0.08141060173511505, 0.0314868800342083, -0.0660141259431839, -0.046125177294015884, 0.07117258757352829, 0.17628197371959686, 0.038162801414728165, 0.03881606459617615, 0.06957881897687912, -0.013026767410337925, 0.07354407012462616, 0.012870527803897858, 0.014531086198985577, 0.022430656477808952, 0.05239375680685043, 0.07195872068405151, -0.03164197504520416, -0.04827459529042244, -0.03628692030906677, 0.0022909147664904594, -0.04006953909993172, 0.02300666645169258, 0.04248013347387314, -0.03268726170063019, -0.07005099207162857, -0.0023582635913044214, 0.008984947577118874], "bias": -0.016738267615437508}